################################################################################
# Neural network connection values (weights and biases).
################################################################################
# Col  Name       Description
################################################################################
# 1    connection Neural network connection value.
# 2    t          Connection type (a = weight, b = bias).
# 3    index      Index enumerating weights.
# 4    l_s        Starting point layer (end point layer for biases).
# 5    n_s        Starting point neuron in starting layer (end point neuron for biases).
# 6    l_e        End point layer.
# 7    n_e        End point neuron in end layer.
################################################################################
#                      1 2         3     4     5     6     7
#             connection t     index   l_s   n_s   l_e   n_e
############################################################
 -7.6795492377875874E+01 a         1     0     1     1     1
  2.4318789664164395E+01 a         2     0     1     1     2
  1.2399103879314932E+01 a         3     0     1     1     3
 -4.3532200259320966E+01 a         4     0     1     1     4
 -9.2114768966053457E+00 a         5     0     1     1     5
  3.5369318613517358E+01 a         6     0     1     1     6
  4.7191293622886379E+00 a         7     0     1     1     7
  9.3042435114997861E+00 a         8     0     1     1     8
 -2.0661018594428309E+00 a         9     0     1     1     9
 -4.7522968870117527E-01 a        10     0     1     1    10
  2.5680254493553498E+00 a        11     0     1     1    11
  1.0443691201642443E+01 a        12     0     1     1    12
 -7.3679566108601790E+01 a        13     0     2     1     1
 -1.1844364420575555E+01 a        14     0     2     1     2
  1.5935542353228886E+00 a        15     0     2     1     3
 -3.4080598010431480E+01 a        16     0     2     1     4
 -1.8108264083196397E+02 a        17     0     2     1     5
  1.3777105602644507E+01 a        18     0     2     1     6
 -2.4193736326863462E+00 a        19     0     2     1     7
 -1.1638752358946187E+01 a        20     0     2     1     8
  1.6460353892682800E+01 a        21     0     2     1     9
  9.3234872520327527E-02 a        22     0     2     1    10
  9.4061321279994665E+00 a        23     0     2     1    11
 -2.8016111827227572E+00 a        24     0     2     1    12
 -4.4673516853019848E+00 a        25     0     3     1     1
  2.4022840631387286E+01 a        26     0     3     1     2
  1.3276701367455187E+01 a        27     0     3     1     3
  1.0480448774616296E+01 a        28     0     3     1     4
 -2.2207236802836968E+02 a        29     0     3     1     5
 -5.7906763287600668E+01 a        30     0     3     1     6
  8.8955687099251630E+00 a        31     0     3     1     7
 -2.3221152032934969E+00 a        32     0     3     1     8
  2.5873203182145184E+00 a        33     0     3     1     9
 -4.0283586394896016E+00 a        34     0     3     1    10
  1.3825720936180433E+01 a        35     0     3     1    11
  2.7043559381300861E+00 a        36     0     3     1    12
 -3.1723329038600895E+01 a        37     0     4     1     1
  1.9292490926971574E+01 a        38     0     4     1     2
 -5.4184167176864251E-01 a        39     0     4     1     3
 -2.5143823180287352E+01 a        40     0     4     1     4
  3.5280899915737344E+01 a        41     0     4     1     5
  1.5116199009731739E+01 a        42     0     4     1     6
  4.3571315327733116E+00 a        43     0     4     1     7
  2.1224006523152803E+00 a        44     0     4     1     8
  1.1797832738701646E+00 a        45     0     4     1     9
 -1.9765498055776813E+00 a        46     0     4     1    10
  2.9078685893289569E-01 a        47     0     4     1    11
  5.4507018638485008E+00 a        48     0     4     1    12
 -1.3247565949798281E+01 a        49     0     5     1     1
  2.0251928704978845E+00 a        50     0     5     1     2
 -1.1403368499584642E+01 a        51     0     5     1     3
 -2.3647589312824476E+01 a        52     0     5     1     4
  1.2269708401946113E+02 a        53     0     5     1     5
  1.0561255853373481E+01 a        54     0     5     1     6
  1.2972556935446754E-03 a        55     0     5     1     7
 -4.7546589227961347E+00 a        56     0     5     1     8
  7.2354010835993732E+00 a        57     0     5     1     9
 -6.5766288366070114E-01 a        58     0     5     1    10
  4.7248657052327285E+00 a        59     0     5     1    11
  1.2133322918151908E+00 a        60     0     5     1    12
  3.8529792484021796E-01 a        61     0     6     1     1
  8.2320632990523439E+00 a        62     0     6     1     2
  8.5719691123992394E+00 a        63     0     6     1     3
 -6.5341827546337869E+00 a        64     0     6     1     4
  1.6639709925606056E+02 a        65     0     6     1     5
 -1.4980059411050325E+01 a        66     0     6     1     6
  3.8659440327128332E+00 a        67     0     6     1     7
 -1.4330280592424445E+00 a        68     0     6     1     8
  4.2351076412459623E+00 a        69     0     6     1     9
 -1.2499525684020580E+00 a        70     0     6     1    10
  5.7160188829762903E+00 a        71     0     6     1    11
  1.0214812819407104E+00 a        72     0     6     1    12
  1.6381974977117487E+01 a        73     0     7     1     1
  5.1063460375611642E+00 a        74     0     7     1     2
 -1.0948134451488604E+01 a        75     0     7     1     3
 -2.5057791033300005E+00 a        76     0     7     1     4
  3.1000910516500049E+01 a        77     0     7     1     5
 -4.0323899298319104E+00 a        78     0     7     1     6
  2.0919406371867906E+00 a        79     0     7     1     7
 -4.4918992090054557E+00 a        80     0     7     1     8
  3.6760136260219598E+00 a        81     0     7     1     9
 -1.7090999297313605E+00 a        82     0     7     1    10
 -1.8811957242949273E+00 a        83     0     7     1    11
 -3.2219848179635019E-01 a        84     0     7     1    12
  4.0301675733992369E+01 a        85     0     8     1     1
  1.3508682294893724E+01 a        86     0     8     1     2
 -1.7129845279265801E+01 a        87     0     8     1     3
 -7.5178303445530439E+00 a        88     0     8     1     4
  2.2381944463114019E+02 a        89     0     8     1     5
  8.3629495854047544E+00 a        90     0     8     1     6
  1.5954832829620114E+00 a        91     0     8     1     7
  3.1543039029704727E+00 a        92     0     8     1     8
 -2.6731287879284551E+00 a        93     0     8     1     9
 -3.1435216466221000E-01 a        94     0     8     1    10
 -3.5260177635717138E-01 a        95     0     8     1    11
  4.4954246989994031E+00 a        96     0     8     1    12
  2.9485282553858778E+00 a        97     0     9     1     1
 -6.3186496457112469E+00 a        98     0     9     1     2
  2.3683833277926936E+00 a        99     0     9     1     3
 -1.7900670882191783E+01 a       100     0     9     1     4
  2.8519537093103509E+02 a       101     0     9     1     5
  2.8931819000113478E+01 a       102     0     9     1     6
 -2.0348535471461151E+00 a       103     0     9     1     7
  1.4384775289394250E-01 a       104     0     9     1     8
  4.4615600622908724E+00 a       105     0     9     1     9
  2.0577592336513773E+00 a       106     0     9     1    10
 -2.6326971274780688E+00 a       107     0     9     1    11
 -2.6161610541762176E-01 a       108     0     9     1    12
  6.0141653375333668E+01 a       109     0    10     1     1
 -1.3699944427624430E+01 a       110     0    10     1     2
 -1.3819113546240910E+01 a       111     0    10     1     3
  2.3921916977371655E+01 a       112     0    10     1     4
 -4.1151845613626818E+01 a       113     0    10     1     5
 -1.7031074161791441E+01 a       114     0    10     1     6
 -3.2762727422603133E+00 a       115     0    10     1     7
 -8.3893466756221393E+00 a       116     0    10     1     8
  3.8555473513857947E+00 a       117     0    10     1     9
  1.7781396649233365E+00 a       118     0    10     1    10
 -3.3121814563300340E+00 a       119     0    10     1    11
 -6.4887184040905259E+00 a       120     0    10     1    12
  7.0678323155960314E+01 a       121     0    11     1     1
  1.5260727981024282E+01 a       122     0    11     1     2
 -1.2188694184241221E+01 a       123     0    11     1     3
  2.2483615517178681E+01 a       124     0    11     1     4
  7.0818465670805053E-01 a       125     0    11     1     5
  4.8150518844250394E+00 a       126     0    11     1     6
  1.4997927784166716E+00 a       127     0    11     1     7
  1.0723396036359251E+01 a       128     0    11     1     8
 -1.1378930022889040E+01 a       129     0    11     1     9
  1.5757266603255682E+00 a       130     0    11     1    10
 -5.2621254827647874E+00 a       131     0    11     1    11
  5.1332284061912876E+00 a       132     0    11     1    12
  4.1383534829627333E+00 a       133     0    12     1     1
 -1.8337489523813041E+01 a       134     0    12     1     2
 -1.0655683921407233E+01 a       135     0    12     1     3
 -1.7372204194220707E+01 a       136     0    12     1     4
 -1.8360114879170897E+01 a       137     0    12     1     5
  6.1174246942161588E+01 a       138     0    12     1     6
 -7.8505516023432973E+00 a       139     0    12     1     7
  2.5061395948620415E+00 a       140     0    12     1     8
  1.6075614272671799E+00 a       141     0    12     1     9
  5.1046248953729219E+00 a       142     0    12     1    10
 -9.5991876516370418E+00 a       143     0    12     1    11
 -5.4255729309538359E-01 a       144     0    12     1    12
  7.0244669020875961E+01 a       145     0    13     1     1
 -3.8457800314734925E+01 a       146     0    13     1     2
  3.5483233396348108E+00 a       147     0    13     1     3
  5.0867902975300105E+01 a       148     0    13     1     4
 -1.1897399681592586E+02 a       149     0    13     1     5
 -1.6113577644472546E+01 a       150     0    13     1     6
 -1.1371555533125342E+01 a       151     0    13     1     7
 -5.9993992047157718E+00 a       152     0    13     1     8
 -8.1955990306347570E-01 a       153     0    13     1     9
  8.4345862526948743E+00 a       154     0    13     1    10
 -2.7763597490387348E+00 a       155     0    13     1    11
 -1.1524226135833359E+01 a       156     0    13     1    12
  4.1544616832172771E+01 a       157     0    14     1     1
 -4.2377618557265064E+00 a       158     0    14     1     2
  1.5073764785211939E+01 a       159     0    14     1     3
  6.2387518517717766E+01 a       160     0    14     1     4
 -3.8008125722423301E+02 a       161     0    14     1     5
  2.2677082705565152E+00 a       162     0    14     1     6
 -4.0695994534972479E-01 a       163     0    14     1     7
  1.3211538489057592E+01 a       164     0    14     1     8
 -1.4124290614411128E+01 a       165     0    14     1     9
  3.5059807058038239E+00 a       166     0    14     1    10
 -8.8330915457321790E+00 a       167     0    14     1    11
 -3.1051704827174059E-01 a       168     0    14     1    12
 -2.6895532496492800E+00 a       169     0    15     1     1
 -2.1053165933204440E+01 a       170     0    15     1     2
 -2.6241416919592563E+01 a       171     0    15     1     3
  1.1273165727534241E+01 a       172     0    15     1     4
 -5.1445748339034662E+02 a       173     0    15     1     5
  5.6869402273805015E+01 a       174     0    15     1     6
 -9.9497255347024627E+00 a       175     0    15     1     7
  4.6000918288939845E+00 a       176     0    15     1     8
 -6.1834720088530872E+00 a       177     0    15     1     9
  4.7555074507020398E+00 a       178     0    15     1    10
 -1.1969439486393622E+01 a       179     0    15     1    11
  5.8029851013545697E-01 a       180     0    15     1    12
  8.6456504505890646E+00 a       181     0    16     1     1
 -5.1553003635821490E+01 a       182     0    16     1     2
  3.0765770782260343E+01 a       183     0    16     1     3
  5.7020484267461434E+01 a       184     0    16     1     4
  1.4288149192518694E+02 a       185     0    16     1     5
  6.0150456011901436E+00 a       186     0    16     1     6
 -1.1864710501542682E+01 a       187     0    16     1     7
  4.1372397316348835E+00 a       188     0    16     1     8
 -1.0252466843694041E+01 a       189     0    16     1     9
  6.9949112750384401E+00 a       190     0    16     1    10
  1.3938181836525836E+00 a       191     0    16     1    11
 -9.5622934797045076E+00 a       192     0    16     1    12
 -6.1022692501021936E+01 a       193     0    17     1     1
 -3.7928694082429992E+01 a       194     0    17     1     2
  5.3408980895337244E+01 a       195     0    17     1     3
  7.5112831498397455E+01 a       196     0    17     1     4
  2.8530622475351407E+02 a       197     0    17     1     5
 -1.0271400579651477E+01 a       198     0    17     1     6
  2.8753734514964855E-02 a       199     0    17     1     7
  4.5517344955586875E-01 a       200     0    17     1     8
 -3.8707912329051792E+00 a       201     0    17     1     9
 -3.2171767983583157E+00 a       202     0    17     1    10
 -8.5571450722364126E+00 a       203     0    17     1    11
 -1.2169108072563469E+01 a       204     0    17     1    12
 -1.5817697286480209E+01 a       205     0    18     1     1
 -4.0782676136230025E+00 a       206     0    18     1     2
 -1.9777706446058819E+01 a       207     0    18     1     3
  6.3953017378508754E+01 a       208     0    18     1     4
  4.1521990319504499E+02 a       209     0    18     1     5
 -2.0009393068376575E+01 a       210     0    18     1     6
 -1.0327569974520145E-01 a       211     0    18     1     7
  1.5195809880041680E+00 a       212     0    18     1     8
 -1.5335002487962131E+01 a       213     0    18     1     9
 -6.1326302225835576E+00 a       214     0    18     1    10
 -6.0978388620813400E+00 a       215     0    18     1    11
  5.5070772021488157E-01 a       216     0    18     1    12
 -4.5641412410073073E+01 a       217     0    19     1     1
  6.6877387732267636E+01 a       218     0    19     1     2
 -4.9072336777960572E+01 a       219     0    19     1     3
 -5.0636159821193125E+01 a       220     0    19     1     4
 -4.0720037218995301E+01 a       221     0    19     1     5
 -1.0897578214787305E+01 a       222     0    19     1     6
  1.9999579903093853E+01 a       223     0    19     1     7
  1.1387382620072156E+01 a       224     0    19     1     8
 -3.7478323110568708E+00 a       225     0    19     1     9
 -3.1419601284447712E+01 a       226     0    19     1    10
  1.1230603234492763E+01 a       227     0    19     1    11
  2.1453361868526773E+01 a       228     0    19     1    12
  7.7713025855768523E+00 a       229     0    20     1     1
  3.4162333027455247E+01 a       230     0    20     1     2
 -4.0240980835875803E+01 a       231     0    20     1     3
 -9.9842433369363491E+01 a       232     0    20     1     4
 -8.8695230425984008E+01 a       233     0    20     1     5
 -4.1857106295768403E+01 a       234     0    20     1     6
 -1.5544861551180196E+00 a       235     0    20     1     7
 -1.3077563483688015E+01 a       236     0    20     1     8
  5.5142090676877737E+00 a       237     0    20     1     9
 -1.3786615374984416E+01 a       238     0    20     1    10
  1.2241100841151207E+01 a       239     0    20     1    11
  4.8902057039495030E+00 a       240     0    20     1    12
  5.1053563029954553E+01 a       241     0    21     1     1
  1.4731637730371119E+01 a       242     0    21     1     2
  3.8817517001396972E+01 a       243     0    21     1     3
 -2.0478959957879493E+01 a       244     0    21     1     4
 -1.4228473817623623E+02 a       245     0    21     1     5
 -7.5804572843126294E+01 a       246     0    21     1     6
  8.3298399146279447E+00 a       247     0    21     1     7
 -6.1279740456980720E+00 a       248     0    21     1     8
 -1.0214963047505232E+00 a       249     0    21     1     9
 -1.0721012136642353E+01 a       250     0    21     1    10
  1.0911732621001287E+01 a       251     0    21     1    11
 -6.0791697764861308E+00 a       252     0    21     1    12
  6.7934182581072431E+00 a       253     0    22     1     1
 -3.0091049668763117E+00 a       254     0    22     1     2
  5.0076207703680097E+01 a       255     0    22     1     3
 -4.2266665458491642E-02 a       256     0    22     1     4
 -3.0676738044681944E+00 a       257     0    22     1     5
  1.2395901171306408E+01 a       258     0    22     1     6
 -3.9285651031749773E+00 a       259     0    22     1     7
 -1.2251700921624332E+01 a       260     0    22     1     8
  2.0951400133604647E+01 a       261     0    22     1     9
  3.0320850806339426E+01 a       262     0    22     1    10
 -2.0795639386172919E+01 a       263     0    22     1    11
 -2.9900578167034407E+01 a       264     0    22     1    12
 -9.8847154609975405E+00 a       265     0    23     1     1
 -6.9270352035894911E+00 a       266     0    23     1     2
  1.2941061569307736E+01 a       267     0    23     1     3
  1.3189242595617015E+01 a       268     0    23     1     4
  2.2711738574381883E+01 a       269     0    23     1     5
  3.2523506514747616E+01 a       270     0    23     1     6
 -2.8015871999558444E-02 a       271     0    23     1     7
  2.0846234849889933E-01 a       272     0    23     1     8
  2.1800993764406540E+00 a       273     0    23     1     9
  2.5469118520097496E+01 a       274     0    23     1    10
 -8.8988701463643149E+00 a       275     0    23     1    11
 -1.1815821923068302E+01 a       276     0    23     1    12
 -4.3917565491681337E+01 a       277     0    24     1     1
  9.0654338788765561E+00 a       278     0    24     1     2
 -2.5814634324329497E+00 a       279     0    24     1     3
 -2.7149630243966456E+01 a       280     0    24     1     4
  4.6373620884396146E+01 a       281     0    24     1     5
  5.0960749303556099E+01 a       282     0    24     1     6
 -3.7391025693120641E+00 a       283     0    24     1     7
 -2.5989953702702429E+00 a       284     0    24     1     8
  1.5168320595298539E+01 a       285     0    24     1     9
  2.0142273396904482E+01 a       286     0    24     1    10
 -2.0551469596703327E+00 a       287     0    24     1    11
 -5.8438109715785469E+00 a       288     0    24     1    12
 -1.4708934580122502E+01 a       289     0    25     1     1
 -5.1055758139314937E+00 a       290     0    25     1     2
 -3.9953651665044951E+01 a       291     0    25     1     3
 -1.1701554364899931E+01 a       292     0    25     1     4
  3.6081746646971936E+01 a       293     0    25     1     5
  6.9202194426812955E-02 a       294     0    25     1     6
  3.2796382831139175E+00 a       295     0    25     1     7
 -2.1317769117743688E+00 a       296     0    25     1     8
 -1.2995620374536527E+01 a       297     0    25     1     9
 -1.0014135981501491E+01 a       298     0    25     1    10
  2.2406093370661693E+00 a       299     0    25     1    11
 -5.9821918867276858E-01 a       300     0    25     1    12
 -5.2251654143618600E+00 a       301     0    26     1     1
  3.1256874326343498E+00 a       302     0    26     1     2
 -7.8493434588667199E+00 a       303     0    26     1     3
  9.9682790720932579E-01 a       304     0    26     1     4
  2.2817823784063069E+01 a       305     0    26     1     5
  5.5737009252882752E-01 a       306     0    26     1     6
  3.4879700410321028E+00 a       307     0    26     1     7
 -2.9196970663096220E+00 a       308     0    26     1     8
  4.3225690072237448E+00 a       309     0    26     1     9
 -1.0348766557736138E+01 a       310     0    26     1    10
  4.2050929866128026E+00 a       311     0    26     1    11
 -8.6816474283991446E-02 a       312     0    26     1    12
  3.0328883635898276E+01 a       313     0    27     1     1
 -2.1186353335304592E+01 a       314     0    27     1     2
 -1.7681270046179637E+01 a       315     0    27     1     3
 -5.7107947714477252E+00 a       316     0    27     1     4
  1.6006022029691775E+02 a       317     0    27     1     5
 -4.4422870243450561E+00 a       318     0    27     1     6
  4.4123875065580274E+00 a       319     0    27     1     7
 -4.8965324086867499E+00 a       320     0    27     1     8
  3.7907946415326261E+00 a       321     0    27     1     9
 -2.0259947481634213E-01 a       322     0    27     1    10
 -8.5115305138865089E+00 a       323     0    27     1    11
 -3.8600924867989237E+00 a       324     0    27     1    12
  2.4813912627641145E+01 a       325     0    28     1     1
 -2.9177612159810792E+01 a       326     0    28     1     2
  5.5777031931316285E+00 a       327     0    28     1     3
 -3.6866443820666902E+01 a       328     0    28     1     4
  1.7577558028635163E+01 a       329     0    28     1     5
 -4.4384337714211366E+00 a       330     0    28     1     6
  2.3524262501686177E+00 a       331     0    28     1     7
 -2.0449863579193939E+00 a       332     0    28     1     8
 -9.5919080533955494E+00 a       333     0    28     1     9
  7.2807963277279306E+00 a       334     0    28     1    10
 -1.5266153249180517E+01 a       335     0    28     1    11
 -7.8145478122990966E+00 a       336     0    28     1    12
 -2.5188805231941299E+01 a       337     0    29     1     1
  2.5506615545249076E+01 a       338     0    29     1     2
 -3.0017949906393543E+01 a       339     0    29     1     3
 -7.7520867712159580E+00 a       340     0    29     1     4
  1.3066584236956887E+01 a       341     0    29     1     5
 -3.4129580774917656E+01 a       342     0    29     1     6
  1.0518881174852478E+01 a       343     0    29     1     7
 -8.2578352120386107E+00 a       344     0    29     1     8
 -8.0985728063460787E+00 a       345     0    29     1     9
  5.9264407514872559E+00 a       346     0    29     1    10
  6.8699150360984564E+00 a       347     0    29     1    11
 -6.4931576903607935E+00 a       348     0    29     1    12
 -2.0835413128907010E+01 a       349     0    30     1     1
 -1.9106191104529405E+01 a       350     0    30     1     2
 -6.1510759907116743E+01 a       351     0    30     1     3
 -2.7894234302385343E+01 a       352     0    30     1     4
  1.1000399403968238E+01 a       353     0    30     1     5
  5.5884046121599759E+01 a       354     0    30     1     6
  7.9835777041746958E+00 a       355     0    30     1     7
 -3.3614533474032293E+00 a       356     0    30     1     8
 -7.1194913596991123E+00 a       357     0    30     1     9
  6.9515883150974203E+00 a       358     0    30     1    10
  1.3389420855901653E+00 a       359     0    30     1    11
 -3.8497302973641823E+00 a       360     0    30     1    12
  1.6283616954827906E+01 a       361     0    31     1     1
  9.8756505065221916E+00 a       362     0    31     1     2
  2.8197391980215048E+01 a       363     0    31     1     3
 -7.4869040578586663E+01 a       364     0    31     1     4
  8.1771745096662247E+00 a       365     0    31     1     5
 -1.3677107603339637E+01 a       366     0    31     1     6
  1.2393113194377822E+01 a       367     0    31     1     7
  1.7021790526043118E-01 a       368     0    31     1     8
 -2.0854512016470372E+00 a       369     0    31     1     9
 -6.0558711036690376E+00 a       370     0    31     1    10
  1.8361606425150014E+00 a       371     0    31     1    11
 -3.4084036387825494E+00 a       372     0    31     1    12
 -3.5153263371152065E+01 a       373     0    32     1     1
 -3.7765444575463924E+01 a       374     0    32     1     2
  5.1000894322567962E+00 a       375     0    32     1     3
 -5.0547553040605003E+01 a       376     0    32     1     4
  8.5337216253491839E+00 a       377     0    32     1     5
  1.6544993632044122E+01 a       378     0    32     1     6
  5.5117643148243793E+00 a       379     0    32     1     7
 -7.6598861408242058E+00 a       380     0    32     1     8
 -7.4109239251486807E+00 a       381     0    32     1     9
  1.4514681748395097E+00 a       382     0    32     1    10
 -1.8330850290689149E+00 a       383     0    32     1    11
  2.1472864610281333E+00 a       384     0    32     1    12
  4.2595136466321584E+01 a       385     0    33     1     1
 -1.0216941362058243E+01 a       386     0    33     1     2
 -5.7750297494003036E+01 a       387     0    33     1     3
 -3.0440940488430095E+00 a       388     0    33     1     4
  8.0199300128858120E+00 a       389     0    33     1     5
  5.6566376358682511E+01 a       390     0    33     1     6
  1.1082499637526939E+00 a       391     0    33     1     7
 -4.9381421504227224E-01 a       392     0    33     1     8
 -6.8927695122007187E+00 a       393     0    33     1     9
  6.4050044588762791E+00 a       394     0    33     1    10
 -7.2239912223635339E-01 a       395     0    33     1    11
 -5.3294767126820837E+00 a       396     0    33     1    12
  3.6791718630626754E+01 a       397     0    34     1     1
 -3.6847889163814216E+01 a       398     0    34     1     2
  6.5109712425097086E+01 a       399     0    34     1     3
  3.5727784789530425E+01 a       400     0    34     1     4
 -1.3625889194088019E+01 a       401     0    34     1     5
 -5.4239469074104520E+01 a       402     0    34     1     6
  1.2431375439205777E+01 a       403     0    34     1     7
  3.7249196150697950E-01 a       404     0    34     1     8
  9.5113866064575721E+00 a       405     0    34     1     9
 -1.4735882242882836E+01 a       406     0    34     1    10
  5.5037495453275289E+00 a       407     0    34     1    11
  2.6553394580374463E+00 a       408     0    34     1    12
 -3.8505861667724743E+00 a       409     0    35     1     1
  1.7926445229623003E+01 a       410     0    35     1     2
 -2.1722253139581021E+01 a       411     0    35     1     3
 -1.0944755657950790E+01 a       412     0    35     1     4
 -1.0335164095235882E+01 a       413     0    35     1     5
 -7.3935050396820143E+00 a       414     0    35     1     6
  8.4505712668009092E-01 a       415     0    35     1     7
  4.5329569634605388E-01 a       416     0    35     1     8
  6.2467324529418748E+00 a       417     0    35     1     9
  1.2072400417119367E+00 a       418     0    35     1    10
  1.2185606458623495E+00 a       419     0    35     1    11
  1.4041094759229612E+01 a       420     0    35     1    12
 -9.6325990679348390E+00 a       421     0    36     1     1
 -3.4710465306757570E+01 a       422     0    36     1     2
  7.9039217206429706E+00 a       423     0    36     1     3
  3.4677452311989512E+01 a       424     0    36     1     4
 -1.2362763731101129E+01 a       425     0    36     1     5
 -2.1789314493635985E+01 a       426     0    36     1     6
 -3.1714645321606452E+00 a       427     0    36     1     7
  2.1416837118163734E+00 a       428     0    36     1     8
  4.5211082658085955E+00 a       429     0    36     1     9
 -7.8876258844056650E+00 a       430     0    36     1    10
 -9.6521885734805792E+00 a       431     0    36     1    11
  2.1959654069313683E-01 a       432     0    36     1    12
  5.4416924071678452E-01 a       433     0    37     1     1
 -9.1864344604759438E+01 a       434     0    37     1     2
 -1.3027675938101051E+01 a       435     0    37     1     3
  3.5251955193428600E+01 a       436     0    37     1     4
 -1.4000558412224832E+01 a       437     0    37     1     5
 -8.2423196159722622E+01 a       438     0    37     1     6
  1.3535235723942980E+00 a       439     0    37     1     7
  6.9261860764367631E+00 a       440     0    37     1     8
 -2.7121957771513494E+00 a       441     0    37     1     9
 -2.9049613526110591E+00 a       442     0    37     1    10
 -3.4028020546644187E+00 a       443     0    37     1    11
  7.7491235530169469E+00 a       444     0    37     1    12
  2.6802771445258593E+01 a       445     0    38     1     1
 -2.9494987128190147E+01 a       446     0    38     1     2
 -2.5584682385266415E+01 a       447     0    38     1     3
  3.4960415861566481E+00 a       448     0    38     1     4
 -1.5432346020955976E+01 a       449     0    38     1     5
 -1.8191222530548217E+01 a       450     0    38     1     6
  1.9054789422213563E+00 a       451     0    38     1     7
  9.8822643041565907E+00 a       452     0    38     1     8
 -8.7566616001629050E-01 a       453     0    38     1     9
 -1.1929315575708383E+01 a       454     0    38     1    10
 -9.7234103138963501E+00 a       455     0    38     1    11
 -2.4410117892039889E+00 a       456     0    38     1    12
 -6.4747230976881298E+01 a       457     0    39     1     1
  9.1650499404477284E+00 a       458     0    39     1     2
 -3.5542605799280653E+00 a       459     0    39     1     3
 -4.5587185271829192E+01 a       460     0    39     1     4
 -1.1693947032078935E+01 a       461     0    39     1     5
 -4.2100639061494952E+01 a       462     0    39     1     6
  5.8890122023990843E+00 a       463     0    39     1     7
  3.8445776029594647E+00 a       464     0    39     1     8
  1.8350386998723844E+00 a       465     0    39     1     9
 -2.8346538576497164E+00 a       466     0    39     1    10
 -1.2849200228744693E+00 a       467     0    39     1    11
  2.8116368924834041E+00 a       468     0    39     1    12
 -3.8182619921999759E+01 a       469     0    40     1     1
  1.3043929507694923E+01 a       470     0    40     1     2
  1.1587356967225148E+01 a       471     0    40     1     3
 -2.1247598556471740E+01 a       472     0    40     1     4
 -2.7448731373733676E+01 a       473     0    40     1     5
  9.8799804835257614E+00 a       474     0    40     1     6
 -7.7886398902837257E+00 a       475     0    40     1     7
  5.4384112123696999E+00 a       476     0    40     1     8
  5.1421996169459963E+00 a       477     0    40     1     9
 -4.3668442440352218E+00 a       478     0    40     1    10
 -6.3244281052737215E+00 a       479     0    40     1    11
  6.3499837421020651E+00 a       480     0    40     1    12
 -9.7835452995174332E-01 a       481     0    41     1     1
  1.9892474613117661E+00 a       482     0    41     1     2
 -1.8061363945312205E+01 a       483     0    41     1     3
  3.9088663837525161E+01 a       484     0    41     1     4
 -2.0004128878952557E+01 a       485     0    41     1     5
 -3.0775238779614540E+01 a       486     0    41     1     6
 -5.1789395954574902E+00 a       487     0    41     1     7
  9.9997550202771066E+00 a       488     0    41     1     8
 -1.1978533548076011E+00 a       489     0    41     1     9
  5.6575694785337980E+00 a       490     0    41     1    10
 -1.2236188393340301E+01 a       491     0    41     1    11
 -9.6705120759127130E+00 a       492     0    41     1    12
 -5.0346570000879211E+01 a       493     0    42     1     1
 -4.6610193479933777E+01 a       494     0    42     1     2
  1.4778905296821655E+01 a       495     0    42     1     3
 -7.2263421247845763E+00 a       496     0    42     1     4
 -1.6417409380987639E+01 a       497     0    42     1     5
 -4.3471869321726373E+01 a       498     0    42     1     6
 -8.3372165505248041E+00 a       499     0    42     1     7
 -1.3751010139444764E+00 a       500     0    42     1     8
  4.9190274781339111E-01 a       501     0    42     1     9
  7.6000712217833888E+00 a       502     0    42     1    10
 -1.4719631727956678E+01 a       503     0    42     1    11
 -8.0103567291696554E-01 a       504     0    42     1    12
 -3.5646911676329811E+00 a       505     0    43     1     1
 -1.1845658461920916E+01 a       506     0    43     1     2
 -6.8991427604187237E+01 a       507     0    43     1     3
  1.7290845218144689E+01 a       508     0    43     1     4
 -1.1640976333489123E+01 a       509     0    43     1     5
 -4.5832161648923140E+01 a       510     0    43     1     6
 -4.9428795088115258E+00 a       511     0    43     1     7
  7.0025365923734597E+00 a       512     0    43     1     8
 -5.7070660146772374E+00 a       513     0    43     1     9
 -5.2758323293138085E+00 a       514     0    43     1    10
 -4.6044412001122470E-01 a       515     0    43     1    11
 -1.1277124904055755E+01 a       516     0    43     1    12
 -3.2143855164540113E+01 a       517     0    44     1     1
 -4.4537958405545353E+01 a       518     0    44     1     2
 -4.5775366363131717E+01 a       519     0    44     1     3
  2.6298193098844077E+01 a       520     0    44     1     4
 -1.1120138427190470E+01 a       521     0    44     1     5
 -9.2076154105982809E+01 a       522     0    44     1     6
 -3.1797298249305088E+00 a       523     0    44     1     7
  7.2180463153460765E+00 a       524     0    44     1     8
  5.1262573964645224E+00 a       525     0    44     1     9
 -6.5728859640825767E+00 a       526     0    44     1    10
 -3.7944372158439137E+00 a       527     0    44     1    11
 -1.2411250557275366E+01 a       528     0    44     1    12
  1.9693990991915260E+01 a       529     0    45     1     1
 -1.0761784568110052E+01 a       530     0    45     1     2
 -1.7321321874699709E+01 a       531     0    45     1     3
  3.7011158535272699E+01 a       532     0    45     1     4
 -8.5823086534602187E+00 a       533     0    45     1     5
 -5.7432385158951035E+01 a       534     0    45     1     6
 -7.0977279111108098E+00 a       535     0    45     1     7
 -6.4304334810068102E+00 a       536     0    45     1     8
  1.5792723602654917E+00 a       537     0    45     1     9
 -4.5508074636405595E+00 a       538     0    45     1    10
 -2.7601242912530388E+00 a       539     0    45     1    11
 -2.4398488320113906E-01 a       540     0    45     1    12
  1.1200559187114966E+02 a       541     0    46     1     1
  2.7937888294821409E+01 a       542     0    46     1     2
  1.4489525978856870E+01 a       543     0    46     1     3
  3.8422748576463917E+01 a       544     0    46     1     4
  3.1470636913727891E+01 a       545     0    46     1     5
  1.1939989147514560E+00 a       546     0    46     1     6
 -1.8259642771857742E+01 a       547     0    46     1     7
 -6.0323016368653208E+00 a       548     0    46     1     8
  4.0682710935164019E+00 a       549     0    46     1     9
  8.8255402424468823E+00 a       550     0    46     1    10
  9.3769135490104123E+00 a       551     0    46     1    11
 -6.2664749955598094E+00 a       552     0    46     1    12
  3.6153560281577526E+01 a       553     0    47     1     1
 -4.2593559286960332E+00 a       554     0    47     1     2
  3.7947648256746334E+01 a       555     0    47     1     3
  1.2932054206377151E+01 a       556     0    47     1     4
  2.1988317154953492E+01 a       557     0    47     1     5
 -1.0087244225067660E+02 a       558     0    47     1     6
 -2.0924508198567140E+00 a       559     0    47     1     7
  1.4520496867375261E+00 a       560     0    47     1     8
 -1.0013712654606367E+01 a       561     0    47     1     9
 -1.4634246103330062E+01 a       562     0    47     1    10
  1.1219392254247897E+01 a       563     0    47     1    11
 -1.5835174072583023E+01 a       564     0    47     1    12
  5.1199005751619111E+01 a       565     0    48     1     1
  7.6624165200083766E+01 a       566     0    48     1     2
 -9.9705433184134806E-01 a       567     0    48     1     3
  1.0470945715382152E+01 a       568     0    48     1     4
  1.4414956172176343E+01 a       569     0    48     1     5
 -1.4958031225502923E+01 a       570     0    48     1     6
  5.8926181501463768E+00 a       571     0    48     1     7
  1.3048271269039507E+01 a       572     0    48     1     8
 -2.4188312898012976E+00 a       573     0    48     1     9
 -8.2032525247428705E+00 a       574     0    48     1    10
  1.6017807699092806E+01 a       575     0    48     1    11
  1.9440689991109998E+00 a       576     0    48     1    12
  1.3080319819175104E+01 a       577     0    49     1     1
 -2.2232285487734494E+01 a       578     0    49     1     2
 -1.1255013769500460E+01 a       579     0    49     1     3
  2.5294242237069181E+01 a       580     0    49     1     4
  2.2889572451221085E+01 a       581     0    49     1     5
  1.8435778055473950E+01 a       582     0    49     1     6
 -1.2266036296988359E+01 a       583     0    49     1     7
  9.5450655929193289E+00 a       584     0    49     1     8
 -1.2121825018304898E+01 a       585     0    49     1     9
 -6.0913955631765102E+00 a       586     0    49     1    10
  4.5213488813484961E+00 a       587     0    49     1    11
 -5.3552466132774281E+00 a       588     0    49     1    12
  4.0278323595421533E+01 a       589     0    50     1     1
 -3.4202057297400458E+01 a       590     0    50     1     2
 -3.6345893075108116E+01 a       591     0    50     1     3
  5.7206662106559769E+01 a       592     0    50     1     4
  1.8794095473025269E+01 a       593     0    50     1     5
 -1.1462230476952676E+01 a       594     0    50     1     6
 -7.5298617943491459E+00 a       595     0    50     1     7
  1.0205367460291207E+01 a       596     0    50     1     8
 -6.2858630025316566E+00 a       597     0    50     1     9
  8.7158266185148603E-01 a       598     0    50     1    10
  1.4747983807548739E+01 a       599     0    50     1    11
  8.9649552175299903E+00 a       600     0    50     1    12
  5.5302629607808569E+01 a       601     0    51     1     1
 -4.5668996440198626E+01 a       602     0    51     1     2
  1.9189011863314465E+00 a       603     0    51     1     3
 -1.9002544927142253E+01 a       604     0    51     1     4
  3.2321691340297245E+00 a       605     0    51     1     5
 -7.8174345920056339E+01 a       606     0    51     1     6
 -4.3752919381883544E+00 a       607     0    51     1     7
 -7.5118268020044434E+00 a       608     0    51     1     8
 -6.4965474192919812E+00 a       609     0    51     1     9
 -2.3651064035068798E+00 a       610     0    51     1    10
 -5.0181884169434010E+00 a       611     0    51     1    11
 -1.8706370148772518E+00 a       612     0    51     1    12
 -8.9235058818652657E+00 a       613     0    52     1     1
  3.0212829343310439E+00 a       614     0    52     1     2
 -3.9616883071128235E+01 a       615     0    52     1     3
  9.0342417190018722E+01 a       616     0    52     1     4
 -2.6554083957050835E+01 a       617     0    52     1     5
 -1.8606157268726875E+01 a       618     0    52     1     6
  3.3830521739675512E+00 a       619     0    52     1     7
  1.8036429443309208E+00 a       620     0    52     1     8
  7.5678397770485795E+00 a       621     0    52     1     9
 -8.5657617730091555E+00 a       622     0    52     1    10
  2.3993467243315063E+01 a       623     0    52     1    11
  6.2740097715630307E+00 a       624     0    52     1    12
  1.4646723230509053E+01 a       625     0    53     1     1
 -2.8481258678022737E+01 a       626     0    53     1     2
  2.3668950307577457E+01 a       627     0    53     1     3
 -1.9814442669705269E+01 a       628     0    53     1     4
 -1.8489788179202868E+01 a       629     0    53     1     5
  4.2974650949889821E+01 a       630     0    53     1     6
 -1.4954155025311099E+01 a       631     0    53     1     7
  5.0006862628120130E+00 a       632     0    53     1     8
  7.6266584435503137E+00 a       633     0    53     1     9
 -6.3270589035373082E+00 a       634     0    53     1    10
 -1.0899596661838212E+01 a       635     0    53     1    11
  9.0595330465622386E+00 a       636     0    53     1    12
  4.3508674745336307E+01 a       637     0    54     1     1
  6.2467821025965492E+01 a       638     0    54     1     2
  1.8640272306880131E+01 a       639     0    54     1     3
  5.6439742325335743E+01 a       640     0    54     1     4
 -1.4578025976203417E+01 a       641     0    54     1     5
 -7.7714767480652213E+01 a       642     0    54     1     6
 -7.2760297861503753E+00 a       643     0    54     1     7
 -1.2420051782121913E+00 a       644     0    54     1     8
  4.0448401737667394E+00 a       645     0    54     1     9
 -4.3153244955591239E+00 a       646     0    54     1    10
  4.2038068525562604E+00 a       647     0    54     1    11
  3.3097455186149376E+00 a       648     0    54     1    12
 -4.3806366109138850E+01 a       649     0    55     1     1
  1.3697594229784218E+00 a       650     0    55     1     2
 -3.8147685736805861E+00 a       651     0    55     1     3
  4.7715986774271123E+01 a       652     0    55     1     4
 -9.5606767370331980E+00 a       653     0    55     1     5
  6.0632889170924479E+01 a       654     0    55     1     6
 -2.2252816682957601E+01 a       655     0    55     1     7
 -1.0447324857140774E+01 a       656     0    55     1     8
 -2.6509150723711330E+00 a       657     0    55     1     9
  1.8889233198541415E+01 a       658     0    55     1    10
  3.4135831545668780E+00 a       659     0    55     1    11
  5.1107571453273515E+00 a       660     0    55     1    12
  4.7364613178743610E+01 a       661     0    56     1     1
  3.2925246472742423E+01 a       662     0    56     1     2
 -1.6063511136549838E+01 a       663     0    56     1     3
  5.0742752837118530E+01 a       664     0    56     1     4
 -1.0582175866897364E+01 a       665     0    56     1     5
  1.2430862366439820E+01 a       666     0    56     1     6
 -7.5138175157036269E+00 a       667     0    56     1     7
  3.9453358325128778E+00 a       668     0    56     1     8
  2.9551831381501708E+00 a       669     0    56     1     9
  6.8452948272395471E+00 a       670     0    56     1    10
  8.6292821427542599E+00 a       671     0    56     1    11
 -3.5039571174115407E+00 a       672     0    56     1    12
 -6.7257118380628015E+01 a       673     0    57     1     1
 -8.5523071694898631E-02 a       674     0    57     1     2
  4.7320142642470167E+01 a       675     0    57     1     3
 -9.0167584845321425E-01 a       676     0    57     1     4
 -1.0101946714952156E+01 a       677     0    57     1     5
 -3.6323451364347399E+01 a       678     0    57     1     6
  2.2965797531343299E+00 a       679     0    57     1     7
 -3.2326955454883755E-01 a       680     0    57     1     8
  1.9057402098550988E-01 a       681     0    57     1     9
 -2.3824678277968805E+00 a       682     0    57     1    10
  5.7916969440712673E+00 a       683     0    57     1    11
  6.1403483461623800E+00 a       684     0    57     1    12
 -9.2849514808886909E+01 a       685     0    58     1     1
  4.1765012961263558E+01 a       686     0    58     1     2
 -1.0872713198822107E+02 a       687     0    58     1     3
 -1.0333363057714817E+02 a       688     0    58     1     4
  1.8973355550399042E+01 a       689     0    58     1     5
  5.8830106198142381E+01 a       690     0    58     1     6
 -2.2830209602119020E+01 a       691     0    58     1     7
 -2.5389285802139936E+00 a       692     0    58     1     8
 -8.2567582153419661E+00 a       693     0    58     1     9
  2.1919216320725969E+01 a       694     0    58     1    10
 -1.5526283807627825E+01 a       695     0    58     1    11
  3.3473359550238904E+00 a       696     0    58     1    12
 -1.1845400038665336E+01 a       697     0    59     1     1
 -7.9707802468526438E+01 a       698     0    59     1     2
  1.3262489378742885E+01 a       699     0    59     1     3
 -1.3019339210349429E+01 a       700     0    59     1     4
  1.5048315008269546E+01 a       701     0    59     1     5
  5.3305284465926395E+00 a       702     0    59     1     6
 -4.2175349416495393E+00 a       703     0    59     1     7
  4.9994703254132183E-01 a       704     0    59     1     8
 -6.4329309428709003E+00 a       705     0    59     1     9
 -2.2245169710100878E+00 a       706     0    59     1    10
 -7.0171370912293671E+00 a       707     0    59     1    11
 -1.5964517816402372E+01 a       708     0    59     1    12
 -3.5471978709877505E+00 a       709     0    60     1     1
 -7.8960198822034915E+00 a       710     0    60     1     2
 -1.6513484570165613E+01 a       711     0    60     1     3
 -6.9021875010892458E+01 a       712     0    60     1     4
  1.7537245058693752E+01 a       713     0    60     1     5
 -5.8665508783810569E+00 a       714     0    60     1     6
  2.3100228332553412E+00 a       715     0    60     1     7
  9.5221744515142170E-01 a       716     0    60     1     8
 -8.5187543287214132E-02 a       717     0    60     1     9
  9.7600924337704367E+00 a       718     0    60     1    10
  4.8002191786980655E+00 a       719     0    60     1    11
  3.3010333146884490E+00 a       720     0    60     1    12
 -1.0244985556537326E+01 a       721     0    61     1     1
  6.7077768688184889E+01 a       722     0    61     1     2
 -1.2765708540297245E+01 a       723     0    61     1     3
 -4.6725526308383955E+01 a       724     0    61     1     4
  1.9878861724367848E+01 a       725     0    61     1     5
  6.5764003998605801E+01 a       726     0    61     1     6
  1.5057038831814520E+00 a       727     0    61     1     7
 -1.1559555950830946E+01 a       728     0    61     1     8
  7.6784153952822791E+00 a       729     0    61     1     9
  4.1254099577124332E+00 a       730     0    61     1    10
 -6.2980571795957045E+00 a       731     0    61     1    11
 -6.7893133603247735E+00 a       732     0    61     1    12
 -4.8527510127686107E+01 a       733     0    62     1     1
  1.7694217929034703E+01 a       734     0    62     1     2
  1.3717497862196934E+01 a       735     0    62     1     3
 -3.7364020206323674E+00 a       736     0    62     1     4
  2.2440717525045951E+01 a       737     0    62     1     5
 -3.5745678274722479E+01 a       738     0    62     1     6
 -1.7459400110385395E+00 a       739     0    62     1     7
 -1.2128958703218251E+01 a       740     0    62     1     8
  7.1908595823814023E+00 a       741     0    62     1     9
  1.5379697582654888E+01 a       742     0    62     1    10
  6.2460726918175382E+00 a       743     0    62     1    11
  5.9868395646037742E+00 a       744     0    62     1    12
  5.8326477135161767E+01 a       745     0    63     1     1
  9.3225057721970916E+00 a       746     0    63     1     2
 -2.1147268396706430E+01 a       747     0    63     1     3
  2.4136427148876439E+01 a       748     0    63     1     4
  1.7371509838479785E+01 a       749     0    63     1     5
  1.7407423748022460E+01 a       750     0    63     1     6
 -1.1803387652638495E+01 a       751     0    63     1     7
 -6.8906858101143484E+00 a       752     0    63     1     8
  5.5560367132573294E+00 a       753     0    63     1     9
  2.2522176815646446E+00 a       754     0    63     1    10
 -4.4638235374644952E-01 a       755     0    63     1    11
 -3.2436868564042727E+00 a       756     0    63     1    12
 -1.7183215180567334E+01 a       757     0    64     1     1
 -2.1160679669026710E+00 a       758     0    64     1     2
 -9.4727436780464416E+00 a       759     0    64     1     3
 -7.1014670565775120E+01 a       760     0    64     1     4
  3.9025104429883655E+01 a       761     0    64     1     5
  2.8935532324750812E+00 a       762     0    64     1     6
  4.1835614147468032E+00 a       763     0    64     1     7
 -5.7074904560377906E+00 a       764     0    64     1     8
  1.1690876084995434E+00 a       765     0    64     1     9
 -1.2858397133422985E+00 a       766     0    64     1    10
  1.3339708148273433E+01 a       767     0    64     1    11
 -3.0893907374430594E+00 a       768     0    64     1    12
 -1.1178700524428946E+01 a       769     0    65     1     1
 -3.0669374950994790E+01 a       770     0    65     1     2
  2.5202845200772934E+01 a       771     0    65     1     3
 -7.1871466738720159E+01 a       772     0    65     1     4
  2.5420995836667739E+01 a       773     0    65     1     5
  1.8485530148455179E+01 a       774     0    65     1     6
  9.5075508561843716E+00 a       775     0    65     1     7
 -2.4675506713526820E+00 a       776     0    65     1     8
  1.0696281072456653E+01 a       777     0    65     1     9
 -1.9915365278598795E+01 a       778     0    65     1    10
  1.3105105660452919E+01 a       779     0    65     1    11
  1.0277558374948878E+01 a       780     0    65     1    12
  4.6779810536978800E+01 a       781     0    66     1     1
 -2.0206804710151651E+01 a       782     0    66     1     2
 -2.6011829010754894E+01 a       783     0    66     1     3
  7.1085377140569295E-01 a       784     0    66     1     4
  1.9991608887819808E+01 a       785     0    66     1     5
 -3.5364727046260249E+01 a       786     0    66     1     6
  4.5215884756707592E+00 a       787     0    66     1     7
  1.0437397975872763E+01 a       788     0    66     1     8
  1.1514992094024528E+01 a       789     0    66     1     9
 -2.7924236235162081E+01 a       790     0    66     1    10
  1.2782110334588253E+01 a       791     0    66     1    11
 -1.7181283889013874E+00 a       792     0    66     1    12
 -3.0315851160171558E+01 a       793     0    67     1     1
 -5.2882217972840607E+01 a       794     0    67     1     2
 -9.4198206538547140E+00 a       795     0    67     1     3
 -2.7577378616293050E+01 a       796     0    67     1     4
  1.1870292766203582E+01 a       797     0    67     1     5
  4.5809623974708078E+00 a       798     0    67     1     6
  1.7697063789314452E+01 a       799     0    67     1     7
  6.4510068913755365E+00 a       800     0    67     1     8
  1.6262073582496946E+01 a       801     0    67     1     9
 -5.0188170118929172E+00 a       802     0    67     1    10
 -1.0177241922730193E+01 a       803     0    67     1    11
  7.9460148515143327E+00 a       804     0    67     1    12
  5.0271757107166742E+01 a       805     0    68     1     1
 -4.2402271730654547E+01 a       806     0    68     1     2
 -2.7998878907935310E+01 a       807     0    68     1     3
  7.0314376940884546E+00 a       808     0    68     1     4
  1.0643543004307599E+01 a       809     0    68     1     5
  2.2842355932179661E+01 a       810     0    68     1     6
  8.1718396467058110E+00 a       811     0    68     1     7
  3.4646629664469528E+00 a       812     0    68     1     8
  6.2431111441615048E+00 a       813     0    68     1     9
 -6.3642217961340108E+00 a       814     0    68     1    10
 -7.6620225970742091E+00 a       815     0    68     1    11
  8.1060243843586992E+00 a       816     0    68     1    12
 -9.3052927260436373E+00 a       817     0    69     1     1
  3.1472915427222885E+00 a       818     0    69     1     2
  1.0989265707495276E+01 a       819     0    69     1     3
 -2.2050427844366585E+01 a       820     0    69     1     4
  6.2227263292653197E+00 a       821     0    69     1     5
 -3.4202714663502348E+01 a       822     0    69     1     6
  8.0021160907681601E+00 a       823     0    69     1     7
  1.4825933889405636E+01 a       824     0    69     1     8
  1.5360579906710948E+01 a       825     0    69     1     9
 -1.1835461977010819E+01 a       826     0    69     1    10
 -1.1948625238569196E+01 a       827     0    69     1    11
 -8.1446441146643416E+00 a       828     0    69     1    12
 -9.1569886081911505E+01 a       829     0    70     1     1
 -2.1104872263426365E+01 a       830     0    70     1     2
 -1.7219623677413530E+01 a       831     0    70     1     3
  3.3141336225679510E+01 a       832     0    70     1     4
 -3.6958548782221392E+01 a       833     0    70     1     5
 -6.3439786798420599E+00 a       834     0    70     1     6
  2.2325515810146467E+01 a       835     0    70     1     7
  9.8847867574746413E+00 a       836     0    70     1     8
 -1.3251623062484176E+01 a       837     0    70     1     9
 -1.3872008612498325E+01 a       838     0    70     1    10
  1.2147913783947645E+01 a       839     0    70     1    11
 -5.5603903989087833E+00 a       840     0    70     1    12
 -7.6070871505029078E+00 a       841     0    71     1     1
  4.5329054766930803E+01 a       842     0    71     1     2
 -6.8083261557325713E+01 a       843     0    71     1     3
  6.2235074661769580E+01 a       844     0    71     1     4
 -2.2184783998093572E+01 a       845     0    71     1     5
  9.8424165534336922E+01 a       846     0    71     1     6
 -3.2095213383540657E+00 a       847     0    71     1     7
  8.7246386898633475E+00 a       848     0    71     1     8
  1.2069893425232625E+01 a       849     0    71     1     9
  2.1175496095173219E+01 a       850     0    71     1    10
 -5.0269976870864994E+00 a       851     0    71     1    11
  7.5176834750434596E+00 a       852     0    71     1    12
 -5.2802597008135677E+01 a       853     0    72     1     1
 -1.0702523035774528E+01 a       854     0    72     1     2
 -2.8741687909442703E+01 a       855     0    72     1     3
 -3.9248695026180896E-01 a       856     0    72     1     4
 -1.2241618591244260E+01 a       857     0    72     1     5
  7.9298297171699900E+01 a       858     0    72     1     6
 -7.7506640224300467E+00 a       859     0    72     1     7
 -2.3008182160066095E+01 a       860     0    72     1     8
 -6.4320172795936310E+00 a       861     0    72     1     9
  1.9295076741719082E+01 a       862     0    72     1    10
 -2.5372721703859726E+00 a       863     0    72     1    11
 -8.0892278633563333E+00 a       864     0    72     1    12
 -1.4531527591657262E+01 a       865     0    73     1     1
  3.5891038297495093E+01 a       866     0    73     1     2
  2.5930301412244109E+01 a       867     0    73     1     3
 -4.5671754407773228E+01 a       868     0    73     1     4
 -2.4057036672455467E+01 a       869     0    73     1     5
 -1.8835538173914056E+01 a       870     0    73     1     6
  6.1088645788896461E+00 a       871     0    73     1     7
 -4.5992387923989373E+00 a       872     0    73     1     8
  1.8414554285951844E+01 a       873     0    73     1     9
  6.9694952393015557E+00 a       874     0    73     1    10
  3.4193623972628453E+00 a       875     0    73     1    11
 -2.7901835595120614E+00 a       876     0    73     1    12
 -7.7286849271347251E+01 a       877     0    74     1     1
 -4.1620089279455989E+01 a       878     0    74     1     2
  2.4382540071068468E+00 a       879     0    74     1     3
 -1.2248621252038602E+02 a       880     0    74     1     4
 -1.9806771599025176E+01 a       881     0    74     1     5
  1.0077571919907790E+02 a       882     0    74     1     6
  2.8979517907039360E+00 a       883     0    74     1     7
 -1.9586477655459653E+01 a       884     0    74     1     8
  3.7878138568691297E+00 a       885     0    74     1     9
  3.3807576605238863E+00 a       886     0    74     1    10
 -1.0824816981363343E+01 a       887     0    74     1    11
 -1.3849880117231482E+01 a       888     0    74     1    12
 -1.5847112326861093E-01 a       889     0    75     1     1
 -6.9369494617205589E+01 a       890     0    75     1     2
 -4.0790723502233590E+01 a       891     0    75     1     3
  1.2539336640337646E+02 a       892     0    75     1     4
 -1.2093097418693042E+00 a       893     0    75     1     5
  1.1241313152926570E+02 a       894     0    75     1     6
  6.1244903898845937E+00 a       895     0    75     1     7
  1.1893824487762670E+01 a       896     0    75     1     8
 -9.2361636545984727E-01 a       897     0    75     1     9
  1.2778164482701169E+00 a       898     0    75     1    10
  6.3575375905450864E+00 a       899     0    75     1    11
  1.0391403691105953E+01 a       900     0    75     1    12
  6.8416579236046232E+01 a       901     0    76     1     1
 -7.0084878160294277E+00 a       902     0    76     1     2
  3.7427082565541355E+01 a       903     0    76     1     3
  7.1550410603397992E+01 a       904     0    76     1     4
  1.0619008028228842E+01 a       905     0    76     1     5
 -9.6371440550813201E+00 a       906     0    76     1     6
 -2.5340528030337044E+01 a       907     0    76     1     7
 -6.3001060046720336E-01 a       908     0    76     1     8
  7.2182035597650138E+00 a       909     0    76     1     9
 -1.8397113591267271E+01 a       910     0    76     1    10
 -1.0661415743112201E+00 a       911     0    76     1    11
 -1.0263057893424645E+00 a       912     0    76     1    12
 -6.9217082319057495E+00 a       913     0    77     1     1
 -7.3780871175810718E+00 a       914     0    77     1     2
  1.1731876437063068E+01 a       915     0    77     1     3
  6.0661097278184798E+01 a       916     0    77     1     4
  3.1750931699085285E+00 a       917     0    77     1     5
 -1.4556527960507728E+00 a       918     0    77     1     6
  1.5714305759741441E+01 a       919     0    77     1     7
  9.5509045045273655E-01 a       920     0    77     1     8
 -1.0974038578141885E+01 a       921     0    77     1     9
  2.6147587202480956E+01 a       922     0    77     1    10
  4.1753899767898275E+01 a       923     0    77     1    11
 -1.0010301054710412E+01 a       924     0    77     1    12
 -3.6078085728076168E+01 a       925     0    78     1     1
  5.9356309737151323E+00 a       926     0    78     1     2
  9.6159887392254191E+01 a       927     0    78     1     3
 -5.2206983322564049E+01 a       928     0    78     1     4
  1.3530329879871500E-01 a       929     0    78     1     5
  4.3880428347553277E+01 a       930     0    78     1     6
  1.2295973585235869E+01 a       931     0    78     1     7
  7.0290402524382829E+00 a       932     0    78     1     8
 -4.0396293977843589E+00 a       933     0    78     1     9
  1.9133508612733923E+01 a       934     0    78     1    10
 -2.0465912732763529E+00 a       935     0    78     1    11
  1.0085654911662093E+01 a       936     0    78     1    12
  4.0086977062948627E+01 a       937     0    79     1     1
 -2.6668713413784790E+01 a       938     0    79     1     2
 -4.7438486769707431E+01 a       939     0    79     1     3
  3.1287399244572729E+01 a       940     0    79     1     4
 -1.7561095083805101E+00 a       941     0    79     1     5
 -7.7374709033835586E+01 a       942     0    79     1     6
  7.9845458101288651E+00 a       943     0    79     1     7
  1.6348419290231440E+01 a       944     0    79     1     8
 -5.3229071520175164E-01 a       945     0    79     1     9
 -3.6744742524070226E+01 a       946     0    79     1    10
  2.3610487152668554E+01 a       947     0    79     1    11
 -1.2595841834661989E+00 a       948     0    79     1    12
 -9.2716573661400005E+01 a       949     0    80     1     1
  2.7044763840334141E+01 a       950     0    80     1     2
  4.3448822745254645E+01 a       951     0    80     1     3
 -6.5428652174801670E+01 a       952     0    80     1     4
  5.0104588847121692E+00 a       953     0    80     1     5
 -4.5525070107560438E+01 a       954     0    80     1     6
 -1.0317852707357349E+00 a       955     0    80     1     7
 -1.8546555223891847E+00 a       956     0    80     1     8
 -3.2792417453280280E+00 a       957     0    80     1     9
 -1.1737967223816954E+01 a       958     0    80     1    10
  1.3773851194650756E+01 a       959     0    80     1    11
  1.5805424722699591E+01 a       960     0    80     1    12
  3.1680293516200976E+01 a       961     0    81     1     1
 -2.5562261163460896E+01 a       962     0    81     1     2
  6.5116099176963601E+01 a       963     0    81     1     3
 -1.7891959797871650E+01 a       964     0    81     1     4
  9.3161052187526501E+00 a       965     0    81     1     5
 -5.0297138139547023E+01 a       966     0    81     1     6
 -5.6604240334499289E+00 a       967     0    81     1     7
  2.6613941885422170E+00 a       968     0    81     1     8
  5.2460447570214663E-01 a       969     0    81     1     9
  2.9841042002039981E+00 a       970     0    81     1    10
  4.0724248834037260E+00 a       971     0    81     1    11
  1.4795523310939506E+01 a       972     0    81     1    12
 -4.8678576231789435E+01 a       973     0    82     1     1
 -7.9773482501638483E+01 a       974     0    82     1     2
  3.3080842015905198E+01 a       975     0    82     1     3
 -1.3775777563112621E+02 a       976     0    82     1     4
 -1.0237557626975326E+01 a       977     0    82     1     5
 -2.8934838709004818E+00 a       978     0    82     1     6
  6.4169524028734557E+00 a       979     0    82     1     7
 -1.1231681615293994E+01 a       980     0    82     1     8
 -1.2902367891668835E+01 a       981     0    82     1     9
 -1.2185357742134064E+01 a       982     0    82     1    10
  7.7033871823625315E+00 a       983     0    82     1    11
  1.0643353459391420E+00 a       984     0    82     1    12
 -3.2385244911703836E+01 a       985     0    83     1     1
  2.1239417689688210E+01 a       986     0    83     1     2
 -3.9267767873034842E+01 a       987     0    83     1     3
 -6.0054767139459344E+01 a       988     0    83     1     4
 -1.8465238424262605E+01 a       989     0    83     1     5
 -8.4092911801481407E+01 a       990     0    83     1     6
  1.2752179014331620E+01 a       991     0    83     1     7
 -1.1651959215746173E+01 a       992     0    83     1     8
  5.3023155298957079E+00 a       993     0    83     1     9
 -5.9827534279262649E+00 a       994     0    83     1    10
 -5.4247052826637754E-01 a       995     0    83     1    11
  1.3589900144881273E+01 a       996     0    83     1    12
 -2.6865323318395642E+01 a       997     0    84     1     1
  6.4599045140647036E+00 a       998     0    84     1     2
  1.7322583392289712E+01 a       999     0    84     1     3
  6.2479224785522032E+00 a      1000     0    84     1     4
 -2.1952537985339770E+01 a      1001     0    84     1     5
 -2.1074600345286846E+01 a      1002     0    84     1     6
 -1.2831194372575487E+01 a      1003     0    84     1     7
 -1.5889396425915459E+01 a      1004     0    84     1     8
 -6.5797831334066526E-01 a      1005     0    84     1     9
 -2.5447927552979095E+01 a      1006     0    84     1    10
  2.3095659119916703E+00 a      1007     0    84     1    11
 -5.1947834545632823E+00 a      1008     0    84     1    12
 -5.7006270944742560E+01 a      1009     0    85     1     1
 -3.7530023941710553E+00 a      1010     0    85     1     2
  2.4508454838094202E+01 a      1011     0    85     1     3
 -8.0025899394944688E+01 a      1012     0    85     1     4
 -1.8009058603426510E+01 a      1013     0    85     1     5
 -3.1209967808015726E+01 a      1014     0    85     1     6
 -6.2769676879108816E-01 a      1015     0    85     1     7
  1.1852014174880697E+01 a      1016     0    85     1     8
  1.1796063912099957E+00 a      1017     0    85     1     9
 -1.5091527441528134E+01 a      1018     0    85     1    10
  1.4841210235559341E+01 a      1019     0    85     1    11
  1.1355822393635073E+01 a      1020     0    85     1    12
  4.7127717491450083E+00 a      1021     0    86     1     1
  6.8471374407482188E+01 a      1022     0    86     1     2
  1.5885053428398525E+01 a      1023     0    86     1     3
 -6.3077494793192187E+01 a      1024     0    86     1     4
 -2.0049719568707633E+01 a      1025     0    86     1     5
  6.9543343254725528E+01 a      1026     0    86     1     6
  5.9661015841982890E-01 a      1027     0    86     1     7
  9.2396347295382402E+00 a      1028     0    86     1     8
  2.8037856044191605E+00 a      1029     0    86     1     9
 -1.2886685350495672E+01 a      1030     0    86     1    10
  1.0816018704020600E+01 a      1031     0    86     1    11
 -3.2873154542830387E+00 a      1032     0    86     1    12
  1.8881673808348012E+01 a      1033     0    87     1     1
  1.8139148014392799E+01 a      1034     0    87     1     2
  9.8163259564084754E+01 a      1035     0    87     1     3
  3.1942037574121382E+01 a      1036     0    87     1     4
 -1.4873687879065089E+01 a      1037     0    87     1     5
 -2.6074571098456101E+01 a      1038     0    87     1     6
  1.1952416990116156E+01 a      1039     0    87     1     7
 -2.4931108267967965E+00 a      1040     0    87     1     8
 -2.3138682097866745E+00 a      1041     0    87     1     9
  9.1682682032851712E+00 a      1042     0    87     1    10
  1.3330060577161841E+01 a      1043     0    87     1    11
  1.7721413371949770E+00 a      1044     0    87     1    12
 -1.0304013875933733E+00 b      1045     1     1
  3.1184796115745415E+00 b      1046     1     2
  6.1242547956193087E+00 b      1047     1     3
 -1.0318895011978313E+00 b      1048     1     4
  1.3348675749252072E+00 b      1049     1     5
 -9.5804374629690905E+00 b      1050     1     6
 -7.6322646854512866E-01 b      1051     1     7
 -6.9971513812186226E-01 b      1052     1     8
 -5.6425083505859763E-01 b      1053     1     9
 -3.4213774139179687E-01 b      1054     1    10
 -5.4880960538162188E-02 b      1055     1    11
 -1.9385943126853176E+00 b      1056     1    12
 -1.6352319070485127E+01 a      1057     1     1     2     1
 -4.4981679850275054E+00 a      1058     1     1     2     2
 -7.8158499145794181E+01 a      1059     1     1     2     3
 -2.4666990772005125E+01 a      1060     1     1     2     4
 -8.9570308881087577E+00 a      1061     1     1     2     5
 -5.5198324747410314E+00 a      1062     1     1     2     6
  3.8215650789297331E+00 a      1063     1     1     2     7
  1.2802900147041624E+01 a      1064     1     1     2     8
  2.8642370539257942E+00 a      1065     1     1     2     9
 -4.0264165770810072E+00 a      1066     1     1     2    10
 -3.0092053892265027E+00 a      1067     1     1     2    11
 -2.5336441571134873E+00 a      1068     1     1     2    12
  6.1900854043474727E+00 a      1069     1     2     2     1
 -5.9294800203562270E-01 a      1070     1     2     2     2
 -2.4902069829158872E+01 a      1071     1     2     2     3
  4.5413718396956018E+00 a      1072     1     2     2     4
 -2.2980551159210640E+00 a      1073     1     2     2     5
 -7.6765047635632377E-01 a      1074     1     2     2     6
 -1.4581985085656179E-01 a      1075     1     2     2     7
  2.2564122959666912E+00 a      1076     1     2     2     8
 -1.2512166573160374E-01 a      1077     1     2     2     9
 -7.2753711527178216E-02 a      1078     1     2     2    10
 -4.7506651892945612E-01 a      1079     1     2     2    11
  1.6189644756776906E+00 a      1080     1     2     2    12
 -1.7517468584339804E+00 a      1081     1     3     2     1
  1.0644473123589122E+00 a      1082     1     3     2     2
  1.9378311424322145E+01 a      1083     1     3     2     3
  8.9283430675112074E-01 a      1084     1     3     2     4
  1.6105409416372962E+00 a      1085     1     3     2     5
  8.7939470266466091E-01 a      1086     1     3     2     6
  1.6522622678879229E-01 a      1087     1     3     2     7
 -3.3141856761494117E+00 a      1088     1     3     2     8
 -3.2379374691360002E-01 a      1089     1     3     2     9
  1.2435990074825348E-01 a      1090     1     3     2    10
  3.4794315805531201E-01 a      1091     1     3     2    11
 -5.6936863498260526E-01 a      1092     1     3     2    12
  4.7499583214058623E+00 a      1093     1     4     2     1
  3.0068034201517446E+00 a      1094     1     4     2     2
  3.4311494555195480E+01 a      1095     1     4     2     3
  1.1248828548472536E+01 a      1096     1     4     2     4
  3.0556070061969520E+00 a      1097     1     4     2     5
  2.1430974773815592E+00 a      1098     1     4     2     6
 -8.4678659068183593E-01 a      1099     1     4     2     7
 -6.0616683562981510E+00 a      1100     1     4     2     8
 -3.9710660203147556E+00 a      1101     1     4     2     9
  1.2097436969741755E+00 a      1102     1     4     2    10
  3.1401510279781215E+00 a      1103     1     4     2    11
  3.2689717158246512E+00 a      1104     1     4     2    12
 -6.3224728271586859E+00 a      1105     1     5     2     1
  3.1400817418003801E-01 a      1106     1     5     2     2
 -9.7956885950131051E-02 a      1107     1     5     2     3
 -4.8591867527782977E+00 a      1108     1     5     2     4
  1.1841773305793289E+01 a      1109     1     5     2     5
  4.6851683270929927E+00 a      1110     1     5     2     6
  3.6879280625840782E-01 a      1111     1     5     2     7
 -2.2636685783789057E+00 a      1112     1     5     2     8
  1.2481293163790212E-01 a      1113     1     5     2     9
  1.1697698140224411E+00 a      1114     1     5     2    10
 -4.2432371055957635E-01 a      1115     1     5     2    11
  4.6506611313751511E-01 a      1116     1     5     2    12
  1.5249560215906772E+01 a      1117     1     6     2     1
  2.7924829846822931E+01 a      1118     1     6     2     2
  7.0691776089181602E+01 a      1119     1     6     2     3
  7.2696201398135315E+01 a      1120     1     6     2     4
 -3.4060856092565743E+01 a      1121     1     6     2     5
 -1.6611705129266170E+00 a      1122     1     6     2     6
  1.0225914375010932E+01 a      1123     1     6     2     7
 -1.4639448110330811E+01 a      1124     1     6     2     8
 -9.3048075088339548E+00 a      1125     1     6     2     9
 -1.6368863463708465E+01 a      1126     1     6     2    10
 -2.5059454020002954E+00 a      1127     1     6     2    11
  1.0838501329456120E+01 a      1128     1     6     2    12
 -1.2389434800596337E+00 a      1129     1     7     2     1
  6.6735109852763952E-01 a      1130     1     7     2     2
 -1.3666044435395510E+00 a      1131     1     7     2     3
 -9.3867695119945804E-02 a      1132     1     7     2     4
 -1.3502005555811318E+00 a      1133     1     7     2     5
  1.2405456711277798E+00 a      1134     1     7     2     6
 -1.1986283771242385E+00 a      1135     1     7     2     7
 -2.5017457583704257E+00 a      1136     1     7     2     8
 -1.2511648784448353E+00 a      1137     1     7     2     9
  5.4357824657892195E-01 a      1138     1     7     2    10
 -3.0092871655703792E+00 a      1139     1     7     2    11
 -2.2733387274841257E+00 a      1140     1     7     2    12
 -2.9616735309933528E-01 a      1141     1     8     2     1
 -2.1581641559768139E+00 a      1142     1     8     2     2
 -1.2624441013104140E-01 a      1143     1     8     2     3
  1.5412962183407741E+00 a      1144     1     8     2     4
  1.7706464125756793E+00 a      1145     1     8     2     5
  2.4200375895890480E+00 a      1146     1     8     2     6
 -4.4868692898851119E+00 a      1147     1     8     2     7
  1.6003380629091457E+00 a      1148     1     8     2     8
  6.3172090171222162E-01 a      1149     1     8     2     9
 -1.9474407014017097E+00 a      1150     1     8     2    10
  3.9003102508981100E+00 a      1151     1     8     2    11
 -7.4158580554729514E-01 a      1152     1     8     2    12
  7.9406279735319885E-01 a      1153     1     9     2     1
 -1.8535046518178351E+00 a      1154     1     9     2     2
  4.6146878831953169E+00 a      1155     1     9     2     3
  1.6441486005999122E+00 a      1156     1     9     2     4
  2.2535147373375493E+00 a      1157     1     9     2     5
  5.9209575792264846E-01 a      1158     1     9     2     6
  1.2471831584610475E+00 a      1159     1     9     2     7
 -2.7735416603798164E+00 a      1160     1     9     2     8
 -3.9200326475081346E+00 a      1161     1     9     2     9
  5.0436578797462472E-01 a      1162     1     9     2    10
  2.6610749091924415E+00 a      1163     1     9     2    11
  5.1425634533808307E+00 a      1164     1     9     2    12
  1.0268873861781558E+00 a      1165     1    10     2     1
 -4.4193821434379166E-01 a      1166     1    10     2     2
  1.9680793051345948E+00 a      1167     1    10     2     3
 -3.7265943845198204E+00 a      1168     1    10     2     4
 -8.8762684484606902E-01 a      1169     1    10     2     5
 -2.5882744320319899E+00 a      1170     1    10     2     6
  1.1887687011326502E+00 a      1171     1    10     2     7
  4.3648256819777451E+00 a      1172     1    10     2     8
  1.1735785864657212E-01 a      1173     1    10     2     9
  4.8558009918044007E+00 a      1174     1    10     2    10
  4.0019871669104106E+00 a      1175     1    10     2    11
 -3.9522179531674482E+00 a      1176     1    10     2    12
  4.3701967814100429E-01 a      1177     1    11     2     1
 -2.7388132377109387E-01 a      1178     1    11     2     2
  1.9839249366503544E+00 a      1179     1    11     2     3
  2.4658705704161932E+00 a      1180     1    11     2     4
 -7.4241642884767085E+00 a      1181     1    11     2     5
 -1.2269642789876898E+00 a      1182     1    11     2     6
 -2.9261771290897438E+00 a      1183     1    11     2     7
 -1.5792431769561417E+00 a      1184     1    11     2     8
 -2.0940181593698468E+00 a      1185     1    11     2     9
  1.2016527146020659E+00 a      1186     1    11     2    10
 -5.2204375065464603E+00 a      1187     1    11     2    11
 -6.6351614769249228E+00 a      1188     1    11     2    12
  1.1822386033901280E+00 a      1189     1    12     2     1
  1.6010471730484981E+00 a      1190     1    12     2     2
  5.7649403244809569E+00 a      1191     1    12     2     3
 -1.4300189678572737E+00 a      1192     1    12     2     4
  1.2179640601753527E+00 a      1193     1    12     2     5
  1.7978768323316434E+00 a      1194     1    12     2     6
  1.7845267611621571E+00 a      1195     1    12     2     7
  1.3759332508021924E-03 a      1196     1    12     2     8
 -9.6386190062899502E-01 a      1197     1    12     2     9
 -3.5058022551737666E+00 a      1198     1    12     2    10
 -4.9009446583127303E-01 a      1199     1    12     2    11
 -1.3797911744056823E+00 a      1200     1    12     2    12
  2.1433781230632798E+00 b      1201     2     1
 -7.4356871741776374E+00 b      1202     2     2
 -3.4791956209605857E+01 b      1203     2     3
 -1.2516318381409604E+01 b      1204     2     4
 -1.0104017520079037E+01 b      1205     2     5
 -5.6780816544178316E+00 b      1206     2     6
  2.1595076033621452E+00 b      1207     2     7
  2.3122668271207925E+00 b      1208     2     8
  2.6274871536245108E+00 b      1209     2     9
 -1.8704601280673889E+00 b      1210     2    10
 -3.3147576640090644E+00 b      1211     2    11
 -9.1353260211344456E-01 b      1212     2    12
 -1.4554623354878209E+00 a      1213     2     1     3     1
  1.8014133568240915E+01 a      1214     2     2     3     1
  8.0282400974778714E+00 a      1215     2     3     3     1
  5.5767312763807118E+00 a      1216     2     4     3     1
 -3.5590731885901150E-01 a      1217     2     5     3     1
  1.0518453754937513E+00 a      1218     2     6     3     1
  2.5012682777942108E-01 a      1219     2     7     3     1
 -1.0779332224286189E+00 a      1220     2     8     3     1
  1.1982124233136313E+00 a      1221     2     9     3     1
  8.9140758199051573E-01 a      1222     2    10     3     1
 -3.2946992093371885E-01 a      1223     2    11     3     1
  3.3136769075645595E-01 a      1224     2    12     3     1
 -5.5841369868065422E+00 b      1225     3     1
