################################################################################
# Neural network connection values (weights and biases).
################################################################################
# Col  Name       Description
################################################################################
# 1    connection Neural network connection value.
# 2    t          Connection type (a = weight, b = bias).
# 3    index      Index enumerating weights.
# 4    l_s        Starting point layer (end point layer for biases).
# 5    n_s        Starting point neuron in starting layer (end point neuron for biases).
# 6    l_e        End point layer.
# 7    n_e        End point neuron in end layer.
################################################################################
#                      1 2         3     4     5     6     7
#             connection t     index   l_s   n_s   l_e   n_e
############################################################
 -1.8553320729636334E+02 a         1     0     1     1     1
  5.5202802685392086E+01 a         2     0     1     1     2
 -3.1256607102937934E+01 a         3     0     1     1     3
 -1.4784040314114875E+00 a         4     0     1     1     4
 -4.6994165141827914E+01 a         5     0     1     1     5
  3.8859106699416462E-01 a         6     0     1     1     6
  1.7381277602091682E+01 a         7     0     1     1     7
  2.2905210795569864E+00 a         8     0     1     1     8
  2.1143537724165249E+01 a         9     0     1     1     9
 -1.8344040800679050E+01 a        10     0     1     1    10
  1.8523329472265928E+01 a        11     0     1     1    11
  1.5262893470543874E+01 a        12     0     1     1    12
 -1.0433630322776976E+02 a        13     0     2     1     1
 -2.5214746369444146E+01 a        14     0     2     1     2
 -1.6849122263664309E+01 a        15     0     2     1     3
  8.8016186727797514E+00 a        16     0     2     1     4
  1.8068477963860264E+01 a        17     0     2     1     5
 -6.6940770675594141E+00 a        18     0     2     1     6
 -3.5378001539612047E-01 a        19     0     2     1     7
  6.8878708795225476E+00 a        20     0     2     1     8
  7.0519300881582296E+00 a        21     0     2     1     9
 -7.5908463423543777E+00 a        22     0     2     1    10
  3.4834682237642185E+00 a        23     0     2     1    11
  5.5417289703382366E-01 a        24     0     2     1    12
 -1.3835519583780257E+02 a        25     0     3     1     1
  8.3759710946160464E+00 a        26     0     3     1     2
  2.1145304543612529E+01 a        27     0     3     1     3
 -3.0883019887663124E+01 a        28     0     3     1     4
  2.5136790878258964E+01 a        29     0     3     1     5
  2.0634985613809858E+00 a        30     0     3     1     6
  8.9160176952881027E+00 a        31     0     3     1     7
  1.0158864145844408E+01 a        32     0     3     1     8
 -5.1556983044203237E+00 a        33     0     3     1     9
 -3.0735793607484849E+00 a        34     0     3     1    10
  1.8125687743671197E+00 a        35     0     3     1    11
 -1.0965532617768087E+01 a        36     0     3     1    12
  4.4237515330633123E+01 a        37     0     4     1     1
  4.8420079320828977E+00 a        38     0     4     1     2
 -6.9486625633591537E+00 a        39     0     4     1     3
  9.4362272272516208E+00 a        40     0     4     1     4
 -7.3717940863964714E+01 a        41     0     4     1     5
  1.8388846317520272E+01 a        42     0     4     1     6
  2.0590726043323850E+00 a        43     0     4     1     7
  7.5236266227379345E-01 a        44     0     4     1     8
  2.3400585254433559E+00 a        45     0     4     1     9
 -3.1401467780156964E+00 a        46     0     4     1    10
  4.7118771473036052E+00 a        47     0     4     1    11
  2.0731580190870220E+00 a        48     0     4     1    12
 -1.0646389469387803E+00 a        49     0     5     1     1
 -9.4842912556082499E+00 a        50     0     5     1     2
 -1.0754699141200113E+01 a        51     0     5     1     3
 -3.2358209520733729E+00 a        52     0     5     1     4
 -4.8655188538889959E+01 a        53     0     5     1     5
 -8.0113588006851337E+00 a        54     0     5     1     6
  7.4774675305814708E-01 a        55     0     5     1     7
  8.5917251392292115E-01 a        56     0     5     1     8
  3.0984020720220014E+00 a        57     0     5     1     9
  1.5844289482878060E+00 a        58     0     5     1    10
  1.6328110675788325E+00 a        59     0     5     1    11
 -6.0495817703213328E-01 a        60     0     5     1    12
 -9.8632896349560806E+00 a        61     0     6     1     1
 -1.1847000058787258E-01 a        62     0     6     1     2
  3.8207719497718591E+00 a        63     0     6     1     3
 -6.5683967333543629E+00 a        64     0     6     1     4
  5.0777876748294783E+00 a        65     0     6     1     5
  1.1198622515570007E+01 a        66     0     6     1     6
  3.5435129418468003E+00 a        67     0     6     1     7
  3.6755647173458317E+00 a        68     0     6     1     8
 -1.9183067454894703E-01 a        69     0     6     1     9
 -3.5949349602457305E-02 a        70     0     6     1    10
  2.6971658460787693E+00 a        71     0     6     1    11
 -4.6075955101340069E+00 a        72     0     6     1    12
  1.8266510686567003E+02 a        73     0     7     1     1
 -3.2917512028920385E+01 a        74     0     7     1     2
  1.9491558689499247E+01 a        75     0     7     1     3
  1.2351788227555598E+01 a        76     0     7     1     4
 -1.9707905780042047E+01 a        77     0     7     1     5
  2.2990828077501657E+01 a        78     0     7     1     6
 -1.3262840644127515E+01 a        79     0     7     1     7
 -1.6681536933857866E+00 a        80     0     7     1     8
 -1.4296988671504050E+01 a        81     0     7     1     9
  1.1744198160952722E+01 a        82     0     7     1    10
 -7.8142394526045909E+00 a        83     0     7     1    11
 -9.1074211583237474E+00 a        84     0     7     1    12
  8.6399940178114463E+01 a        85     0     8     1     1
  5.3162559101830151E+00 a        86     0     8     1     2
 -3.9371003625849283E+00 a        87     0     8     1     3
 -1.1936113046856820E+01 a        88     0     8     1     4
 -5.6177680589088595E+01 a        89     0     8     1     5
 -4.2306787060239879E+00 a        90     0     8     1     6
  8.4223450224297003E-01 a        91     0     8     1     7
 -5.2733108827117530E+00 a        92     0     8     1     8
 -1.3263832893438552E+00 a        93     0     8     1     9
  8.2555963263311369E+00 a        94     0     8     1    10
 -4.7650942627796578E-01 a        95     0     8     1    11
 -2.0687057807305123E+00 a        96     0     8     1    12
  1.0832675089827379E+02 a        97     0     9     1     1
 -1.1848656388145175E+01 a        98     0     9     1     2
 -1.0691532844231668E+01 a        99     0     9     1     3
  1.6363939399296687E+01 a       100     0     9     1     4
 -2.6874441979967600E+01 a       101     0     9     1     5
  1.3590523266063599E+01 a       102     0     9     1     6
 -2.4033805588728430E+00 a       103     0     9     1     7
 -3.2836458723170860E+00 a       104     0     9     1     8
  4.4240924741575496E+00 a       105     0     9     1     9
  2.2816513227453306E+00 a       106     0     9     1    10
  2.6083469564767099E+00 a       107     0     9     1    11
  2.3147464432115994E+00 a       108     0     9     1    12
  1.3404848993637526E+02 a       109     0    10     1     1
 -4.1431991052990604E+01 a       110     0    10     1     2
  3.6591804451347905E+01 a       111     0    10     1     3
  3.1942823198949091E+00 a       112     0    10     1     4
  1.3050591036430171E+02 a       113     0    10     1     5
  1.8773845991978195E+00 a       114     0    10     1     6
 -2.3073341726982349E+01 a       115     0    10     1     7
 -4.5075326321075080E+00 a       116     0    10     1     8
 -2.2191448828032286E+01 a       117     0    10     1     9
  2.0109787288898048E+01 a       118     0    10     1    10
 -1.4793033076816776E+01 a       119     0    10     1    11
 -1.4067826375391993E+01 a       120     0    10     1    12
  1.2011778162433178E+02 a       121     0    11     1     1
  1.4105090030201401E+01 a       122     0    11     1     2
  7.6028373659945059E+00 a       123     0    11     1     3
 -1.0120446027978442E+01 a       124     0    11     1     4
  3.0027278141882867E+01 a       125     0    11     1     5
  9.8872532025729694E+00 a       126     0    11     1     6
 -9.4630822861856589E-01 a       127     0    11     1     7
 -9.8530249222022626E+00 a       128     0    11     1     8
 -5.4583936544628484E+00 a       129     0    11     1     9
  8.0194097909649926E+00 a       130     0    11     1    10
 -2.5706806765976817E+00 a       131     0    11     1    11
 -3.6978459994133641E+00 a       132     0    11     1    12
  1.6394722028077209E+02 a       133     0    12     1     1
 -1.5984701425553000E+01 a       134     0    12     1     2
 -2.2390581589072166E+01 a       135     0    12     1     3
  2.6079298991347613E+01 a       136     0    12     1     4
 -5.7533752119536345E+01 a       137     0    12     1     5
  1.0174789926972153E+01 a       138     0    12     1     6
 -7.9700982344526041E+00 a       139     0    12     1     7
 -9.5304931740311911E+00 a       140     0    12     1     8
  7.0971733576232765E+00 a       141     0    12     1     9
  2.5776141038474178E+00 a       142     0    12     1    10
  3.8226451964990826E-01 a       143     0    12     1    11
  8.5821471717684084E+00 a       144     0    12     1    12
 -1.2499833009783094E+02 a       145     0    13     1     1
 -1.8620225799868260E+00 a       146     0    13     1     2
  2.6097226928272757E+01 a       147     0    13     1     3
 -2.0079763173516412E+01 a       148     0    13     1     4
  2.2074590847761795E+02 a       149     0    13     1     5
 -4.3552295068394301E+01 a       150     0    13     1     6
 -1.3703651911297772E+01 a       151     0    13     1     7
 -4.5247745365731760E+00 a       152     0    13     1     8
 -1.0491133387098808E+01 a       153     0    13     1     9
  7.3025262903189034E+00 a       154     0    13     1    10
 -9.5267716798746882E+00 a       155     0    13     1    11
 -7.8592757099983599E+00 a       156     0    13     1    12
  1.9911200438399778E+01 a       157     0    14     1     1
  1.8613300476350727E+01 a       158     0    14     1     2
  2.1896830806342646E+01 a       159     0    14     1     3
  4.1994398482376960E+00 a       160     0    14     1     4
  1.4784737444890044E+02 a       161     0    14     1     5
  2.0989366895342751E+01 a       162     0    14     1     6
 -4.7364559656723673E+00 a       163     0    14     1     7
 -8.8956129610282115E+00 a       164     0    14     1     8
 -6.8564254329296066E+00 a       165     0    14     1     9
 -4.8798510323064148E+00 a       166     0    14     1    10
 -3.7215569189214572E+00 a       167     0    14     1    11
 -4.4933780337921858E+00 a       168     0    14     1    12
  4.3169183790658224E+01 a       169     0    15     1     1
 -4.7975008715673102E+00 a       170     0    15     1     2
 -1.9792375585869735E+01 a       171     0    15     1     3
  1.1604557498158936E+01 a       172     0    15     1     4
 -2.1009978289020516E+01 a       173     0    15     1     5
 -1.6904178934515489E+01 a       174     0    15     1     6
 -1.0390933825898584E+01 a       175     0    15     1     7
 -1.2073404035590507E+01 a       176     0    15     1     8
  4.8266616237721403E+00 a       177     0    15     1     9
 -6.7508905778011230E-01 a       178     0    15     1    10
 -5.3894535284254763E+00 a       179     0    15     1    11
  1.0843653323136651E+01 a       180     0    15     1    12
 -1.5077195021450490E+02 a       181     0    16     1     1
  2.2976474397100343E+01 a       182     0    16     1     2
 -3.8444843727536664E+01 a       183     0    16     1     3
 -7.7831754868095437E+00 a       184     0    16     1     4
 -2.6726139214581838E+02 a       185     0    16     1     5
 -4.1567370278262672E+01 a       186     0    16     1     6
  3.1188720598128633E+01 a       187     0    16     1     7
  6.9152449546191983E+00 a       188     0    16     1     8
  2.1819238318001617E+01 a       189     0    16     1     9
 -3.7015470099196435E+01 a       190     0    16     1    10
  8.5523722849764017E+00 a       191     0    16     1    11
  4.4595764877963946E+00 a       192     0    16     1    12
 -2.3268840414474448E+02 a       193     0    17     1     1
  1.8819070621978106E+01 a       194     0    17     1     2
  2.6829583095890751E+01 a       195     0    17     1     3
  1.7264533533024647E+01 a       196     0    17     1     4
 -6.9623678872523598E+01 a       197     0    17     1     5
  3.6260792684981915E+00 a       198     0    17     1     6
 -4.5900254037141410E+00 a       199     0    17     1     7
  3.7907103348298055E+00 a       200     0    17     1     8
  9.5869690170878583E-02 a       201     0    17     1     9
 -2.2671904958066271E+01 a       202     0    17     1    10
 -1.4056077789144426E+00 a       203     0    17     1    11
  9.1569389294738249E-02 a       204     0    17     1    12
 -3.0053125066737675E+02 a       205     0    18     1     1
  3.4183042833116232E+01 a       206     0    18     1     2
  7.5396549589873283E+00 a       207     0    18     1     3
 -3.0522789432837602E+01 a       208     0    18     1     4
  2.2009459854564403E+02 a       209     0    18     1     5
 -7.6024677398404322E+01 a       210     0    18     1     6
 -3.9201293001776634E+00 a       211     0    18     1     7
 -5.0858436201132546E+00 a       212     0    18     1     8
 -4.6515503987906008E+00 a       213     0    18     1     9
 -4.4852547273865095E+00 a       214     0    18     1    10
 -1.2133118536048880E+01 a       215     0    18     1    11
  2.4413134942480230E+00 a       216     0    18     1    12
  1.3468475820377321E+02 a       217     0    19     1     1
 -9.7078498604913737E+00 a       218     0    19     1     2
 -5.5153273999818475E-01 a       219     0    19     1     3
 -9.1231220795544632E-01 a       220     0    19     1     4
  5.9475110801270077E+01 a       221     0    19     1     5
  7.6833272316563480E+01 a       222     0    19     1     6
  1.7646889451061323E+01 a       223     0    19     1     7
  4.7794272888141638E+00 a       224     0    19     1     8
  5.3157445683279496E+00 a       225     0    19     1     9
  3.8357694037969736E+01 a       226     0    19     1    10
  1.3778771218839797E+01 a       227     0    19     1    11
  1.6119598624636442E+01 a       228     0    19     1    12
  1.4476371516767622E+02 a       229     0    20     1     1
 -2.8844839466648938E+01 a       230     0    20     1     2
 -3.1619720759076312E+01 a       231     0    20     1     3
 -1.0257065117168679E+01 a       232     0    20     1     4
 -3.5369349395625811E+01 a       233     0    20     1     5
 -1.2672897345758585E+01 a       234     0    20     1     6
  1.7253529741797802E+01 a       235     0    20     1     7
  1.8564275382482325E+01 a       236     0    20     1     8
  1.5470683244863523E+01 a       237     0    20     1     9
  2.8000174587225825E+01 a       238     0    20     1    10
  9.8110367570099832E+00 a       239     0    20     1    11
  2.3015802388375423E+01 a       240     0    20     1    12
  1.6790193075161579E+02 a       241     0    21     1     1
 -1.2646234136749303E+01 a       242     0    21     1     2
  3.1986509402260673E+01 a       243     0    21     1     3
  6.3444488512541213E+00 a       244     0    21     1     4
 -2.2274038676890061E+02 a       245     0    21     1     5
  7.5807380965711332E+01 a       246     0    21     1     6
  1.3871140828726668E+01 a       247     0    21     1     7
  1.8243486226864370E+01 a       248     0    21     1     8
 -9.0849702318701873E+00 a       249     0    21     1     9
  8.0644555643066163E+00 a       250     0    21     1    10
  2.6639170308473084E+00 a       251     0    21     1    11
 -1.7450544901995599E+01 a       252     0    21     1    12
 -5.0459563843510281E+01 a       253     0    22     1     1
 -2.7924598113316312E-01 a       254     0    22     1     2
  3.5984964797122658E+00 a       255     0    22     1     3
 -1.5335878695124716E+01 a       256     0    22     1     4
  7.7822178525532673E+00 a       257     0    22     1     5
 -3.4481998643029051E+01 a       258     0    22     1     6
 -2.7241362053808192E+01 a       259     0    22     1     7
 -8.7282966433823681E+00 a       260     0    22     1     8
 -7.3215261464815855E+00 a       261     0    22     1     9
 -4.2186163067763573E+01 a       262     0    22     1    10
 -1.4222659012293697E+01 a       263     0    22     1    11
 -5.2399244843941366E+00 a       264     0    22     1    12
 -4.2572737386546954E+01 a       265     0    23     1     1
  1.9085359901867005E+01 a       266     0    23     1     2
  1.2461405458038215E+01 a       267     0    23     1     3
  2.2116408230136646E+01 a       268     0    23     1     4
  3.4484007454097657E+01 a       269     0    23     1     5
  6.7544353229076144E+00 a       270     0    23     1     6
  1.4653832575019230E+01 a       271     0    23     1     7
 -1.8450829546657236E+01 a       272     0    23     1     8
 -2.7172318459075623E+01 a       273     0    23     1     9
 -2.1863638224047758E+01 a       274     0    23     1    10
  4.6110869559942884E+00 a       275     0    23     1    11
 -2.0844368225757258E+01 a       276     0    23     1    12
 -4.5194151455923908E+01 a       277     0    24     1     1
  1.8209458676007355E+01 a       278     0    24     1     2
  1.1016466772536460E+00 a       279     0    24     1     3
  2.8453719865268141E+01 a       280     0    24     1     4
  1.3802357346977320E+02 a       281     0    24     1     5
 -8.3751881897185907E+00 a       282     0    24     1     6
  1.3341042173638952E+01 a       283     0    24     1     7
 -2.0580782967989855E+00 a       284     0    24     1     8
  6.0092533579067116E+00 a       285     0    24     1     9
 -1.0069731150869593E+01 a       286     0    24     1    10
  2.2632956108863056E+01 a       287     0    24     1    11
  1.8174501667180497E+01 a       288     0    24     1    12
  4.6372759785448430E+01 a       289     0    25     1     1
  1.7292246739972473E+01 a       290     0    25     1     2
  2.4905065231369672E+01 a       291     0    25     1     3
 -2.6482598797630168E+01 a       292     0    25     1     4
  5.0884702595370690E+01 a       293     0    25     1     5
 -1.4135422985944318E+01 a       294     0    25     1     6
  1.3510053065653558E+01 a       295     0    25     1     7
  8.5534086772173872E+00 a       296     0    25     1     8
  1.5597796465199709E+01 a       297     0    25     1     9
 -5.0304871378510230E+00 a       298     0    25     1    10
  8.1482667326446094E+00 a       299     0    25     1    11
 -1.1441083200562394E+01 a       300     0    25     1    12
  3.3640265236529303E+00 a       301     0    26     1     1
 -2.3251524800998360E+00 a       302     0    26     1     2
 -6.3604183949782367E+01 a       303     0    26     1     3
 -1.4398493037887174E+01 a       304     0    26     1     4
 -9.5300339723362143E+01 a       305     0    26     1     5
  3.4183333108100813E+00 a       306     0    26     1     6
 -6.7888325850460030E+00 a       307     0    26     1     7
  3.1844915283580475E+00 a       308     0    26     1     8
 -6.6416189703804218E-01 a       309     0    26     1     9
 -3.4353395554768782E+00 a       310     0    26     1    10
 -5.7965129988838955E+00 a       311     0    26     1    11
 -4.0865892701567983E+00 a       312     0    26     1    12
  2.1401057662623273E+01 a       313     0    27     1     1
 -5.8796059700945831E+00 a       314     0    27     1     2
  7.9229718331282175E+00 a       315     0    27     1     3
 -2.0732340513782948E+01 a       316     0    27     1     4
 -7.4369519348997679E+00 a       317     0    27     1     5
 -1.7156861590394887E-01 a       318     0    27     1     6
 -6.3206720158920371E-01 a       319     0    27     1     7
 -4.7549777033259923E+00 a       320     0    27     1     8
  5.3696668058531145E+00 a       321     0    27     1     9
 -7.7990772380720257E+00 a       322     0    27     1    10
 -8.3950041250200549E+00 a       323     0    27     1    11
 -9.3112588337498075E+00 a       324     0    27     1    12
 -1.8613062648431598E+01 a       325     0    28     1     1
 -7.1781563112712405E+01 a       326     0    28     1     2
 -4.5146999749124078E+01 a       327     0    28     1     3
 -5.0700622663825769E+01 a       328     0    28     1     4
  1.4523345918862951E+01 a       329     0    28     1     5
 -9.3342755778352107E+00 a       330     0    28     1     6
 -7.5379485606691929E+00 a       331     0    28     1     7
  6.3079139457494273E+00 a       332     0    28     1     8
 -1.0737116841834629E+00 a       333     0    28     1     9
  7.6290602881379561E+00 a       334     0    28     1    10
  3.5838949308034032E+00 a       335     0    28     1    11
  1.9090424685653677E+00 a       336     0    28     1    12
 -6.6938875253391554E+00 a       337     0    29     1     1
 -4.6069437563138678E+01 a       338     0    29     1     2
  3.0540127812778213E+01 a       339     0    29     1     3
 -5.9559951822807434E+01 a       340     0    29     1     4
  3.2558438713894233E+01 a       341     0    29     1     5
 -4.2138416848937020E+01 a       342     0    29     1     6
 -2.3059135076662409E+00 a       343     0    29     1     7
  4.6656664218978450E-01 a       344     0    29     1     8
  5.4225178691559384E+00 a       345     0    29     1     9
 -3.1736626034290212E+00 a       346     0    29     1    10
  1.1149484177849430E+01 a       347     0    29     1    11
 -2.2919136308479264E+00 a       348     0    29     1    12
 -1.7926737421801775E+01 a       349     0    30     1     1
  1.8468758476653836E+01 a       350     0    30     1     2
 -2.6206384695600331E+01 a       351     0    30     1     3
  5.7845638836223623E+00 a       352     0    30     1     4
  3.7313774085684315E+01 a       353     0    30     1     5
 -6.8809375357340761E+00 a       354     0    30     1     6
  5.7600512681129601E+00 a       355     0    30     1     7
 -2.8213097241923824E-01 a       356     0    30     1     8
 -4.2080450238330016E+00 a       357     0    30     1     9
 -2.4848716555853221E+00 a       358     0    30     1    10
  9.6915674202086191E+00 a       359     0    30     1    11
  1.1212857278812578E+00 a       360     0    30     1    12
 -7.0516344341531969E+00 a       361     0    31     1     1
 -3.5551499759913888E+01 a       362     0    31     1     2
 -1.6407644581671242E+01 a       363     0    31     1     3
 -1.0119965357706749E+02 a       364     0    31     1     4
  4.1992921692929315E+01 a       365     0    31     1     5
  2.2679414273201575E+00 a       366     0    31     1     6
 -3.2712621762915104E+00 a       367     0    31     1     7
  3.4706864488880553E+00 a       368     0    31     1     8
  3.2693037609619031E+00 a       369     0    31     1     9
 -5.6474133912486710E+00 a       370     0    31     1    10
  1.9182973610141755E+01 a       371     0    31     1    11
 -5.3546818012970441E+00 a       372     0    31     1    12
 -1.3973497961935147E+01 a       373     0    32     1     1
 -3.3512261609228261E+01 a       374     0    32     1     2
 -3.3117246834824492E+01 a       375     0    32     1     3
  9.0511511066636725E+00 a       376     0    32     1     4
  3.9542059078613697E+01 a       377     0    32     1     5
 -7.6761037271188401E+00 a       378     0    32     1     6
 -4.2694020942091662E+00 a       379     0    32     1     7
 -9.1688023701317860E+00 a       380     0    32     1     8
 -2.2412796109758282E+00 a       381     0    32     1     9
 -6.1492847438022560E+00 a       382     0    32     1    10
  1.3867923497273971E+01 a       383     0    32     1    11
  1.3298454730757996E+00 a       384     0    32     1    12
 -1.2903978896235127E+01 a       385     0    33     1     1
 -3.6328628893816720E+01 a       386     0    33     1     2
 -1.7174495891127037E+01 a       387     0    33     1     3
 -1.7222813377450412E+00 a       388     0    33     1     4
  3.8756995292076482E+01 a       389     0    33     1     5
 -5.7453529715617528E+01 a       390     0    33     1     6
 -3.9501173201939350E+00 a       391     0    33     1     7
 -1.2703962700505675E+00 a       392     0    33     1     8
 -3.6809139114960328E+00 a       393     0    33     1     9
 -6.5795796780700633E-01 a       394     0    33     1    10
 -2.9751308445314275E+00 a       395     0    33     1    11
  7.0999362215252768E+00 a       396     0    33     1    12
  3.5746766137185311E+01 a       397     0    34     1     1
 -1.2417372743806380E+01 a       398     0    34     1     2
 -2.9167277312891727E+01 a       399     0    34     1     3
  4.1095078327862772E+01 a       400     0    34     1     4
  1.3155849922332603E+01 a       401     0    34     1     5
 -8.0374827559210937E-01 a       402     0    34     1     6
  2.7313875171969610E+01 a       403     0    34     1     7
 -1.0267848431476525E+01 a       404     0    34     1     8
 -1.7747946713832616E+00 a       405     0    34     1     9
  5.2850893661239313E+00 a       406     0    34     1    10
  7.8774299233260692E-01 a       407     0    34     1    11
 -1.3170819335738864E+01 a       408     0    34     1    12
  1.9777749639233342E+01 a       409     0    35     1     1
  8.5016736355140683E+00 a       410     0    35     1     2
  1.5742078826442960E+01 a       411     0    35     1     3
 -2.0432328421995336E+01 a       412     0    35     1     4
 -1.3730286268293613E+01 a       413     0    35     1     5
  1.2129149410245244E+01 a       414     0    35     1     6
  1.8208451217733572E+01 a       415     0    35     1     7
  1.9055403199706999E+00 a       416     0    35     1     8
  6.6315722089369666E-01 a       417     0    35     1     9
  6.1515427709428607E+00 a       418     0    35     1    10
 -7.2191096249612174E+00 a       419     0    35     1    11
  1.0829409446083524E+01 a       420     0    35     1    12
  2.8962231679270815E+01 a       421     0    36     1     1
  1.2155811525442799E+01 a       422     0    36     1     2
 -6.5135388719138199E+00 a       423     0    36     1     3
  3.1788891398099864E+01 a       424     0    36     1     4
 -2.7361730828490593E+01 a       425     0    36     1     5
 -2.6475170665213771E+01 a       426     0    36     1     6
  1.0386723444834518E+01 a       427     0    36     1     7
  3.2079189029548738E+00 a       428     0    36     1     8
  4.3532584972386070E+00 a       429     0    36     1     9
  4.3065972227226119E+00 a       430     0    36     1    10
 -1.1841286966514721E+01 a       431     0    36     1    11
  6.8862135177572039E+00 a       432     0    36     1    12
  7.9264731027504718E+00 a       433     0    37     1     1
 -6.3660366527613821E+00 a       434     0    37     1     2
  1.3130784473593045E+00 a       435     0    37     1     3
 -1.8925182399459796E+01 a       436     0    37     1     4
 -2.7162343700107193E+01 a       437     0    37     1     5
  3.1604260579704849E+01 a       438     0    37     1     6
  6.6835658381894714E+00 a       439     0    37     1     7
  1.3198010795389477E+01 a       440     0    37     1     8
 -9.4370076450171876E+00 a       441     0    37     1     9
  1.3908426388187183E+00 a       442     0    37     1    10
 -1.1704987577293187E+01 a       443     0    37     1    11
  1.5533912038012954E+01 a       444     0    37     1    12
  1.7317511423758486E+01 a       445     0    38     1     1
  5.4824035470924478E+01 a       446     0    38     1     2
  3.9471194125557119E+01 a       447     0    38     1     3
  3.6195213263066123E+01 a       448     0    38     1     4
 -3.5874468301688061E+01 a       449     0    38     1     5
  1.4487160541191329E+01 a       450     0    38     1     6
  6.9029803443775384E+00 a       451     0    38     1     7
  7.5263071376882982E+00 a       452     0    38     1     8
 -4.0459467785750691E+00 a       453     0    38     1     9
  4.0792447753957335E+00 a       454     0    38     1    10
 -1.6646679257904832E+01 a       455     0    38     1    11
  1.3336570244496672E+01 a       456     0    38     1    12
  1.4335228593196758E+01 a       457     0    39     1     1
  5.0798689423907764E+00 a       458     0    39     1     2
  3.0550560175557337E+00 a       459     0    39     1     3
 -1.9122512953235427E+00 a       460     0    39     1     4
 -3.7873716851638029E+01 a       461     0    39     1     5
 -1.4737614424823688E+01 a       462     0    39     1     6
  4.7287528478989955E+00 a       463     0    39     1     7
  7.1586468764651903E+00 a       464     0    39     1     8
  6.4838139157984948E-02 a       465     0    39     1     9
 -2.0509837664182826E+00 a       466     0    39     1    10
 -6.4194767542179347E+00 a       467     0    39     1    11
  6.2058947264028061E+00 a       468     0    39     1    12
  1.4056014928428754E+01 a       469     0    40     1     1
 -2.3921778849364341E+00 a       470     0    40     1     2
 -1.2349903565087408E+00 a       471     0    40     1     3
 -3.3554827804749017E+01 a       472     0    40     1     4
 -2.6078543178476970E+01 a       473     0    40     1     5
 -5.0282952014617670E+01 a       474     0    40     1     6
 -4.1592411127472834E-01 a       475     0    40     1     7
 -1.1828466751852321E+01 a       476     0    40     1     8
 -8.9994363358457576E+00 a       477     0    40     1     9
 -2.0747242201559800E+01 a       478     0    40     1    10
  4.7259203381396064E+00 a       479     0    40     1    11
  9.0967422636731126E+00 a       480     0    40     1    12
  2.9377377385603811E+00 a       481     0    41     1     1
  8.3680391307515176E+00 a       482     0    41     1     2
 -8.2627017188516774E+01 a       483     0    41     1     3
  6.2827013923905684E+00 a       484     0    41     1     4
 -4.5595418121610720E+01 a       485     0    41     1     5
 -6.7858455951521677E+00 a       486     0    41     1     6
  5.9601619783810715E+00 a       487     0    41     1     7
 -1.1292319986862687E+01 a       488     0    41     1     8
 -8.9990359318447712E+00 a       489     0    41     1     9
 -6.1031632788220174E+00 a       490     0    41     1    10
 -7.0439657683719814E-01 a       491     0    41     1    11
  3.7763333967802937E+00 a       492     0    41     1    12
  2.1984104171657645E+01 a       493     0    42     1     1
  4.3420604814566495E+01 a       494     0    42     1     2
  5.8956264736670363E+01 a       495     0    42     1     3
 -1.2921192641679877E+01 a       496     0    42     1     4
 -5.7848509705175260E+01 a       497     0    42     1     5
  2.1445182809676502E-01 a       498     0    42     1     6
  4.9783509088229311E-01 a       499     0    42     1     7
 -9.3228005599594184E+00 a       500     0    42     1     8
 -1.1080247913913359E+00 a       501     0    42     1     9
  3.3619717204242776E+00 a       502     0    42     1    10
 -1.4858962468762944E+00 a       503     0    42     1    11
  5.9312038566047738E+00 a       504     0    42     1    12
 -6.6782576839512391E+00 a       505     0    43     1     1
 -3.1801249802263264E+01 a       506     0    43     1     2
 -1.5440007766839638E+01 a       507     0    43     1     3
  1.0764492699034530E+01 a       508     0    43     1     4
 -5.6970062395926192E+01 a       509     0    43     1     5
 -2.5681498222175581E+01 a       510     0    43     1     6
  7.6490984337889483E+00 a       511     0    43     1     7
 -1.4389984343022546E+01 a       512     0    43     1     8
 -7.4918925808115331E+00 a       513     0    43     1     9
  6.3956373434939389E+00 a       514     0    43     1    10
  4.7453946824863866E+00 a       515     0    43     1    11
  5.7701868392039524E+00 a       516     0    43     1    12
  6.2114437008472869E+00 a       517     0    44     1     1
  4.7974441041019709E+01 a       518     0    44     1     2
 -8.2310823038694650E+01 a       519     0    44     1     3
 -6.2961705854179648E+00 a       520     0    44     1     4
 -5.5085419657315725E+01 a       521     0    44     1     5
  5.8724135872060565E+01 a       522     0    44     1     6
  1.1931541747705348E+01 a       523     0    44     1     7
 -1.7207540604642352E-01 a       524     0    44     1     8
 -5.0059481817503269E+00 a       525     0    44     1     9
  1.1109464492734595E+01 a       526     0    44     1    10
 -4.6197151686595139E-01 a       527     0    44     1    11
 -3.6700319619683404E+00 a       528     0    44     1    12
  2.0324581353403964E+01 a       529     0    45     1     1
 -2.1189857241882589E+01 a       530     0    45     1     2
  5.1151710241709356E+00 a       531     0    45     1     3
 -2.4240527563426554E+01 a       532     0    45     1     4
 -5.8751700506802031E+01 a       533     0    45     1     5
 -2.9563649803555855E+01 a       534     0    45     1     6
  1.1429618405196951E+01 a       535     0    45     1     7
 -1.5170450836430934E+01 a       536     0    45     1     8
  1.7440056537360871E+01 a       537     0    45     1     9
  5.6955200281529308E+00 a       538     0    45     1    10
  1.1990636992356022E+01 a       539     0    45     1    11
 -8.2117007557468291E+00 a       540     0    45     1    12
 -7.4359560697840124E+01 a       541     0    46     1     1
  1.6278835511467626E+01 a       542     0    46     1     2
 -3.5346658889556927E+01 a       543     0    46     1     3
 -7.5584517258934241E+01 a       544     0    46     1     4
 -1.6319302623631689E+01 a       545     0    46     1     5
  2.5994461773625623E+01 a       546     0    46     1     6
 -1.1259732052238112E+01 a       547     0    46     1     7
 -8.4093251008171279E+00 a       548     0    46     1     8
  2.2266177498170325E+01 a       549     0    46     1     9
  1.8643765384958730E+01 a       550     0    46     1    10
 -1.6269525006173694E+01 a       551     0    46     1    11
  1.2244356323787557E+01 a       552     0    46     1    12
 -4.7592670440421109E+01 a       553     0    47     1     1
  1.5100409060646413E+01 a       554     0    47     1     2
 -3.0543601172049801E+01 a       555     0    47     1     3
  6.8892674620469833E+01 a       556     0    47     1     4
  4.9094041132586170E+01 a       557     0    47     1     5
 -2.7499876778259562E+01 a       558     0    47     1     6
 -3.0478910351860535E+00 a       559     0    47     1     7
 -1.0549347341823487E+00 a       560     0    47     1     8
 -6.2949862797655447E+00 a       561     0    47     1     9
  5.6067419913357615E+00 a       562     0    47     1    10
 -9.2122264611263169E+00 a       563     0    47     1    11
  9.5256767780520075E+00 a       564     0    47     1    12
 -6.9915394485735760E+01 a       565     0    48     1     1
  2.5823646027373830E+01 a       566     0    48     1     2
  2.8552380502484933E+01 a       567     0    48     1     3
 -1.6696101996420630E+01 a       568     0    48     1     4
  5.4654352592969786E+01 a       569     0    48     1     5
  2.7538577833628853E+01 a       570     0    48     1     6
 -1.4228608280061947E+00 a       571     0    48     1     7
 -1.5570919889976871E+01 a       572     0    48     1     8
 -2.6752812076702210E+00 a       573     0    48     1     9
  8.6439910042164314E+00 a       574     0    48     1    10
 -3.5949755380570751E+00 a       575     0    48     1    11
 -9.6735847796494068E-01 a       576     0    48     1    12
 -2.7077144919572607E+01 a       577     0    49     1     1
  4.1062842392885102E+01 a       578     0    49     1     2
  2.2592775910900386E+01 a       579     0    49     1     3
  2.1140740102813595E+01 a       580     0    49     1     4
  7.1858177778292614E+01 a       581     0    49     1     5
 -2.4327056916628624E+01 a       582     0    49     1     6
  9.3987215556653450E+00 a       583     0    49     1     7
  3.7697175601478352E+00 a       584     0    49     1     8
  2.3132085919031372E+01 a       585     0    49     1     9
 -4.3200105808848288E-01 a       586     0    49     1    10
  3.1968086083575722E+00 a       587     0    49     1    11
  1.8062699100192013E+01 a       588     0    49     1    12
 -3.7280378742415792E+01 a       589     0    50     1     1
 -6.3442095712583182E+01 a       590     0    50     1     2
 -5.0620487410308073E+01 a       591     0    50     1     3
 -7.1899370723423743E+01 a       592     0    50     1     4
  6.4045303852352220E+01 a       593     0    50     1     5
 -2.2116073095863538E+01 a       594     0    50     1     6
  2.8593562353283706E+00 a       595     0    50     1     7
  1.6965964564574518E+00 a       596     0    50     1     8
  1.3159284264783128E+01 a       597     0    50     1     9
  1.2763480943768473E+00 a       598     0    50     1    10
  5.1136437955776533E+00 a       599     0    50     1    11
  1.1712218707053406E+01 a       600     0    50     1    12
 -4.0487495189436125E+01 a       601     0    51     1     1
  9.2781469112076223E+01 a       602     0    51     1     2
  6.5780354027145975E+01 a       603     0    51     1     3
  7.7167978991938199E+01 a       604     0    51     1     4
  4.7817245506747362E+01 a       605     0    51     1     5
  4.2594888019459646E+01 a       606     0    51     1     6
 -3.6545498059039581E+00 a       607     0    51     1     7
 -9.9110619878213715E+00 a       608     0    51     1     8
  2.7488361370390693E+00 a       609     0    51     1     9
  1.2789097542038959E+01 a       610     0    51     1    10
 -2.6770353981192581E+00 a       611     0    51     1    11
  1.4680641229566632E+01 a       612     0    51     1    12
  2.1927084153878415E+01 a       613     0    52     1     1
  6.4524868799953936E+01 a       614     0    52     1     2
  3.4129277804062276E+01 a       615     0    52     1     3
  3.5823776726164951E+01 a       616     0    52     1     4
 -2.2973995588863065E+01 a       617     0    52     1     5
 -5.8383414700554495E+00 a       618     0    52     1     6
 -3.2945747022400216E+00 a       619     0    52     1     7
  7.1522442666876849E+00 a       620     0    52     1     8
  1.2681535923298195E+01 a       621     0    52     1     9
 -8.2767786818692333E+00 a       622     0    52     1    10
 -1.2576011292282946E+01 a       623     0    52     1    11
  2.3615848494207352E+00 a       624     0    52     1    12
  4.1666140388163821E+00 a       625     0    53     1     1
  7.8662996310635975E+01 a       626     0    53     1     2
 -2.5964941326192150E+01 a       627     0    53     1     3
  9.0827274846241480E+01 a       628     0    53     1     4
 -4.9837431242109247E+01 a       629     0    53     1     5
  7.0663718596272744E+01 a       630     0    53     1     6
 -9.0784476006637700E+00 a       631     0    53     1     7
  5.6991028082778961E+00 a       632     0    53     1     8
 -1.1987551053236528E+01 a       633     0    53     1     9
  3.9695415372015987E+00 a       634     0    53     1    10
 -1.6191573987180892E+01 a       635     0    53     1    11
  2.6163004296774446E+00 a       636     0    53     1    12
  2.0358059782048269E+01 a       637     0    54     1     1
 -2.8452613324180195E+01 a       638     0    54     1     2
  2.4904401164124433E+01 a       639     0    54     1     3
 -1.6583125461712527E+01 a       640     0    54     1     4
 -5.4766683398406173E+01 a       641     0    54     1     5
  1.2111994575807296E+01 a       642     0    54     1     6
 -2.7753005317363790E+01 a       643     0    54     1     7
  6.2956948179217740E+00 a       644     0    54     1     8
  3.7032707888115874E+00 a       645     0    54     1     9
  1.1379327913179011E+00 a       646     0    54     1    10
 -1.6331775808327510E+01 a       647     0    54     1    11
 -1.0878737183905061E+00 a       648     0    54     1    12
  6.3056435252234797E+00 a       649     0    55     1     1
  3.2103407450490892E+01 a       650     0    55     1     2
  2.6875282485697511E+01 a       651     0    55     1     3
  1.2053905329790985E+02 a       652     0    55     1     4
 -6.1481407493979106E+01 a       653     0    55     1     5
 -4.8289683247000781E+00 a       654     0    55     1     6
  1.9519356875542206E+00 a       655     0    55     1     7
 -5.3259502503687441E+00 a       656     0    55     1     8
 -1.4069688466773474E+01 a       657     0    55     1     9
  2.4921551679230944E+00 a       658     0    55     1    10
 -1.5994356617244017E+01 a       659     0    55     1    11
  2.0826307503224899E+00 a       660     0    55     1    12
  1.6574406764936139E+01 a       661     0    56     1     1
  4.7711706146782532E+01 a       662     0    56     1     2
  5.6718188674980809E+01 a       663     0    56     1     3
 -1.3555214676739997E+01 a       664     0    56     1     4
 -5.6839437608090883E+01 a       665     0    56     1     5
  9.7396029652381557E+00 a       666     0    56     1     6
 -3.3758882079883210E+00 a       667     0    56     1     7
  8.6911983930820149E+00 a       668     0    56     1     8
 -2.5897170929279607E+00 a       669     0    56     1     9
  2.5626731469131903E+00 a       670     0    56     1    10
 -9.7784087654280292E+00 a       671     0    56     1    11
 -8.3628427687101627E+00 a       672     0    56     1    12
  1.3291427351997134E+01 a       673     0    57     1     1
  5.8635797348534922E+01 a       674     0    57     1     2
  4.2804868323048815E+01 a       675     0    57     1     3
  8.7479539757304039E+00 a       676     0    57     1     4
 -5.4844899834857507E+01 a       677     0    57     1     5
  8.2025445636109467E+01 a       678     0    57     1     6
 -9.3957592711415163E+00 a       679     0    57     1     7
  5.9772146204485255E-01 a       680     0    57     1     8
 -3.3120369945017547E+00 a       681     0    57     1     9
 -4.3147598098315267E+00 a       682     0    57     1    10
  9.8420126653020521E+00 a       683     0    57     1    11
 -1.2432181471688029E+01 a       684     0    57     1    12
 -5.3169228819139420E+01 a       685     0    58     1     1
  3.3803726350105812E+01 a       686     0    58     1     2
  5.1556299719799362E+01 a       687     0    58     1     3
 -4.9597006805547068E+01 a       688     0    58     1     4
 -2.1556967531725061E+01 a       689     0    58     1     5
 -1.5025716637278921E+00 a       690     0    58     1     6
 -3.4638620606732701E+01 a       691     0    58     1     7
  1.9437638464971272E+00 a       692     0    58     1     8
 -8.6707500410966105E+00 a       693     0    58     1     9
 -1.4752899674141609E+01 a       694     0    58     1    10
 -1.0738260174463610E-02 a       695     0    58     1    11
  1.3827464463468502E+01 a       696     0    58     1    12
 -2.8888453390994403E+01 a       697     0    59     1     1
 -1.2552792653552761E+01 a       698     0    59     1     2
 -2.6176504162160686E+01 a       699     0    59     1     3
  3.9184576142192043E+01 a       700     0    59     1     4
  1.5568905196273558E+01 a       701     0    59     1     5
 -3.0412985893065063E+01 a       702     0    59     1     6
 -2.2086903224122874E+01 a       703     0    59     1     7
 -4.1791153354195982E+00 a       704     0    59     1     8
 -4.3832102264482353E+00 a       705     0    59     1     9
 -8.5391674422432988E+00 a       706     0    59     1    10
  7.6055831804632756E+00 a       707     0    59     1    11
 -1.7096274453979731E+01 a       708     0    59     1    12
 -4.0554243778094666E+01 a       709     0    60     1     1
 -3.9131367424263956E+01 a       710     0    60     1     2
 -3.0141960120058253E+00 a       711     0    60     1     3
 -5.6125514774573787E+01 a       712     0    60     1     4
  3.3614759232281813E+01 a       713     0    60     1     5
  2.3059764719310405E+01 a       714     0    60     1     6
 -5.4109365595004535E+00 a       715     0    60     1     7
 -3.6452133687231663E+00 a       716     0    60     1     8
 -9.1066623274313141E+00 a       717     0    60     1     9
 -4.6512492463169037E+00 a       718     0    60     1    10
  1.9120139306780079E+01 a       719     0    60     1    11
 -1.1710828256870119E+01 a       720     0    60     1    12
 -1.1976876201532074E+01 a       721     0    61     1     1
 -7.4878635292826337E+00 a       722     0    61     1     2
 -1.7120950131839034E+01 a       723     0    61     1     3
  2.7176278380106726E+01 a       724     0    61     1     4
  3.3037658958694479E+01 a       725     0    61     1     5
 -7.9780600384153317E+01 a       726     0    61     1     6
 -1.2961916728373948E+01 a       727     0    61     1     7
 -1.4257041594646568E+01 a       728     0    61     1     8
  9.9501364679786981E+00 a       729     0    61     1     9
  5.5309194853127677E+00 a       730     0    61     1    10
  2.5969120613466803E+00 a       731     0    61     1    11
 -2.0533399412288254E+01 a       732     0    61     1    12
 -2.2936752224874908E+01 a       733     0    62     1     1
 -7.8007257614861302E+01 a       734     0    62     1     2
 -4.8991356481890158E+01 a       735     0    62     1     3
 -4.9281734463402763E+01 a       736     0    62     1     4
  4.5495829653795845E+01 a       737     0    62     1     5
 -3.2316280363537309E+01 a       738     0    62     1     6
 -6.3761605184172003E+00 a       739     0    62     1     7
 -1.7874021744607842E+00 a       740     0    62     1     8
  6.8972679950051790E+00 a       741     0    62     1     9
  2.7378593198835463E-03 a       742     0    62     1    10
  8.9001420294838649E+00 a       743     0    62     1    11
 -1.8048950944769427E+01 a       744     0    62     1    12
 -1.7047523387965274E+01 a       745     0    63     1     1
 -2.5724748502741619E+01 a       746     0    63     1     2
 -4.0395023176140150E+01 a       747     0    63     1     3
 -1.6702409281619342E+01 a       748     0    63     1     4
  4.6454941789152137E+01 a       749     0    63     1     5
  1.9740018102530268E+01 a       750     0    63     1     6
  1.5713027849867141E+00 a       751     0    63     1     7
 -4.3163432824719647E+00 a       752     0    63     1     8
  4.9480074813492632E+00 a       753     0    63     1     9
  8.3749481696780688E+00 a       754     0    63     1    10
  2.4250957628006291E+00 a       755     0    63     1    11
 -1.1071253188282251E+01 a       756     0    63     1    12
 -7.9735033374021347E+00 a       757     0    64     1     1
  1.9064782512950373E+01 a       758     0    64     1     2
  1.3948416228486975E+01 a       759     0    64     1     3
  4.4550425738174432E+01 a       760     0    64     1     4
  3.1518933608235184E+01 a       761     0    64     1     5
  6.5807133972601648E+01 a       762     0    64     1     6
  2.8238580534852822E+01 a       763     0    64     1     7
 -2.1294940482940254E+00 a       764     0    64     1     8
  1.0182749738467837E+01 a       765     0    64     1     9
  2.8647446869576779E+01 a       766     0    64     1    10
 -7.4284362863007631E+00 a       767     0    64     1    11
 -1.9756588042417661E+01 a       768     0    64     1    12
  5.5725961200093552E+00 a       769     0    65     1     1
 -2.3423839607845448E+01 a       770     0    65     1     2
  6.6959879735945037E+01 a       771     0    65     1     3
  5.1976592928869296E+00 a       772     0    65     1     4
  6.1064385026743565E+01 a       773     0    65     1     5
 -3.2998807937558512E+00 a       774     0    65     1     6
  1.5617574597351441E+01 a       775     0    65     1     7
  1.2992416445794337E+01 a       776     0    65     1     8
  2.2314874354650417E+01 a       777     0    65     1     9
  1.2932858947982703E+01 a       778     0    65     1    10
 -3.1652309908810077E+00 a       779     0    65     1    11
 -4.2561661534056023E+00 a       780     0    65     1    12
 -2.3262792265511468E+01 a       781     0    66     1     1
 -5.5475954690060767E+01 a       782     0    66     1     2
 -8.1254464106176343E+01 a       783     0    66     1     3
  4.6811015580145501E+01 a       784     0    66     1     4
  7.8876593470144030E+01 a       785     0    66     1     5
 -5.4089974016278521E+00 a       786     0    66     1     6
  3.1701111326906240E+01 a       787     0    66     1     7
  6.8632825920787690E+00 a       788     0    66     1     8
  7.9109039555816496E+00 a       789     0    66     1     9
 -1.4722481379773762E+00 a       790     0    66     1    10
  7.0935179860910438E+00 a       791     0    66     1    11
 -9.4186591588438890E+00 a       792     0    66     1    12
  1.9400690748303262E+01 a       793     0    67     1     1
  1.7881493605719122E+01 a       794     0    67     1     2
  1.3480991087128134E+01 a       795     0    67     1     3
 -1.5050768359488968E+01 a       796     0    67     1     4
  7.5556804843305471E+01 a       797     0    67     1     5
 -1.6853457567597478E+00 a       798     0    67     1     6
 -5.0763316082129011E+00 a       799     0    67     1     7
  2.4478187020748635E+01 a       800     0    67     1     8
  2.3511938500312734E+01 a       801     0    67     1     9
 -1.5422305693829368E+00 a       802     0    67     1    10
 -2.6217066825361432E+01 a       803     0    67     1    11
 -2.4002095775899277E+00 a       804     0    67     1    12
 -2.6508134506890118E+00 a       805     0    68     1     1
 -4.7392868564995936E+01 a       806     0    68     1     2
 -2.6247494202413550E+00 a       807     0    68     1     3
  3.3263954310846763E+01 a       808     0    68     1     4
  7.3962438091296903E+01 a       809     0    68     1     5
 -7.4438322517185512E+01 a       810     0    68     1     6
 -6.0779288623158900E-01 a       811     0    68     1     7
  7.0362359603388560E+00 a       812     0    68     1     8
  1.1859104113002731E+01 a       813     0    68     1     9
 -9.4792698293285280E+00 a       814     0    68     1    10
 -4.1301819416838850E+00 a       815     0    68     1    11
  7.4283069840585885E+00 a       816     0    68     1    12
 -2.4135368454339471E+01 a       817     0    69     1     1
  2.0319282975842082E+01 a       818     0    69     1     2
 -2.6980980711226142E+01 a       819     0    69     1     3
  2.8239312097279502E+01 a       820     0    69     1     4
  7.9418124212564834E+01 a       821     0    69     1     5
  4.6278146153138792E+01 a       822     0    69     1     6
  9.8719750936184543E+00 a       823     0    69     1     7
  2.1177755222862260E+01 a       824     0    69     1     8
 -2.2676148995203679E+01 a       825     0    69     1     9
 -4.1290306504655172E+00 a       826     0    69     1    10
 -1.0519187728998208E+01 a       827     0    69     1    11
  9.7809284123387989E+00 a       828     0    69     1    12
  1.0967616004046958E+02 a       829     0    70     1     1
 -6.7299041508873358E+01 a       830     0    70     1     2
 -1.2132685118364654E+00 a       831     0    70     1     3
  5.6745327638445119E+01 a       832     0    70     1     4
  2.2661920858599764E+01 a       833     0    70     1     5
 -3.9527375353743366E+01 a       834     0    70     1     6
  1.7556050188160707E+01 a       835     0    70     1     7
  1.6125946179534829E+01 a       836     0    70     1     8
  2.9655722528213593E+00 a       837     0    70     1     9
 -2.2263864962489844E+01 a       838     0    70     1    10
  1.2032965702291502E+01 a       839     0    70     1    11
 -3.3062489600789746E+00 a       840     0    70     1    12
  6.8845783373302851E+01 a       841     0    71     1     1
 -3.5309900207504420E+01 a       842     0    71     1     2
  2.0531748387577885E+01 a       843     0    71     1     3
 -1.2549882198754078E+02 a       844     0    71     1     4
 -6.3468814108253390E+01 a       845     0    71     1     5
  4.9373549051033628E+01 a       846     0    71     1     6
 -5.9445948009685701E-01 a       847     0    71     1     7
 -5.4353529311584809E+00 a       848     0    71     1     8
  3.0379415022026485E+01 a       849     0    71     1     9
 -1.1987063728301379E+01 a       850     0    71     1    10
  3.2766795726039502E+00 a       851     0    71     1    11
 -9.6607511182483670E+00 a       852     0    71     1    12
  9.7867156659973915E+01 a       853     0    72     1     1
 -1.7365409963099527E+01 a       854     0    72     1     2
 -3.6745657453011653E+01 a       855     0    72     1     3
  2.6116148320154640E+01 a       856     0    72     1     4
 -5.9326623076937047E+01 a       857     0    72     1     5
 -3.0130357002413049E+01 a       858     0    72     1     6
 -6.0376383361188832E+00 a       859     0    72     1     7
  1.6031220830545337E+01 a       860     0    72     1     8
  2.2832088119988335E+01 a       861     0    72     1     9
 -1.6455318681107627E+01 a       862     0    72     1    10
 -1.1708491233938853E+01 a       863     0    72     1    11
  7.9981964767856644E+00 a       864     0    72     1    12
  4.3172440516854465E+01 a       865     0    73     1     1
 -3.4870739013416959E+01 a       866     0    73     1     2
 -1.3154044710085254E+01 a       867     0    73     1     3
 -1.9547801455436851E+01 a       868     0    73     1     4
 -8.4456972283443392E+01 a       869     0    73     1     5
  6.7806587263628586E+01 a       870     0    73     1     6
 -7.7682203481556860E+00 a       871     0    73     1     7
 -2.0377234821365462E+01 a       872     0    73     1     8
 -6.5144892309703568E+00 a       873     0    73     1     9
 -7.9424040326414058E+00 a       874     0    73     1    10
 -3.9806524187187189E+00 a       875     0    73     1    11
 -2.3495178424042553E+01 a       876     0    73     1    12
  4.6282184020162425E+01 a       877     0    74     1     1
  1.0772107764040396E+02 a       878     0    74     1     2
  7.6323100022144416E+01 a       879     0    74     1     3
  1.3067135912675914E+02 a       880     0    74     1     4
 -6.7854311307406746E+01 a       881     0    74     1     5
  6.3094285805226207E+01 a       882     0    74     1     6
 -8.7949213799451798E+00 a       883     0    74     1     7
 -1.7176570848094585E+01 a       884     0    74     1     8
 -8.4494937941871147E+00 a       885     0    74     1     9
 -8.3072866442653321E+00 a       886     0    74     1    10
  1.5777666215994184E+00 a       887     0    74     1    11
 -1.2656276827456765E+01 a       888     0    74     1    12
  4.7393239864199913E+01 a       889     0    75     1     1
 -9.1512105077275294E+01 a       890     0    75     1     2
  4.7601766835302186E+00 a       891     0    75     1     3
 -5.8446390550640082E+01 a       892     0    75     1     4
 -3.6244287463713583E+01 a       893     0    75     1     5
 -4.6039173836177618E+01 a       894     0    75     1     6
 -6.4585236444153384E+00 a       895     0    75     1     7
  9.4614568313489122E-01 a       896     0    75     1     8
 -5.4756079519349834E+00 a       897     0    75     1     9
 -2.4041015488352269E+01 a       898     0    75     1    10
  2.4997312089087718E+00 a       899     0    75     1    11
 -1.5804430628104996E+01 a       900     0    75     1    12
 -1.8552462391279029E+01 a       901     0    76     1     1
  3.4155246512387883E+01 a       902     0    76     1     2
 -2.5536024925762348E+01 a       903     0    76     1     3
 -1.3615711335803805E+01 a       904     0    76     1     4
  4.9366351570916898E+01 a       905     0    76     1     5
  1.7721885060688336E+01 a       906     0    76     1     6
  4.1613039533877682E+01 a       907     0    76     1     7
  2.2481010683628394E-01 a       908     0    76     1     8
 -2.1354043475733711E+01 a       909     0    76     1     9
 -2.8032743684477108E+01 a       910     0    76     1    10
  2.7865067339051929E+01 a       911     0    76     1    11
  6.5133380096992530E+00 a       912     0    76     1    12
 -1.0314841302019014E+01 a       913     0    77     1     1
 -7.6764534416083720E+01 a       914     0    77     1     2
 -1.7152252771041734E+01 a       915     0    77     1     3
 -1.0125241747727149E+02 a       916     0    77     1     4
  2.6532373002027281E+01 a       917     0    77     1     5
 -6.7160714517865813E+01 a       918     0    77     1     6
  2.6539694418121563E+01 a       919     0    77     1     7
  1.9685200885762997E+00 a       920     0    77     1     8
  1.2361145970576819E+01 a       921     0    77     1     9
 -2.2129187535639122E+01 a       922     0    77     1    10
  3.8375093811631267E+00 a       923     0    77     1    11
  9.4747941159209219E+00 a       924     0    77     1    12
 -2.4472706611615287E+00 a       925     0    78     1     1
 -7.2650244141811147E+00 a       926     0    78     1     2
  7.3842200797119846E+00 a       927     0    78     1     3
 -4.2413174806197070E+01 a       928     0    78     1     4
  8.9626765137480682E+00 a       929     0    78     1     5
 -6.0188897172017974E+01 a       930     0    78     1     6
  3.4610772358499851E+01 a       931     0    78     1     7
 -4.5144125755312219E+00 a       932     0    78     1     8
 -6.8643606184687647E+00 a       933     0    78     1     9
 -1.4659324933236315E+00 a       934     0    78     1    10
 -2.2830004161823458E+00 a       935     0    78     1    11
 -1.4649878148265860E+00 a       936     0    78     1    12
 -4.5811335719552353E+01 a       937     0    79     1     1
  4.0627350951238192E+01 a       938     0    79     1     2
 -5.9189569488817227E+01 a       939     0    79     1     3
 -8.8208748770631331E+01 a       940     0    79     1     4
  9.8507390322464179E+00 a       941     0    79     1     5
  8.2528718070897398E+01 a       942     0    79     1     6
  2.7798825613884770E-01 a       943     0    79     1     7
 -4.5011590942700526E+00 a       944     0    79     1     8
 -5.0599207835322435E+00 a       945     0    79     1     9
  8.3571970697473752E+00 a       946     0    79     1    10
  2.6531789370155202E+01 a       947     0    79     1    11
  1.3927946125487933E+01 a       948     0    79     1    12
 -4.3215094760489137E+01 a       949     0    80     1     1
  3.0535617997188950E+01 a       950     0    80     1     2
  7.7392802863330104E+01 a       951     0    80     1     3
  6.2159291106693956E+01 a       952     0    80     1     4
  3.9969977679782698E+00 a       953     0    80     1     5
  6.1123523569427370E+01 a       954     0    80     1     6
  3.6273550435735338E+00 a       955     0    80     1     7
 -9.6607638178649520E+00 a       956     0    80     1     8
 -2.2646462957765038E+01 a       957     0    80     1     9
  1.7527799056928234E+01 a       958     0    80     1    10
  2.8324680759265477E+00 a       959     0    80     1    11
  2.7708570631681319E+01 a       960     0    80     1    12
 -1.8924921261658543E+01 a       961     0    81     1     1
 -6.0783917536503800E+01 a       962     0    81     1     2
  1.3599775805539700E+01 a       963     0    81     1     3
 -8.1172642851288856E+01 a       964     0    81     1     4
  3.1626198283782370E+00 a       965     0    81     1     5
 -6.0067560420559204E+01 a       966     0    81     1     6
 -6.4094987322781183E+00 a       967     0    81     1     7
 -8.2262614492354516E+00 a       968     0    81     1     8
  1.3222956509394821E+00 a       969     0    81     1     9
  1.9346955621868929E+01 a       970     0    81     1    10
  5.0568194577221712E+00 a       971     0    81     1    11
  1.0166087941018015E+01 a       972     0    81     1    12
  3.6689673346580420E+01 a       973     0    82     1     1
  8.4371851151646204E+00 a       974     0    82     1     2
 -8.2486664762802263E+01 a       975     0    82     1     3
 -2.6780313402413192E+01 a       976     0    82     1     4
  6.0313864229293577E+00 a       977     0    82     1     5
 -1.6556572353507860E+01 a       978     0    82     1     6
 -1.3509720706551301E+01 a       979     0    82     1     7
 -2.0823955164330606E+01 a       980     0    82     1     8
 -4.2002885515289485E+01 a       981     0    82     1     9
  6.5446946850763354E+01 a       982     0    82     1    10
  1.8423652353078552E+01 a       983     0    82     1    11
 -5.0493308250370575E+01 a       984     0    82     1    12
  1.5267924378471044E+01 a       985     0    83     1     1
  1.8166608368480986E+01 a       986     0    83     1     2
  2.6242030497992900E+01 a       987     0    83     1     3
 -2.2494272894361472E+01 a       988     0    83     1     4
  2.2002843288148397E+00 a       989     0    83     1     5
  1.0597725329711219E+01 a       990     0    83     1     6
 -2.5890034308082978E+01 a       991     0    83     1     7
 -1.2764355752383219E+01 a       992     0    83     1     8
 -2.1167407509359411E+01 a       993     0    83     1     9
  2.6513829750820111E+01 a       994     0    83     1    10
  1.9732744239181585E+01 a       995     0    83     1    11
 -1.0068533211686537E+01 a       996     0    83     1    12
  1.2343903372714776E+01 a       997     0    84     1     1
  8.8343417792825363E+01 a       998     0    84     1     2
  3.0038043705906457E+01 a       999     0    84     1     3
  7.3492874813251802E+01 a      1000     0    84     1     4
  6.8700911061668037E+00 a      1001     0    84     1     5
  1.3974084139796792E+01 a      1002     0    84     1     6
 -3.2564331117541627E+00 a      1003     0    84     1     7
 -1.5705244076259991E+01 a      1004     0    84     1     8
 -1.4775132266500734E+01 a      1005     0    84     1     9
  1.0790472899737930E+01 a      1006     0    84     1    10
  1.6143801707558854E+01 a      1007     0    84     1    11
 -1.1895868236442686E+00 a      1008     0    84     1    12
  1.8363808699522746E+01 a      1009     0    85     1     1
 -2.1430558459764132E+01 a      1010     0    85     1     2
 -4.5584079005017642E+01 a      1011     0    85     1     3
 -6.9179466071930335E+01 a      1012     0    85     1     4
 -2.8369380777829560E+00 a      1013     0    85     1     5
  6.2396510138919410E+01 a      1014     0    85     1     6
 -2.2187880913670845E+00 a      1015     0    85     1     7
  1.0786803934826739E+01 a      1016     0    85     1     8
  1.2094664794176385E+01 a      1017     0    85     1     9
 -2.0882978052499332E+01 a      1018     0    85     1    10
  3.3398077915574316E+00 a      1019     0    85     1    11
  1.8912987909829331E+00 a      1020     0    85     1    12
  2.6669512831949167E+01 a      1021     0    86     1     1
 -2.2812617975151149E+01 a      1022     0    86     1     2
 -1.0645453950288392E+02 a      1023     0    86     1     3
 -5.1293924323618739E+01 a      1024     0    86     1     4
 -6.6872801932891841E+00 a      1025     0    86     1     5
 -3.5471081991097698E+01 a      1026     0    86     1     6
  3.1044799978226538E+00 a      1027     0    86     1     7
 -3.6339386658706965E+00 a      1028     0    86     1     8
 -6.4883787039845728E+00 a      1029     0    86     1     9
 -1.4328323988707711E+01 a      1030     0    86     1    10
  3.1612462010117603E+01 a      1031     0    86     1    11
  1.7875496390544632E+00 a      1032     0    86     1    12
  2.1330904250720160E+01 a      1033     0    87     1     1
  2.3781358888545153E+01 a      1034     0    87     1     2
 -4.8023297147011810E+01 a      1035     0    87     1     3
  3.3859489984237428E+01 a      1036     0    87     1     4
  7.7146636809066598E+00 a      1037     0    87     1     5
 -5.2149433234454243E+01 a      1038     0    87     1     6
  2.4057199232313963E+01 a      1039     0    87     1     7
  2.8896444963616337E+00 a      1040     0    87     1     8
 -7.8116563173507059E+00 a      1041     0    87     1     9
 -2.3382660976215387E+01 a      1042     0    87     1    10
 -5.7081211370782503E+00 a      1043     0    87     1    11
  1.8853938685271267E+01 a      1044     0    87     1    12
 -1.1317602772790285E+00 b      1045     1     1
 -6.1670727157591809E-01 b      1046     1     2
 -5.8775343514388079E-01 b      1047     1     3
  1.2912105130257121E+00 b      1048     1     4
 -3.3808035649686881E+00 b      1049     1     5
 -3.5484077307350210E+00 b      1050     1     6
 -1.1767391680068777E+00 b      1051     1     7
  2.4851552822012981E+00 b      1052     1     8
 -1.0766856724657350E+00 b      1053     1     9
 -3.2506947328800917E-01 b      1054     1    10
 -2.5159504833159736E+00 b      1055     1    11
  1.6367347636158167E+00 b      1056     1    12
 -4.8458975684785039E-03 a      1057     1     1     2     1
  4.3233947973950393E+00 a      1058     1     1     2     2
  1.2191884916925311E+01 a      1059     1     1     2     3
 -7.0862263899627997E+00 a      1060     1     1     2     4
 -3.7578465912486936E-01 a      1061     1     1     2     5
  9.8160123986053929E+00 a      1062     1     1     2     6
 -5.1602716514273732E+00 a      1063     1     1     2     7
  1.2506120739524156E+00 a      1064     1     1     2     8
  6.7733839347514921E+00 a      1065     1     1     2     9
  1.0314872250901819E+00 a      1066     1     1     2    10
  3.6112456998044693E+00 a      1067     1     1     2    11
  1.1545703554324110E+01 a      1068     1     1     2    12
  1.7809678950169605E+01 a      1069     1     2     2     1
 -2.2372208313569782E+01 a      1070     1     2     2     2
  7.9084440211799691E+00 a      1071     1     2     2     3
 -1.8932298945893574E+01 a      1072     1     2     2     4
  3.8192563206198256E+00 a      1073     1     2     2     5
 -1.0760603568860486E+01 a      1074     1     2     2     6
 -1.8499221615568910E+01 a      1075     1     2     2     7
 -1.6122447789235734E+00 a      1076     1     2     2     8
 -8.4529340340723795E+00 a      1077     1     2     2     9
 -5.9241869822170719E+00 a      1078     1     2     2    10
 -1.4124327910326754E+01 a      1079     1     2     2    11
 -3.2644143589147923E+01 a      1080     1     2     2    12
 -1.6671184208481533E+00 a      1081     1     3     2     1
  3.1272847875720409E+00 a      1082     1     3     2     2
  2.1221741898155835E+00 a      1083     1     3     2     3
  2.9207505768914346E+00 a      1084     1     3     2     4
  1.6369955601900810E+00 a      1085     1     3     2     5
  1.4607363991392145E+01 a      1086     1     3     2     6
  1.7310517497274973E+00 a      1087     1     3     2     7
  2.5910697965509679E+00 a      1088     1     3     2     8
  1.5197610219074522E+00 a      1089     1     3     2     9
  2.0712706662419360E+00 a      1090     1     3     2    10
  3.1820417392053892E+00 a      1091     1     3     2    11
  6.3134121496610112E+00 a      1092     1     3     2    12
 -6.5707327776726023E+00 a      1093     1     4     2     1
  2.6249794201747156E+00 a      1094     1     4     2     2
 -3.7334006429199906E+00 a      1095     1     4     2     3
  8.7744344248980823E+00 a      1096     1     4     2     4
 -6.1787070952430456E+00 a      1097     1     4     2     5
  1.3042830907035235E+01 a      1098     1     4     2     6
  5.6609954309145119E+00 a      1099     1     4     2     7
 -1.7427228361941327E-01 a      1100     1     4     2     8
  4.1494636061354218E+00 a      1101     1     4     2     9
  1.1264044748909886E-02 a      1102     1     4     2    10
  6.1978476478346192E+00 a      1103     1     4     2    11
  1.2475365202630259E+01 a      1104     1     4     2    12
 -1.2309784898112521E+00 a      1105     1     5     2     1
 -3.1619629685577988E+00 a      1106     1     5     2     2
  4.8041787838446198E-01 a      1107     1     5     2     3
  2.1522610748851116E+00 a      1108     1     5     2     4
 -6.3110025368933931E-01 a      1109     1     5     2     5
 -4.9308584368104498E+00 a      1110     1     5     2     6
  3.2522193771198693E-01 a      1111     1     5     2     7
 -2.5915593749284149E-01 a      1112     1     5     2     8
  1.1649019137838947E+00 a      1113     1     5     2     9
  1.5029902203334882E+00 a      1114     1     5     2    10
  8.6139137169911173E-01 a      1115     1     5     2    11
  4.3767231835024845E-01 a      1116     1     5     2    12
 -9.8326282136340044E+00 a      1117     1     6     2     1
  7.5190631198794327E+00 a      1118     1     6     2     2
 -7.2193808974252267E+00 a      1119     1     6     2     3
  3.5034338102591100E+01 a      1120     1     6     2     4
  1.7652711876990437E+00 a      1121     1     6     2     5
  3.7054210385554647E+01 a      1122     1     6     2     6
  7.0152241317357635E+00 a      1123     1     6     2     7
 -3.4788431703291325E+00 a      1124     1     6     2     8
  1.2811495818722816E+00 a      1125     1     6     2     9
 -5.5718610299463736E+00 a      1126     1     6     2    10
  4.0467221344896549E+00 a      1127     1     6     2    11
  2.0367102947870993E+01 a      1128     1     6     2    12
  4.2620462911650991E-01 a      1129     1     7     2     1
  2.6771579228616149E+00 a      1130     1     7     2     2
  3.0379048371611572E-01 a      1131     1     7     2     3
 -8.1066888801569081E-01 a      1132     1     7     2     4
  3.8042152599702000E-01 a      1133     1     7     2     5
 -2.2372287156541999E+00 a      1134     1     7     2     6
  6.4246907422220456E-01 a      1135     1     7     2     7
  1.0617491102917562E+00 a      1136     1     7     2     8
  1.0040512740246621E+00 a      1137     1     7     2     9
 -4.5034207211629580E+00 a      1138     1     7     2    10
 -6.6823320991661173E-01 a      1139     1     7     2    11
  1.0445341041570584E-01 a      1140     1     7     2    12
  7.8401463753350253E-01 a      1141     1     8     2     1
 -1.7331557663941686E+00 a      1142     1     8     2     2
  8.0644117081384337E-01 a      1143     1     8     2     3
 -9.0962916445259123E-01 a      1144     1     8     2     4
 -2.3651123355228245E+00 a      1145     1     8     2     5
 -2.3469882873916461E+00 a      1146     1     8     2     6
  1.2454361691553377E+00 a      1147     1     8     2     7
 -5.8806305243306412E-01 a      1148     1     8     2     8
 -1.3479463528929734E+00 a      1149     1     8     2     9
 -8.1189159504714203E-01 a      1150     1     8     2    10
 -5.9726291761577377E+00 a      1151     1     8     2    11
 -1.0011714103350011E+00 a      1152     1     8     2    12
  3.1557309434577541E-01 a      1153     1     9     2     1
 -1.4914031007104727E+00 a      1154     1     9     2     2
 -3.2033459907338755E+00 a      1155     1     9     2     3
  2.6814060495612195E+00 a      1156     1     9     2     4
  5.7210156613390339E-01 a      1157     1     9     2     5
 -1.0278381392263589E+00 a      1158     1     9     2     6
  2.2249269403022445E+00 a      1159     1     9     2     7
 -5.6827895784643125E+00 a      1160     1     9     2     8
  2.3861237676716460E-01 a      1161     1     9     2     9
 -7.0134784868238531E-01 a      1162     1     9     2    10
 -2.5203526615137766E+00 a      1163     1     9     2    11
 -4.5387026178463179E+00 a      1164     1     9     2    12
 -8.2796419692695800E-01 a      1165     1    10     2     1
  1.9729801169615813E+00 a      1166     1    10     2     2
 -1.1261679947272385E+00 a      1167     1    10     2     3
 -1.8817751214757331E-01 a      1168     1    10     2     4
  1.3914740218789947E+00 a      1169     1    10     2     5
 -1.0929787351227581E+01 a      1170     1    10     2     6
 -4.2879631993559499E+00 a      1171     1    10     2     7
  4.5754972128723583E+00 a      1172     1    10     2     8
 -3.1430379444733783E+00 a      1173     1    10     2     9
  9.1621774864606049E+00 a      1174     1    10     2    10
  3.8798612277198170E-02 a      1175     1    10     2    11
  1.2179768679776073E+01 a      1176     1    10     2    12
 -1.6131783945910969E+00 a      1177     1    11     2     1
 -1.2523195865394068E+00 a      1178     1    11     2     2
  4.4155280673088099E-01 a      1179     1    11     2     3
  4.2157508135195576E-01 a      1180     1    11     2     4
 -1.8791199206135127E+00 a      1181     1    11     2     5
 -1.7668104458755145E+00 a      1182     1    11     2     6
  2.8169795092783487E+00 a      1183     1    11     2     7
  1.7991280569234176E+00 a      1184     1    11     2     8
  1.3336705055264870E+00 a      1185     1    11     2     9
  5.2782043601027526E+00 a      1186     1    11     2    10
  1.2513750611196861E+00 a      1187     1    11     2    11
  2.7713047962452964E-01 a      1188     1    11     2    12
 -2.3700403635457539E+00 a      1189     1    12     2     1
 -4.8721941567634391E-01 a      1190     1    12     2     2
 -2.6167042958776685E+00 a      1191     1    12     2     3
  2.4244890725038101E-01 a      1192     1    12     2     4
 -3.1803552542084373E-01 a      1193     1    12     2     5
 -1.6830827262476877E+00 a      1194     1    12     2     6
 -1.3475417309393443E+00 a      1195     1    12     2     7
  1.5396246542366859E-01 a      1196     1    12     2     8
  5.3003074966384756E-01 a      1197     1    12     2     9
  6.3147836953424754E+00 a      1198     1    12     2    10
  3.9423396956693355E+00 a      1199     1    12     2    11
 -5.2691734460514636E+00 a      1200     1    12     2    12
  3.6690053304530834E+00 b      1201     2     1
 -2.5613380688063003E+00 b      1202     2     2
 -2.1270475413090475E+00 b      1203     2     3
 -5.6866116607190875E+00 b      1204     2     4
 -5.8703958535883203E+00 b      1205     2     5
 -2.9740664360842636E+01 b      1206     2     6
  2.2957041047522020E-01 b      1207     2     7
 -2.0406914104117346E+00 b      1208     2     8
 -7.6040764960577056E-01 b      1209     2     9
 -1.3803462826620315E+01 b      1210     2    10
 -1.8002131122097844E+00 b      1211     2    11
 -8.1838089524995699E+00 b      1212     2    12
 -1.3764279240551591E+00 a      1213     2     1     3     1
 -1.1592686799944994E+01 a      1214     2     2     3     1
  1.8385998188807373E+00 a      1215     2     3     3     1
  3.5955228547218376E-01 a      1216     2     4     3     1
  7.4540678775752355E+01 a      1217     2     5     3     1
  2.3602175946034212E+00 a      1218     2     6     3     1
 -5.7716908092428199E-01 a      1219     2     7     3     1
 -8.0907155162828659E-01 a      1220     2     8     3     1
  3.0855449843578014E-01 a      1221     2     9     3     1
  2.1579390324176617E+00 a      1222     2    10     3     1
 -5.0631789712384379E-01 a      1223     2    11     3     1
  8.2195654488604331E-01 a      1224     2    12     3     1
 -6.2723446790619457E+00 b      1225     3     1
