################################################################################
# Neural network connection values (weights and biases).
################################################################################
# Col  Name       Description
################################################################################
# 1    connection Neural network connection value.
# 2    t          Connection type (a = weight, b = bias).
# 3    index      Index enumerating weights.
# 4    l_s        Starting point layer (end point layer for biases).
# 5    n_s        Starting point neuron in starting layer (end point neuron for biases).
# 6    l_e        End point layer.
# 7    n_e        End point neuron in end layer.
################################################################################
#                      1 2         3     4     5     6     7
#             connection t     index   l_s   n_s   l_e   n_e
############################################################
  1.5091300981292191E+01 a         1     0     1     1     1
 -3.5276227318009418E+01 a         2     0     1     1     2
 -1.9851219617275223E+02 a         3     0     1     1     3
  1.1816267506801303E+02 a         4     0     1     1     4
 -7.7302232390502382E+01 a         5     0     1     1     5
  1.5216969450279031E+01 a         6     0     1     1     6
  1.3850044971612139E+00 a         7     0     1     1     7
 -4.3538161538455089E+00 a         8     0     1     1     8
 -3.3441405114502918E+00 a         9     0     1     1     9
 -6.7905060279148632E-01 a        10     0     1     1    10
  1.0761997173082204E+01 a        11     0     1     1    11
 -1.0135934628013324E+01 a        12     0     1     1    12
  2.0136059275234597E+01 a        13     0     2     1     1
 -1.2373718898385684E+01 a        14     0     2     1     2
 -8.8067727965331343E+01 a        15     0     2     1     3
 -1.1661789839263028E+02 a        16     0     2     1     4
 -7.4060840083477785E+01 a        17     0     2     1     5
 -1.3070846721226788E+01 a        18     0     2     1     6
  1.0488137502755647E+01 a        19     0     2     1     7
  9.7215020371692185E-01 a        20     0     2     1     8
 -9.2454045260071105E+00 a        21     0     2     1     9
 -1.0376617844237812E+01 a        22     0     2     1    10
  3.8817054193763108E+00 a        23     0     2     1    11
  3.3107321718454569E-01 a        24     0     2     1    12
 -5.0028174839865542E+00 a        25     0     3     1     1
 -6.6214809450316437E+01 a        26     0     3     1     2
 -3.9351164483551798E+01 a        27     0     3     1     3
 -1.0563427865655893E+02 a        28     0     3     1     4
 -3.5812550826435420E+01 a        29     0     3     1     5
  5.9075202380541700E+00 a        30     0     3     1     6
 -2.9237757631626580E+00 a        31     0     3     1     7
  5.8945612971841506E+00 a        32     0     3     1     8
 -6.5945586992076883E+00 a        33     0     3     1     9
  5.3682439041960635E+00 a        34     0     3     1    10
  3.5496504810855072E+00 a        35     0     3     1    11
  1.7473380196258576E-01 a        36     0     3     1    12
 -4.5794183479395940E+00 a        37     0     4     1     1
  9.4821998521788931E-01 a        38     0     4     1     2
  7.7274970850389650E+01 a        39     0     4     1     3
 -5.4571233054855469E+01 a        40     0     4     1     4
 -1.9859890010583676E+01 a        41     0     4     1     5
  1.0771412288476458E+01 a        42     0     4     1     6
  1.0368812294068686E+00 a        43     0     4     1     7
 -2.3601156873224043E+00 a        44     0     4     1     8
 -5.0249743308661952E+00 a        45     0     4     1     9
 -1.9877671207089740E+00 a        46     0     4     1    10
  2.2890865851623854E+00 a        47     0     4     1    11
 -5.1748933299696676E+00 a        48     0     4     1    12
  3.7537231391475365E+00 a        49     0     5     1     1
  3.0232464491196755E+00 a        50     0     5     1     2
  1.9886543668664288E+01 a        51     0     5     1     3
  1.0173770967049141E+02 a        52     0     5     1     4
 -3.8120336515199298E+01 a        53     0     5     1     5
  3.4995977334759361E+00 a        54     0     5     1     6
  3.7177542097515820E-01 a        55     0     5     1     7
  1.1542068116369675E+00 a        56     0     5     1     8
 -5.7026447325298424E-01 a        57     0     5     1     9
 -1.9879168473217803E+00 a        58     0     5     1    10
  1.2444539983357648E-01 a        59     0     5     1    11
  1.7349960170818441E+00 a        60     0     5     1    12
 -1.0012435648546925E+01 a        61     0     6     1     1
 -1.9355479731072595E+01 a        62     0     6     1     2
 -3.7292766286522863E+00 a        63     0     6     1     3
  1.2499182033783391E+02 a        64     0     6     1     4
 -2.7225850270357945E+00 a        65     0     6     1     5
  1.8965518621940050E+00 a        66     0     6     1     6
 -9.6029739206982356E-01 a        67     0     6     1     7
  1.1962842085316636E+00 a        68     0     6     1     8
 -8.5044985874546752E-01 a        69     0     6     1     9
  3.1036202989576247E+00 a        70     0     6     1    10
 -1.4965538451628690E-01 a        71     0     6     1    11
  8.9699226427914225E-01 a        72     0     6     1    12
 -1.9813986758201569E+01 a        73     0     7     1     1
  3.0029472494250808E+01 a        74     0     7     1     2
  2.1333235952698183E+02 a        75     0     7     1     3
 -1.3512607860103120E+02 a        76     0     7     1     4
  3.9101377415489885E+01 a        77     0     7     1     5
  7.1906747318279116E+00 a        78     0     7     1     6
  8.3616175512649313E-02 a        79     0     7     1     7
  1.4499732367043367E-04 a        80     0     7     1     8
 -4.9485862814941868E+00 a        81     0     7     1     9
 -2.1912239825590758E+00 a        82     0     7     1    10
 -6.4407758075860464E+00 a        83     0     7     1    11
  1.8284948950123869E+00 a        84     0     7     1    12
 -1.3446909405230134E+01 a        85     0     8     1     1
  1.2909835181304974E+01 a        86     0     8     1     2
  8.3518314242644948E+01 a        87     0     8     1     3
  1.5859131868284646E+02 a        88     0     8     1     4
  8.5776331659455973E+00 a        89     0     8     1     5
  2.0030253128481373E+01 a        90     0     8     1     6
 -8.1410105257312804E+00 a        91     0     8     1     7
  9.9697317031547783E-01 a        92     0     8     1     8
  6.0925347453095746E+00 a        93     0     8     1     9
  5.5822495440443936E+00 a        94     0     8     1    10
 -3.1036175508775798E+00 a        95     0     8     1    11
  3.0227135820450832E+00 a        96     0     8     1    12
 -1.1233330552974722E+01 a        97     0     9     1     1
  2.4853018153339207E+01 a        98     0     9     1     2
  3.1330469595537409E+01 a        99     0     9     1     3
  1.6413389200577504E+02 a       100     0     9     1     4
  2.8251454396010949E+01 a       101     0     9     1     5
 -1.8898672975566850E+00 a       102     0     9     1     6
  8.5796462524512096E-01 a       103     0     9     1     7
 -3.1953420465533959E+00 a       104     0     9     1     8
  3.2964076632532402E+00 a       105     0     9     1     9
 -2.3145370145069402E-01 a       106     0     9     1    10
 -3.4604729473376943E+00 a       107     0     9     1    11
  1.7380639870929973E+00 a       108     0     9     1    12
 -2.0714056028244361E+01 a       109     0    10     1     1
  3.9872082391465717E+01 a       110     0    10     1     2
  9.4122539482445873E+01 a       111     0    10     1     3
 -4.8617789172187280E+01 a       112     0    10     1     4
  7.7064918576977320E+01 a       113     0    10     1     5
 -4.3402859474780237E-01 a       114     0    10     1     6
 -1.7541791416297985E+00 a       115     0    10     1     7
  2.5232070530552995E+00 a       116     0    10     1     8
 -1.2703033592681967E+00 a       117     0    10     1     9
 -1.6910051639354429E-01 a       118     0    10     1    10
 -1.2971827455293756E+01 a       119     0    10     1    11
  1.1100091881344632E+01 a       120     0    10     1    12
 -2.2120825193598723E+01 a       121     0    11     1     1
  1.4797736280017816E+01 a       122     0    11     1     2
  6.0703538824804028E+01 a       123     0    11     1     3
 -3.9322573403199520E+01 a       124     0    11     1     4
  6.6502360775327119E+01 a       125     0    11     1     5
  3.0377250758664260E+01 a       126     0    11     1     6
 -1.1084042825740356E+01 a       127     0    11     1     7
  1.2155319555726414E-01 a       128     0    11     1     8
  7.1701673970485409E+00 a       129     0    11     1     9
  9.5553231674960823E+00 a       130     0    11     1    10
 -4.3244781988678893E+00 a       131     0    11     1    11
  3.5958777800364849E+00 a       132     0    11     1    12
 -4.4452572432917101E+00 a       133     0    12     1     1
  5.7188009458245332E+01 a       134     0    12     1     2
  4.5455953547476526E+01 a       135     0    12     1     3
 -8.6173141076436309E+01 a       136     0    12     1     4
  3.8649042010049811E+01 a       137     0    12     1     5
  6.6434937633149538E-01 a       138     0    12     1     6
  1.8218165146650482E+00 a       139     0    12     1     7
 -5.7237638369074659E+00 a       140     0    12     1     8
  3.9229126829144496E+00 a       141     0    12     1     9
 -4.4369904506605460E+00 a       142     0    12     1    10
 -5.1029983995051893E+00 a       143     0    12     1    11
  2.4289735272457365E+00 a       144     0    12     1    12
  9.1597697239474272E+00 a       145     0    13     1     1
  6.3076819259866674E+00 a       146     0    13     1     2
 -2.2100211547537137E+02 a       147     0    13     1     3
  1.6916118312019489E+02 a       148     0    13     1     4
  6.3275377858503781E+01 a       149     0    13     1     5
 -1.2474380249411253E+01 a       150     0    13     1     6
 -3.9867036455104277E+00 a       151     0    13     1     7
  4.3449662005654872E+00 a       152     0    13     1     8
  7.4514282085456953E+00 a       153     0    13     1     9
  4.6589535917090155E+00 a       154     0    13     1    10
 -1.1021546502867261E+01 a       155     0    13     1    11
  2.0106513482478729E+01 a       156     0    13     1    12
 -1.3600746308473003E+01 a       157     0    14     1     1
 -4.5785539992688378E+00 a       158     0    14     1     2
 -5.6078697037526780E+01 a       159     0    14     1     3
 -3.2687575802780498E+02 a       160     0    14     1     4
  1.1342997371492311E+02 a       161     0    14     1     5
  2.3462665578865270E+01 a       162     0    14     1     6
 -2.3126454412136215E+00 a       163     0    14     1     7
 -1.9228671443752574E+00 a       164     0    14     1     8
 -1.4301258779994601E+00 a       165     0    14     1     9
  5.4243177875245685E+00 a       166     0    14     1    10
 -1.0211545227259691E+00 a       167     0    14     1    11
  2.1330134092142377E+00 a       168     0    14     1    12
  1.9927135504764500E+01 a       169     0    15     1     1
  4.2798437977604067E+01 a       170     0    15     1     2
  9.2109056674854113E+00 a       171     0    15     1     3
 -3.9436553226183179E+02 a       172     0    15     1     4
  1.0056027782455335E+01 a       173     0    15     1     5
  6.5951403757063938E+00 a       174     0    15     1     6
  6.2054979069399674E-01 a       175     0    15     1     7
 -3.4415952535399241E+00 a       176     0    15     1     8
  3.6876878890228310E-01 a       177     0    15     1     9
 -7.0328863343599997E+00 a       178     0    15     1    10
 -2.7918010329242122E+00 a       179     0    15     1    11
  2.0177422312922282E+00 a       180     0    15     1    12
  6.6939994876628546E+01 a       181     0    16     1     1
 -8.0798049473629575E+01 a       182     0    16     1     2
 -2.2849709644507890E+01 a       183     0    16     1     3
 -1.8593398623493830E+01 a       184     0    16     1     4
 -4.1579056840073733E+01 a       185     0    16     1     5
 -2.8328557536220746E+01 a       186     0    16     1     6
 -2.2202188006025043E+00 a       187     0    16     1     7
  2.9591699477452265E+00 a       188     0    16     1     8
  1.3931151519625242E+01 a       189     0    16     1     9
  6.2883580549391018E+00 a       190     0    16     1    10
  9.4630197637839792E+00 a       191     0    16     1    11
  1.4618867897671663E+01 a       192     0    16     1    12
  2.2885290744323026E+01 a       193     0    17     1     1
 -4.2814147799953489E+01 a       194     0    17     1     2
 -5.2490897397852038E+01 a       195     0    17     1     3
  3.3368196467075546E+02 a       196     0    17     1     4
  7.0457181520068843E+01 a       197     0    17     1     5
 -3.4335235563975644E+01 a       198     0    17     1     6
  1.6226607907679863E+01 a       199     0    17     1     7
 -4.3025505728025211E+00 a       200     0    17     1     8
 -1.2111626200792399E+01 a       201     0    17     1     9
 -6.7494215461434726E+00 a       202     0    17     1    10
  7.4006406797345585E+00 a       203     0    17     1    11
 -2.5912495937547102E+00 a       204     0    17     1    12
  4.3843777792229254E+01 a       205     0    18     1     1
 -3.0215083764050188E+01 a       206     0    18     1     2
 -7.4800388600632814E+01 a       207     0    18     1     3
  4.5583917851192058E+02 a       208     0    18     1     4
 -4.7019318838359794E+01 a       209     0    18     1     5
  9.7706585533675749E+00 a       210     0    18     1     6
 -2.3904676841424419E+00 a       211     0    18     1     7
  5.1465078150131482E+00 a       212     0    18     1     8
  5.0974654483745396E-01 a       213     0    18     1     9
 -1.0342261802618984E-01 a       214     0    18     1    10
  5.3140183206594420E+00 a       215     0    18     1    11
 -1.1281260547502590E+00 a       216     0    18     1    12
 -6.2219814122881203E+01 a       217     0    19     1     1
  5.3179117059119278E+01 a       218     0    19     1     2
  6.9003546054779278E+01 a       219     0    19     1     3
 -3.7274428506039122E+01 a       220     0    19     1     4
 -5.1573455821872948E+01 a       221     0    19     1     5
 -1.4401516567994742E+01 a       222     0    19     1     6
  9.1909243347224994E+00 a       223     0    19     1     7
 -4.4730341274826371E+00 a       224     0    19     1     8
 -8.4188561748560193E+00 a       225     0    19     1     9
 -1.4219141108852291E+01 a       226     0    19     1    10
  2.8010619453047767E+01 a       227     0    19     1    11
 -3.8755749611797320E+01 a       228     0    19     1    12
  1.1680863270163735E+01 a       229     0    20     1     1
  4.5774112793069222E+01 a       230     0    20     1     2
  3.3824526011585391E+01 a       231     0    20     1     3
 -1.3170690491699597E+02 a       232     0    20     1     4
 -2.1357441635031074E+02 a       233     0    20     1     5
 -6.6886071940903392E+01 a       234     0    20     1     6
 -4.3577961625087482E+00 a       235     0    20     1     7
 -4.6967500980201932E-01 a       236     0    20     1     8
  8.9271862772669728E+00 a       237     0    20     1     9
 -3.3652082298200940E+00 a       238     0    20     1    10
  7.3351275122678716E+00 a       239     0    20     1    11
 -8.7266399164940167E-01 a       240     0    20     1    12
 -3.7375313546774024E+01 a       241     0    21     1     1
 -3.7526287090467725E+00 a       242     0    21     1     2
  3.0138147011832650E+01 a       243     0    21     1     3
 -1.9480208909203606E+02 a       244     0    21     1     4
  2.1140095449310675E+01 a       245     0    21     1     5
 -2.5716170921716749E+01 a       246     0    21     1     6
  1.1699846210605342E+01 a       247     0    21     1     7
  1.1549363978294933E+00 a       248     0    21     1     8
 -7.0598284393334785E+00 a       249     0    21     1     9
  2.4817379623564748E+00 a       250     0    21     1    10
  1.6666520328964733E+01 a       251     0    21     1    11
  1.4059475637416670E+00 a       252     0    21     1    12
  1.6614580435018592E+01 a       253     0    22     1     1
 -2.7936078133004152E+01 a       254     0    22     1     2
 -2.7347050900729407E+01 a       255     0    22     1     3
  3.5601509385077698E+01 a       256     0    22     1     4
  3.2551715436482318E+01 a       257     0    22     1     5
  2.9138470334239337E+01 a       258     0    22     1     6
 -1.6994854044029282E+01 a       259     0    22     1     7
  5.1715995850079439E+00 a       260     0    22     1     8
 -9.5275148629074007E+00 a       261     0    22     1     9
 -1.3522837623236059E+00 a       262     0    22     1    10
 -2.3519206234978721E+01 a       263     0    22     1    11
  2.4530715520738312E+01 a       264     0    22     1    12
 -1.2447844013963794E+01 a       265     0    23     1     1
 -2.3569420701507930E+01 a       266     0    23     1     2
 -1.1866229769883232E+01 a       267     0    23     1     3
  4.9531414223778448E+01 a       268     0    23     1     4
  5.9298790783172514E+01 a       269     0    23     1     5
  6.3583158100217922E+01 a       270     0    23     1     6
 -7.8989941007353579E+00 a       271     0    23     1     7
 -4.0887905701188059E+00 a       272     0    23     1     8
 -7.7116174625920078E+00 a       273     0    23     1     9
 -6.2708053471420806E+00 a       274     0    23     1    10
 -1.3477391809820954E+01 a       275     0    23     1    11
  5.5836124598531072E+00 a       276     0    23     1    12
  8.8622975304268508E+00 a       277     0    24     1     1
 -7.6652639198472672E+00 a       278     0    24     1     2
 -4.8044826981147853E-01 a       279     0    24     1     3
  7.5798876294611844E+01 a       280     0    24     1     4
 -3.7983858798402771E+01 a       281     0    24     1     5
  1.1562722470552819E+01 a       282     0    24     1     6
 -2.4654926114079707E+01 a       283     0    24     1     7
 -8.0973443296567176E+00 a       284     0    24     1     8
  4.1814399876164039E+00 a       285     0    24     1     9
 -6.2919010863545513E+00 a       286     0    24     1    10
 -9.7584044425979233E+00 a       287     0    24     1    11
 -1.2093221887903221E+00 a       288     0    24     1    12
  2.7870908946238448E+01 a       289     0    25     1     1
  2.2693507988944848E+01 a       290     0    25     1     2
  4.4027075218997318E+01 a       291     0    25     1     3
 -9.5015581954288617E+00 a       292     0    25     1     4
 -9.0857437313888330E+00 a       293     0    25     1     5
  4.6323448690704350E+00 a       294     0    25     1     6
  7.7320992274626876E+00 a       295     0    25     1     7
 -4.8420942180661983E+00 a       296     0    25     1     8
  6.0251405347019737E+00 a       297     0    25     1     9
 -5.2320547287044779E+00 a       298     0    25     1    10
  3.9666544823429257E+00 a       299     0    25     1    11
  1.1181206535838314E+01 a       300     0    25     1    12
  3.8668388967561292E+01 a       301     0    26     1     1
 -3.4882444356670033E+00 a       302     0    26     1     2
  3.4448390771003027E+01 a       303     0    26     1     3
  1.0025675328461420E+01 a       304     0    26     1     4
  3.0543256261250079E+01 a       305     0    26     1     5
 -1.2222848222220586E+01 a       306     0    26     1     6
  1.1094099016304084E+00 a       307     0    26     1     7
  4.2578960915715154E+00 a       308     0    26     1     8
 -3.5345444546617766E+00 a       309     0    26     1     9
  1.1319595784989602E+01 a       310     0    26     1    10
 -4.3196704210301959E+00 a       311     0    26     1    11
  9.9610377771520557E+00 a       312     0    26     1    12
  1.6903958008758735E+01 a       313     0    27     1     1
 -5.9195989532844333E+00 a       314     0    27     1     2
  1.5216490658183201E+01 a       315     0    27     1     3
  7.8117208336829265E+01 a       316     0    27     1     4
  4.9102505279356549E+01 a       317     0    27     1     5
  6.6008929200541067E+00 a       318     0    27     1     6
 -1.9399565512013905E+00 a       319     0    27     1     7
  2.9243880195235632E+00 a       320     0    27     1     8
  1.0444337560875530E+01 a       321     0    27     1     9
  8.1652360494694545E+00 a       322     0    27     1    10
 -5.4877264311935636E-01 a       323     0    27     1    11
 -1.7701318801739354E+00 a       324     0    27     1    12
  3.0855579713464882E+00 a       325     0    28     1     1
  2.3983417810956386E+01 a       326     0    28     1     2
  3.8866689320780545E+00 a       327     0    28     1     3
  3.5077466475245338E+01 a       328     0    28     1     4
 -1.3447509398479627E+02 a       329     0    28     1     5
 -1.2849288734158665E+02 a       330     0    28     1     6
  8.5572182092293825E-01 a       331     0    28     1     7
 -2.6477673087634219E+00 a       332     0    28     1     8
  7.0169629701530711E+00 a       333     0    28     1     9
 -3.2161758364208937E-01 a       334     0    28     1    10
 -2.8477849842771170E+00 a       335     0    28     1    11
 -1.3131664728219870E+00 a       336     0    28     1    12
  3.3637271084671404E+01 a       337     0    29     1     1
  6.9288052815116732E+00 a       338     0    29     1     2
  9.2478161172947608E+00 a       339     0    29     1     3
  3.0677196175410600E+01 a       340     0    29     1     4
 -6.4479018712579503E+01 a       341     0    29     1     5
 -1.4802370134506692E+01 a       342     0    29     1     6
 -3.0428502023575397E+00 a       343     0    29     1     7
 -1.3263724684190871E+01 a       344     0    29     1     8
 -2.7598938841813614E+00 a       345     0    29     1     9
  1.5876251745187416E-02 a       346     0    29     1    10
  6.4451970198056496E-01 a       347     0    29     1    11
 -2.5517960201365635E+00 a       348     0    29     1    12
 -2.3489097167744127E+01 a       349     0    30     1     1
 -3.9102802301058091E+01 a       350     0    30     1     2
  1.0854878476513436E+01 a       351     0    30     1     3
  2.7804524040772474E+01 a       352     0    30     1     4
  1.5629060378678798E+01 a       353     0    30     1     5
 -5.6515810433693403E+01 a       354     0    30     1     6
  3.8975269215227459E-01 a       355     0    30     1     7
 -4.0538582968006187E+00 a       356     0    30     1     8
  1.4446270606980534E+00 a       357     0    30     1     9
  2.1121620853721059E+00 a       358     0    30     1    10
  4.5282068544100547E+00 a       359     0    30     1    11
 -5.2454818862984363E+00 a       360     0    30     1    12
  1.3095563940932763E+01 a       361     0    31     1     1
  9.7341168993322018E+00 a       362     0    31     1     2
  1.0606741843278709E+01 a       363     0    31     1     3
  2.5881530431134056E+01 a       364     0    31     1     4
  3.3422614939287305E+00 a       365     0    31     1     5
  2.5623132247570996E-01 a       366     0    31     1     6
 -1.6820537959363682E+00 a       367     0    31     1     7
 -1.0119045625335740E+01 a       368     0    31     1     8
 -1.2074263733806443E+01 a       369     0    31     1     9
  5.2947270879749686E+00 a       370     0    31     1    10
 -4.4960342459768281E+00 a       371     0    31     1    11
 -4.7463118152866395E+00 a       372     0    31     1    12
 -3.5581234498417992E+01 a       373     0    32     1     1
 -3.0998616201535739E+01 a       374     0    32     1     2
  1.4253189059734256E+01 a       375     0    32     1     3
  2.3137722539819947E+01 a       376     0    32     1     4
 -3.6588221413701078E+01 a       377     0    32     1     5
  3.0166322932646207E+01 a       378     0    32     1     6
 -1.8899150332737049E+00 a       379     0    32     1     7
 -1.2826082866214696E+01 a       380     0    32     1     8
 -2.8257460742877050E+00 a       381     0    32     1     9
  9.9661158275212747E-01 a       382     0    32     1    10
  2.5127445699283708E+00 a       383     0    32     1    11
 -7.3219372892736647E+00 a       384     0    32     1    12
  5.0198462367527426E+01 a       385     0    33     1     1
 -2.4888338133394608E+01 a       386     0    33     1     2
  1.5891646177656220E+01 a       387     0    33     1     3
  2.0318604587515264E+01 a       388     0    33     1     4
  2.2324751440385803E+01 a       389     0    33     1     5
  4.4357652724687675E+01 a       390     0    33     1     6
 -3.1761238441193433E+00 a       391     0    33     1     7
 -3.6716043615371134E+00 a       392     0    33     1     8
 -1.4941678781567069E+00 a       393     0    33     1     9
  1.1394308380865020E+01 a       394     0    33     1    10
 -1.0083954368529080E+01 a       395     0    33     1    11
 -1.2950136741368667E+00 a       396     0    33     1    12
  1.6470953107877627E+01 a       397     0    34     1     1
 -2.4803164140125805E+01 a       398     0    34     1     2
 -5.1463577933301083E+00 a       399     0    34     1     3
 -2.2158435459624972E+01 a       400     0    34     1     4
  4.8080013958907358E+01 a       401     0    34     1     5
 -4.9417356663147537E+01 a       402     0    34     1     6
  5.2850885779926271E+00 a       403     0    34     1     7
  5.8844253197488339E+00 a       404     0    34     1     8
  9.4473131393376419E-01 a       405     0    34     1     9
  6.9419882328580353E+00 a       406     0    34     1    10
  1.2818749108984534E+01 a       407     0    34     1    11
 -7.1990335967554220E+00 a       408     0    34     1    12
  3.7007562918619406E+01 a       409     0    35     1     1
  2.0752506661255094E+01 a       410     0    35     1     2
 -5.1771738347721623E+00 a       411     0    35     1     3
 -2.4135285796558165E+01 a       412     0    35     1     4
  7.3642160113522905E+01 a       413     0    35     1     5
 -5.0358511162138477E+01 a       414     0    35     1     6
 -1.8119406141138870E+00 a       415     0    35     1     7
  9.0906652648292745E+00 a       416     0    35     1     8
  9.7782862524394289E+00 a       417     0    35     1     9
  5.8201679474738031E+00 a       418     0    35     1    10
  8.2297027969693417E+00 a       419     0    35     1    11
 -6.0345404673690100E+00 a       420     0    35     1    12
 -2.3227910324118831E+01 a       421     0    36     1     1
 -2.0831269042165438E+01 a       422     0    36     1     2
 -1.1155624545016263E+01 a       423     0    36     1     3
 -2.1116198085288246E+01 a       424     0    36     1     4
  3.3957888980152809E+01 a       425     0    36     1     5
  4.9183970608476429E+01 a       426     0    36     1     6
 -4.5447226589369194E+00 a       427     0    36     1     7
  2.9966935615798542E+00 a       428     0    36     1     8
  2.7256943255335941E+00 a       429     0    36     1     9
  3.3189186626310558E+00 a       430     0    36     1    10
  9.9775031078689054E+00 a       431     0    36     1    11
  2.2027457769426722E+00 a       432     0    36     1    12
 -3.0038603016708500E+01 a       433     0    37     1     1
 -1.2267323235980966E+01 a       434     0    37     1     2
 -7.8819677842567630E+00 a       435     0    37     1     3
 -2.2548011186533259E+01 a       436     0    37     1     4
  9.2734375399448822E+01 a       437     0    37     1     5
 -1.7955126211776697E+01 a       438     0    37     1     6
 -1.0806383829287689E+01 a       439     0    37     1     7
  3.8249314072163170E+00 a       440     0    37     1     8
  6.4547099139780011E+00 a       441     0    37     1     9
  3.9507907530115638E+00 a       442     0    37     1    10
  6.8611360053926305E+00 a       443     0    37     1    11
 -6.1526427462121021E+00 a       444     0    37     1    12
 -3.6813290628353329E+01 a       445     0    38     1     1
 -8.6037859912633774E-01 a       446     0    38     1     2
 -1.4979030941018435E+01 a       447     0    38     1     3
 -2.0735442810381667E+01 a       448     0    38     1     4
  4.1957908476905764E+01 a       449     0    38     1     5
 -7.2404931908228050E+01 a       450     0    38     1     6
 -4.7352779551985407E+00 a       451     0    38     1     7
  6.2992432675769034E+00 a       452     0    38     1     8
  1.0887147185744308E+00 a       453     0    38     1     9
  6.4059144121211045E+00 a       454     0    38     1    10
  9.1736735195326844E+00 a       455     0    38     1    11
 -2.4453074016457004E+00 a       456     0    38     1    12
 -1.3475488451821263E+01 a       457     0    39     1     1
 -6.6105130630992823E+00 a       458     0    39     1     2
 -1.9880127661568533E+01 a       459     0    39     1     3
 -2.2042331473390647E+01 a       460     0    39     1     4
 -2.4318752915328389E+01 a       461     0    39     1     5
 -4.3457854510159358E+01 a       462     0    39     1     6
  2.1808442135166830E+00 a       463     0    39     1     7
 -3.9025942410836052E+00 a       464     0    39     1     8
  6.9478907864164610E+00 a       465     0    39     1     9
 -3.8230900808700570E-02 a       466     0    39     1    10
  1.4911445309542534E+01 a       467     0    39     1    11
 -1.2289622835701921E+01 a       468     0    39     1    12
  2.0413921598789827E+01 a       469     0    40     1     1
 -6.7832278243896758E+00 a       470     0    40     1     2
 -1.6561222120734900E+01 a       471     0    40     1     3
 -3.9398538847686488E+01 a       472     0    40     1     4
  8.0172317184500116E+01 a       473     0    40     1     5
  3.4711501272429546E-01 a       474     0    40     1     6
 -1.7401640638312429E+01 a       475     0    40     1     7
 -6.7212103142517812E+00 a       476     0    40     1     8
 -1.2862202429354397E+01 a       477     0    40     1     9
 -1.7462845186678078E+00 a       478     0    40     1    10
  9.5106076166710700E+00 a       479     0    40     1    11
 -1.0717048906639512E+01 a       480     0    40     1    12
  1.9133495166939458E+01 a       481     0    41     1     1
  9.6501632234055865E+00 a       482     0    41     1     2
 -2.5829326189224382E+01 a       483     0    41     1     3
 -3.5975781832924532E+01 a       484     0    41     1     4
  1.0228448020611687E+02 a       485     0    41     1     5
  2.9392312227333766E+00 a       486     0    41     1     6
  5.8832329756649964E+00 a       487     0    41     1     7
  1.3074792223864517E+01 a       488     0    41     1     8
 -2.5509681519458129E+00 a       489     0    41     1     9
  4.2477951761709205E+00 a       490     0    41     1    10
  3.0099291685655172E+00 a       491     0    41     1    11
  9.1621880475726911E+00 a       492     0    41     1    12
 -2.4961305068112100E+01 a       493     0    42     1     1
  2.4730569036940746E+01 a       494     0    42     1     2
 -2.3272087284273770E+01 a       495     0    42     1     3
 -3.1604571356551755E+01 a       496     0    42     1     4
  3.2137781951270547E+01 a       497     0    42     1     5
  6.0030560374319336E+01 a       498     0    42     1     6
 -7.3011257241428327E+00 a       499     0    42     1     7
  5.2955001567416176E+00 a       500     0    42     1     8
 -5.7335607749156559E+00 a       501     0    42     1     9
 -4.2888201360070205E-01 a       502     0    42     1    10
 -1.6639002869622370E+01 a       503     0    42     1    11
  6.2981425267267168E+00 a       504     0    42     1    12
  1.9388084693176623E+01 a       505     0    43     1     1
  4.9668670581938798E+01 a       506     0    43     1     2
 -2.6027362808826691E+01 a       507     0    43     1     3
 -3.2288767863536542E+01 a       508     0    43     1     4
 -3.5579892350596658E+01 a       509     0    43     1     5
 -3.3855447400911054E+01 a       510     0    43     1     6
  1.7158937326097423E+01 a       511     0    43     1     7
 -3.8785795741927837E-01 a       512     0    43     1     8
  1.6441908784271320E+01 a       513     0    43     1     9
  4.1101491699082047E+00 a       514     0    43     1    10
  8.3682695191130705E+00 a       515     0    43     1    11
  6.5694608842025186E+00 a       516     0    43     1    12
 -2.3224045007512093E+01 a       517     0    44     1     1
 -2.0324673637220933E+01 a       518     0    44     1     2
 -2.7386565240252100E+01 a       519     0    44     1     3
 -2.8506683335810962E+01 a       520     0    44     1     4
  7.4980119316214271E+01 a       521     0    44     1     5
 -4.0432698698801516E+01 a       522     0    44     1     6
  7.2695993293430510E+00 a       523     0    44     1     7
  7.4929221526137884E+00 a       524     0    44     1     8
  2.8832219958322929E+00 a       525     0    44     1     9
  9.3818147114813613E+00 a       526     0    44     1    10
 -1.8347838784454819E+01 a       527     0    44     1    11
  3.6323535626679084E+00 a       528     0    44     1    12
 -4.1824612734914318E+01 a       529     0    45     1     1
 -3.4653955723791043E+01 a       530     0    45     1     2
 -2.5112460765517888E+01 a       531     0    45     1     3
 -2.3212118938881439E+01 a       532     0    45     1     4
  1.2405439075020572E+01 a       533     0    45     1     5
 -7.6721228330543578E+00 a       534     0    45     1     6
 -1.7236708337187192E+00 a       535     0    45     1     7
  7.1139150003214038E+00 a       536     0    45     1     8
  1.9521582624536404E+00 a       537     0    45     1     9
 -1.2452951806766379E+01 a       538     0    45     1    10
 -4.7524811521062746E+00 a       539     0    45     1    11
  7.4005922012769059E+00 a       540     0    45     1    12
 -6.2869071358873988E+01 a       541     0    46     1     1
  3.1778573201381413E+01 a       542     0    46     1     2
 -5.0341181672730739E+00 a       543     0    46     1     3
  2.5523693035372343E+01 a       544     0    46     1     4
  5.7067146557132908E+01 a       545     0    46     1     5
  1.0729492574693788E+01 a       546     0    46     1     6
 -9.9549793696350601E+00 a       547     0    46     1     7
  1.3871157857960692E+00 a       548     0    46     1     8
  2.5169035720972595E+01 a       549     0    46     1     9
 -1.4993184324642687E+01 a       550     0    46     1    10
 -8.3855694122978601E+00 a       551     0    46     1    11
  3.2201720396631734E+00 a       552     0    46     1    12
 -5.5932982639205932E+01 a       553     0    47     1     1
  1.6612809953929649E+01 a       554     0    47     1     2
  1.0180382157266111E+01 a       555     0    47     1     3
  3.2857730516607838E+01 a       556     0    47     1     4
 -5.4895695931754311E+01 a       557     0    47     1     5
  8.0935788099337913E+01 a       558     0    47     1     6
  1.6073890077680200E+00 a       559     0    47     1     7
 -1.3752087636086201E+00 a       560     0    47     1     8
 -1.0571202754042184E+00 a       561     0    47     1     9
  5.1200497831898240E+00 a       562     0    47     1    10
  1.9224739840516381E+00 a       563     0    47     1    11
  5.2611790807269472E+00 a       564     0    47     1    12
 -1.0475788152512560E+02 a       565     0    48     1     1
  1.6790854874917020E+01 a       566     0    48     1     2
  1.7000543354577047E+01 a       567     0    48     1     3
  2.4160208114986688E+01 a       568     0    48     1     4
  6.4596612824126566E+01 a       569     0    48     1     5
 -1.5926225879770184E+00 a       570     0    48     1     6
  1.7165076077367008E+01 a       571     0    48     1     7
  4.1839763973153621E-01 a       572     0    48     1     8
  7.4397653698882955E+00 a       573     0    48     1     9
 -1.7056554407264057E+00 a       574     0    48     1    10
 -2.4778261650429960E+00 a       575     0    48     1    11
 -2.2230093127585424E+00 a       576     0    48     1    12
  9.2609665895138471E-02 a       577     0    49     1     1
 -1.8770378959313970E+01 a       578     0    49     1     2
  2.5404911588345488E+01 a       579     0    49     1     3
  3.1310944654858819E+01 a       580     0    49     1     4
 -1.1021335771045550E+02 a       581     0    49     1     5
 -1.2781377945237658E+01 a       582     0    49     1     6
  1.9769476510978247E+01 a       583     0    49     1     7
 -5.9861442014167325E+00 a       584     0    49     1     8
  1.1421469224347442E+00 a       585     0    49     1     9
  5.6898762285526781E+00 a       586     0    49     1    10
  4.1907140276424224E+00 a       587     0    49     1    11
  5.2782129385411656E+00 a       588     0    49     1    12
 -3.2572320925663867E+01 a       589     0    50     1     1
  1.8208243367264838E+01 a       590     0    50     1     2
  3.5348659892952128E+01 a       591     0    50     1     3
  2.5395477016837514E+01 a       592     0    50     1     4
  3.4199354311248840E+01 a       593     0    50     1     5
  7.0589411918417596E+01 a       594     0    50     1     6
  1.1983300606058506E+01 a       595     0    50     1     7
 -3.7992690908850402E+00 a       596     0    50     1     8
  1.0344613571760854E+01 a       597     0    50     1     9
 -7.9618028252306541E+00 a       598     0    50     1    10
  3.5660177371944481E+00 a       599     0    50     1    11
  5.6109537834465257E+00 a       600     0    50     1    12
  9.4441214292936504E+00 a       601     0    51     1     1
  1.5022347689100467E+01 a       602     0    51     1     2
  4.0791648761645803E+01 a       603     0    51     1     3
  2.6564019432174589E+01 a       604     0    51     1     4
  4.3645608013374101E+01 a       605     0    51     1     5
  2.8082663911988977E+01 a       606     0    51     1     6
  1.1231429632344389E+01 a       607     0    51     1     7
  9.1137679877221931E+00 a       608     0    51     1     8
 -1.9418833472924881E+00 a       609     0    51     1     9
 -9.2172236520212731E+00 a       610     0    51     1    10
  5.6022254367284816E+00 a       611     0    51     1    11
  9.0634643677448210E+00 a       612     0    51     1    12
 -2.7992111935886652E+00 a       613     0    52     1     1
 -3.5515809680458773E+01 a       614     0    52     1     2
 -3.8581555094101918E+00 a       615     0    52     1     3
 -4.9557902027367575E+01 a       616     0    52     1     4
  1.0411096896011914E+02 a       617     0    52     1     5
  1.8290848674917126E+02 a       618     0    52     1     6
  4.2443517815493257E+00 a       619     0    52     1     7
  1.5162260751908216E+00 a       620     0    52     1     8
 -1.3192378642444782E+01 a       621     0    52     1     9
 -5.6227190310486845E+00 a       622     0    52     1    10
  1.5574473519743810E+00 a       623     0    52     1    11
  1.2114816681488461E+01 a       624     0    52     1    12
 -6.4226202498619102E+01 a       625     0    53     1     1
 -2.2088951860839824E+01 a       626     0    53     1     2
 -1.1353616929525707E+01 a       627     0    53     1     3
 -4.2594812724841972E+01 a       628     0    53     1     4
  1.5337052439760530E+00 a       629     0    53     1     5
  4.9873284378340820E+01 a       630     0    53     1     6
  7.3805421913432498E+00 a       631     0    53     1     7
  1.1774237881455642E+01 a       632     0    53     1     8
  2.3714245328332719E+00 a       633     0    53     1     9
 -7.0276998238070290E+00 a       634     0    53     1    10
 -4.6525106863391228E+00 a       635     0    53     1    11
  1.2805483215098246E+00 a       636     0    53     1    12
 -2.0215356688243237E+01 a       637     0    54     1     1
  1.2789957438905679E+01 a       638     0    54     1     2
 -1.3989282359608131E+01 a       639     0    54     1     3
 -3.9115954337013960E+01 a       640     0    54     1     4
 -8.0878484533946462E+01 a       641     0    54     1     5
  7.6498486886650468E+01 a       642     0    54     1     6
  5.1227514023740284E+00 a       643     0    54     1     7
  6.0692300196292654E+00 a       644     0    54     1     8
 -2.5895241356158638E+00 a       645     0    54     1     9
 -9.2900681618601944E+00 a       646     0    54     1    10
 -1.2060150449852957E+01 a       647     0    54     1    11
  5.8704286609241478E+00 a       648     0    54     1    12
 -3.4703475774409000E+01 a       649     0    55     1     1
 -2.4341328914085839E+01 a       650     0    55     1     2
 -1.4599595550418774E+01 a       651     0    55     1     3
 -3.4980966205382593E+01 a       652     0    55     1     4
 -1.0780347589956158E+02 a       653     0    55     1     5
  2.8872197577753766E+01 a       654     0    55     1     6
  3.2035029192800160E+00 a       655     0    55     1     7
 -1.2738643371356526E-01 a       656     0    55     1     8
  1.4572828237608970E+01 a       657     0    55     1     9
 -1.5945660220252892E+01 a       658     0    55     1    10
 -1.9335872467855555E+00 a       659     0    55     1    11
 -7.6346909453936429E-01 a       660     0    55     1    12
  1.0056861593419320E+01 a       661     0    56     1     1
  2.3713135156693244E+01 a       662     0    56     1     2
 -1.9439532878142089E+01 a       663     0    56     1     3
 -3.1277884219329017E+01 a       664     0    56     1     4
 -3.6480259538258402E+01 a       665     0    56     1     5
  1.2175601912158481E+01 a       666     0    56     1     6
  6.6516967708698811E+00 a       667     0    56     1     7
  1.3672416772440481E+01 a       668     0    56     1     8
  3.0381154336764489E+00 a       669     0    56     1     9
 -9.1920390808903054E+00 a       670     0    56     1    10
 -8.6681844770899090E+00 a       671     0    56     1    11
  6.5014503396934114E+00 a       672     0    56     1    12
 -7.4713986623599823E+01 a       673     0    57     1     1
  3.9795455302855743E+01 a       674     0    57     1     2
 -2.1977677481118985E+01 a       675     0    57     1     3
 -2.7315132631025264E+01 a       676     0    57     1     4
 -7.5512536144091868E+01 a       677     0    57     1     5
 -6.3897400063277104E+01 a       678     0    57     1     6
  1.0971226504807671E+01 a       679     0    57     1     7
  5.8654991870438513E+00 a       680     0    57     1     8
  8.9874088561901966E-01 a       681     0    57     1     9
 -2.0778668727462161E+01 a       682     0    57     1    10
  5.4147274122716196E+00 a       683     0    57     1    11
  2.2060719240235191E+00 a       684     0    57     1    12
 -3.8077705309766621E+01 a       685     0    58     1     1
  2.5314043504517187E+01 a       686     0    58     1     2
  9.1465238094666077E+00 a       687     0    58     1     3
  2.5069002106159342E+01 a       688     0    58     1     4
 -6.5710304569691225E+00 a       689     0    58     1     5
  6.2467148092322162E+01 a       690     0    58     1     6
 -1.4042534070473375E+01 a       691     0    58     1     7
 -5.2508229622230171E+00 a       692     0    58     1     8
  1.2632134900042691E+00 a       693     0    58     1     9
 -5.2956415351690556E-01 a       694     0    58     1    10
 -1.6600324189101833E+01 a       695     0    58     1    11
 -5.4179444350853130E+00 a       696     0    58     1    12
 -5.8538232596806942E+01 a       697     0    59     1     1
 -3.7316568169906674E+01 a       698     0    59     1     2
  5.7419967213758172E+00 a       699     0    59     1     3
  2.8965826676579532E+01 a       700     0    59     1     4
 -5.5725107987994946E+01 a       701     0    59     1     5
  2.9817126469006642E+01 a       702     0    59     1     6
 -1.6574543290009691E+00 a       703     0    59     1     7
 -4.2343599380627177E+00 a       704     0    59     1     8
 -1.2388188821620792E+01 a       705     0    59     1     9
 -4.4139640447426682E+00 a       706     0    59     1    10
 -1.3334978391831974E+01 a       707     0    59     1    11
  1.1391535089558158E+00 a       708     0    59     1    12
  3.9601178266573420E+01 a       709     0    60     1     1
  3.6993657559361118E+01 a       710     0    60     1     2
  1.5735949138803036E+01 a       711     0    60     1     3
  2.5155695678585559E+01 a       712     0    60     1     4
 -3.4717457024333264E+01 a       713     0    60     1     5
 -6.8930075791486203E+01 a       714     0    60     1     6
  1.5417822994874613E+00 a       715     0    60     1     7
 -3.4800361986592452E+00 a       716     0    60     1     8
 -4.0436306417013528E+00 a       717     0    60     1     9
  3.7225770093517561E+00 a       718     0    60     1    10
 -1.2222632528678387E+01 a       719     0    60     1    11
 -8.1203406434440133E+00 a       720     0    60     1    12
  4.5352760454599533E+01 a       721     0    61     1     1
  1.7590197448595113E+01 a       722     0    61     1     2
  9.4830567716710483E+00 a       723     0    61     1     3
  2.8564307268208719E+01 a       724     0    61     1     4
 -7.9550176522809522E+01 a       725     0    61     1     5
 -5.0187327548591576E+01 a       726     0    61     1     6
  1.1165117027386902E+01 a       727     0    61     1     7
  8.3200255084701080E+00 a       728     0    61     1     8
 -5.4518571864364507E+00 a       729     0    61     1     9
 -7.0607318891310475E+00 a       730     0    61     1    10
 -7.7611047500248453E+00 a       731     0    61     1    11
  5.9678587381727954E+00 a       732     0    61     1    12
  7.1155528010277678E+01 a       733     0    62     1     1
  2.8375740087663539E+00 a       734     0    62     1     2
  2.0202111046581724E+01 a       735     0    62     1     3
  2.5404442991864308E+01 a       736     0    62     1     4
 -8.4577569956439600E+00 a       737     0    62     1     5
  1.0012269648114589E+01 a       738     0    62     1     6
  2.0542262109694516E+00 a       739     0    62     1     7
 -4.8961471925682805E+00 a       740     0    62     1     8
 -1.0896547910119214E+00 a       741     0    62     1     9
 -4.0543851986427928E+00 a       742     0    62     1    10
 -1.5451257744992251E+01 a       743     0    62     1    11
 -1.7876675556880981E+00 a       744     0    62     1    12
  1.0183157096563686E+01 a       745     0    63     1     1
 -6.1597997133632303E+00 a       746     0    63     1     2
  2.7138486254283734E+01 a       747     0    63     1     3
  2.7793451836974238E+01 a       748     0    63     1     4
  6.2052576663336772E+01 a       749     0    63     1     5
  3.2437468698019060E+01 a       750     0    63     1     6
 -9.5697991170031500E+00 a       751     0    63     1     7
  3.9228970664103220E+00 a       752     0    63     1     8
 -1.2538649440943773E+01 a       753     0    63     1     9
  3.4930903711619385E+00 a       754     0    63     1    10
 -1.7821593799635259E+01 a       755     0    63     1    11
  1.0178288908646218E+01 a       756     0    63     1    12
 -2.9298981262281458E+01 a       757     0    64     1     1
  1.0170828554605253E+01 a       758     0    64     1     2
  2.2295019663550939E+01 a       759     0    64     1     3
  4.9643747603741524E+01 a       760     0    64     1     4
  6.9667689951007032E+00 a       761     0    64     1     5
 -2.0842256995824400E+01 a       762     0    64     1     6
  2.1010347053366104E+01 a       763     0    64     1     7
  1.4142390567440486E+01 a       764     0    64     1     8
  2.6905304414105547E+01 a       765     0    64     1     9
  4.6720239583612653E+00 a       766     0    64     1    10
 -1.3223595459008274E+01 a       767     0    64     1    11
  5.4630901002799819E+00 a       768     0    64     1    12
 -2.4571895373390984E+01 a       769     0    65     1     1
 -1.1967170693653184E+01 a       770     0    65     1     2
  3.4205537387689034E+01 a       771     0    65     1     3
  4.5121982407001113E+01 a       772     0    65     1     4
 -3.5481087886352228E+01 a       773     0    65     1     5
 -1.7128730335111786E+01 a       774     0    65     1     6
 -9.0842117278530168E+00 a       775     0    65     1     7
 -7.4428278661048539E+00 a       776     0    65     1     8
  9.5748545894265185E+00 a       777     0    65     1     9
  3.9521515753789114E+00 a       778     0    65     1    10
 -3.1604977043732458E+00 a       779     0    65     1    11
 -8.9083086203701995E+00 a       780     0    65     1    12
  2.3065838060438974E+01 a       781     0    66     1     1
 -4.8487725307444315E+01 a       782     0    66     1     2
  3.0436474129614812E+01 a       783     0    66     1     3
  3.9281986521664535E+01 a       784     0    66     1     4
  3.8002502186237685E+01 a       785     0    66     1     5
 -7.8562901788951720E+01 a       786     0    66     1     6
  2.2062269644529655E+00 a       787     0    66     1     7
 -5.6287179813920796E+00 a       788     0    66     1     8
  1.4772120860424726E+01 a       789     0    66     1     9
  4.0486501051651276E+00 a       790     0    66     1    10
  2.8136220587058428E+01 a       791     0    66     1    11
 -2.5655544034405953E+00 a       792     0    66     1    12
 -3.0609444328702509E+00 a       793     0    67     1     1
 -6.2232224010856136E+01 a       794     0    67     1     2
  3.5168576366024823E+01 a       795     0    67     1     3
  3.8698038107763701E+01 a       796     0    67     1     4
  1.7380895801131018E+02 a       797     0    67     1     5
 -7.2821563173795212E+01 a       798     0    67     1     6
 -2.1546777824022474E+01 a       799     0    67     1     7
  2.4774918416747997E+01 a       800     0    67     1     8
 -1.7313771030096650E+01 a       801     0    67     1     9
  1.1543291041892278E+01 a       802     0    67     1    10
 -7.2400896385699962E+00 a       803     0    67     1    11
  1.1114948720545721E+00 a       804     0    67     1    12
 -8.6763723755254620E+00 a       805     0    68     1     1
 -2.1678998310587243E+01 a       806     0    68     1     2
  3.5657150497988184E+01 a       807     0    68     1     3
  3.3913523305743688E+01 a       808     0    68     1     4
  1.0851386168868724E+00 a       809     0    68     1     5
 -5.5009406522518141E+01 a       810     0    68     1     6
 -1.5305410997842884E+01 a       811     0    68     1     7
  2.3474038129235701E+00 a       812     0    68     1     8
  1.3203810814077683E+00 a       813     0    68     1     9
 -2.1111938948333080E+00 a       814     0    68     1    10
  2.9034496113315583E+01 a       815     0    68     1    11
  1.0627787927563721E+01 a       816     0    68     1    12
 -2.8535096347948024E+01 a       817     0    69     1     1
 -5.0058980105965389E+01 a       818     0    69     1     2
  3.1935337213121155E+01 a       819     0    69     1     3
  2.7164785153828692E+01 a       820     0    69     1     4
  2.2005418185258037E+01 a       821     0    69     1     5
 -9.0294320057474007E+00 a       822     0    69     1     6
 -9.7217680235437669E+00 a       823     0    69     1     7
 -6.7693717104942985E+00 a       824     0    69     1     8
  4.7666900586264385E+00 a       825     0    69     1     9
  1.7540244371685503E+01 a       826     0    69     1    10
  2.0679188637567073E+01 a       827     0    69     1    11
  8.1133466164504808E-01 a       828     0    69     1    12
  8.6455888563702317E+01 a       829     0    70     1     1
 -4.5972793693228887E+01 a       830     0    70     1     2
  1.0714566849393815E+01 a       831     0    70     1     3
 -2.2131152616386455E+01 a       832     0    70     1     4
 -1.2270955438523907E+02 a       833     0    70     1     5
 -7.5571454518056598E+01 a       834     0    70     1     6
  2.0886446090376534E+01 a       835     0    70     1     7
 -3.2923776308093720E+00 a       836     0    70     1     8
 -3.7822692554510546E+01 a       837     0    70     1     9
  1.3600835113993872E+01 a       838     0    70     1    10
  1.4615487552921911E+01 a       839     0    70     1    11
  1.4075402832170635E+01 a       840     0    70     1    12
  4.0111916055673426E+01 a       841     0    71     1     1
 -6.5303730420614528E+01 a       842     0    71     1     2
 -8.9333055197322508E+00 a       843     0    71     1     3
 -3.3722201284190028E+01 a       844     0    71     1     4
  2.7434857410189590E+01 a       845     0    71     1     5
 -6.3046384457894916E+01 a       846     0    71     1     6
  3.7637387924726720E+00 a       847     0    71     1     7
 -1.0019563017485634E+01 a       848     0    71     1     8
  5.7709700662907997E+00 a       849     0    71     1     9
 -6.9326408640080368E+00 a       850     0    71     1    10
  1.1951766420646091E+00 a       851     0    71     1    11
  1.5570109280214706E+00 a       852     0    71     1    12
  8.7170978925337351E+01 a       853     0    72     1     1
 -6.6268716082463541E+01 a       854     0    72     1     2
 -1.8510123245278553E+01 a       855     0    72     1     3
 -2.1002943843457050E+01 a       856     0    72     1     4
 -8.8078963035462522E+01 a       857     0    72     1     5
 -1.5897047460761151E+01 a       858     0    72     1     6
 -1.7243401407532406E+01 a       859     0    72     1     7
 -2.0620108002857771E+00 a       860     0    72     1     8
 -7.4928201200324427E+00 a       861     0    72     1     9
 -5.8308049618885374E+00 a       862     0    72     1    10
  6.8948558092697958E+00 a       863     0    72     1    11
  4.0318534811374072E+00 a       864     0    72     1    12
 -1.6155253717856122E+00 a       865     0    73     1     1
  6.7664165191380290E+00 a       866     0    73     1     2
 -3.2043293261139432E+01 a       867     0    73     1     3
 -3.3497264472945950E+01 a       868     0    73     1     4
  6.5676065999397522E+01 a       869     0    73     1     5
  1.1708345746984655E+02 a       870     0    73     1     6
 -1.8749532395921264E+01 a       871     0    73     1     7
 -1.3539606069679042E+01 a       872     0    73     1     8
  2.1650142693885330E+00 a       873     0    73     1     9
 -1.1596230242411123E+00 a       874     0    73     1    10
 -5.5642050839225377E+00 a       875     0    73     1    11
 -1.2185066734827650E+00 a       876     0    73     1    12
  2.2336785463450564E+01 a       877     0    74     1     1
 -2.9538422951198804E+01 a       878     0    74     1     2
 -4.6025586784070782E+01 a       879     0    74     1     3
 -2.3550986077752736E+01 a       880     0    74     1     4
 -1.1158283392300396E+02 a       881     0    74     1     5
 -1.1869358572761657E+01 a       882     0    74     1     6
 -8.6681215979537907E+00 a       883     0    74     1     7
 -3.0062180237766309E+00 a       884     0    74     1     8
 -1.0711415261100402E+01 a       885     0    74     1     9
  1.8515918750694085E+00 a       886     0    74     1    10
  6.7312555643211960E+00 a       887     0    74     1    11
 -1.5819924457085868E-01 a       888     0    74     1    12
  1.6710092888304413E+01 a       889     0    75     1     1
  2.5667880394227939E+01 a       890     0    75     1     2
 -5.1489596128997619E+01 a       891     0    75     1     3
 -2.6223711875999204E+01 a       892     0    75     1     4
 -7.7947623193672513E+01 a       893     0    75     1     5
 -3.4091976480986382E+01 a       894     0    75     1     6
 -6.0058779690309594E+00 a       895     0    75     1     7
 -1.4318888021796358E+01 a       896     0    75     1     8
  7.0960689351091721E+00 a       897     0    75     1     9
  5.5814542319527671E+00 a       898     0    75     1    10
 -6.9047624138331800E+00 a       899     0    75     1    11
 -6.4318706774127810E+00 a       900     0    75     1    12
 -2.5954450834763723E+01 a       901     0    76     1     1
  8.8048757409290470E+00 a       902     0    76     1     2
 -2.4672699100005695E+00 a       903     0    76     1     3
  1.5856501392400756E-02 a       904     0    76     1     4
 -6.9426789268142230E+01 a       905     0    76     1     5
 -3.9179812477955622E+01 a       906     0    76     1     6
  1.0437829818929858E+00 a       907     0    76     1     7
 -1.3467307625306521E+01 a       908     0    76     1     8
  2.2497709700923672E+01 a       909     0    76     1     9
  2.4107694873699721E+01 a       910     0    76     1    10
  7.2453628943697153E+00 a       911     0    76     1    11
  3.2506948931274322E+00 a       912     0    76     1    12
  2.5956517853093359E+01 a       913     0    77     1     1
  5.8297425878940681E+00 a       914     0    77     1     2
 -3.3992249073046144E+00 a       915     0    77     1     3
 -6.9883797241190431E+00 a       916     0    77     1     4
  2.9317379738240291E+01 a       917     0    77     1     5
  1.3192754158637999E+02 a       918     0    77     1     6
  1.1432351883280301E+01 a       919     0    77     1     7
  9.2356574457644811E+00 a       920     0    77     1     8
  1.6880473689776071E+01 a       921     0    77     1     9
 -7.8934040046307121E+00 a       922     0    77     1    10
  1.6418032890436045E+01 a       923     0    77     1    11
  2.3633702198746338E+01 a       924     0    77     1    12
  5.9577986571284525E+00 a       925     0    78     1     1
  2.7506303628780611E+01 a       926     0    78     1     2
 -1.7816897584444364E+00 a       927     0    78     1     3
 -4.2777078681891325E+00 a       928     0    78     1     4
  1.3490762595162783E+01 a       929     0    78     1     5
  9.7109826673403560E+01 a       930     0    78     1     6
  8.5296751402762023E+00 a       931     0    78     1     7
  1.2383073651388109E+01 a       932     0    78     1     8
  1.2727528926244309E+01 a       933     0    78     1     9
  3.1605529641356669E+00 a       934     0    78     1    10
  2.3006761274290347E-01 a       935     0    78     1    11
  1.5963585104450630E+01 a       936     0    78     1    12
 -2.3812415648161544E+01 a       937     0    79     1     1
  3.2843966632196135E+01 a       938     0    79     1     2
  3.9106316128345403E-01 a       939     0    79     1     3
 -6.8334736699655210E+00 a       940     0    79     1     4
  4.0589874985235618E+01 a       941     0    79     1     5
  1.7277571281353923E+02 a       942     0    79     1     6
  1.8869492755465256E+01 a       943     0    79     1     7
  1.5458086306726170E+01 a       944     0    79     1     8
  1.8346564158757950E+01 a       945     0    79     1     9
 -3.2492673293956589E+00 a       946     0    79     1    10
  2.8850781769728446E+01 a       947     0    79     1    11
  1.5617702248232552E+01 a       948     0    79     1    12
  4.3090024455556971E+01 a       949     0    80     1     1
  3.0305794823202317E+00 a       950     0    80     1     2
  3.5070140532052170E+00 a       951     0    80     1     3
 -5.9657566331083132E+00 a       952     0    80     1     4
  4.6750834218320250E+01 a       953     0    80     1     5
  2.1580875171236755E+01 a       954     0    80     1     6
  1.0287972321752079E+01 a       955     0    80     1     7
 -3.3253023600748994E+00 a       956     0    80     1     8
  1.7523296308919573E+01 a       957     0    80     1     9
 -8.3808746774067655E-01 a       958     0    80     1    10
  9.6015618750548370E-01 a       959     0    80     1    11
 -3.0937021532693663E+01 a       960     0    80     1    12
 -4.7472870446157096E+01 a       961     0    81     1     1
 -8.5714012098914040E+01 a       962     0    81     1     2
  9.2241085277674895E+00 a       963     0    81     1     3
 -8.8603188502844148E+00 a       964     0    81     1     4
  4.6927745293273674E+01 a       965     0    81     1     5
  6.2781804040701303E+01 a       966     0    81     1     6
  6.0349513980559299E+00 a       967     0    81     1     7
  3.4510387290807136E+00 a       968     0    81     1     8
  1.9002532342666825E+01 a       969     0    81     1     9
  2.0404150324486885E+01 a       970     0    81     1    10
 -2.2607266027030906E+01 a       971     0    81     1    11
 -1.4740905726545128E+01 a       972     0    81     1    12
  2.3533405751996521E+00 a       973     0    82     1     1
 -3.6600670763442466E+01 a       974     0    82     1     2
 -8.0406213879431903E+00 a       975     0    82     1     3
 -4.8899214887602387E+00 a       976     0    82     1     4
 -2.8352097758203462E+02 a       977     0    82     1     5
 -7.2503172123511689E+01 a       978     0    82     1     6
  1.0203381588398379E+01 a       979     0    82     1     7
 -3.4029100358715830E+01 a       980     0    82     1     8
 -1.4303675232178410E+01 a       981     0    82     1     9
 -1.4804352319831455E+01 a       982     0    82     1    10
 -1.6055296365339132E+01 a       983     0    82     1    11
 -8.9095367548067994E+00 a       984     0    82     1    12
  6.1872455109824699E+01 a       985     0    83     1     1
  4.9152978213717141E+01 a       986     0    83     1     2
  8.2199314859611210E+00 a       987     0    83     1     3
 -7.3368827208787151E+00 a       988     0    83     1     4
 -8.3757510307648566E+00 a       989     0    83     1     5
 -6.2045214439884662E+00 a       990     0    83     1     6
 -4.0799355402033060E+00 a       991     0    83     1     7
 -2.2415966482092752E+01 a       992     0    83     1     8
 -2.4759428180570893E+01 a       993     0    83     1     9
  2.0847014545360494E+01 a       994     0    83     1    10
  4.9147809624609478E+00 a       995     0    83     1    11
 -4.9009723331216319E+00 a       996     0    83     1    12
  1.2087075120920950E+01 a       997     0    84     1     1
 -4.6448758575295194E+01 a       998     0    84     1     2
 -5.8335989748022579E+00 a       999     0    84     1     3
 -8.8280524395117297E+00 a      1000     0    84     1     4
  1.3200950291809369E+02 a      1001     0    84     1     5
 -9.9303423205096859E+00 a      1002     0    84     1     6
 -5.4206795331642308E+00 a      1003     0    84     1     7
 -1.6185344421278430E+01 a      1004     0    84     1     8
 -2.1304339144842356E+01 a      1005     0    84     1     9
 -2.3528633253612790E+00 a      1006     0    84     1    10
  2.0475844236779923E+00 a      1007     0    84     1    11
  3.9309223816544947E-02 a      1008     0    84     1    12
 -2.3757089965992453E+01 a      1009     0    85     1     1
 -3.1332659419707916E+01 a      1010     0    85     1     2
  1.0333880413880934E+01 a      1011     0    85     1     3
 -1.5527875364034850E+01 a      1012     0    85     1     4
  1.7195693347508873E+02 a      1013     0    85     1     5
 -4.8354574427386645E+01 a      1014     0    85     1     6
 -1.2847169529964171E+01 a      1015     0    85     1     7
 -8.4709022876168056E+00 a      1016     0    85     1     8
 -3.4897663205917503E+01 a      1017     0    85     1     9
  3.9827137643444630E+01 a      1018     0    85     1    10
 -3.5051529299996897E-01 a      1019     0    85     1    11
 -9.1456035724431501E+00 a      1020     0    85     1    12
 -9.5538325149284944E+01 a      1021     0    86     1     1
 -2.9610658031201147E+01 a      1022     0    86     1     2
 -1.7631051198301815E+00 a      1023     0    86     1     3
 -1.3361515561199312E+01 a      1024     0    86     1     4
  1.1275898818366205E+02 a      1025     0    86     1     5
  5.7694770475327715E+01 a      1026     0    86     1     6
 -6.2419725424542900E+00 a      1027     0    86     1     7
  3.5466868364310562E+00 a      1028     0    86     1     8
 -2.3310204488573419E+01 a      1029     0    86     1     9
  2.0811478885782684E+01 a      1030     0    86     1    10
  1.6241647091543584E+01 a      1031     0    86     1    11
  1.3745395222893444E+01 a      1032     0    86     1    12
 -4.0118641230044084E+01 a      1033     0    87     1     1
 -4.9744574315872299E+01 a      1034     0    87     1     2
 -9.6426355960365093E+00 a      1035     0    87     1     3
 -1.3796899398430675E+01 a      1036     0    87     1     4
  1.5558607623805141E+01 a      1037     0    87     1     5
  4.9799733595352954E+01 a      1038     0    87     1     6
  6.5774673384771427E+00 a      1039     0    87     1     7
 -8.6555921434853289E+00 a      1040     0    87     1     8
 -3.8684119880405068E+00 a      1041     0    87     1     9
  1.4820267812238818E+01 a      1042     0    87     1    10
  1.0647629633671855E+01 a      1043     0    87     1    11
 -1.3613137829401792E+01 a      1044     0    87     1    12
  1.3058287104176971E+00 b      1045     1     1
  1.3952766517253117E+00 b      1046     1     2
  4.3865860767209464E+00 b      1047     1     3
 -4.0612516824596394E+00 b      1048     1     4
 -1.0693500841932249E+01 b      1049     1     5
 -4.5264769085549501E+00 b      1050     1     6
  1.2457003967215772E+00 b      1051     1     7
  7.5579553167403846E-01 b      1052     1     8
  4.2103944295884981E+00 b      1053     1     9
  7.9488138816169807E-01 b      1054     1    10
 -2.7225040013896509E+00 b      1055     1    11
 -8.7418428402054555E+00 b      1056     1    12
 -1.0072326723099825E+00 a      1057     1     1     2     1
  4.0612389743049100E+00 a      1058     1     1     2     2
 -8.8281523974308953E+01 a      1059     1     1     2     3
 -1.6098656911643502E+01 a      1060     1     1     2     4
  1.8677095929113158E+01 a      1061     1     1     2     5
 -1.5003952419280456E+01 a      1062     1     1     2     6
 -5.0872055123760527E+00 a      1063     1     1     2     7
  2.3045969152027617E+00 a      1064     1     1     2     8
 -4.5927005846692870E+00 a      1065     1     1     2     9
 -2.2643702363507807E+00 a      1066     1     1     2    10
 -4.2701027231820650E+00 a      1067     1     1     2    11
  2.5731810530892845E+00 a      1068     1     1     2    12
 -1.7718701312012979E+00 a      1069     1     2     2     1
  3.5680417584085111E+00 a      1070     1     2     2     2
 -3.8484781935354242E+01 a      1071     1     2     2     3
  5.5874332804640350E+00 a      1072     1     2     2     4
 -1.1232699006606859E+01 a      1073     1     2     2     5
  9.0367850603234885E+00 a      1074     1     2     2     6
  5.6198814831052291E+00 a      1075     1     2     2     7
 -1.4260553354985182E+00 a      1076     1     2     2     8
  7.1756519591796577E+00 a      1077     1     2     2     9
  2.3947599587296753E+00 a      1078     1     2     2    10
  2.8397810168161648E+00 a      1079     1     2     2    11
 -1.5012314907091402E+00 a      1080     1     2     2    12
  2.6149015895150298E+00 a      1081     1     3     2     1
 -4.3987698954736185E+00 a      1082     1     3     2     2
 -4.3299156599496884E+00 a      1083     1     3     2     3
  5.3206387572621399E+00 a      1084     1     3     2     4
 -5.2589280736303685E+00 a      1085     1     3     2     5
  1.5626310499587737E+00 a      1086     1     3     2     6
  4.5091699798350691E+00 a      1087     1     3     2     7
 -1.2050710462475478E+00 a      1088     1     3     2     8
  2.7659329016603595E+00 a      1089     1     3     2     9
 -4.1613709643549845E-01 a      1090     1     3     2    10
 -1.7066372560050360E+00 a      1091     1     3     2    11
 -4.6357488182169354E-01 a      1092     1     3     2    12
  8.1218606121571923E+00 a      1093     1     4     2     1
 -9.6888527702052238E-02 a      1094     1     4     2     2
 -3.5638249043231511E+01 a      1095     1     4     2     3
  1.5942219183483157E+01 a      1096     1     4     2     4
 -2.7499041762386351E+01 a      1097     1     4     2     5
  3.9143297045649685E+00 a      1098     1     4     2     6
  1.5419019299620902E+00 a      1099     1     4     2     7
 -1.1082518112702628E+00 a      1100     1     4     2     8
 -2.8523334863046840E-01 a      1101     1     4     2     9
 -3.5586829067673640E+00 a      1102     1     4     2    10
 -6.2436627527230684E+00 a      1103     1     4     2    11
  9.3082783989162099E+00 a      1104     1     4     2    12
  9.8586654989038180E+00 a      1105     1     5     2     1
  3.2515196597075633E+00 a      1106     1     5     2     2
 -3.1227781393145754E+01 a      1107     1     5     2     3
 -4.6276163519843585E+01 a      1108     1     5     2     4
  1.2073354291495028E+02 a      1109     1     5     2     5
  2.5780507649580265E+01 a      1110     1     5     2     6
  1.3030641876127772E+01 a      1111     1     5     2     7
  8.7210980868772285E+00 a      1112     1     5     2     8
 -2.2980203461522621E+01 a      1113     1     5     2     9
 -6.3562926103945747E+00 a      1114     1     5     2    10
 -3.3370554576339924E+00 a      1115     1     5     2    11
 -7.0092133256336426E+00 a      1116     1     5     2    12
 -6.7901551118751791E-01 a      1117     1     6     2     1
  1.2633217498701172E+00 a      1118     1     6     2     2
  3.4129533498068206E+01 a      1119     1     6     2     3
 -8.8290158698591856E+00 a      1120     1     6     2     4
  4.0280375187588966E+01 a      1121     1     6     2     5
 -2.7111368482419147E+00 a      1122     1     6     2     6
  1.6513253069756533E+00 a      1123     1     6     2     7
 -3.8053568015736459E+00 a      1124     1     6     2     8
 -4.8195620085019115E+00 a      1125     1     6     2     9
  2.3744824269679810E+00 a      1126     1     6     2    10
 -8.0563390640425663E+00 a      1127     1     6     2    11
 -5.3972211051533270E+00 a      1128     1     6     2    12
  1.1845154830284743E+00 a      1129     1     7     2     1
 -1.0466853462175414E+00 a      1130     1     7     2     2
  7.7542927531782668E+00 a      1131     1     7     2     3
  5.6586106993216374E+00 a      1132     1     7     2     4
  4.1517960459689647E+00 a      1133     1     7     2     5
 -4.1970295061391660E-01 a      1134     1     7     2     6
 -9.4056944927853650E+00 a      1135     1     7     2     7
  6.3712877861621409E-01 a      1136     1     7     2     8
 -9.0094553992346391E+00 a      1137     1     7     2     9
 -1.4678543954327770E+00 a      1138     1     7     2    10
 -2.0597900868109056E+00 a      1139     1     7     2    11
  1.2326424959523765E+00 a      1140     1     7     2    12
  1.4096091938827562E+00 a      1141     1     8     2     1
 -1.8101057568512677E-01 a      1142     1     8     2     2
 -9.2600105958752117E+00 a      1143     1     8     2     3
  3.5255065659037217E+00 a      1144     1     8     2     4
 -6.8030027084694584E+00 a      1145     1     8     2     5
  3.1028876910650691E+00 a      1146     1     8     2     6
  4.7488572156564643E+00 a      1147     1     8     2     7
 -2.5988309979597835E-01 a      1148     1     8     2     8
  5.7742400233387716E+00 a      1149     1     8     2     9
 -2.1121592691318058E+00 a      1150     1     8     2    10
 -2.3868322154508199E+00 a      1151     1     8     2    11
 -4.9881457063713786E-01 a      1152     1     8     2    12
  1.5954242048263394E+00 a      1153     1     9     2     1
  1.3269875218849381E-01 a      1154     1     9     2     2
 -5.7678152924270263E+00 a      1155     1     9     2     3
  4.0259358248078465E+00 a      1156     1     9     2     4
 -5.5851397855352056E+00 a      1157     1     9     2     5
 -5.9543279812380767E-01 a      1158     1     9     2     6
 -5.3154566493405975E+00 a      1159     1     9     2     7
  8.9390711176138149E-01 a      1160     1     9     2     8
 -6.0236120835408302E+00 a      1161     1     9     2     9
 -4.9552152007969791E-01 a      1162     1     9     2    10
  1.5667104067034141E+00 a      1163     1     9     2    11
  3.2348649556463425E+00 a      1164     1     9     2    12
 -1.2552542363793687E-01 a      1165     1    10     2     1
  6.8650842147171187E-01 a      1166     1    10     2     2
  1.6270306822524094E+00 a      1167     1    10     2     3
 -3.6367355711015432E+00 a      1168     1    10     2     4
  4.3435226678718024E+00 a      1169     1    10     2     5
  3.1748198041692505E-01 a      1170     1    10     2     6
 -3.6050727243926302E+00 a      1171     1    10     2     7
 -1.0555160219865785E+00 a      1172     1    10     2     8
 -1.0901251907703526E+00 a      1173     1    10     2     9
  2.2270641063979690E+00 a      1174     1    10     2    10
 -2.3984042235245223E-02 a      1175     1    10     2    11
  2.6297629078547033E+00 a      1176     1    10     2    12
 -5.6719043216133802E-01 a      1177     1    11     2     1
  1.1174132046857534E+00 a      1178     1    11     2     2
  2.9393501772390289E+00 a      1179     1    11     2     3
 -2.4970006758929006E+00 a      1180     1    11     2     4
  3.5733915103564682E+00 a      1181     1    11     2     5
 -1.9527112252636341E+00 a      1182     1    11     2     6
 -3.7023536069792775E+00 a      1183     1    11     2     7
  6.5435678138937146E+00 a      1184     1    11     2     8
 -5.5785416397003085E-01 a      1185     1    11     2     9
  2.6708525606033091E+00 a      1186     1    11     2    10
  2.4692125812841659E+00 a      1187     1    11     2    11
 -1.8819825898600442E-01 a      1188     1    11     2    12
  6.2009469363314484E-01 a      1189     1    12     2     1
  1.0717326861236146E-01 a      1190     1    12     2     2
 -6.3072884792427262E+00 a      1191     1    12     2     3
  4.2595496545706872E+00 a      1192     1    12     2     4
 -5.3864084326800485E+00 a      1193     1    12     2     5
 -3.6036905907733678E+00 a      1194     1    12     2     6
 -1.0365936104432037E-01 a      1195     1    12     2     7
 -1.5058790028071016E+00 a      1196     1    12     2     8
  4.0045569490422228E-01 a      1197     1    12     2     9
 -7.1341734215664154E-01 a      1198     1    12     2    10
 -2.4690806769624789E+00 a      1199     1    12     2    11
  1.1818217318814108E+00 a      1200     1    12     2    12
 -4.2750168923354144E+00 b      1201     2     1
 -2.1636460649188645E+00 b      1202     2     2
  2.1973269527454022E+01 b      1203     2     3
 -1.8244965714317182E+01 b      1204     2     4
  1.8032718012523880E+01 b      1205     2     5
 -5.2645859865539713E+00 b      1206     2     6
  2.1346903260367096E+00 b      1207     2     7
 -9.7369350218800266E-01 b      1208     2     8
  3.9193325985357603E+00 b      1209     2     9
  1.5778990292757369E+00 b      1210     2    10
  6.0103317789328328E+00 b      1211     2    11
 -1.2200904979876931E+01 b      1212     2    12
  1.3943805620331318E+00 a      1213     2     1     3     1
  6.9674406957584623E+01 a      1214     2     2     3     1
 -1.6249804201666773E-01 a      1215     2     3     3     1
 -3.6428548337512850E-01 a      1216     2     4     3     1
  2.9085308919416519E-01 a      1217     2     5     3     1
 -1.2970603521432631E+00 a      1218     2     6     3     1
  1.7331920367205136E+00 a      1219     2     7     3     1
 -9.4307620804983872E-01 a      1220     2     8     3     1
 -6.1691749718039324E-01 a      1221     2     9     3     1
 -9.4936406952672225E-01 a      1222     2    10     3     1
  6.7700334785288863E-01 a      1223     2    11     3     1
 -3.3519704136432671E-01 a      1224     2    12     3     1
 -1.2599907836425796E+01 b      1225     3     1
