################################################################################
# Neural network connection values (weights and biases).
################################################################################
# Col  Name       Description
################################################################################
# 1    connection Neural network connection value.
# 2    t          Connection type (a = weight, b = bias).
# 3    index      Index enumerating weights.
# 4    l_s        Starting point layer (end point layer for biases).
# 5    n_s        Starting point neuron in starting layer (end point neuron for biases).
# 6    l_e        End point layer.
# 7    n_e        End point neuron in end layer.
################################################################################
#                      1 2         3     4     5     6     7
#             connection t     index   l_s   n_s   l_e   n_e
############################################################
 -1.4807277344594535E+01 a         1     0     1     1     1
 -2.0981142703322160E+01 a         2     0     1     1     2
  1.6573755677724751E+00 a         3     0     1     1     3
 -6.5592335432568234E+00 a         4     0     1     1     4
 -1.2254524921165112E+01 a         5     0     1     1     5
  1.8334783488062971E+00 a         6     0     1     1     6
  8.9603729499387175E+00 a         7     0     1     1     7
  1.8312096012872541E+01 a         8     0     1     1     8
 -1.2627855808750720E+01 a         9     0     1     1     9
 -1.6534548396331033E+01 a        10     0     1     1    10
  5.6265251615012488E+00 a        11     0     1     1    11
 -3.5307135209525899E+00 a        12     0     1     1    12
  3.7160264967525627E+01 a        13     0     1     1    13
  5.6925451937929354E+00 a        14     0     1     1    14
  9.9502761498835035E+00 a        15     0     1     1    15
 -5.9453812472783936E+00 a        16     0     2     1     1
 -1.6310842071716174E+01 a        17     0     2     1     2
  6.3298483758846551E+00 a        18     0     2     1     3
 -1.3722706205289263E+01 a        19     0     2     1     4
 -8.7267913512853958E+00 a        20     0     2     1     5
 -8.3851341230498910E+00 a        21     0     2     1     6
  1.4697448127313915E+01 a        22     0     2     1     7
  2.3216700846768079E+00 a        23     0     2     1     8
  1.1890229629101535E+01 a        24     0     2     1     9
 -1.0289111420374081E+01 a        25     0     2     1    10
  1.3100870465115616E+01 a        26     0     2     1    11
 -1.9277614921016198E+01 a        27     0     2     1    12
  1.3069516581699078E+01 a        28     0     2     1    13
 -2.6932862755537382E+01 a        29     0     2     1    14
  1.4960823943946568E+01 a        30     0     2     1    15
  4.7897264598242399E+00 a        31     0     3     1     1
 -1.9381401961107525E+01 a        32     0     3     1     2
  4.3927667146502367E+00 a        33     0     3     1     3
 -2.2703116454178751E+01 a        34     0     3     1     4
 -7.8661332190698010E+00 a        35     0     3     1     5
 -4.8753996851663600E-01 a        36     0     3     1     6
  7.8620664775499307E+00 a        37     0     3     1     7
  2.6451324417958322E-01 a        38     0     3     1     8
  3.6224423402496448E+00 a        39     0     3     1     9
  2.8016922100758515E+00 a        40     0     3     1    10
  8.3473343612340773E+00 a        41     0     3     1    11
 -2.1430623649911514E+01 a        42     0     3     1    12
  8.4728210164488953E+00 a        43     0     3     1    13
 -2.9727014758947217E+01 a        44     0     3     1    14
  1.2209249068957320E+01 a        45     0     3     1    15
 -2.1963492828065663E+00 a        46     0     4     1     1
  1.7565628164222937E+00 a        47     0     4     1     2
  8.3279474029514304E+00 a        48     0     4     1     3
 -3.0161095316790814E+00 a        49     0     4     1     4
 -3.6724768901739426E+00 a        50     0     4     1     5
 -5.8055206491705933E+00 a        51     0     4     1     6
  6.9129692806803911E-01 a        52     0     4     1     7
  1.4545922648226219E+00 a        53     0     4     1     8
  1.8934812948457493E+00 a        54     0     4     1     9
 -5.0443925188448135E+00 a        55     0     4     1    10
  2.4487722206529354E+00 a        56     0     4     1    11
 -4.3230241613536062E+00 a        57     0     4     1    12
 -8.0797620840105999E-01 a        58     0     4     1    13
  3.1642773285923442E+00 a        59     0     4     1    14
 -6.9407038890946851E+00 a        60     0     4     1    15
  1.9836795673592784E+00 a        61     0     5     1     1
 -2.1481410875625220E+00 a        62     0     5     1     2
  2.4193388553853885E+00 a        63     0     5     1     3
 -1.2159466887953718E+00 a        64     0     5     1     4
 -5.7365881372607141E+00 a        65     0     5     1     5
 -4.6487955630112907E+00 a        66     0     5     1     6
 -2.5013403687956020E+00 a        67     0     5     1     7
 -9.5522821147977088E-01 a        68     0     5     1     8
  2.1984111807358819E+00 a        69     0     5     1     9
 -1.8787108157735004E+00 a        70     0     5     1    10
  4.6807556832679342E+00 a        71     0     5     1    11
 -2.7523249153761991E+00 a        72     0     5     1    12
 -4.5635071571842598E+00 a        73     0     5     1    13
  2.4877769162743029E+00 a        74     0     5     1    14
 -1.1575335933822057E+00 a        75     0     5     1    15
  2.7320572924923234E+00 a        76     0     6     1     1
 -9.3528895978711823E-01 a        77     0     6     1     2
  2.4169380535599383E+00 a        78     0     6     1     3
 -4.2515301203155511E+00 a        79     0     6     1     4
 -4.3033532378076949E+00 a        80     0     6     1     5
 -4.7796589706178443E+00 a        81     0     6     1     6
 -1.9938046039939350E+00 a        82     0     6     1     7
 -9.3993964900488147E-01 a        83     0     6     1     8
 -4.5611624324078167E-03 a        84     0     6     1     9
 -3.0157246183503443E+00 a        85     0     6     1    10
  4.6258952382187619E+00 a        86     0     6     1    11
 -3.7672521271624451E+00 a        87     0     6     1    12
 -4.0666955509171565E+00 a        88     0     6     1    13
  1.7959725894605505E+00 a        89     0     6     1    14
 -1.4598652175789704E+00 a        90     0     6     1    15
  7.4739075201954437E+00 a        91     0     7     1     1
  1.8992929508556855E+01 a        92     0     7     1     2
  4.0183448686410319E+00 a        93     0     7     1     3
  9.6486309355585287E-01 a        94     0     7     1     4
  4.5437198579660150E+00 a        95     0     7     1     5
 -8.3984798005388992E+00 a        96     0     7     1     6
 -6.6218153333745695E+00 a        97     0     7     1     7
 -1.2580995975245088E+01 a        98     0     7     1     8
  1.3501494549526129E+01 a        99     0     7     1     9
  1.0467567813406808E+01 a       100     0     7     1    10
 -8.8123762201404499E-01 a       101     0     7     1    11
 -4.3616873181885740E-03 a       102     0     7     1    12
 -3.1923878872384982E+01 a       103     0     7     1    13
  2.2976497525116463E-01 a       104     0     7     1    14
 -1.1392848003204314E+01 a       105     0     7     1    15
  6.5274458632578423E+00 a       106     0     8     1     1
  1.0368131619085879E+01 a       107     0     8     1     2
 -2.6109264434418127E+00 a       108     0     8     1     3
  9.4370898269155834E+00 a       109     0     8     1     4
 -1.8981875554995855E+00 a       110     0     8     1     5
  4.8291606143377470E-02 a       111     0     8     1     6
 -1.3633508521925211E+01 a       112     0     8     1     7
 -3.3737252871067294E+00 a       113     0     8     1     8
 -6.7947902616460816E+00 a       114     0     8     1     9
  7.2997165323463920E+00 a       115     0     8     1    10
 -5.2475805106891515E+00 a       116     0     8     1    11
  1.3950977153402649E+01 a       117     0     8     1    12
 -1.5407972199564467E+01 a       118     0     8     1    13
  2.5192715301118660E+01 a       119     0     8     1    14
 -1.1310175304229345E+01 a       120     0     8     1    15
 -1.9539425746119872E+00 a       121     0     9     1     1
  1.4042967548628338E+01 a       122     0     9     1     2
 -1.7345362703151388E+00 a       123     0     9     1     3
  1.3167279729608216E+01 a       124     0     9     1     4
  4.5216171398868732E-01 a       125     0     9     1     5
 -6.4070388615744394E+00 a       126     0     9     1     6
 -7.1019533055952033E+00 a       127     0     9     1     7
 -1.2556122120623816E+00 a       128     0     9     1     8
 -2.8018576820027015E+00 a       129     0     9     1     9
 -3.5209119583737629E+00 a       130     0     9     1    10
 -1.9854221419326719E+00 a       131     0     9     1    11
  1.4298700691714116E+01 a       132     0     9     1    12
 -1.1024123874167415E+01 a       133     0     9     1    13
  2.6496540956822518E+01 a       134     0     9     1    14
 -8.4935515899896963E+00 a       135     0     9     1    15
  1.1155179173388293E+01 a       136     0    10     1     1
  2.1660447598325383E+01 a       137     0    10     1     2
 -1.3067940302071632E+01 a       138     0    10     1     3
  4.7677763717941080E+00 a       139     0    10     1     4
  9.6675394268213690E+00 a       140     0    10     1     5
 -1.9755624899880948E+00 a       141     0    10     1     6
 -9.8437465593975855E+00 a       142     0    10     1     7
 -1.7170039986589618E+01 a       143     0    10     1     8
  1.5247322792120313E+01 a       144     0    10     1     9
  2.4447921364865984E+01 a       145     0    10     1    10
 -3.3762358009214477E+00 a       146     0    10     1    11
  9.7245360645420345E+00 a       147     0    10     1    12
 -3.9992769349592031E+01 a       148     0    10     1    13
 -2.3795777275417724E+00 a       149     0    10     1    14
  2.4933731674475870E+00 a       150     0    10     1    15
  3.7177723605136879E+00 a       151     0    11     1     1
  1.6438748551058229E+01 a       152     0    11     1     2
 -7.8424390705665035E+00 a       153     0    11     1     3
  1.4021048773763429E+01 a       154     0    11     1     4
  3.5498330155761022E+00 a       155     0    11     1     5
  5.5167184371784677E+00 a       156     0    11     1     6
 -1.0567093684603488E+01 a       157     0    11     1     7
 -3.1761261485192036E+00 a       158     0    11     1     8
 -1.2089486327670423E+01 a       159     0    11     1     9
  1.3977463974725637E+01 a       160     0    11     1    10
 -1.5011457430229386E+01 a       161     0    11     1    11
  2.4360928807985214E+01 a       162     0    11     1    12
 -1.1221798234591272E+01 a       163     0    11     1    13
  2.8680288297662194E+01 a       164     0    11     1    14
 -9.3361600218080465E+00 a       165     0    11     1    15
 -7.6654228978147971E+00 a       166     0    12     1     1
  1.8807000095211315E+01 a       167     0    12     1     2
 -6.9174578707911500E+00 a       168     0    12     1     3
  2.3815813527683051E+01 a       169     0    12     1     4
  6.3768515774867947E+00 a       170     0    12     1     5
 -2.0859061322638142E+00 a       171     0    12     1     6
 -3.9307852708693272E+00 a       172     0    12     1     7
  2.2869305520611785E-01 a       173     0    12     1     8
 -4.0070037766472284E+00 a       174     0    12     1     9
  2.9691235598283314E+00 a       175     0    12     1    10
 -1.0761400041532472E+01 a       176     0    12     1    11
  2.6033530708186682E+01 a       177     0    12     1    12
 -6.6125587568339572E+00 a       178     0    12     1    13
  3.1573774029011016E+01 a       179     0    12     1    14
 -5.0816822828548096E+00 a       180     0    12     1    15
  6.6197154836934349E+00 a       181     0    13     1     1
 -1.2806959345359097E+00 a       182     0    13     1     2
 -2.4117080277289439E+01 a       183     0    13     1     3
  6.7486044378106982E+00 a       184     0    13     1     4
  7.1803097486744747E+00 a       185     0    13     1     5
  1.3162020741752766E+01 a       186     0    13     1     6
 -2.5665022101495794E+00 a       187     0    13     1     7
 -3.5338157992654855E+00 a       188     0    13     1     8
 -4.1389672926917074E+00 a       189     0    13     1     9
  1.6038436859321518E+01 a       190     0    13     1    10
 -5.0533023147340854E+00 a       191     0    13     1    11
  1.4056885638294210E+01 a       192     0    13     1    12
  1.9454665804069138E+00 a       193     0    13     1    13
 -3.2751954082569865E+00 a       194     0    13     1    14
  2.0681859046143945E+01 a       195     0    13     1    15
 -5.2502974497465171E+00 a       196     0    14     1     1
  8.0005281673790289E+00 a       197     0    14     1     2
 -8.4366867616055199E+00 a       198     0    14     1     3
  3.6003164052166818E+00 a       199     0    14     1     4
  9.9283234464913708E+00 a       200     0    14     1     5
  1.0334967058813913E+01 a       201     0    14     1     6
  1.0152790430863977E+01 a       202     0    14     1     7
  1.6695977087653422E+00 a       203     0    14     1     8
 -8.2024624225099139E+00 a       204     0    14     1     9
  7.3936551495045144E+00 a       205     0    14     1    10
 -1.5109510088359293E+01 a       206     0    14     1    11
  1.1086340753981581E+01 a       207     0    14     1    12
  1.4115082732443627E+01 a       208     0    14     1    13
 -1.7343276204722509E+00 a       209     0    14     1    14
  5.3306581009669687E+00 a       210     0    14     1    15
 -5.8683702260623782E+00 a       211     0    15     1     1
  4.6579246845158702E+00 a       212     0    15     1     2
 -5.6402619361247899E+00 a       213     0    15     1     3
  1.5399967851655395E+01 a       214     0    15     1     4
  1.1669283446165847E+01 a       215     0    15     1     5
  1.0009446840698496E+01 a       216     0    15     1     6
  5.4577389362937305E+00 a       217     0    15     1     7
  3.0565525600250139E+00 a       218     0    15     1     8
 -2.5218226683741136E+00 a       219     0    15     1     9
  8.4667191855897705E+00 a       220     0    15     1    10
 -1.2521190121200377E+01 a       221     0    15     1    11
  1.2942851654283574E+01 a       222     0    15     1    12
  1.1335594238524759E+01 a       223     0    15     1    13
  7.3497246359364954E-01 a       224     0    15     1    14
  3.3499083052825589E+00 a       225     0    15     1    15
  6.1231986578741004E-01 a       226     0    16     1     1
 -3.2295459755689713E+01 a       227     0    16     1     2
  3.1613847316796189E+01 a       228     0    16     1     3
  1.9652134626872697E+00 a       229     0    16     1     4
 -5.7392365263273053E+00 a       230     0    16     1     5
  1.3152959258781079E+01 a       231     0    16     1     6
  2.4746311950372807E+01 a       232     0    16     1     7
  2.1671538997192901E+01 a       233     0    16     1     8
 -3.9103851173059510E+01 a       234     0    16     1     9
 -4.8604891750021423E+01 a       235     0    16     1    10
 -1.0817748336810061E+01 a       236     0    16     1    11
 -2.4433886089389510E+01 a       237     0    16     1    12
  8.3373699417564225E+01 a       238     0    16     1    13
 -1.2784987427734302E+00 a       239     0    16     1    14
 -2.5513086131896937E+01 a       240     0    16     1    15
  1.9578141210167967E+00 a       241     0    17     1     1
 -1.5232594173871316E+01 a       242     0    17     1     2
  9.0823420634101097E+00 a       243     0    17     1     3
 -2.2225763163256506E+01 a       244     0    17     1     4
  1.1776905622582735E+01 a       245     0    17     1     5
  8.0061348458237944E+00 a       246     0    17     1     6
  1.3468143226115481E+01 a       247     0    17     1     7
  8.3877245225222730E+00 a       248     0    17     1     8
  8.8063159493510810E+00 a       249     0    17     1     9
 -2.9788787587818042E+01 a       250     0    17     1    10
  1.7002146956097082E+01 a       251     0    17     1    11
 -4.4716591386905883E+01 a       252     0    17     1    12
  2.8701993421995589E+01 a       253     0    17     1    13
 -4.5025174981975120E+01 a       254     0    17     1    14
 -2.2190568991168282E+00 a       255     0    17     1    15
  1.5241542244611635E+01 a       256     0    18     1     1
 -1.9648052593595121E+01 a       257     0    18     1     2
  6.1314755095630975E+00 a       258     0    18     1     3
 -2.1656473226749128E+01 a       259     0    18     1     4
  7.4501949027150927E+00 a       260     0    18     1     5
  1.8833808754904759E+01 a       261     0    18     1     6
  5.6602440485341061E+00 a       262     0    18     1     7
  1.2289140228159154E+00 a       263     0    18     1     8
  1.3706057395502440E+00 a       264     0    18     1     9
 -1.1520590395691867E+01 a       265     0    18     1    10
  9.0734048639888183E+00 a       266     0    18     1    11
 -4.3386368626146862E+01 a       267     0    18     1    12
  2.1001925512352464E+01 a       268     0    18     1    13
 -5.0693367990559736E+01 a       269     0    18     1    14
 -6.7579188788937889E+00 a       270     0    18     1    15
 -1.2049295620741930E+01 a       271     0    19     1     1
  1.5127036370626600E+01 a       272     0    19     1     2
 -1.0669907069595499E+01 a       273     0    19     1     3
 -9.0092899830633151E+00 a       274     0    19     1     4
 -6.6861561897652022E+00 a       275     0    19     1     5
 -1.7376726779861222E+01 a       276     0    19     1     6
 -1.7890600444226074E+01 a       277     0    19     1     7
 -1.5425708060978156E+01 a       278     0    19     1     8
  4.4815840942095988E+01 a       279     0    19     1     9
  2.8026466144270419E+01 a       280     0    19     1    10
  2.5265183622863873E+01 a       281     0    19     1    11
  9.7395970622280856E+00 a       282     0    19     1    12
 -7.2301895339954456E+01 a       283     0    19     1    13
 -1.5886141817314957E+01 a       284     0    19     1    14
  1.3880626883104727E+01 a       285     0    19     1    15
 -4.3843120168045466E+00 a       286     0    20     1     1
 -5.9455835980294873E+00 a       287     0    20     1     2
  1.0560431919555764E+00 a       288     0    20     1     3
  8.6026742356002561E+00 a       289     0    20     1     4
 -1.1915051114022145E+01 a       290     0    20     1     5
 -1.6953292673506386E+01 a       291     0    20     1     6
 -1.2932772734176648E+01 a       292     0    20     1     7
 -9.0428307327670030E+00 a       293     0    20     1     8
  1.3490394645428324E+01 a       294     0    20     1     9
  2.1896770466807766E+01 a       295     0    20     1    10
  8.3872683980118836E+00 a       296     0    20     1    11
  1.8190657797417423E+01 a       297     0    20     1    12
 -3.5295745217976624E+01 a       298     0    20     1    13
  1.2688941081769743E+01 a       299     0    20     1    14
  2.0753531352938568E+00 a       300     0    20     1    15
 -6.7913766308056696E+00 a       301     0    21     1     1
 -2.4772252026324781E+00 a       302     0    21     1     2
  7.2022450843609642E-01 a       303     0    21     1     3
 -2.1765065636240351E+01 a       304     0    21     1     4
 -3.2209859462168616E+01 a       305     0    21     1     5
 -2.4238462428849559E+01 a       306     0    21     1     6
 -5.2663270655768439E+00 a       307     0    21     1     7
 -1.0287372470795368E+01 a       308     0    21     1     8
  1.0144448109185536E+01 a       309     0    21     1     9
  8.7514016993363466E+00 a       310     0    21     1    10
  1.0833706601676502E+01 a       311     0    21     1    11
  1.4938398632509044E+01 a       312     0    21     1    12
 -2.6148082828222748E+01 a       313     0    21     1    13
  1.7102471152660883E+01 a       314     0    21     1    14
  6.7530380803387819E+00 a       315     0    21     1    15
  1.6009339615323288E+01 a       316     0    22     1     1
 -2.4427803355224796E+01 a       317     0    22     1     2
  7.5769911141752386E+00 a       318     0    22     1     3
 -8.1347754253309681E+00 a       319     0    22     1     4
 -5.2988949018767633E+00 a       320     0    22     1     5
  1.0070223675778163E+01 a       321     0    22     1     6
  4.7240571948131631E+00 a       322     0    22     1     7
  7.5025196205584459E+00 a       323     0    22     1     8
 -3.7900053551146357E+01 a       324     0    22     1     9
 -1.7944368535528088E+01 a       325     0    22     1    10
 -1.5619346107926576E+01 a       326     0    22     1    11
 -8.5593389964016575E-01 a       327     0    22     1    12
  4.6413089666882541E+01 a       328     0    22     1    13
  2.2454327944939571E+01 a       329     0    22     1    14
  2.4991561705164527E+00 a       330     0    22     1    15
  5.6134562244475834E+00 a       331     0    23     1     1
 -3.7355556519359190E-01 a       332     0    23     1     2
  2.9403699988018567E-01 a       333     0    23     1     3
 -6.1499479594204880E+00 a       334     0    23     1     4
 -7.1836335270381459E+00 a       335     0    23     1     5
  1.1339685220934653E+01 a       336     0    23     1     6
  1.5715385018987409E+00 a       337     0    23     1     7
  9.5047734151017782E-01 a       338     0    23     1     8
 -1.7013661701885834E+01 a       339     0    23     1     9
 -1.8808244801108454E+01 a       340     0    23     1    10
 -4.0917564898654630E+00 a       341     0    23     1    11
  1.0698314916389420E+00 a       342     0    23     1    12
  2.0250254885934734E+01 a       343     0    23     1    13
 -1.5058258936054107E+00 a       344     0    23     1    14
  8.3232041884116530E+00 a       345     0    23     1    15
  3.0034188249908969E+00 a       346     0    24     1     1
  1.6263170409062793E+00 a       347     0    24     1     2
  1.7376544519742940E+00 a       348     0    24     1     3
  1.6682561950688886E+01 a       349     0    24     1     4
  1.9276941155964707E+01 a       350     0    24     1     5
  1.7073323937941346E+01 a       351     0    24     1     6
  2.3789563449303103E-01 a       352     0    24     1     7
  1.0315838237293404E+01 a       353     0    24     1     8
 -8.5580806694101472E+00 a       354     0    24     1     9
 -1.4138770186255678E+01 a       355     0    24     1    10
 -6.0320501138069949E+00 a       356     0    24     1    11
  3.7302384320600108E+00 a       357     0    24     1    12
  1.2544517657444697E+01 a       358     0    24     1    13
 -1.1965459785690644E+00 a       359     0    24     1    14
  4.7794993606501990E+00 a       360     0    24     1    15
  1.4361657115296145E+01 a       361     0    25     1     1
  4.0917435548035684E+01 a       362     0    25     1     2
 -2.2066037137908545E+01 a       363     0    25     1     3
 -1.7321272495720766E+01 a       364     0    25     1     4
  1.1587278127006613E+01 a       365     0    25     1     5
 -6.8709423331170862E+00 a       366     0    25     1     6
 -1.5363156289674279E+01 a       367     0    25     1     7
  1.9473224907691968E+01 a       368     0    25     1     8
  2.8514115155214313E+01 a       369     0    25     1     9
 -4.4884893761116992E+01 a       370     0    25     1    10
  5.0555569276207130E+01 a       371     0    25     1    11
  7.6882982558514614E+00 a       372     0    25     1    12
 -1.6300436481966942E+00 a       373     0    25     1    13
 -1.5242623792608654E+01 a       374     0    25     1    14
  3.3410946123567101E+01 a       375     0    25     1    15
  6.0918541503304615E+00 a       376     0    26     1     1
 -3.6470149485501381E+01 a       377     0    26     1     2
  9.8634494976404508E+00 a       378     0    26     1     3
 -1.9285622827689373E+01 a       379     0    26     1     4
 -2.4938226033846820E+00 a       380     0    26     1     5
 -1.1968715841668084E+01 a       381     0    26     1     6
 -4.3648004205108670E+01 a       382     0    26     1     7
 -1.8788382625041820E+01 a       383     0    26     1     8
 -1.2045958936998073E+01 a       384     0    26     1     9
 -2.0888956721234912E+01 a       385     0    26     1    10
 -6.0893382358336812E+00 a       386     0    26     1    11
 -1.1419661251625200E+01 a       387     0    26     1    12
  2.8489106667505993E+01 a       388     0    26     1    13
  1.6068563996986306E+01 a       389     0    26     1    14
  2.0928910443521538E+01 a       390     0    26     1    15
  5.2900686830837831E+00 a       391     0    27     1     1
 -7.2684092217124379E+00 a       392     0    27     1     2
  1.5965322023686461E+00 a       393     0    27     1     3
  2.0188989324541775E+00 a       394     0    27     1     4
 -1.9967134817485994E+00 a       395     0    27     1     5
  8.8678176331709260E+00 a       396     0    27     1     6
 -1.8617982013469895E+01 a       397     0    27     1     7
 -8.9999865357672668E+00 a       398     0    27     1     8
  4.6272416078967477E-01 a       399     0    27     1     9
  1.6372703207880971E+01 a       400     0    27     1    10
  1.5445824750662286E+01 a       401     0    27     1    11
  1.3176165220779335E+01 a       402     0    27     1    12
  1.3214231633375116E+01 a       403     0    27     1    13
 -7.1957252908811293E+00 a       404     0    27     1    14
  1.5772156229417469E+01 a       405     0    27     1    15
 -4.1842161217689755E+00 a       406     0    28     1     1
 -1.9924225019342398E+01 a       407     0    28     1     2
  1.4982684974823886E+01 a       408     0    28     1     3
  2.4571524986447120E+01 a       409     0    28     1     4
 -1.8142463603702934E+00 a       410     0    28     1     5
 -8.0421778599519627E+00 a       411     0    28     1     6
 -2.9338651813784629E+01 a       412     0    28     1     7
  7.9987544328765674E+00 a       413     0    28     1     8
 -4.4440805253097885E+01 a       414     0    28     1     9
 -5.5591970433237485E+01 a       415     0    28     1    10
 -2.8793415343771859E+01 a       416     0    28     1    11
 -1.2790964208999101E+01 a       417     0    28     1    12
  3.0955479687083727E+01 a       418     0    28     1    13
 -4.5240571144261381E+01 a       419     0    28     1    14
 -8.6361706758387469E-01 a       420     0    28     1    15
 -4.9291954267801872E+00 a       421     0    29     1     1
 -2.2930490338072268E+01 a       422     0    29     1     2
  5.9616253261149330E+00 a       423     0    29     1     3
  1.3031356537377468E+01 a       424     0    29     1     4
 -3.6892447314316135E+00 a       425     0    29     1     5
  3.4581543985216193E+01 a       426     0    29     1     6
  3.1083519687196914E+00 a       427     0    29     1     7
  2.6460030423919207E+01 a       428     0    29     1     8
 -2.7656792352752142E+01 a       429     0    29     1     9
 -2.5551566513307844E+01 a       430     0    29     1    10
 -1.2659820057832988E+01 a       431     0    29     1    11
 -2.3518869728005987E-01 a       432     0    29     1    12
  3.3800640789648341E+01 a       433     0    29     1    13
 -3.1413098480007914E+01 a       434     0    29     1    14
 -1.2137190744542256E+01 a       435     0    29     1    15
  2.0553705911110640E+01 a       436     0    30     1     1
 -7.1585846003488731E+00 a       437     0    30     1     2
 -1.2266606546917849E+01 a       438     0    30     1     3
 -4.9746334232387559E+00 a       439     0    30     1     4
  1.1256903135705405E+01 a       440     0    30     1     5
  1.6381970219518180E+01 a       441     0    30     1     6
  3.7263758626031958E+01 a       442     0    30     1     7
 -1.7067611714184366E+01 a       443     0    30     1     8
 -2.1853095723797079E+01 a       444     0    30     1     9
 -2.1931957273238542E+01 a       445     0    30     1    10
 -3.3318261911854798E+01 a       446     0    30     1    11
 -1.0809385323715798E+01 a       447     0    30     1    12
 -1.9304475626957003E+00 a       448     0    30     1    13
 -1.1124185070491326E+00 a       449     0    30     1    14
 -1.3374156627204294E+00 a       450     0    30     1    15
  1.8186864887383344E+01 a       451     0    31     1     1
  1.5768002403023363E+01 a       452     0    31     1     2
 -3.8847066862352243E+01 a       453     0    31     1     3
 -6.9838821730581753E+00 a       454     0    31     1     4
  1.7277521142467838E+00 a       455     0    31     1     5
  2.1625370176273173E+00 a       456     0    31     1     6
 -1.3077736676874611E+01 a       457     0    31     1     7
 -6.1220986165308480E+00 a       458     0    31     1     8
  7.2566508590991727E+00 a       459     0    31     1     9
  1.0054541106240789E+01 a       460     0    31     1    10
 -1.6320473617206844E+01 a       461     0    31     1    11
 -2.3308119603304895E+01 a       462     0    31     1    12
 -6.9773471071519451E+00 a       463     0    31     1    13
  1.1683790701178813E+01 a       464     0    31     1    14
  3.5526791821311638E+00 a       465     0    31     1    15
 -2.5444981718688280E+00 a       466     0    32     1     1
  1.9637274694416355E+01 a       467     0    32     1     2
 -5.2913306241506262E+01 a       468     0    32     1     3
 -1.8109122365799379E+00 a       469     0    32     1     4
 -2.7205993046926258E+00 a       470     0    32     1     5
 -2.9066024865952294E+00 a       471     0    32     1     6
 -1.4397886197639567E+01 a       472     0    32     1     7
 -7.6246926387955325E+00 a       473     0    32     1     8
  6.9973637664633195E+00 a       474     0    32     1     9
  7.8273031135481048E+00 a       475     0    32     1    10
 -3.0701613971201088E+01 a       476     0    32     1    11
 -1.1150671684885552E+01 a       477     0    32     1    12
 -2.5394575137942667E+01 a       478     0    32     1    13
  2.9841690384562369E+01 a       479     0    32     1    14
 -2.4079739192268988E+01 a       480     0    32     1    15
 -1.5540358551607293E+01 a       481     0    33     1     1
  3.4686911610319562E+01 a       482     0    33     1     2
 -3.6497379544641191E+01 a       483     0    33     1     3
  1.2532601631093391E+01 a       484     0    33     1     4
  8.7867156008544320E+00 a       485     0    33     1     5
 -2.2174776562709440E+01 a       486     0    33     1     6
  9.4879772406272949E+00 a       487     0    33     1     7
 -1.5200072825015809E+00 a       488     0    33     1     8
  5.2142882328984248E+00 a       489     0    33     1     9
 -1.3798136053420569E+01 a       490     0    33     1    10
 -1.1827932993328607E+01 a       491     0    33     1    11
 -3.2523487631702210E+01 a       492     0    33     1    12
 -3.2732574182540930E+01 a       493     0    33     1    13
  2.0485612323111404E+01 a       494     0    33     1    14
 -5.3086816240970371E+00 a       495     0    33     1    15
 -3.2748126423016203E+01 a       496     0    34     1     1
 -2.7215292032232909E+01 a       497     0    34     1     2
 -4.6227026322208950E+01 a       498     0    34     1     3
 -6.8359921708541389E+00 a       499     0    34     1     4
 -3.9299661315430754E+01 a       500     0    34     1     5
 -1.0303987960965181E+01 a       501     0    34     1     6
 -5.5976616864878990E+00 a       502     0    34     1     7
  4.7581849395566969E+01 a       503     0    34     1     8
  5.7974314334823189E+00 a       504     0    34     1     9
  1.8555688352973963E+01 a       505     0    34     1    10
 -6.4901941464690776E+00 a       506     0    34     1    11
  9.3418970194326487E+00 a       507     0    34     1    12
 -1.4669849366919454E+01 a       508     0    34     1    13
  2.8942913799205455E-01 a       509     0    34     1    14
 -3.5449449782403256E+01 a       510     0    34     1    15
 -1.1343652554217943E+01 a       511     0    35     1     1
 -5.3561096322429629E+00 a       512     0    35     1     2
 -6.2111534578457182E+00 a       513     0    35     1     3
  2.0994097412995679E+01 a       514     0    35     1     4
 -1.6924072397527450E+01 a       515     0    35     1     5
  3.5636938772795568E+00 a       516     0    35     1     6
 -5.4328012361799134E+00 a       517     0    35     1     7
  6.3254832263246232E+00 a       518     0    35     1     8
 -2.1211401608823611E+01 a       519     0    35     1     9
  1.5082466238226774E+01 a       520     0    35     1    10
 -7.2504768891043998E+00 a       521     0    35     1    11
  3.5611824157222109E+01 a       522     0    35     1    12
 -2.9160482141292473E+01 a       523     0    35     1    13
  8.3127906688009237E+00 a       524     0    35     1    14
 -7.4832295340510591E+00 a       525     0    35     1    15
  1.4291663371877178E+01 a       526     0    36     1     1
 -7.7271928674857024E+00 a       527     0    36     1     2
 -8.8823102560603950E-01 a       528     0    36     1     3
 -2.1162291646745778E+01 a       529     0    36     1     4
 -3.8815493363959558E-01 a       530     0    36     1     5
 -8.5231299378007570E+00 a       531     0    36     1     6
 -2.2772965670066906E+01 a       532     0    36     1     7
  1.3887589965321324E+01 a       533     0    36     1     8
 -2.8172017539100402E+01 a       534     0    36     1     9
  1.5075479389678293E+01 a       535     0    36     1    10
 -6.2902618974765510E+00 a       536     0    36     1    11
  3.8041810163563525E+01 a       537     0    36     1    12
 -3.6635376756186197E+01 a       538     0    36     1    13
 -8.8698002761209001E+00 a       539     0    36     1    14
  6.9161609168491918E+00 a       540     0    36     1    15
  3.3788218934330163E+00 a       541     0    37     1     1
 -5.0298020591197794E+00 a       542     0    37     1     2
  1.1686580211831586E+01 a       543     0    37     1     3
 -1.3400635524050802E+01 a       544     0    37     1     4
 -1.8405626570397473E+01 a       545     0    37     1     5
 -5.4025692485383656E+00 a       546     0    37     1     6
 -1.9792801042771192E+01 a       547     0    37     1     7
  1.9405960456976672E+01 a       548     0    37     1     8
 -1.5718966401835207E+01 a       549     0    37     1     9
  4.1659177627522981E+00 a       550     0    37     1    10
  1.5070936267704214E+01 a       551     0    37     1    11
  2.4256220287767693E+01 a       552     0    37     1    12
  5.4765299997053223E+00 a       553     0    37     1    13
  1.2719262727960112E+01 a       554     0    37     1    14
  1.3865991197863904E+01 a       555     0    37     1    15
 -6.7466676309406837E-01 a       556     0    38     1     1
 -4.9726989856497206E-01 a       557     0    38     1     2
  1.9178216798371249E+01 a       558     0    38     1     3
  1.6612877488020427E+01 a       559     0    38     1     4
 -2.1549286185491813E+01 a       560     0    38     1     5
 -3.0626331011708645E+00 a       561     0    38     1     6
 -1.2265652257665879E+01 a       562     0    38     1     7
  3.3186694819274663E+01 a       563     0    38     1     8
 -9.3449492615754810E+00 a       564     0    38     1     9
  7.5307183862369937E+00 a       565     0    38     1    10
  3.3164579146464384E+00 a       566     0    38     1    11
  2.6237627704862948E+01 a       567     0    38     1    12
  1.2870831956236912E+00 a       568     0    38     1    13
 -1.0299387701807905E+01 a       569     0    38     1    14
  6.5248103448380079E-01 a       570     0    38     1    15
  1.3947144197375037E+01 a       571     0    39     1     1
  3.6748293787782105E+00 a       572     0    39     1     2
  1.2514917711253334E+01 a       573     0    39     1     3
  2.0057205089536914E+01 a       574     0    39     1     4
 -1.0596505815536450E+01 a       575     0    39     1     5
  2.0598892681313741E+00 a       576     0    39     1     6
 -8.2508467474113489E-01 a       577     0    39     1     7
  1.6118043877311084E+01 a       578     0    39     1     8
 -3.4191856177558244E+00 a       579     0    39     1     9
  7.1242623613431739E+00 a       580     0    39     1    10
  6.4662270305922043E+00 a       581     0    39     1    11
  3.1471938885472948E+01 a       582     0    39     1    12
 -1.1070048578662036E+01 a       583     0    39     1    13
  4.7205730649204884E+00 a       584     0    39     1    14
  8.8814731591156608E+00 a       585     0    39     1    15
 -2.4091707685896584E+01 a       586     0    40     1     1
  3.1623991008776592E+01 a       587     0    40     1     2
  8.3751036743005578E+00 a       588     0    40     1     3
  5.1179325543346952E+00 a       589     0    40     1     4
 -3.4590330569378485E+00 a       590     0    40     1     5
  3.8841141044383889E+01 a       591     0    40     1     6
  1.1179786616305316E+02 a       592     0    40     1     7
 -6.5995860727846587E+00 a       593     0    40     1     8
  3.4842229604871207E+01 a       594     0    40     1     9
  9.0302607741834663E+01 a       595     0    40     1    10
 -1.9049748668225220E+01 a       596     0    40     1    11
 -6.6966939203062310E+01 a       597     0    40     1    12
 -1.4921087262376756E+02 a       598     0    40     1    13
  1.5863380680005429E+01 a       599     0    40     1    14
  9.8679349807074843E+01 a       600     0    40     1    15
  3.6419967589828492E+00 a       601     0    41     1     1
  2.9977325358625194E+01 a       602     0    41     1     2
  1.6392966019246625E+01 a       603     0    41     1     3
 -6.8733220297119801E-01 a       604     0    41     1     4
  1.1446567417682248E+01 a       605     0    41     1     5
  3.0124147014003366E+01 a       606     0    41     1     6
  3.0141159751377238E+01 a       607     0    41     1     7
 -1.1665592324187431E+01 a       608     0    41     1     8
  1.8859160881131385E+00 a       609     0    41     1     9
  1.4413104948973995E+01 a       610     0    41     1    10
  1.3563811031175836E+01 a       611     0    41     1    11
 -1.4880008916609613E+01 a       612     0    41     1    12
 -3.9714702499985137E+01 a       613     0    41     1    13
  1.8985111122697067E+01 a       614     0    41     1    14
  1.5970843772755909E+01 a       615     0    41     1    15
  1.3529834489366435E+01 a       616     0    42     1     1
 -1.5548186589147667E+01 a       617     0    42     1     2
  1.6677024355771959E+01 a       618     0    42     1     3
 -5.7414662112287074E+00 a       619     0    42     1     4
 -4.1135434679358340E+00 a       620     0    42     1     5
  1.7559550244804697E+01 a       621     0    42     1     6
  3.7070151247563308E+00 a       622     0    42     1     7
 -6.0125402619163486E+00 a       623     0    42     1     8
 -2.3320705734920551E+01 a       624     0    42     1     9
 -1.7985462064024627E+01 a       625     0    42     1    10
  2.3127240534844809E+01 a       626     0    42     1    11
  2.2377896687120881E+01 a       627     0    42     1    12
 -1.6612597223580440E+01 a       628     0    42     1    13
  3.0139574933635568E+01 a       629     0    42     1    14
  2.7339732945126660E+00 a       630     0    42     1    15
  7.2846687138261874E+00 a       631     0    43     1     1
  9.3989707098406381E+00 a       632     0    43     1     2
  2.5697761503401011E+01 a       633     0    43     1     3
  1.0093714552683005E+01 a       634     0    43     1     4
 -6.6859072984785195E+00 a       635     0    43     1     5
 -3.2929751551934596E+00 a       636     0    43     1     6
  4.5350429476096732E+00 a       637     0    43     1     7
  3.8100884885398707E+00 a       638     0    43     1     8
 -2.7231773007172033E+00 a       639     0    43     1     9
 -5.4187900803341584E+00 a       640     0    43     1    10
 -8.4982195499607105E+00 a       641     0    43     1    11
  7.3650201988116120E+00 a       642     0    43     1    12
  2.3345833469464669E+01 a       643     0    43     1    13
  2.2039439807249854E+00 a       644     0    43     1    14
 -2.7440274105896989E+01 a       645     0    43     1    15
  1.4511495000582025E+01 a       646     0    44     1     1
 -1.3365226555888896E+00 a       647     0    44     1     2
  5.8752040098616646E+01 a       648     0    44     1     3
  1.0261528265419976E+01 a       649     0    44     1     4
  2.7274589980369086E+00 a       650     0    44     1     5
 -7.1669380672048044E+00 a       651     0    44     1     6
  9.2338809155116657E+00 a       652     0    44     1     7
 -8.6766946733194690E+00 a       653     0    44     1     8
 -1.2340947214295195E+01 a       654     0    44     1     9
 -7.9989385230020211E+00 a       655     0    44     1    10
 -2.1395860908294420E+01 a       656     0    44     1    11
 -1.8173437523393741E+00 a       657     0    44     1    12
  2.6176043101455143E+01 a       658     0    44     1    13
 -1.9629584259931011E+01 a       659     0    44     1    14
  2.7406082430788903E+00 a       660     0    44     1    15
 -5.9176455569092621E+00 a       661     0    45     1     1
  7.9212055249554085E+00 a       662     0    45     1     2
  1.8176213805989995E+01 a       663     0    45     1     3
  2.6339774912653162E+00 a       664     0    45     1     4
  1.6468622228325136E+00 a       665     0    45     1     5
 -1.8598800591775284E+01 a       666     0    45     1     6
  2.0683615026435000E+01 a       667     0    45     1     7
 -2.7571949303283616E+00 a       668     0    45     1     8
 -3.4100936994513051E+00 a       669     0    45     1     9
 -4.0956794580861491E+00 a       670     0    45     1    10
 -1.4841288718762934E+01 a       671     0    45     1    11
 -4.5790488662240243E+00 a       672     0    45     1    12
  3.1442600084527395E+01 a       673     0    45     1    13
 -9.4602599227030719E+00 a       674     0    45     1    14
 -1.8515378765862522E+01 a       675     0    45     1    15
  1.6261851017158865E+01 a       676     0    46     1     1
 -2.2883895063034483E+01 a       677     0    46     1     2
  3.3706817238461419E+01 a       678     0    46     1     3
 -1.5850890243589667E+01 a       679     0    46     1     4
  2.2862219417467834E+01 a       680     0    46     1     5
 -5.4592754805409767E+00 a       681     0    46     1     6
 -3.9870592278640309E+01 a       682     0    46     1     7
 -5.4013283312386449E+00 a       683     0    46     1     8
 -6.4127238100555871E+01 a       684     0    46     1     9
  3.8574614468928928E+01 a       685     0    46     1    10
  2.5595338518761277E+01 a       686     0    46     1    11
  8.3849090698500213E+00 a       687     0    46     1    12
  2.3034812336542818E+00 a       688     0    46     1    13
 -2.7580364003792173E+01 a       689     0    46     1    14
 -1.4944102767061500E+00 a       690     0    46     1    15
  1.0793611843307668E+01 a       691     0    47     1     1
  7.0836804838293608E+00 a       692     0    47     1     2
  1.7486402975240804E+01 a       693     0    47     1     3
  2.6162404606525809E+00 a       694     0    47     1     4
 -3.2340100550674644E+00 a       695     0    47     1     5
 -9.0362010607704857E+00 a       696     0    47     1     6
 -3.0299249506557924E+01 a       697     0    47     1     7
  1.8234074843730534E+00 a       698     0    47     1     8
 -3.8629395848023826E+01 a       699     0    47     1     9
  2.8758516607046470E+01 a       700     0    47     1    10
 -6.2724458581404319E+00 a       701     0    47     1    11
 -1.4135561279360276E+01 a       702     0    47     1    12
  3.2804417218963607E+01 a       703     0    47     1    13
 -2.9941962501960916E+01 a       704     0    47     1    14
  2.8558515738199713E-01 a       705     0    47     1    15
 -1.3707068622885950E+01 a       706     0    48     1     1
  4.3390240058699279E+00 a       707     0    48     1     2
 -2.0176603754684628E+01 a       708     0    48     1     3
  7.2138209835191169E+00 a       709     0    48     1     4
 -2.4725658893176099E+01 a       710     0    48     1     5
  4.0360066383003845E-01 a       711     0    48     1     6
 -2.1332958997295645E+01 a       712     0    48     1     7
  1.0544596484054290E+01 a       713     0    48     1     8
  1.7187506330355777E+01 a       714     0    48     1     9
  2.6582627901171925E+01 a       715     0    48     1    10
 -1.8104374121936084E+00 a       716     0    48     1    11
 -1.3931290653354610E+01 a       717     0    48     1    12
  1.4490721731384630E+01 a       718     0    48     1    13
  3.5216612619088767E+00 a       719     0    48     1    14
 -1.4125602932673887E+01 a       720     0    48     1    15
 -8.0425767956690848E+00 a       721     0    49     1     1
 -4.0457375397377691E+00 a       722     0    49     1     2
 -1.8577408314607180E+01 a       723     0    49     1     3
  1.8955936430142170E+01 a       724     0    49     1     4
 -1.2728936975837559E+01 a       725     0    49     1     5
 -3.0597673515989090E+01 a       726     0    49     1     6
 -1.4405803713568384E+00 a       727     0    49     1     7
  1.0466043298421138E+01 a       728     0    49     1     8
 -1.2176491445117207E+01 a       729     0    49     1     9
  7.3328420261798630E+00 a       730     0    49     1    10
  7.8074804423182362E+00 a       731     0    49     1    11
 -2.3064770537250936E+01 a       732     0    49     1    12
  1.8520616286669807E+01 a       733     0    49     1    13
 -2.5668866995696105E+00 a       734     0    49     1    14
 -4.2478500267335301E-01 a       735     0    49     1    15
  1.1082631622579479E+01 a       736     0    50     1     1
  4.0018514626179593E+00 a       737     0    50     1     2
 -1.9768356542987849E+01 a       738     0    50     1     3
  3.0979247831732824E+01 a       739     0    50     1     4
 -2.7674667087780975E+01 a       740     0    50     1     5
 -1.8820780174683229E+01 a       741     0    50     1     6
 -1.3441391814722678E+01 a       742     0    50     1     7
  3.9727008184603103E+00 a       743     0    50     1     8
 -3.0973264271537083E+01 a       744     0    50     1     9
  2.4935872731575230E+01 a       745     0    50     1    10
  8.2746560803877109E+00 a       746     0    50     1    11
 -2.0743433769443818E+01 a       747     0    50     1    12
  5.0069456475540202E+00 a       748     0    50     1    13
 -1.5965978231951159E+01 a       749     0    50     1    14
  4.2303283078492990E+00 a       750     0    50     1    15
  1.3210093436947961E+01 a       751     0    51     1     1
 -2.2105253592803772E-01 a       752     0    51     1     2
 -3.9579243236847543E+00 a       753     0    51     1     3
 -6.3749865348511203E-01 a       754     0    51     1     4
 -8.3800888308711112E+00 a       755     0    51     1     5
 -1.1099186683463033E+01 a       756     0    51     1     6
 -6.2574221512134642E-01 a       757     0    51     1     7
 -1.2032473930462553E+01 a       758     0    51     1     8
 -7.1483254882834402E+00 a       759     0    51     1     9
  2.2849278311932061E+01 a       760     0    51     1    10
  2.0112376365105124E+01 a       761     0    51     1    11
 -1.9336378654014350E+01 a       762     0    51     1    12
  1.7187075214826585E+01 a       763     0    51     1    13
 -1.5282457524001629E+01 a       764     0    51     1    14
  2.0961838728955100E+00 a       765     0    51     1    15
 -7.5858977451115834E+01 a       766     0    52     1     1
 -1.9103337299929013E+00 a       767     0    52     1     2
 -1.8650112728514223E+01 a       768     0    52     1     3
  1.0406693593466342E+01 a       769     0    52     1     4
  4.8189457439619758E+00 a       770     0    52     1     5
 -3.5474032801566963E+01 a       771     0    52     1     6
  3.3038854484730592E+01 a       772     0    52     1     7
 -1.1325830120937603E+00 a       773     0    52     1     8
 -2.2064400185602342E+01 a       774     0    52     1     9
 -8.6624442284139363E+01 a       775     0    52     1    10
 -2.6608927992109819E+00 a       776     0    52     1    11
  3.8253227302207208E+01 a       777     0    52     1    12
  6.9444703851752749E+01 a       778     0    52     1    13
 -4.5149945842316917E+01 a       779     0    52     1    14
 -1.1905262006615329E+01 a       780     0    52     1    15
 -2.4890854522383517E+01 a       781     0    53     1     1
 -1.5399221619164782E+01 a       782     0    53     1     2
 -8.5424174809096254E+00 a       783     0    53     1     3
  2.6162023268897934E+00 a       784     0    53     1     4
  3.3188851666821697E+00 a       785     0    53     1     5
  8.6932604575408075E+00 a       786     0    53     1     6
  1.8343495643849369E+01 a       787     0    53     1     7
  1.3229721520161709E+01 a       788     0    53     1     8
 -1.9351610986262003E+01 a       789     0    53     1     9
 -5.2473537671857585E+01 a       790     0    53     1    10
 -3.1869220230309413E+01 a       791     0    53     1    11
 -1.2163368707158366E+01 a       792     0    53     1    12
  2.9118160551896231E+01 a       793     0    53     1    13
 -8.1840778922848596E+00 a       794     0    53     1    14
 -1.9541785661367975E+01 a       795     0    53     1    15
 -2.4095082970125823E+00 a       796     0    54     1     1
 -1.5998415560680133E+01 a       797     0    54     1     2
  2.1142133687027380E+00 a       798     0    54     1     3
 -5.1085675101502765E+00 a       799     0    54     1     4
  3.6394550412817157E+00 a       800     0    54     1     5
  2.4851858501971940E+00 a       801     0    54     1     6
 -9.8431325656509305E-01 a       802     0    54     1     7
 -4.8161465748826018E+00 a       803     0    54     1     8
 -3.1797874191634531E+01 a       804     0    54     1     9
 -5.3936544872465070E+01 a       805     0    54     1    10
 -2.1958922951554779E+01 a       806     0    54     1    11
  1.8502329964129451E+01 a       807     0    54     1    12
  3.2867857490605857E+01 a       808     0    54     1    13
  2.7318304706083754E+00 a       809     0    54     1    14
 -2.9748390013736095E+01 a       810     0    54     1    15
  4.3274415740847108E+00 a       811     0    55     1     1
 -7.4110679102664925E+00 a       812     0    55     1     2
  1.6857270245416938E+01 a       813     0    55     1     3
 -1.1920404387011260E+01 a       814     0    55     1     4
  5.0628341540227995E+00 a       815     0    55     1     5
 -4.0255005503764707E-02 a       816     0    55     1     6
  7.8354348027895524E+00 a       817     0    55     1     7
 -4.3372423494412384E+00 a       818     0    55     1     8
 -6.9033302138362131E+00 a       819     0    55     1     9
 -1.1495789265470076E+01 a       820     0    55     1    10
 -1.6460306159916762E+01 a       821     0    55     1    11
 -9.9434634132567830E+00 a       822     0    55     1    12
 -3.9648110402841668E+00 a       823     0    55     1    13
  1.4572807597611152E-02 a       824     0    55     1    14
 -1.1900814417578205E+01 a       825     0    55     1    15
  1.9598383474701446E+01 a       826     0    56     1     1
  1.2375693557693404E+01 a       827     0    56     1     2
  8.2133874850848976E+00 a       828     0    56     1     3
 -4.1609114015198019E+00 a       829     0    56     1     4
  2.4732137650553216E+00 a       830     0    56     1     5
  2.1267096114611586E+00 a       831     0    56     1     6
 -1.3509507026650949E+00 a       832     0    56     1     7
 -5.0818929656404519E+00 a       833     0    56     1     8
  4.0666139294170138E+00 a       834     0    56     1     9
 -4.5692294424022286E+00 a       835     0    56     1    10
 -2.4902551427585433E+01 a       836     0    56     1    11
 -2.7448520980493928E+01 a       837     0    56     1    12
  2.7599370974478594E+00 a       838     0    56     1    13
 -1.3001944045385988E+01 a       839     0    56     1    14
 -1.1307598246071743E+01 a       840     0    56     1    15
  6.1954388908827740E+00 a       841     0    57     1     1
  9.9292635225475223E+00 a       842     0    57     1     2
  1.3115728103574085E+00 a       843     0    57     1     3
  5.3545059190646676E+00 a       844     0    57     1     4
  7.6129760893552385E+00 a       845     0    57     1     5
 -1.8559705241937380E+01 a       846     0    57     1     6
 -8.8259884370814294E+00 a       847     0    57     1     7
  2.4700152528313213E-01 a       848     0    57     1     8
  1.1122995447163616E+01 a       849     0    57     1     9
  5.0308295703693853E+00 a       850     0    57     1    10
 -1.4367578321957426E+01 a       851     0    57     1    11
  1.4809077958652626E+00 a       852     0    57     1    12
  7.1366570899407202E+00 a       853     0    57     1    13
 -2.5237539316030890E+00 a       854     0    57     1    14
 -1.6217530529646154E+01 a       855     0    57     1    15
 -3.2344864017818395E+01 a       856     0    58     1     1
  2.5685062287716914E+01 a       857     0    58     1     2
  3.4791894274996089E+01 a       858     0    58     1     3
 -2.8001608484533158E+01 a       859     0    58     1     4
 -1.7916203233756672E+01 a       860     0    58     1     5
 -1.9163608766942254E+01 a       861     0    58     1     6
 -1.3853813567364680E+01 a       862     0    58     1     7
  2.8387665333378912E+01 a       863     0    58     1     8
  4.5438376313271519E+01 a       864     0    58     1     9
 -1.8889795767767534E+01 a       865     0    58     1    10
 -3.4019917197545858E+01 a       866     0    58     1    11
 -2.3389656045125868E+01 a       867     0    58     1    12
 -7.8831959755174026E+01 a       868     0    58     1    13
  2.5815763632801605E+01 a       869     0    58     1    14
 -1.1707433358731457E+01 a       870     0    58     1    15
 -1.0801742112090956E+01 a       871     0    59     1     1
  1.3997928840531909E+01 a       872     0    59     1     2
 -3.7500235327959155E+00 a       873     0    59     1     3
 -6.0222392609478492E-01 a       874     0    59     1     4
 -2.0844084678017274E+00 a       875     0    59     1     5
  7.4360773622208765E+00 a       876     0    59     1     6
 -1.6611921885939620E+00 a       877     0    59     1     7
 -1.1370936583899676E+01 a       878     0    59     1     8
 -7.6421889356286608E+00 a       879     0    59     1     9
 -1.1671037245802040E+01 a       880     0    59     1    10
 -3.2350571146966850E+01 a       881     0    59     1    11
 -1.1191502048166592E+01 a       882     0    59     1    12
 -7.8451129224817597E+00 a       883     0    59     1    13
  3.6376986692097269E+01 a       884     0    59     1    14
 -1.2020286583813254E+01 a       885     0    59     1    15
 -3.3368058710264251E+01 a       886     0    60     1     1
  3.0709934160114924E+00 a       887     0    60     1     2
 -8.2219177957467835E+00 a       888     0    60     1     3
 -2.8755557021980945E+01 a       889     0    60     1     4
 -3.7977127382210623E+00 a       890     0    60     1     5
  1.9430509227131929E+00 a       891     0    60     1     6
  3.9980870941715729E+01 a       892     0    60     1     7
 -6.8608437161663494E-01 a       893     0    60     1     8
 -1.9513757907890373E+01 a       894     0    60     1     9
 -3.1795529454996839E+01 a       895     0    60     1    10
 -2.4628234748674792E+01 a       896     0    60     1    11
 -8.4429816836069573E+00 a       897     0    60     1    12
  6.5119883254728794E+00 a       898     0    60     1    13
  2.3671926025497338E+01 a       899     0    60     1    14
 -1.2990085477455777E+01 a       900     0    60     1    15
 -2.7400653517106907E+01 a       901     0    61     1     1
  1.6467411515342716E+00 a       902     0    61     1     2
  1.4301520118632594E+00 a       903     0    61     1     3
 -3.0487373875052395E+00 a       904     0    61     1     4
 -1.5629807188078559E+01 a       905     0    61     1     5
 -1.0307529916675449E+01 a       906     0    61     1     6
  3.7624640310243656E+01 a       907     0    61     1     7
  1.1901307312804275E+00 a       908     0    61     1     8
 -9.9921214510858984E+00 a       909     0    61     1     9
 -8.1018208952555906E+00 a       910     0    61     1    10
 -2.9876594456441801E+01 a       911     0    61     1    11
 -1.7540813670129793E+01 a       912     0    61     1    12
 -1.2159556429749971E+00 a       913     0    61     1    13
  2.8166654966955221E+01 a       914     0    61     1    14
  9.2532233921009888E-01 a       915     0    61     1    15
 -1.7661010684357279E+01 a       916     0    62     1     1
  4.0471837133306927E+00 a       917     0    62     1     2
 -1.7765655451281187E+01 a       918     0    62     1     3
 -2.1747210401644410E+00 a       919     0    62     1     4
  3.7780007447866879E+00 a       920     0    62     1     5
 -4.8837085257454005E+00 a       921     0    62     1     6
  2.2640387650786305E+01 a       922     0    62     1     7
  8.4606990841945304E+00 a       923     0    62     1     8
 -9.1340032702333716E+00 a       924     0    62     1     9
 -2.4192714150057707E+01 a       925     0    62     1    10
 -2.3372112145787263E+01 a       926     0    62     1    11
 -1.1003164478988220E+01 a       927     0    62     1    12
  9.4822223532912329E+00 a       928     0    62     1    13
  1.9633250717673526E+01 a       929     0    62     1    14
  5.4676438718927072E+00 a       930     0    62     1    15
 -5.9180821256007281E+00 a       931     0    63     1     1
 -8.3333581601873110E+00 a       932     0    63     1     2
 -4.4986954222033120E+00 a       933     0    63     1     3
  6.9348433559904865E-01 a       934     0    63     1     4
 -7.7211563158737411E+00 a       935     0    63     1     5
 -1.8214576457084696E+01 a       936     0    63     1     6
  1.0647757714086083E+01 a       937     0    63     1     7
  6.7328312054135928E+00 a       938     0    63     1     8
 -7.5215330094666717E+00 a       939     0    63     1     9
 -2.9887757393024636E+01 a       940     0    63     1    10
 -3.7829741676121557E+01 a       941     0    63     1    11
 -4.0314104028915798E+00 a       942     0    63     1    12
  1.2668512516578426E+01 a       943     0    63     1    13
  1.8606798466610329E+01 a       944     0    63     1    14
  9.7258939211258575E+00 a       945     0    63     1    15
  4.3372219196606579E+01 a       946     0    64     1     1
  1.0055643563030811E+01 a       947     0    64     1     2
  8.5614564809489039E+01 a       948     0    64     1     3
  4.2228246287035365E+00 a       949     0    64     1     4
 -2.1784353437136912E+00 a       950     0    64     1     5
  1.6022726773811439E+01 a       951     0    64     1     6
 -4.1321509173264701E+01 a       952     0    64     1     7
  1.5350574108568020E+00 a       953     0    64     1     8
  7.2857919142742897E+00 a       954     0    64     1     9
 -1.1676531696171642E+01 a       955     0    64     1    10
  9.2443988748924724E+01 a       956     0    64     1    11
  6.3761598979384191E+00 a       957     0    64     1    12
 -9.8371350383775123E+01 a       958     0    64     1    13
  1.6087321632166919E+01 a       959     0    64     1    14
 -5.1059351692925269E+01 a       960     0    64     1    15
  8.5968911539007618E+00 a       961     0    65     1     1
  1.3976038114882122E+01 a       962     0    65     1     2
  1.1437974944278025E+01 a       963     0    65     1     3
  1.4271364874053610E-01 a       964     0    65     1     4
  8.2015564731997372E+00 a       965     0    65     1     5
  1.6069350140753208E+01 a       966     0    65     1     6
 -4.2226201206447520E+00 a       967     0    65     1     7
 -2.6443878279916615E+00 a       968     0    65     1     8
  2.5863315815879759E+00 a       969     0    65     1     9
  7.2005462794493695E+00 a       970     0    65     1    10
  1.7091098952764021E+01 a       971     0    65     1    11
  1.2473108823752948E+01 a       972     0    65     1    12
 -2.9211431926309242E+01 a       973     0    65     1    13
  1.2795921385548787E+01 a       974     0    65     1    14
  1.9437589869321090E+00 a       975     0    65     1    15
  1.2824152759863241E+00 a       976     0    66     1     1
 -8.3559774952713255E+00 a       977     0    66     1     2
 -3.3999655571639265E+00 a       978     0    66     1     3
 -3.5897052907733729E+00 a       979     0    66     1     4
 -3.5344268392732210E+00 a       980     0    66     1     5
  1.4393827047802244E+01 a       981     0    66     1     6
  2.2095321276658414E+01 a       982     0    66     1     7
 -4.5041749777305267E+00 a       983     0    66     1     8
 -8.4933820973799747E+00 a       984     0    66     1     9
  1.8933520191958131E+01 a       985     0    66     1    10
  1.4779280452462078E+00 a       986     0    66     1    11
  7.8621476621670503E+00 a       987     0    66     1    12
 -3.1181600020828245E+01 a       988     0    66     1    13
  1.6838824511905059E+01 a       989     0    66     1    14
  2.4024509346562290E+01 a       990     0    66     1    15
 -1.4386950669396525E-01 a       991     0    67     1     1
  1.9119145777488322E+00 a       992     0    67     1     2
  1.1295240535266554E+01 a       993     0    67     1     3
  7.0699129737493225E+00 a       994     0    67     1     4
 -5.9625959219479601E+00 a       995     0    67     1     5
  2.5780621538551901E-01 a       996     0    67     1     6
  1.1278092463987814E+01 a       997     0    67     1     7
  3.8670640044922115E+00 a       998     0    67     1     8
  1.9049170653375247E-01 a       999     0    67     1     9
  7.3629089187194099E+00 a      1000     0    67     1    10
 -1.1313227572836526E+01 a      1001     0    67     1    11
  1.0238265976969775E+01 a      1002     0    67     1    12
  1.2006060572609517E+01 a      1003     0    67     1    13
 -2.5741623988779625E+00 a      1004     0    67     1    14
 -3.1662978545019191E+00 a      1005     0    67     1    15
  7.4444169553731356E+00 a      1006     0    68     1     1
  4.0732376123141609E+00 a      1007     0    68     1     2
  1.4623359539376837E+01 a      1008     0    68     1     3
  6.4017512164584831E+00 a      1009     0    68     1     4
  7.3698005605971140E-01 a      1010     0    68     1     5
 -9.5962421175014601E-01 a      1011     0    68     1     6
  9.4249519410299758E+00 a      1012     0    68     1     7
 -6.4822879704990335E+00 a      1013     0    68     1     8
 -6.1265139532138555E+00 a      1014     0    68     1     9
  1.4337174966516517E+00 a      1015     0    68     1    10
 -1.8317879412824791E+01 a      1016     0    68     1    11
 -1.3128504077967722E+01 a      1017     0    68     1    12
  1.2670457460254317E+01 a      1018     0    68     1    13
 -3.3476567349899891E+00 a      1019     0    68     1    14
  6.2134386098369809E+00 a      1020     0    68     1    15
  2.7763082998467503E+00 a      1021     0    69     1     1
  6.9216787064431697E+00 a      1022     0    69     1     2
  1.5449104905497149E+01 a      1023     0    69     1     3
  1.1398077336468431E+00 a      1024     0    69     1     4
  1.7603777149230737E+00 a      1025     0    69     1     5
 -1.1098406219873729E+01 a      1026     0    69     1     6
  5.3054410198797246E+00 a      1027     0    69     1     7
 -2.8794376093340470E+00 a      1028     0    69     1     8
 -1.9711965525938930E+00 a      1029     0    69     1     9
 -6.2420919073055749E+00 a      1030     0    69     1    10
  1.2335067983694574E+00 a      1031     0    69     1    11
 -5.4963447905679352E+00 a      1032     0    69     1    12
  1.6587526600909648E+01 a      1033     0    69     1    13
 -3.2211466349733642E+00 a      1034     0    69     1    14
 -2.0075847284932077E+01 a      1035     0    69     1    15
 -5.3570026495740336E+01 a      1036     0    70     1     1
  2.0503118569506299E+01 a      1037     0    70     1     2
 -4.4219440556671728E+01 a      1038     0    70     1     3
 -1.2998339406726121E+01 a      1039     0    70     1     4
  1.6022638932916529E+01 a      1040     0    70     1     5
 -2.2957629202011766E+01 a      1041     0    70     1     6
  3.3158499123753494E+01 a      1042     0    70     1     7
 -1.2586479759016267E+01 a      1043     0    70     1     8
 -4.6057710234431468E+01 a      1044     0    70     1     9
 -6.2467507466847799E+01 a      1045     0    70     1    10
 -5.9895658227543059E+01 a      1046     0    70     1    11
 -2.7273475381120495E+01 a      1047     0    70     1    12
  7.2995021404732881E+01 a      1048     0    70     1    13
 -4.8878741252048670E+00 a      1049     0    70     1    14
  1.6105313277121873E+01 a      1050     0    70     1    15
 -1.8073043147561048E+01 a      1051     0    71     1     1
 -6.6642383195574928E-01 a      1052     0    71     1     2
 -1.8935599066690187E+01 a      1053     0    71     1     3
 -5.9284944555988490E+00 a      1054     0    71     1     4
  7.3187110509229880E+00 a      1055     0    71     1     5
  2.2824029695519492E+00 a      1056     0    71     1     6
  3.1093844743917383E+00 a      1057     0    71     1     7
  8.9433926364853367E+00 a      1058     0    71     1     8
 -3.4153283372991403E+01 a      1059     0    71     1     9
 -2.8162009092468629E+01 a      1060     0    71     1    10
 -3.6261677483329642E+01 a      1061     0    71     1    11
 -2.9226867263365843E+01 a      1062     0    71     1    12
  3.9836074309080715E+01 a      1063     0    71     1    13
 -1.7465521403416492E+01 a      1064     0    71     1    14
 -6.9677855822955967E+00 a      1065     0    71     1    15
 -1.0915706443364760E+01 a      1066     0    72     1     1
 -9.5674689587434809E+00 a      1067     0    72     1     2
  3.9116836516635026E+01 a      1068     0    72     1     3
 -8.7550476903167294E+00 a      1069     0    72     1     4
 -7.6766655659526588E+00 a      1070     0    72     1     5
 -8.9215679599050968E-02 a      1071     0    72     1     6
  5.9580489215563386E+00 a      1072     0    72     1     7
 -2.2832753510544155E+00 a      1073     0    72     1     8
 -5.0917328809997944E+00 a      1074     0    72     1     9
 -1.8784923536301605E+01 a      1075     0    72     1    10
 -1.5195752966880786E+01 a      1076     0    72     1    11
 -2.1722416402552696E+01 a      1077     0    72     1    12
  3.4382044583457848E+01 a      1078     0    72     1    13
 -1.6351243575977595E+01 a      1079     0    72     1    14
 -1.6807868680219791E+01 a      1080     0    72     1    15
  3.1983264318008505E+01 a      1081     0    73     1     1
 -1.7455047575209790E+00 a      1082     0    73     1     2
  1.2406773758701922E+01 a      1083     0    73     1     3
  2.2490935366062487E+01 a      1084     0    73     1     4
 -1.4332550384281920E+01 a      1085     0    73     1     5
 -1.5621786673909066E+01 a      1086     0    73     1     6
 -1.6224258229539220E+01 a      1087     0    73     1     7
  4.4996345443895763E-01 a      1088     0    73     1     8
  1.0194811680494309E+01 a      1089     0    73     1     9
  2.0554305370038815E+01 a      1090     0    73     1    10
  4.7008605872503368E+00 a      1091     0    73     1    11
 -4.4118570230343032E+01 a      1092     0    73     1    12
 -3.3501426883820904E+00 a      1093     0    73     1    13
 -9.8988267547040110E+00 a      1094     0    73     1    14
 -5.3051831612854610E+00 a      1095     0    73     1    15
  2.0540161561148150E+01 a      1096     0    74     1     1
 -4.2501408863913399E+00 a      1097     0    74     1     2
  3.7161929367050592E+00 a      1098     0    74     1     3
  1.5923162181731248E+01 a      1099     0    74     1     4
 -1.4273949361835651E+01 a      1100     0    74     1     5
 -2.1047573139123376E+01 a      1101     0    74     1     6
 -5.6607505287418549E+00 a      1102     0    74     1     7
  4.7473048943016138E-01 a      1103     0    74     1     8
 -1.6857199525135119E+01 a      1104     0    74     1     9
  2.3126790472301813E+00 a      1105     0    74     1    10
 -2.1189502187461233E+01 a      1106     0    74     1    11
 -2.6455489697206147E+01 a      1107     0    74     1    12
  4.2984334615689965E+00 a      1108     0    74     1    13
 -9.4659888651721662E+00 a      1109     0    74     1    14
 -1.7823067237735359E+01 a      1110     0    74     1    15
  1.1571591243021579E+01 a      1111     0    75     1     1
 -4.3461356677626366E+00 a      1112     0    75     1     2
 -1.2436556611397400E+01 a      1113     0    75     1     3
 -2.5299186924991819E+00 a      1114     0    75     1     4
 -7.1501585564747172E+00 a      1115     0    75     1     5
 -1.7683462781628439E+01 a      1116     0    75     1     6
 -1.0431907526104514E+01 a      1117     0    75     1     7
 -6.6078775092339299E+00 a      1118     0    75     1     8
 -3.3833531717764016E+00 a      1119     0    75     1     9
 -1.2224997116369686E+01 a      1120     0    75     1    10
 -2.7102876133566887E+00 a      1121     0    75     1    11
 -2.8650875048785942E+01 a      1122     0    75     1    12
 -5.3672680217536044E+00 a      1123     0    75     1    13
  7.8865047299543845E-01 a      1124     0    75     1    14
  7.7306052139882633E+00 a      1125     0    75     1    15
  8.1811623757035967E+00 a      1126     0    76     1     1
 -7.5774761033476361E+00 a      1127     0    76     1     2
 -5.4954614920985927E+00 a      1128     0    76     1     3
 -9.0754406146863620E-01 a      1129     0    76     1     4
  7.1740468311525707E-01 a      1130     0    76     1     5
  5.6910171726622742E+00 a      1131     0    76     1     6
 -2.7025187682899801E+01 a      1132     0    76     1     7
  2.2375985366205660E+00 a      1133     0    76     1     8
  1.0668247305717095E+01 a      1134     0    76     1     9
  5.7796541223759164E+00 a      1135     0    76     1    10
  3.3276031505724070E+01 a      1136     0    76     1    11
  2.4669203774955598E+01 a      1137     0    76     1    12
 -8.2122582269279860E+00 a      1138     0    76     1    13
 -8.6397556103653343E+00 a      1139     0    76     1    14
  1.0598828308752363E+01 a      1140     0    76     1    15
  3.4416323338381569E+00 a      1141     0    77     1     1
 -3.0774952156017266E+00 a      1142     0    77     1     2
 -1.5174307264157383E+01 a      1143     0    77     1     3
 -6.1482156602605089E+00 a      1144     0    77     1     4
  2.5412425600934077E+00 a      1145     0    77     1     5
  3.2591210121531891E+00 a      1146     0    77     1     6
 -5.5663046232823525E+00 a      1147     0    77     1     7
 -4.5848784732534469E+00 a      1148     0    77     1     8
  9.8218169051635211E+00 a      1149     0    77     1     9
  4.5603684193442939E+00 a      1150     0    77     1    10
  1.4107064713827429E+01 a      1151     0    77     1    11
  9.3600635718849434E-01 a      1152     0    77     1    12
 -2.5261178628078074E+01 a      1153     0    77     1    13
  1.2654753551155489E+01 a      1154     0    77     1    14
 -1.7690304627577538E+00 a      1155     0    77     1    15
 -1.1292637537234798E+01 a      1156     0    78     1     1
 -6.6776618804410670E-01 a      1157     0    78     1     2
 -1.6460634745872355E+01 a      1158     0    78     1     3
 -1.0954936963424887E-01 a      1159     0    78     1     4
  1.2065200577983757E+00 a      1160     0    78     1     5
  5.5794468872366200E-02 a      1161     0    78     1     6
  5.5204974375204898E+00 a      1162     0    78     1     7
 -2.7348630925050221E+00 a      1163     0    78     1     8
  2.2047772915872295E+00 a      1164     0    78     1     9
  5.2035395158730138E+00 a      1165     0    78     1    10
 -4.0192190495715270E+00 a      1166     0    78     1    11
  7.2236209410247580E+00 a      1167     0    78     1    12
 -1.0415803273731386E+01 a      1168     0    78     1    13
  1.2244385533197972E+00 a      1169     0    78     1    14
  1.6818306701141324E+01 a      1170     0    78     1    15
 -1.3064566207279258E+01 a      1171     0    79     1     1
 -1.5514421425823031E+00 a      1172     0    79     1     2
  2.0404786607539807E+00 a      1173     0    79     1     3
 -3.3844861362915593E+00 a      1174     0    79     1     4
  3.1929593578638698E+00 a      1175     0    79     1     5
 -2.0503660394836647E+00 a      1176     0    79     1     6
  9.7757242430660920E+00 a      1177     0    79     1     7
 -1.9515755989447507E+00 a      1178     0    79     1     8
 -3.2662818090003185E+00 a      1179     0    79     1     9
 -3.5930970011539496E+00 a      1180     0    79     1    10
 -4.1023152287566713E+00 a      1181     0    79     1    11
  3.7245208018711415E+00 a      1182     0    79     1    12
  1.4118834690209419E+00 a      1183     0    79     1    13
  1.1978774223837461E+00 a      1184     0    79     1    14
  3.1182466282081753E+00 a      1185     0    79     1    15
 -3.3195475824393661E+00 a      1186     0    80     1     1
  1.3293204431145713E+00 a      1187     0    80     1     2
 -2.6571689960756286E+00 a      1188     0    80     1     3
  8.4618036599499602E-01 a      1189     0    80     1     4
 -3.0397492652330127E-01 a      1190     0    80     1     5
 -9.1494296494705518E-01 a      1191     0    80     1     6
  1.3974278149452262E+01 a      1192     0    80     1     7
  1.1678972415837978E+00 a      1193     0    80     1     8
 -1.4764983756724230E+00 a      1194     0    80     1     9
  5.8699730786856896E-01 a      1195     0    80     1    10
 -1.3647913682288753E+01 a      1196     0    80     1    11
 -1.1678634906363067E+01 a      1197     0    80     1    12
  1.2653586787208960E+01 a      1198     0    80     1    13
 -2.6968171965908221E+00 a      1199     0    80     1    14
  4.3749372786886962E+00 a      1200     0    80     1    15
 -5.4844186660371008E-01 a      1201     0    81     1     1
  6.4716483039280570E-01 a      1202     0    81     1     2
 -9.7608247462369242E+00 a      1203     0    81     1     3
  5.5872543692613652E-01 a      1204     0    81     1     4
 -2.2126776814682253E-01 a      1205     0    81     1     5
 -1.0940919886774472E+00 a      1206     0    81     1     6
  2.9707576948268830E+00 a      1207     0    81     1     7
 -7.3861807664200829E-01 a      1208     0    81     1     8
 -1.8740114061129343E+00 a      1209     0    81     1     9
 -1.1001055218956637E+01 a      1210     0    81     1    10
 -3.8482117488027523E+00 a      1211     0    81     1    11
 -8.0860011185213632E-01 a      1212     0    81     1    12
  7.5200181923266376E+00 a      1213     0    81     1    13
  2.6604218500481149E+00 a      1214     0    81     1    14
 -4.9756440751726698E+00 a      1215     0    81     1    15
  1.1182119411540866E+01 a      1216     0    82     1     1
 -1.1922365946492340E+01 a      1217     0    82     1     2
 -8.0595403498308755E+01 a      1218     0    82     1     3
 -6.8236012330491302E+00 a      1219     0    82     1     4
 -3.1524046016575009E+00 a      1220     0    82     1     5
  4.8289673139890233E+01 a      1221     0    82     1     6
 -4.9743895516800603E+00 a      1222     0    82     1     7
  1.3851682158370046E+01 a      1223     0    82     1     8
  4.5354208257319080E+01 a      1224     0    82     1     9
  1.1968458688975460E+02 a      1225     0    82     1    10
  3.3747306371092844E+00 a      1226     0    82     1    11
  3.7286347212235697E+01 a      1227     0    82     1    12
 -4.2275869678808334E+01 a      1228     0    82     1    13
 -4.6821676784693139E+01 a      1229     0    82     1    14
  1.4638467706214391E+02 a      1230     0    82     1    15
 -3.1702754251824523E+01 a      1231     0    83     1     1
 -1.3189401343638442E+01 a      1232     0    83     1     2
  6.4483322106388972E+00 a      1233     0    83     1     3
 -1.2463618294113262E+01 a      1234     0    83     1     4
  1.1499393804480305E+00 a      1235     0    83     1     5
  3.3547396715548730E+00 a      1236     0    83     1     6
  2.9318827784675502E+01 a      1237     0    83     1     7
 -1.0424926950422337E+01 a      1238     0    83     1     8
  2.5955820306822627E+01 a      1239     0    83     1     9
  6.3624542235935017E+01 a      1240     0    83     1    10
 -3.6363040850613970E+01 a      1241     0    83     1    11
  5.0805680201497410E+01 a      1242     0    83     1    12
 -2.7754617239902981E+01 a      1243     0    83     1    13
  6.5603277860863951E+00 a      1244     0    83     1    14
  4.3794159904981107E+01 a      1245     0    83     1    15
 -1.6092122974558961E+01 a      1246     0    84     1     1
  9.1845029750783471E+00 a      1247     0    84     1     2
 -1.9037748181034404E+00 a      1248     0    84     1     3
 -5.4950763258577551E+00 a      1249     0    84     1     4
  1.5883524473453645E+00 a      1250     0    84     1     5
 -6.5331231091580637E+00 a      1251     0    84     1     6
  1.3707245797598013E+01 a      1252     0    84     1     7
 -8.7955838390372030E+00 a      1253     0    84     1     8
  6.6302690707444318E+00 a      1254     0    84     1     9
  8.1673926064413020E+00 a      1255     0    84     1    10
 -3.8888901036281296E+00 a      1256     0    84     1    11
  1.1930293161409876E+01 a      1257     0    84     1    12
 -2.1901156799050153E+01 a      1258     0    84     1    13
 -1.3771884664435694E+00 a      1259     0    84     1    14
  2.8702846637959354E+01 a      1260     0    84     1    15
 -2.5294265203561363E+01 a      1261     0    85     1     1
  2.0289910060124217E-01 a      1262     0    85     1     2
  1.3902810609990595E+01 a      1263     0    85     1     3
  3.7661359432026078E+00 a      1264     0    85     1     4
 -2.7358671793304952E+00 a      1265     0    85     1     5
 -4.9758642956667263E+00 a      1266     0    85     1     6
  1.5279662847842898E+01 a      1267     0    85     1     7
 -3.2463542253763142E+00 a      1268     0    85     1     8
  3.1943996144870895E-02 a      1269     0    85     1     9
  4.8202829981654096E+00 a      1270     0    85     1    10
 -7.4545003129326082E+00 a      1271     0    85     1    11
  4.7783102832816198E+00 a      1272     0    85     1    12
  1.9101894910115661E+01 a      1273     0    85     1    13
  4.4640798196593092E+00 a      1274     0    85     1    14
  3.1187238434359030E+00 a      1275     0    85     1    15
  5.9152837726854406E+00 a      1276     0    86     1     1
  4.2255040212839656E-02 a      1277     0    86     1     2
  2.8099779986261652E+01 a      1278     0    86     1     3
 -1.4661434894668568E+00 a      1279     0    86     1     4
  8.3591249460002504E-01 a      1280     0    86     1     5
 -3.2694504437271608E+00 a      1281     0    86     1     6
  5.5905984104464759E+00 a      1282     0    86     1     7
 -5.8057205156411440E-02 a      1283     0    86     1     8
 -4.4952950097420086E+00 a      1284     0    86     1     9
  5.6538171668954060E+00 a      1285     0    86     1    10
  3.2825949098112326E+00 a      1286     0    86     1    11
 -6.1073780287480250E+00 a      1287     0    86     1    12
  2.9036069277495738E+01 a      1288     0    86     1    13
  6.5811815980215203E+00 a      1289     0    86     1    14
 -2.3585910541779885E+01 a      1290     0    86     1    15
 -6.7553249688793660E+00 a      1291     0    87     1     1
  5.3907246639652886E+00 a      1292     0    87     1     2
 -1.1430438444003402E+01 a      1293     0    87     1     3
  5.2583620734612986E-02 a      1294     0    87     1     4
 -3.8189966925628118E+00 a      1295     0    87     1     5
 -4.7720850848224741E+00 a      1296     0    87     1     6
  9.7663827390817932E+00 a      1297     0    87     1     7
 -4.7044551193610271E+00 a      1298     0    87     1     8
 -8.1240488962580155E+00 a      1299     0    87     1     9
 -2.9310947942394943E+01 a      1300     0    87     1    10
  6.1057685305739451E+00 a      1301     0    87     1    11
 -2.8973798325529287E+00 a      1302     0    87     1    12
  1.0608485650194071E+01 a      1303     0    87     1    13
  1.3651544968188301E+01 a      1304     0    87     1    14
 -1.2181247776028700E+01 a      1305     0    87     1    15
 -1.4194776671510136E+01 a      1306     0    88     1     1
 -9.0585858376171691E-01 a      1307     0    88     1     2
 -1.9165142499916158E+01 a      1308     0    88     1     3
  2.8468071788599802E-01 a      1309     0    88     1     4
 -1.6722987800153084E-02 a      1310     0    88     1     5
 -5.2805356347251331E-01 a      1311     0    88     1     6
  1.5364216004114672E+01 a      1312     0    88     1     7
  8.1091278479102924E-01 a      1313     0    88     1     8
  1.0124541935527365E+00 a      1314     0    88     1     9
  5.0210049637294629E+00 a      1315     0    88     1    10
 -1.1628735406585438E+01 a      1316     0    88     1    11
  8.7799231709822774E+00 a      1317     0    88     1    12
  1.1058901014222725E+01 a      1318     0    88     1    13
 -4.3332669140456757E+00 a      1319     0    88     1    14
  1.4749086309545119E+01 a      1320     0    88     1    15
 -6.0779512390390042E+00 a      1321     0    89     1     1
 -1.0205299247634039E+00 a      1322     0    89     1     2
 -9.7503699203676426E+00 a      1323     0    89     1     3
  2.8541336525140206E-02 a      1324     0    89     1     4
  2.2273430930225641E-01 a      1325     0    89     1     5
  5.1951979016676558E-02 a      1326     0    89     1     6
  4.0444329267295513E+00 a      1327     0    89     1     7
  1.0247769873391293E+00 a      1328     0    89     1     8
  5.1774199203814708E-01 a      1329     0    89     1     9
  2.6416727383872107E+00 a      1330     0    89     1    10
 -5.2440241009205693E+00 a      1331     0    89     1    11
  5.4938960578040996E+00 a      1332     0    89     1    12
  5.1698168922068355E+00 a      1333     0    89     1    13
 -2.0680801481415485E+00 a      1334     0    89     1    14
  7.7944162870450366E+00 a      1335     0    89     1    15
  2.8305068594778611E+00 a      1336     0    90     1     1
 -2.9902711645516533E-01 a      1337     0    90     1     2
  5.3239147338815833E+00 a      1338     0    90     1     3
 -2.4298658368381079E-01 a      1339     0    90     1     4
 -2.5290535136363673E-01 a      1340     0    90     1     5
  1.3528808595205777E-01 a      1341     0    90     1     6
 -3.1626098283872586E+00 a      1342     0    90     1     7
 -6.4717768063935099E-01 a      1343     0    90     1     8
 -4.6080311216291509E-01 a      1344     0    90     1     9
  2.3936615680871842E-01 a      1345     0    90     1    10
  2.8718954573748690E+00 a      1346     0    90     1    11
 -2.0859684629367195E-01 a      1347     0    90     1    12
 -4.4329561368720194E+00 a      1348     0    90     1    13
  1.3447543486274234E+00 a      1349     0    90     1    14
 -3.7501661565164994E+00 a      1350     0    90     1    15
  5.8442665944467125E+00 a      1351     0    91     1     1
 -3.0027998755355811E-01 a      1352     0    91     1     2
  8.1938928809739497E+00 a      1353     0    91     1     3
  1.4526142053633681E-02 a      1354     0    91     1     4
 -1.9347714367254218E-01 a      1355     0    91     1     5
 -3.8527464136701201E-01 a      1356     0    91     1     6
 -7.4834849986366709E+00 a      1357     0    91     1     7
 -2.5928112732030704E-03 a      1358     0    91     1     8
 -7.0317158273953273E-01 a      1359     0    91     1     9
 -4.1730691921289429E+00 a      1360     0    91     1    10
  6.0730949812211472E+00 a      1361     0    91     1    11
 -6.7200582230240402E-01 a      1362     0    91     1    12
 -3.8728134026842529E+00 a      1363     0    91     1    13
  1.6428702822794736E+00 a      1364     0    91     1    14
 -8.0815504327011372E+00 a      1365     0    91     1    15
  4.3821822584311914E+00 a      1366     0    92     1     1
  2.7360288804667143E-01 a      1367     0    92     1     2
  4.1944763666486251E+00 a      1368     0    92     1     3
  1.8584816588233241E-01 a      1369     0    92     1     4
 -2.3721881031823328E-01 a      1370     0    92     1     5
 -1.8781093598783230E-01 a      1371     0    92     1     6
 -6.1183893837472398E+00 a      1372     0    92     1     7
 -1.2613076477170834E-01 a      1373     0    92     1     8
 -5.6195185844290163E-01 a      1374     0    92     1     9
 -3.2153261858445097E+00 a      1375     0    92     1    10
  3.8517319071326872E+00 a      1376     0    92     1    11
 -1.5543488301777966E+00 a      1377     0    92     1    12
 -2.2227689293975912E+00 a      1378     0    92     1    13
  1.4867514406187545E+00 a      1379     0    92     1    14
 -5.4068581999293883E+00 a      1380     0    92     1    15
  1.9526827845983201E+00 a      1381     0    93     1     1
  2.6776393903918938E-01 a      1382     0    93     1     2
  2.0946023675614533E+00 a      1383     0    93     1     3
  6.2080180024446020E-02 a      1384     0    93     1     4
  1.2259647991767098E-01 a      1385     0    93     1     5
 -2.1529395848622887E-01 a      1386     0    93     1     6
 -2.5378889805991327E+00 a      1387     0    93     1     7
 -3.0957638782138877E-02 a      1388     0    93     1     8
 -2.6167801679825609E-01 a      1389     0    93     1     9
 -1.4906545858283218E+00 a      1390     0    93     1    10
  2.3417839706366967E+00 a      1391     0    93     1    11
 -5.1601763594110739E-01 a      1392     0    93     1    12
 -8.0094680628246584E-01 a      1393     0    93     1    13
  4.6262878975650523E-01 a      1394     0    93     1    14
 -2.8168016370524942E+00 a      1395     0    93     1    15
  5.7887257222756432E+01 a      1396     0    94     1     1
  1.0851290477259761E+01 a      1397     0    94     1     2
  8.6329382356733731E+01 a      1398     0    94     1     3
 -2.2130347950102278E+00 a      1399     0    94     1     4
  6.4537306742221701E-01 a      1400     0    94     1     5
 -1.1003719390895167E+01 a      1401     0    94     1     6
 -5.5238997436024952E+01 a      1402     0    94     1     7
 -9.6553522879066234E-01 a      1403     0    94     1     8
 -1.1368710600927212E+01 a      1404     0    94     1     9
 -8.5559121732881309E+01 a      1405     0    94     1    10
  4.0626179664514559E+01 a      1406     0    94     1    11
 -3.6348676346282787E+01 a      1407     0    94     1    12
 -2.8199033873038843E+01 a      1408     0    94     1    13
  1.1112188535852024E+01 a      1409     0    94     1    14
 -9.9666490471667487E+01 a      1410     0    94     1    15
 -3.4847307648390395E+00 a      1411     0    95     1     1
  7.5517680102611351E-01 a      1412     0    95     1     2
  7.1866971879421646E+00 a      1413     0    95     1     3
 -2.7842620509029761E+00 a      1414     0    95     1     4
  6.0860200340009030E-01 a      1415     0    95     1     5
 -8.8380778731136767E-01 a      1416     0    95     1     6
 -4.2859391610414779E+00 a      1417     0    95     1     7
 -5.3414604569261670E-01 a      1418     0    95     1     8
 -1.4480871126124037E-01 a      1419     0    95     1     9
 -1.2829262384961494E+01 a      1420     0    95     1    10
 -1.3571405779817603E+01 a      1421     0    95     1    11
 -1.0898578571626603E+00 a      1422     0    95     1    12
 -7.9858648690152600E+00 a      1423     0    95     1    13
  5.2367322256053592E+00 a      1424     0    95     1    14
 -1.3883711000381313E+01 a      1425     0    95     1    15
 -3.5710605691491317E+01 a      1426     0    96     1     1
  4.8368131307223727E+00 a      1427     0    96     1     2
 -4.0227257738807765E+01 a      1428     0    96     1     3
 -4.5008446904720749E+00 a      1429     0    96     1     4
  4.7549192703012172E-01 a      1430     0    96     1     5
 -2.2368235172124851E+00 a      1431     0    96     1     6
  4.7257228462047308E+01 a      1432     0    96     1     7
 -4.7834298694318260E+00 a      1433     0    96     1     8
  1.2861344529259662E+00 a      1434     0    96     1     9
  1.2171335182988258E+01 a      1435     0    96     1    10
 -4.5632337015457843E+01 a      1436     0    96     1    11
 -1.8611107319827598E+00 a      1437     0    96     1    12
  2.1986005772190158E+01 a      1438     0    96     1    13
 -1.1368762674520850E+01 a      1439     0    96     1    14
  4.7700975077494860E+01 a      1440     0    96     1    15
 -3.3869140187741436E+01 a      1441     0    97     1     1
  4.2625538576800881E-01 a      1442     0    97     1     2
 -4.6429872549352133E+01 a      1443     0    97     1     3
  4.7202500744559428E+00 a      1444     0    97     1     4
 -3.0339523873918703E+00 a      1445     0    97     1     5
  1.9406311695116356E+00 a      1446     0    97     1     6
  5.0307512943512023E+01 a      1447     0    97     1     7
 -1.4926481409615882E+00 a      1448     0    97     1     8
  9.2659151925251102E+00 a      1449     0    97     1     9
  3.1113739883600985E+01 a      1450     0    97     1    10
 -4.7875050174873692E+01 a      1451     0    97     1    11
 -4.8035506691713881E+00 a      1452     0    97     1    12
  1.9454133854097726E+01 a      1453     0    97     1    13
 -8.9736850878414973E+00 a      1454     0    97     1    14
  5.5178562995526917E+01 a      1455     0    97     1    15
 -4.3820913257239141E+01 a      1456     0    98     1     1
 -2.2566258393804577E+00 a      1457     0    98     1     2
 -5.1442600823233967E+01 a      1458     0    98     1     3
 -9.5586444257935466E-01 a      1459     0    98     1     4
 -1.5905233947527903E-01 a      1460     0    98     1     5
  2.6132048716449452E+00 a      1461     0    98     1     6
  6.4722469569417783E+01 a      1462     0    98     1     7
 -9.7976930641114068E-01 a      1463     0    98     1     8
  5.3135787037236115E+00 a      1464     0    98     1     9
  4.1038408914043991E+01 a      1465     0    98     1    10
 -5.3504640729590577E+01 a      1466     0    98     1    11
  7.5130507732658849E+00 a      1467     0    98     1    12
  3.3502457543462455E+01 a      1468     0    98     1    13
 -1.3878079264253500E+01 a      1469     0    98     1    14
  6.2590070686236146E+01 a      1470     0    98     1    15
 -2.3920612929274363E+01 a      1471     0    99     1     1
 -3.5322636098217697E-01 a      1472     0    99     1     2
 -2.8775866993986927E+01 a      1473     0    99     1     3
  1.1797319438091693E-01 a      1474     0    99     1     4
 -2.0073692743921927E+00 a      1475     0    99     1     5
 -5.6914970960210509E-01 a      1476     0    99     1     6
  2.8933942642071813E+01 a      1477     0    99     1     7
 -1.0836440067933184E+00 a      1478     0    99     1     8
  1.9645192512323026E+00 a      1479     0    99     1     9
  1.3037931239099677E+01 a      1480     0    99     1    10
 -2.1398746683965761E+01 a      1481     0    99     1    11
  5.8010538639654614E+00 a      1482     0    99     1    12
  1.1750693555539620E+01 a      1483     0    99     1    13
 -3.6329838869569113E+00 a      1484     0    99     1    14
  3.4072412079586485E+01 a      1485     0    99     1    15
 -6.5374186692279981E+00 a      1486     0   100     1     1
 -1.2222403226776422E+01 a      1487     0   100     1     2
 -4.2904556160129950E+00 a      1488     0   100     1     3
 -2.2850571479415698E+00 a      1489     0   100     1     4
 -2.2660072094624034E+01 a      1490     0   100     1     5
  8.6222199181672465E+00 a      1491     0   100     1     6
  1.7721139233364176E+00 a      1492     0   100     1     7
 -1.3269181943714472E+00 a      1493     0   100     1     8
  3.7500636705313615E+00 a      1494     0   100     1     9
  3.9890562990160188E+00 a      1495     0   100     1    10
  9.0657591014385801E+00 a      1496     0   100     1    11
 -1.4348135377225853E+01 a      1497     0   100     1    12
  3.9179691378974324E+00 a      1498     0   100     1    13
  6.8442336532703090E+00 a      1499     0   100     1    14
 -6.2629414427759833E-01 a      1500     0   100     1    15
 -9.3714041133345205E+00 a      1501     0   101     1     1
 -3.1926629288412154E+00 a      1502     0   101     1     2
 -3.3055577989724561E+00 a      1503     0   101     1     3
 -2.5379956860455650E+01 a      1504     0   101     1     4
  1.3654568326984670E+01 a      1505     0   101     1     5
  3.7914788007066420E+00 a      1506     0   101     1     6
 -3.1833356593631610E+00 a      1507     0   101     1     7
  2.7038088400687510E+00 a      1508     0   101     1     8
  4.3490589495578789E+00 a      1509     0   101     1     9
  1.8915286603459749E+00 a      1510     0   101     1    10
  8.8470283385514854E+00 a      1511     0   101     1    11
 -4.3594733403394743E+00 a      1512     0   101     1    12
  5.6371333515019924E+00 a      1513     0   101     1    13
  1.4594355888754260E+00 a      1514     0   101     1    14
 -7.9770916070876574E-01 a      1515     0   101     1    15
 -5.3458096660326797E+00 a      1516     0   102     1     1
 -7.9372518392906077E-01 a      1517     0   102     1     2
 -1.8053716326274938E+00 a      1518     0   102     1     3
 -7.4327926711971353E+00 a      1519     0   102     1     4
 -6.7659840033898329E+00 a      1520     0   102     1     5
 -1.9438909129627848E+00 a      1521     0   102     1     6
 -2.7267334894250257E+00 a      1522     0   102     1     7
  5.1665634060408774E+00 a      1523     0   102     1     8
  6.5203357599423057E+00 a      1524     0   102     1     9
  3.0291352028401874E+00 a      1525     0   102     1    10
  6.4211763868408847E+00 a      1526     0   102     1    11
 -6.2957096013960685E+00 a      1527     0   102     1    12
  8.7054970984824589E+00 a      1528     0   102     1    13
  7.7128338742153113E-01 a      1529     0   102     1    14
 -1.2752360837708583E+00 a      1530     0   102     1    15
 -2.0377218865006808E+00 a      1531     0   103     1     1
 -1.8131325940433103E+00 a      1532     0   103     1     2
  1.9078084423259447E+00 a      1533     0   103     1     3
 -2.0443029015130364E+01 a      1534     0   103     1     4
 -5.5517289559304572E-01 a      1535     0   103     1     5
  1.5548629009158224E+01 a      1536     0   103     1     6
 -1.3940865119408525E+00 a      1537     0   103     1     7
 -3.9799240547260051E-01 a      1538     0   103     1     8
  2.8887118172016018E+00 a      1539     0   103     1     9
  2.0785814655259118E+00 a      1540     0   103     1    10
 -3.5062340892744488E+00 a      1541     0   103     1    11
  5.3727429553135737E+00 a      1542     0   103     1    12
  6.3575540839759457E+00 a      1543     0   103     1    13
  7.4268650696261371E+00 a      1544     0   103     1    14
 -3.7254006529513561E+00 a      1545     0   103     1    15
 -9.4040025641295644E-01 a      1546     0   104     1     1
 -4.1268106191617244E+00 a      1547     0   104     1     2
  2.3035696826887997E+00 a      1548     0   104     1     3
 -9.5871154823436893E+00 a      1549     0   104     1     4
  1.5666608526263255E+01 a      1550     0   104     1     5
  1.9733982330556576E+00 a      1551     0   104     1     6
 -2.6215132958467374E-01 a      1552     0   104     1     7
 -8.2226043961506328E+00 a      1553     0   104     1     8
  1.4624195979247980E+00 a      1554     0   104     1     9
  2.1990173734114662E+00 a      1555     0   104     1    10
  8.0450167483926183E-01 a      1556     0   104     1    11
  2.0870958076808948E+00 a      1557     0   104     1    12
  4.7861803819411897E+00 a      1558     0   104     1    13
  8.0956543938198100E-01 a      1559     0   104     1    14
 -4.3949012728629422E-01 a      1560     0   104     1    15
  1.8873841909231395E+00 a      1561     0   105     1     1
 -4.4949902706704119E+00 a      1562     0   105     1     2
  1.9795015550553123E+00 a      1563     0   105     1     3
 -1.0172434613981984E+01 a      1564     0   105     1     4
  2.1317504305902240E+01 a      1565     0   105     1     5
  1.3917417387016593E+00 a      1566     0   105     1     6
  2.4636715062642125E+00 a      1567     0   105     1     7
 -3.4140771102513741E+00 a      1568     0   105     1     8
 -5.3814625461756327E-01 a      1569     0   105     1     9
  2.0538534969397646E+00 a      1570     0   105     1    10
  1.2952935067829334E+00 a      1571     0   105     1    11
 -5.0585666781224359E-01 a      1572     0   105     1    12
  3.2955708288013938E+00 a      1573     0   105     1    13
 -1.1770828330683769E+00 a      1574     0   105     1    14
 -5.9294333464668636E-01 a      1575     0   105     1    15
 -5.3359427060168834E+00 a      1576     0   106     1     1
  8.9773543665874449E+00 a      1577     0   106     1     2
  4.2034935543685670E-01 a      1578     0   106     1     3
 -5.8155798355894817E+00 a      1579     0   106     1     4
 -3.6914462816115945E+00 a      1580     0   106     1     5
 -8.8326895731099420E-02 a      1581     0   106     1     6
 -9.3585036803107169E+00 a      1582     0   106     1     7
  1.9563064414980936E+01 a      1583     0   106     1     8
  1.4590187692835205E+01 a      1584     0   106     1     9
 -7.3500911628576944E+00 a      1585     0   106     1    10
 -6.6860182086681643E+00 a      1586     0   106     1    11
  1.0964186443270499E+01 a      1587     0   106     1    12
  5.3871728488789996E+00 a      1588     0   106     1    13
 -1.6175478808952622E+01 a      1589     0   106     1    14
 -5.7816680935976201E+00 a      1590     0   106     1    15
  6.0875510036319067E+00 a      1591     0   107     1     1
  1.2959552803695720E+00 a      1592     0   107     1     2
  3.6810226240901911E-01 a      1593     0   107     1     3
 -1.1998370717508326E+01 a      1594     0   107     1     4
 -5.7157478923027805E+00 a      1595     0   107     1     5
  3.6337142736632795E+00 a      1596     0   107     1     6
 -3.3134889291783014E+00 a      1597     0   107     1     7
  5.2304934900061237E+00 a      1598     0   107     1     8
 -2.7493199768028833E+00 a      1599     0   107     1     9
 -2.4386114639089618E+00 a      1600     0   107     1    10
 -1.2674430631958103E+01 a      1601     0   107     1    11
  5.8260475896650572E+00 a      1602     0   107     1    12
  9.0211464149462084E-01 a      1603     0   107     1    13
 -1.1900031354342277E+01 a      1604     0   107     1    14
 -3.9576929513124415E+00 a      1605     0   107     1    15
  8.3348677314128352E+00 a      1606     0   108     1     1
 -6.6328783108584322E+00 a      1607     0   108     1     2
 -2.2750279398171389E+00 a      1608     0   108     1     3
 -2.0694759816257118E+01 a      1609     0   108     1     4
  1.6392927226750222E+00 a      1610     0   108     1     5
  2.9182045640296912E+00 a      1611     0   108     1     6
  5.3047304859863442E-01 a      1612     0   108     1     7
 -6.3306610772063876E-01 a      1613     0   108     1     8
 -3.8922392757136142E+00 a      1614     0   108     1     9
 -4.8839779334609812E+00 a      1615     0   108     1    10
 -1.1493474810391477E+01 a      1616     0   108     1    11
  9.8559310929694615E+00 a      1617     0   108     1    12
 -6.6951132468996777E+00 a      1618     0   108     1    13
 -5.1087842701054553E+00 a      1619     0   108     1    14
 -1.6130271492533725E+00 a      1620     0   108     1    15
  3.0576806679809404E-01 a      1621     0   109     1     1
 -2.8360386636304220E+00 a      1622     0   109     1     2
 -3.2322375926747942E+00 a      1623     0   109     1     3
