################################################################################
# Neural network connection values (weights and biases).
################################################################################
# Col  Name       Description
################################################################################
# 1    connection Neural network connection value.
# 2    t          Connection type (a = weight, b = bias).
# 3    index      Index enumerating weights.
# 4    l_s        Starting point layer (end point layer for biases).
# 5    n_s        Starting point neuron in starting layer (end point neuron for biases).
# 6    l_e        End point layer.
# 7    n_e        End point neuron in end layer.
################################################################################
#                      1 2         3     4     5     6     7
#             connection t     index   l_s   n_s   l_e   n_e
############################################################
  1.2165007210654455E+01 a         1     0     1     1     1
  6.7352229463066591E+00 a         2     0     1     1     2
  3.5950813046818481E-01 a         3     0     1     1     3
 -1.0856323063706206E+01 a         4     0     1     1     4
 -2.2657593323200299E+01 a         5     0     1     1     5
 -5.8768688815354508E+00 a         6     0     1     1     6
 -5.0602574813439238E+00 a         7     0     1     1     7
 -8.5293862334679975E+00 a         8     0     1     1     8
  2.4949869621482939E+01 a         9     0     1     1     9
  1.0692131822556286E+01 a        10     0     1     1    10
  1.6035679967690175E+01 a        11     0     1     1    11
 -6.7710921612866475E+00 a        12     0     1     1    12
  5.2701789535536445E+00 a        13     0     1     1    13
  1.2050456704174892E+00 a        14     0     1     1    14
  2.7994625079568900E+00 a        15     0     1     1    15
  4.6492178856951023E+00 a        16     0     2     1     1
 -6.6935305158402443E+00 a        17     0     2     1     2
 -1.0142598326470019E+01 a        18     0     2     1     3
 -6.5392100796122410E+00 a        19     0     2     1     4
 -1.8426107875594539E+01 a        20     0     2     1     5
 -6.5899218738559444E+00 a        21     0     2     1     6
 -7.1062544008807640E+00 a        22     0     2     1     7
  6.5517830102057255E+00 a        23     0     2     1     8
  1.8003761973396781E+01 a        24     0     2     1     9
  1.3686372505356776E+00 a        25     0     2     1    10
  5.1697265438397677E+00 a        26     0     2     1    11
 -9.7611830871711263E+00 a        27     0     2     1    12
  1.5850487330661911E+01 a        28     0     2     1    13
  2.6852894071638858E+00 a        29     0     2     1    14
  6.3111179529267663E+00 a        30     0     2     1    15
  1.3462086841134169E+00 a        31     0     3     1     1
 -1.0641628776710014E+01 a        32     0     3     1     2
 -3.6239415092008298E+00 a        33     0     3     1     3
 -4.9771666691605052E+00 a        34     0     3     1     4
 -5.9276843170382048E+00 a        35     0     3     1     5
  5.0793710529864589E+00 a        36     0     3     1     6
  1.1071483799759334E+00 a        37     0     3     1     7
 -1.2304225156146330E+01 a        38     0     3     1     8
  8.6892361578552944E+00 a        39     0     3     1     9
  4.6916283179613423E+00 a        40     0     3     1    10
 -1.5160320481013967E+01 a        41     0     3     1    11
 -6.1943184515983942E+00 a        42     0     3     1    12
  1.5499324207996599E+01 a        43     0     3     1    13
 -5.6472552675692823E-02 a        44     0     3     1    14
 -4.5643967017966264E-01 a        45     0     3     1    15
  2.3909868273844070E+00 a        46     0     4     1     1
  8.4837669363390744E-01 a        47     0     4     1     2
 -5.2296678096119136E+00 a        48     0     4     1     3
 -1.9360440855655414E+00 a        49     0     4     1     4
  1.2481875775440678E+00 a        50     0     4     1     5
 -7.5108091668318777E-01 a        51     0     4     1     6
 -1.6941295784001928E+00 a        52     0     4     1     7
  1.1832354187650942E+00 a        53     0     4     1     8
  5.2592625465577338E+00 a        54     0     4     1     9
  4.4591434564006054E+00 a        55     0     4     1    10
  2.5329529263035502E+00 a        56     0     4     1    11
 -1.4310287232767491E+00 a        57     0     4     1    12
  1.6511079520053353E+00 a        58     0     4     1    13
 -3.8356246022263814E+00 a        59     0     4     1    14
  1.0531188216203220E+00 a        60     0     4     1    15
  1.4205393640364989E+00 a        61     0     5     1     1
 -3.4733836944520617E+00 a        62     0     5     1     2
 -5.0091175439833231E+00 a        63     0     5     1     3
 -2.0106102166696043E+00 a        64     0     5     1     4
  9.7024547184834153E-01 a        65     0     5     1     5
 -1.6467116574708320E+00 a        66     0     5     1     6
 -1.4269831515455793E+00 a        67     0     5     1     7
 -4.9480938906368022E-01 a        68     0     5     1     8
  4.9336406118774478E+00 a        69     0     5     1     9
  2.1049186263430490E+00 a        70     0     5     1    10
  5.6960353749574821E+00 a        71     0     5     1    11
 -2.7025115777694229E+00 a        72     0     5     1    12
  1.7925338713223826E+00 a        73     0     5     1    13
 -1.4109100170649820E+00 a        74     0     5     1    14
 -4.8013545701035720E-01 a        75     0     5     1    15
 -1.7977840542970755E-01 a        76     0     6     1     1
 -4.6733482767346501E+00 a        77     0     6     1     2
 -2.3406666238901370E+00 a        78     0     6     1     3
 -3.1167815305883693E+00 a        79     0     6     1     4
  9.0381987909388029E-01 a        80     0     6     1     5
 -1.6267830006875414E-02 a        81     0     6     1     6
 -5.4987596353818713E-01 a        82     0     6     1     7
 -1.3057595236917710E+00 a        83     0     6     1     8
  3.2850638323643278E+00 a        84     0     6     1     9
  1.8262665149349973E+00 a        85     0     6     1    10
  5.2189606248983744E-01 a        86     0     6     1    11
 -1.3329694446066318E+00 a        87     0     6     1    12
  2.5192024222866256E+00 a        88     0     6     1    13
 -1.3264134756925290E+00 a        89     0     6     1    14
 -1.7815339531628744E+00 a        90     0     6     1    15
 -5.6647867917941896E+00 a        91     0     7     1     1
 -5.0344545575572264E+00 a        92     0     7     1     2
 -4.9189782695586848E+00 a        93     0     7     1     3
  6.1079495697276860E+00 a        94     0     7     1     4
  1.6862251050898280E+01 a        95     0     7     1     5
  3.7830560735399814E+00 a        96     0     7     1     6
  1.5264730869470067E+00 a        97     0     7     1     7
  8.7257406100496375E+00 a        98     0     7     1     8
 -1.3694134697109700E+01 a        99     0     7     1     9
 -2.4950307460488776E+00 a       100     0     7     1    10
 -1.1199545032846869E+01 a       101     0     7     1    11
  3.4388669612091887E+00 a       102     0     7     1    12
 -2.2598788115553128E+00 a       103     0     7     1    13
 -6.9302845708951288E+00 a       104     0     7     1    14
 -6.3368905980643175E-01 a       105     0     7     1    15
 -1.1059992109436272E+00 a       106     0     8     1     1
  3.5309054941268747E-01 a       107     0     8     1     2
  3.4360404494663519E+00 a       108     0     8     1     3
  3.1125083446812885E+00 a       109     0     8     1     4
  1.3102178256881025E+01 a       110     0     8     1     5
  2.9284072191026151E+00 a       111     0     8     1     6
  3.9359812464234518E+00 a       112     0     8     1     7
 -5.3132485739418636E+00 a       113     0     8     1     8
 -8.5690614448975229E+00 a       114     0     8     1     9
  1.8931238375215225E+00 a       115     0     8     1    10
  1.7309103654149895E+00 a       116     0     8     1    11
  4.2716417152939012E+00 a       117     0     8     1    12
 -1.0506464529815974E+01 a       118     0     8     1    13
 -4.7513365992566170E+00 a       119     0     8     1    14
 -4.9163812360678598E+00 a       120     0     8     1    15
 -1.0911106949881475E+00 a       121     0     9     1     1
  1.6388091779087044E+00 a       122     0     9     1     2
  9.1108759295022468E-01 a       123     0     9     1     3
  9.1123706642845387E-03 a       124     0     9     1     4
  3.4360163981267000E+00 a       125     0     9     1     5
 -4.7475542638942940E+00 a       126     0     9     1     6
 -1.9606763099865241E+00 a       127     0     9     1     7
  8.4708985418029066E+00 a       128     0     9     1     8
 -3.2225053501427943E+00 a       129     0     9     1     9
 -1.1946674306602678E+00 a       130     0     9     1    10
  1.1470836699716701E+01 a       131     0     9     1    11
  3.0936086822871709E+00 a       132     0     9     1    12
 -8.5963053379314971E+00 a       133     0     9     1    13
 -2.7446717750289333E+00 a       134     0     9     1    14
 -1.6561732819991792E+00 a       135     0     9     1    15
 -8.9356670302344288E+00 a       136     0    10     1     1
 -8.2392525233541534E+00 a       137     0    10     1     2
  2.7548575194407223E+00 a       138     0    10     1     3
  9.3877165289142788E+00 a       139     0    10     1     4
  1.6094662712639618E+01 a       140     0    10     1     5
  6.3843259101884344E+00 a       141     0    10     1     6
  2.9214834581584554E+00 a       142     0    10     1     7
  9.3630489629523517E+00 a       143     0    10     1     8
 -2.5707647631841859E+01 a       144     0    10     1     9
 -9.0763293544146020E+00 a       145     0    10     1    10
 -1.9215723513161283E+01 a       146     0    10     1    11
  6.1385122952041886E+00 a       147     0    10     1    12
 -5.3499358821140959E+00 a       148     0    10     1    13
 -5.1112785264977179E+00 a       149     0    10     1    14
 -2.4537518885460736E+00 a       150     0    10     1    15
 -2.1771702949074427E+00 a       151     0    11     1     1
  4.0489291871184410E+00 a       152     0    11     1     2
  1.2726858586885287E+01 a       153     0    11     1     3
  7.3467990666073586E+00 a       154     0    11     1     4
  1.2122658140771495E+01 a       155     0    11     1     5
  5.5467449007950691E+00 a       156     0    11     1     6
  7.2139845941531702E+00 a       157     0    11     1     7
 -5.6032056330680993E+00 a       158     0    11     1     8
 -1.8214947859756723E+01 a       159     0    11     1     9
  3.3082660294517358E-01 a       160     0    11     1    10
 -7.1946461358673730E+00 a       161     0    11     1    11
  9.0830380689565278E+00 a       162     0    11     1    12
 -1.5452046242410617E+01 a       163     0    11     1    13
 -5.7024390656350015E+00 a       164     0    11     1    14
 -4.8408344999566291E+00 a       165     0    11     1    15
 -7.9623886966118962E-01 a       166     0    12     1     1
  7.4583360313918945E+00 a       167     0    12     1     2
  4.7346691695555112E+00 a       168     0    12     1     3
  4.0514040821802295E+00 a       169     0    12     1     4
  4.4457912429316460E-01 a       170     0    12     1     5
 -6.7289240529444374E+00 a       171     0    12     1     6
 -2.6935814306654078E+00 a       172     0    12     1     7
  1.2582704088470416E+01 a       173     0    12     1     8
 -9.4196865340424818E+00 a       174     0    12     1     9
 -4.0578277293237539E+00 a       175     0    12     1    10
  1.2594450930256674E+01 a       176     0    12     1    11
  5.9570612573774611E+00 a       177     0    12     1    12
 -1.3430036283948530E+01 a       178     0    12     1    13
 -3.4602988612665255E+00 a       179     0    12     1    14
  4.7470565841424067E-01 a       180     0    12     1    15
 -5.3031240256786241E+00 a       181     0    13     1     1
 -4.8939381144982228E+00 a       182     0    13     1     2
  1.0968057362796751E+01 a       183     0    13     1     3
  2.7848471122011600E+00 a       184     0    13     1     4
 -2.9736278003243619E+00 a       185     0    13     1     5
  3.8515421642836403E+00 a       186     0    13     1     6
  9.7104495323557083E-01 a       187     0    13     1     7
 -2.8602611108290614E+00 a       188     0    13     1     8
 -1.7354375273363466E+01 a       189     0    13     1     9
 -1.2239833839991602E+01 a       190     0    13     1    10
 -7.5982867524632720E+00 a       191     0    13     1    11
  5.2803833109416596E+00 a       192     0    13     1    12
 -3.3656739826803288E+00 a       193     0    13     1    13
  5.6497335697357176E+00 a       194     0    13     1    14
 -3.3480873667824587E+00 a       195     0    13     1    15
 -2.4675520574853813E+00 a       196     0    14     1     1
  6.8181810157748783E+00 a       197     0    14     1     2
  1.0902933912238915E+01 a       198     0    14     1     3
  4.8712756786742375E+00 a       199     0    14     1     4
 -2.2506095781552951E+00 a       200     0    14     1     5
  3.7861854384803815E+00 a       201     0    14     1     6
  5.0341442064062409E+00 a       202     0    14     1     7
  5.5657397919801110E-01 a       203     0    14     1     8
 -1.4413304731463199E+01 a       204     0    14     1     9
 -4.1967148926200082E+00 a       205     0    14     1    10
 -1.4601847743246347E+01 a       206     0    14     1    11
  8.4404747072288373E+00 a       207     0    14     1    12
 -3.8549680861330131E+00 a       208     0    14     1    13
 -4.1339301922123983E-01 a       209     0    14     1    14
  3.5502157189817335E-01 a       210     0    14     1    15
  1.0456500209315351E+00 a       211     0    15     1     1
  9.9761634232930128E+00 a       212     0    15     1     2
  2.1039826299975628E+00 a       213     0    15     1     3
  6.0938322403323699E+00 a       214     0    15     1     4
 -1.7179204488742605E+00 a       215     0    15     1     5
 -3.0623550962718391E+00 a       216     0    15     1     6
 -1.4955348233130170E+00 a       217     0    15     1     7
  3.0570329777357865E+00 a       218     0    15     1     8
 -1.0837410710655726E+01 a       219     0    15     1     9
 -5.4377207662790443E+00 a       220     0    15     1    10
  2.0877444921049629E-01 a       221     0    15     1    11
  5.7097858850073466E+00 a       222     0    15     1    12
 -5.4321246133719034E+00 a       223     0    15     1    13
 -1.6098532324247168E+00 a       224     0    15     1    14
  2.8189589661796384E+00 a       225     0    15     1    15
 -1.1048873794262402E+00 a       226     0    16     1     1
  8.3470731697500007E+00 a       227     0    16     1     2
 -5.5173228690942597E+00 a       228     0    16     1     3
 -9.9104306113245446E+00 a       229     0    16     1     4
 -1.1444438374137077E+01 a       230     0    16     1     5
 -5.2920321335322527E+00 a       231     0    16     1     6
 -2.4648659666291506E+00 a       232     0    16     1     7
 -2.1948402908795256E+01 a       233     0    16     1     8
  1.9898768020469916E+01 a       234     0    16     1     9
 -4.2655992942218672E+00 a       235     0    16     1    10
  3.2035303664946248E+01 a       236     0    16     1    11
  2.4299051913933978E+00 a       237     0    16     1    12
  9.0976874689271146E+00 a       238     0    16     1    13
  2.0484287652870744E+01 a       239     0    16     1    14
  1.5132553672399141E+00 a       240     0    16     1    15
 -5.4008703113265399E+00 a       241     0    17     1     1
  4.4401087744534511E+00 a       242     0    17     1     2
 -1.9164173333352512E+01 a       243     0    17     1     3
 -1.0154563387324364E+01 a       244     0    17     1     4
 -6.2146913220971340E+00 a       245     0    17     1     5
 -4.1750429598970191E+00 a       246     0    17     1     6
 -5.7466093652538675E+00 a       247     0    17     1     7
  5.1349571080603162E+00 a       248     0    17     1     8
  1.2886588571471949E+01 a       249     0    17     1     9
 -8.4942770442400501E+00 a       250     0    17     1    10
  1.1564829334751356E+00 a       251     0    17     1    11
 -1.3450460924791188E+00 a       252     0    17     1    12
  2.2871248978725095E+01 a       253     0    17     1    13
  1.2296334615631308E+01 a       254     0    17     1    14
  4.8604191056885586E+00 a       255     0    17     1    15
  1.9831850859708320E+00 a       256     0    18     1     1
  3.4779018842130482E+00 a       257     0    18     1     2
 -9.0245501396891221E+00 a       258     0    18     1     3
  2.2707367196989368E+00 a       259     0    18     1     4
  4.8246281150759627E+00 a       260     0    18     1     5
  7.1642881298076713E+00 a       261     0    18     1     6
  2.6704924752477788E+00 a       262     0    18     1     7
 -2.0573251066512199E+01 a       263     0    18     1     8
  2.4029063527789516E+00 a       264     0    18     1     9
 -3.0527773163987537E+00 a       265     0    18     1    10
 -1.7226927967209143E+01 a       266     0    18     1    11
 -8.2643798799850912E-02 a       267     0    18     1    12
  1.3565936166899293E+01 a       268     0    18     1    13
  5.9215128840205153E+00 a       269     0    18     1    14
  2.3301370543171673E+00 a       270     0    18     1    15
 -2.2162507525704904E+00 a       271     0    19     1     1
  6.5052961848552089E+00 a       272     0    19     1     2
  8.0689306767981073E+00 a       273     0    19     1     3
  8.5688820389669669E+00 a       274     0    19     1     4
  8.4263974124782219E+00 a       275     0    19     1     5
 -1.3522388616052233E+01 a       276     0    19     1     6
  1.3268255167416561E+01 a       277     0    19     1     7
  1.6755444500733461E+01 a       278     0    19     1     8
  1.3719285426717976E+01 a       279     0    19     1     9
  2.4756448056232131E+01 a       280     0    19     1    10
 -1.2893668770244627E+01 a       281     0    19     1    11
 -1.0695032035225269E+01 a       282     0    19     1    12
 -6.6775631266797300E+00 a       283     0    19     1    13
 -9.7628080124875467E+00 a       284     0    19     1    14
 -8.7205697935256865E-01 a       285     0    19     1    15
 -3.5931271451846012E+00 a       286     0    20     1     1
 -7.8740054792139382E+00 a       287     0    20     1     2
  1.5795520004247441E+01 a       288     0    20     1     3
  3.1110838793748044E+00 a       289     0    20     1     4
  7.1128098855870725E+00 a       290     0    20     1     5
 -6.4569464317660286E+00 a       291     0    20     1     6
 -7.9311583568179955E+00 a       292     0    20     1     7
 -4.0586534959541138E+00 a       293     0    20     1     8
  8.8222614574316793E+00 a       294     0    20     1     9
  9.9052559290388071E+00 a       295     0    20     1    10
  1.3927710555518248E+01 a       296     0    20     1    11
 -1.1017733356171787E+01 a       297     0    20     1    12
 -1.1146168675403491E+01 a       298     0    20     1    13
  3.6411537234651434E+00 a       299     0    20     1    14
 -4.3072326191848411E+00 a       300     0    20     1    15
 -1.0573076603148833E+01 a       301     0    21     1     1
 -1.1243864630340704E+01 a       302     0    21     1     2
  1.6114765653650583E+01 a       303     0    21     1     3
 -5.1432481217798927E+00 a       304     0    21     1     4
  3.5783889314101849E+00 a       305     0    21     1     5
  3.7096452792862644E-01 a       306     0    21     1     6
  4.3157713604579273E+00 a       307     0    21     1     7
  8.0986748183312685E+00 a       308     0    21     1     8
  1.5336344219947414E+01 a       309     0    21     1     9
  1.1275531661664804E+01 a       310     0    21     1    10
  1.2106654114783511E+01 a       311     0    21     1    11
 -1.0863105220991473E+01 a       312     0    21     1    12
 -2.9288193634925563E+00 a       313     0    21     1    13
  1.0805670943507616E+01 a       314     0    21     1    14
 -2.8923110499685762E+00 a       315     0    21     1    15
 -1.1754473893072312E+00 a       316     0    22     1     1
 -3.7561698164511133E+00 a       317     0    22     1     2
 -1.1118275322739015E+01 a       318     0    22     1     3
 -3.4070841505264173E+00 a       319     0    22     1     4
 -8.0232601631936085E+00 a       320     0    22     1     5
  1.4970524202269818E+01 a       321     0    22     1     6
 -1.9843075744708841E+01 a       322     0    22     1     7
 -1.5190412934731595E+01 a       323     0    22     1     8
 -1.0178778501292035E+01 a       324     0    22     1     9
 -2.5752288042190639E+01 a       325     0    22     1    10
 -4.4584040233630127E+00 a       326     0    22     1    11
  5.9680823754583363E+00 a       327     0    22     1    12
  1.0825756710110459E+01 a       328     0    22     1    13
 -4.8387802308318060E+00 a       329     0    22     1    14
  1.9047090857595006E+01 a       330     0    22     1    15
  6.2612873619232330E+00 a       331     0    23     1     1
  2.4457996357310030E+00 a       332     0    23     1     2
 -1.5238742651451069E+01 a       333     0    23     1     3
  7.0106624819720995E+00 a       334     0    23     1     4
 -1.1108748186167329E+01 a       335     0    23     1     5
  8.0540429879599191E+00 a       336     0    23     1     6
  4.5713195051462350E+00 a       337     0    23     1     7
 -6.8171155267329544E+00 a       338     0    23     1     8
 -4.2685535865707491E+00 a       339     0    23     1     9
 -1.5211296643898587E+01 a       340     0    23     1    10
 -1.0266910858656882E+01 a       341     0    23     1    11
  9.1681420410873162E+00 a       342     0    23     1    12
  1.0241351029336414E+01 a       343     0    23     1    13
 -1.2328933367416434E+01 a       344     0    23     1    14
  1.8501361680351870E+01 a       345     0    23     1    15
  7.4906385270830418E+00 a       346     0    24     1     1
  7.3625293903435427E+00 a       347     0    24     1     2
 -1.4296611542822582E+01 a       348     0    24     1     3
  5.2612549816555845E+00 a       349     0    24     1     4
 -9.4478363290810421E+00 a       350     0    24     1     5
  9.9455140625956795E-01 a       351     0    24     1     6
 -2.8050119835088170E+00 a       352     0    24     1     7
 -5.0009690175288588E+00 a       353     0    24     1     8
 -8.7830457742864994E+00 a       354     0    24     1     9
 -1.0871869075622444E+01 a       355     0    24     1    10
 -7.9133038806910818E+00 a       356     0    24     1    11
  7.4264317654624943E+00 a       357     0    24     1    12
  8.2534951561760153E+00 a       358     0    24     1    13
 -1.4061418715912053E+01 a       359     0    24     1    14
  1.0803202214762258E+01 a       360     0    24     1    15
  1.0535489962630654E+01 a       361     0    25     1     1
  1.5443969667686266E+01 a       362     0    25     1     2
  1.6309284761167770E+01 a       363     0    25     1     3
  1.1811108772759001E+01 a       364     0    25     1     4
  1.2228663966098267E+01 a       365     0    25     1     5
 -3.5493407986365528E+00 a       366     0    25     1     6
 -8.6443857408163360E+00 a       367     0    25     1     7
  4.9851414810385530E-01 a       368     0    25     1     8
 -3.1843781282408223E+01 a       369     0    25     1     9
  4.5668790642315177E-01 a       370     0    25     1    10
 -1.7907560028346676E+01 a       371     0    25     1    11
  1.0280754653810843E-01 a       372     0    25     1    12
  7.0209239248898898E+00 a       373     0    25     1    13
 -9.9354590654083133E+00 a       374     0    25     1    14
  5.8362159371864015E+00 a       375     0    25     1    15
  8.5354259593682151E+00 a       376     0    26     1     1
 -5.7031719687955040E-01 a       377     0    26     1     2
  3.5332270372226517E+01 a       378     0    26     1     3
  9.4054627240617030E+00 a       379     0    26     1     4
 -2.9607272192361776E+01 a       380     0    26     1     5
 -4.7897287881050348E+00 a       381     0    26     1     6
  3.0231161948642562E+00 a       382     0    26     1     7
 -1.3714312907183271E-01 a       383     0    26     1     8
 -1.8881751754783739E+01 a       384     0    26     1     9
  4.1282935557937943E+00 a       385     0    26     1    10
 -3.0614268291732117E+01 a       386     0    26     1    11
 -1.6929968885634587E+01 a       387     0    26     1    12
 -7.8467959484988059E+00 a       388     0    26     1    13
 -2.1136992449658378E+00 a       389     0    26     1    14
  1.1390899508797157E+01 a       390     0    26     1    15
  3.5029974150007588E+00 a       391     0    27     1     1
 -3.3678389054836844E+00 a       392     0    27     1     2
  3.6754717847120261E+01 a       393     0    27     1     3
 -6.1033653191938042E-01 a       394     0    27     1     4
 -4.3652199958161795E+01 a       395     0    27     1     5
  5.0911891665695563E-01 a       396     0    27     1     6
  2.0705032669322927E+00 a       397     0    27     1     7
 -2.0074202965635646E-01 a       398     0    27     1     8
 -6.1880916816540976E+00 a       399     0    27     1     9
  1.9675203881676304E+00 a       400     0    27     1    10
 -2.6029723184259794E+01 a       401     0    27     1    11
  3.2822635723607507E+00 a       402     0    27     1    12
 -2.2336520000008546E+00 a       403     0    27     1    13
  3.2384546455216223E-01 a       404     0    27     1    14
  1.1289036632925525E+01 a       405     0    27     1    15
  1.8466798965074933E+01 a       406     0    28     1     1
 -1.3672046522868317E+01 a       407     0    28     1     2
  9.4346693279961453E+00 a       408     0    28     1     3
  1.8332079957974845E+01 a       409     0    28     1     4
 -4.3288295259277788E+01 a       410     0    28     1     5
  1.4587564858275845E+00 a       411     0    28     1     6
  7.8998932980878145E-01 a       412     0    28     1     7
  7.4967233473555250E+00 a       413     0    28     1     8
  7.2281073637827200E+00 a       414     0    28     1     9
 -6.4247360996577898E+00 a       415     0    28     1    10
  2.2716352114995185E+01 a       416     0    28     1    11
  2.0026327419824007E+01 a       417     0    28     1    12
  3.1625128041845574E+01 a       418     0    28     1    13
  7.7779708435834873E+00 a       419     0    28     1    14
  2.1921176813713203E+01 a       420     0    28     1    15
 -1.2801010004939737E+01 a       421     0    29     1     1
 -7.0373104815171938E+00 a       422     0    29     1     2
 -2.1833015207634912E+00 a       423     0    29     1     3
  1.5370185785661898E+00 a       424     0    29     1     4
 -2.8422829010719703E+01 a       425     0    29     1     5
  9.7755777997132931E+00 a       426     0    29     1     6
  2.5597561874658927E+00 a       427     0    29     1     7
 -2.7715480492698319E+00 a       428     0    29     1     8
  7.0069016855609947E+00 a       429     0    29     1     9
  1.5404265504415484E+01 a       430     0    29     1    10
  2.7859496582608148E+01 a       431     0    29     1    11
  2.6159909748217429E+00 a       432     0    29     1    12
  1.7420019121280408E+01 a       433     0    29     1    13
 -4.8233322729354562E+00 a       434     0    29     1    14
  1.8247661381994227E+01 a       435     0    29     1    15
  2.2460058353955970E+00 a       436     0    30     1     1
  1.1295799502414312E+01 a       437     0    30     1     2
 -2.0336770267278435E+00 a       438     0    30     1     3
 -3.0931134076625368E+00 a       439     0    30     1     4
 -2.9111970303792379E+01 a       440     0    30     1     5
 -1.0240982416388157E+01 a       441     0    30     1     6
  1.3488912574260223E+00 a       442     0    30     1     7
  6.7481861174264433E+00 a       443     0    30     1     8
 -3.7552585307680548E+00 a       444     0    30     1     9
 -5.8784896598659691E+00 a       445     0    30     1    10
  1.8017830493258025E+01 a       446     0    30     1    11
 -5.5985065026195757E+00 a       447     0    30     1    12
  8.0923084997266717E+00 a       448     0    30     1    13
  5.8109908528854861E+00 a       449     0    30     1    14
 -1.2773370562414955E+01 a       450     0    30     1    15
 -4.8295957607557645E+00 a       451     0    31     1     1
 -4.5262072088890184E+00 a       452     0    31     1     2
  5.9829669824580023E+00 a       453     0    31     1     3
  7.3349840171814478E+00 a       454     0    31     1     4
 -2.4892929329775445E+01 a       455     0    31     1     5
  1.0031258081493908E+01 a       456     0    31     1     6
  9.9876486757139968E+00 a       457     0    31     1     7
 -3.3094575611632289E+00 a       458     0    31     1     8
  3.7899386001505468E+00 a       459     0    31     1     9
  6.8087405379559769E+00 a       460     0    31     1    10
  3.7396317388880105E+00 a       461     0    31     1    11
  1.0835391379143781E+01 a       462     0    31     1    12
  5.1102451488199572E+00 a       463     0    31     1    13
 -5.1123648094477625E+00 a       464     0    31     1    14
 -2.1611176189567189E+01 a       465     0    31     1    15
 -4.1190868897515784E+00 a       466     0    32     1     1
  1.0749772506050427E+01 a       467     0    32     1     2
  4.7551392116016249E+00 a       468     0    32     1     3
  8.2011019607926805E+00 a       469     0    32     1     4
 -1.6789918262419416E+01 a       470     0    32     1     5
  9.8899511419897266E+00 a       471     0    32     1     6
 -1.1054527947106177E+01 a       472     0    32     1     7
 -6.6624953529761131E+00 a       473     0    32     1     8
 -5.7808813608730665E+00 a       474     0    32     1     9
 -2.9913052408952985E+00 a       475     0    32     1    10
  1.8223660347536470E+01 a       476     0    32     1    11
  1.1969352875710090E+01 a       477     0    32     1    12
 -7.0329942913093886E+00 a       478     0    32     1    13
  1.4834853504575680E+00 a       479     0    32     1    14
 -8.8460603274836682E+00 a       480     0    32     1    15
 -5.9030312417330162E+00 a       481     0    33     1     1
 -2.2733349618555221E+00 a       482     0    33     1     2
  4.3454316918546585E+00 a       483     0    33     1     3
  1.1535748371880933E+01 a       484     0    33     1     4
 -1.4416755407405279E+01 a       485     0    33     1     5
  2.5134995402011113E+00 a       486     0    33     1     6
  2.7126873203517956E+00 a       487     0    33     1     7
 -2.1404369321489078E+01 a       488     0    33     1     8
 -2.2482830764517199E+00 a       489     0    33     1     9
 -9.8658315807904806E-01 a       490     0    33     1    10
 -5.1670500984167980E+00 a       491     0    33     1    11
  1.9097585292718549E+01 a       492     0    33     1    12
  5.1423499626581179E+00 a       493     0    33     1    13
  2.9680852999827074E+00 a       494     0    33     1    14
 -1.5866636919947517E+01 a       495     0    33     1    15
 -3.2632852054800260E+01 a       496     0    34     1     1
  1.1488791838206380E+01 a       497     0    34     1     2
  1.1279350407977400E+01 a       498     0    34     1     3
 -1.7588871915034272E+01 a       499     0    34     1     4
  1.4909093219282886E+01 a       500     0    34     1     5
  2.2043142524296375E+01 a       501     0    34     1     6
  6.1288429361203560E+00 a       502     0    34     1     7
 -1.7322068183412693E+01 a       503     0    34     1     8
 -1.1473935942152860E+00 a       504     0    34     1     9
  2.5663825651365917E+00 a       505     0    34     1    10
  1.8955569901834089E+01 a       506     0    34     1    11
  9.6339676724382013E+00 a       507     0    34     1    12
  5.2814906882680779E+00 a       508     0    34     1    13
 -1.5687034514688708E+01 a       509     0    34     1    14
 -1.3317399816565242E+01 a       510     0    34     1    15
  5.9547242815018961E+00 a       511     0    35     1     1
 -2.3306022533082706E+00 a       512     0    35     1     2
  3.5646199049891109E+01 a       513     0    35     1     3
 -1.6418710252969184E+01 a       514     0    35     1     4
  1.8942880050544918E+01 a       515     0    35     1     5
  4.7376604605362527E+00 a       516     0    35     1     6
 -6.3856192088546910E+00 a       517     0    35     1     7
  4.0938756018197724E+00 a       518     0    35     1     8
 -7.5223479116571446E-01 a       519     0    35     1     9
  1.6107929917083907E-01 a       520     0    35     1    10
  1.1426979160827571E+01 a       521     0    35     1    11
  2.1679262832232336E+01 a       522     0    35     1    12
  9.7869262295540551E+00 a       523     0    35     1    13
  4.0220495263644942E+00 a       524     0    35     1    14
 -3.3799275010330412E+00 a       525     0    35     1    15
  9.2540469310335265E+00 a       526     0    36     1     1
 -7.6910827839267188E+00 a       527     0    36     1     2
  9.5151751778216180E+00 a       528     0    36     1     3
 -4.8674503463987850E+00 a       529     0    36     1     4
  1.6951646349358256E+00 a       530     0    36     1     5
 -2.3724469135691059E+01 a       531     0    36     1     6
  2.1845886739191378E+01 a       532     0    36     1     7
  1.3670468749977818E+00 a       533     0    36     1     8
 -1.4846284572452422E+01 a       534     0    36     1     9
  2.0373983607294561E+00 a       535     0    36     1    10
 -1.4747142271845159E+00 a       536     0    36     1    11
  1.2226567081569209E+01 a       537     0    36     1    12
  1.2190086978136726E+01 a       538     0    36     1    13
  1.0923710935178438E+01 a       539     0    36     1    14
 -1.6139883398597767E+01 a       540     0    36     1    15
  1.7815786694380265E+01 a       541     0    37     1     1
 -1.6684131045769238E+01 a       542     0    37     1     2
  1.2875746472737859E+01 a       543     0    37     1     3
 -1.1102688361208473E+01 a       544     0    37     1     4
  1.2571778826466881E+01 a       545     0    37     1     5
 -3.1848672659211665E+01 a       546     0    37     1     6
 -3.8367495408957901E+00 a       547     0    37     1     7
 -6.5550592482720091E+00 a       548     0    37     1     8
 -1.6163959701340602E-02 a       549     0    37     1     9
 -4.5556287368499824E+00 a       550     0    37     1    10
  2.3710999729808172E+01 a       551     0    37     1    11
  1.5515755986773303E+01 a       552     0    37     1    12
  4.2680465064755850E+00 a       553     0    37     1    13
  1.9657879130755774E+01 a       554     0    37     1    14
 -7.3722460151824052E+00 a       555     0    37     1    15
 -2.6901629320896601E+00 a       556     0    38     1     1
 -4.0468223077233771E+00 a       557     0    38     1     2
  4.9205630417189790E+00 a       558     0    38     1     3
  2.5524928053418727E+00 a       559     0    38     1     4
  6.6645131505309401E+00 a       560     0    38     1     5
  2.0188705167900498E+01 a       561     0    38     1     6
 -5.2506442506320141E+00 a       562     0    38     1     7
  9.4839203059672883E+00 a       563     0    38     1     8
 -1.8197962137459121E+00 a       564     0    38     1     9
  2.6167835412884838E+01 a       565     0    38     1    10
  5.6031167318361010E+00 a       566     0    38     1    11
  1.1963060516179494E+01 a       567     0    38     1    12
 -4.3194259845352265E+00 a       568     0    38     1    13
  4.1176647172959031E+00 a       569     0    38     1    14
  2.0784193420678104E+01 a       570     0    38     1    15
 -3.2871011266083210E+00 a       571     0    39     1     1
 -1.6573355183291831E+01 a       572     0    39     1     2
  1.1355395038128549E+01 a       573     0    39     1     3
 -5.9933550699423810E-01 a       574     0    39     1     4
 -3.5780032664801409E+00 a       575     0    39     1     5
  1.0524366602510916E+01 a       576     0    39     1     6
  1.4133054503423860E+01 a       577     0    39     1     7
  8.6826226717758654E+00 a       578     0    39     1     8
 -9.3513217836711302E+00 a       579     0    39     1     9
  1.5158681884298369E+01 a       580     0    39     1    10
  8.9518226631956610E-01 a       581     0    39     1    11
  1.5026764366308710E+01 a       582     0    39     1    12
 -1.6461134941257194E+00 a       583     0    39     1    13
 -3.9379314899746403E+00 a       584     0    39     1    14
  4.6672045303265124E+00 a       585     0    39     1    15
  7.5513248327205518E-01 a       586     0    40     1     1
 -5.8707770396619203E+00 a       587     0    40     1     2
  4.0149540415808938E+00 a       588     0    40     1     3
 -3.7314143144042542E+00 a       589     0    40     1     4
  1.3992315503173959E+01 a       590     0    40     1     5
 -4.5479721260187613E+00 a       591     0    40     1     6
  5.5148896643373950E+00 a       592     0    40     1     7
 -2.3526746543467056E+01 a       593     0    40     1     8
 -1.9844424175943605E+01 a       594     0    40     1     9
  1.2195713466660742E+01 a       595     0    40     1    10
 -4.8061328127471254E+00 a       596     0    40     1    11
 -7.6887175825795229E+00 a       597     0    40     1    12
 -4.5030314292808074E+00 a       598     0    40     1    13
 -5.3396591547962891E-01 a       599     0    40     1    14
  8.4329962779100622E+00 a       600     0    40     1    15
 -9.7641207786301329E+00 a       601     0    41     1     1
  4.4582436870922448E+00 a       602     0    41     1     2
  7.4273406142054075E+00 a       603     0    41     1     3
  1.3676359931162153E+01 a       604     0    41     1     4
 -2.3889297037484258E+00 a       605     0    41     1     5
  2.6276672112304239E-01 a       606     0    41     1     6
 -2.2909729852929805E+00 a       607     0    41     1     7
  5.3635827503368469E+00 a       608     0    41     1     8
 -2.1008684904164380E+01 a       609     0    41     1     9
  7.1600007138685404E+00 a       610     0    41     1    10
 -1.5500456672100292E+01 a       611     0    41     1    11
  5.6249867620623037E+00 a       612     0    41     1    12
  1.2027867652018697E+01 a       613     0    41     1    13
 -2.6185099698157357E+00 a       614     0    41     1    14
  2.1231021908312670E+01 a       615     0    41     1    15
 -7.2742857359627600E+00 a       616     0    42     1     1
 -9.6521716146321226E-02 a       617     0    42     1     2
  5.8594932731971170E+00 a       618     0    42     1     3
 -8.6188483549255519E+00 a       619     0    42     1     4
 -1.9827456279656623E+01 a       620     0    42     1     5
 -1.2030661495747295E+00 a       621     0    42     1     6
  2.1405052436667305E+00 a       622     0    42     1     7
  3.6286994224730509E+00 a       623     0    42     1     8
  1.2631220961880755E+01 a       624     0    42     1     9
 -1.1009259409653898E+01 a       625     0    42     1    10
 -1.1643595721872089E+01 a       626     0    42     1    11
  2.0302234088337066E+01 a       627     0    42     1    12
  1.4187145471820495E+01 a       628     0    42     1    13
  1.1886274179803538E+01 a       629     0    42     1    14
  1.9314111343202011E+01 a       630     0    42     1    15
 -1.3541799352705328E+00 a       631     0    43     1     1
 -4.9236851638984245E+00 a       632     0    43     1     2
  1.1204250825929241E+01 a       633     0    43     1     3
 -3.2347856868218745E+00 a       634     0    43     1     4
 -1.7658233318265431E+01 a       635     0    43     1     5
 -6.5926890365684221E+00 a       636     0    43     1     6
  2.5102465470635624E+00 a       637     0    43     1     7
  2.8296974748013928E+00 a       638     0    43     1     8
 -6.6098488751515037E+00 a       639     0    43     1     9
  5.9966058763044447E+00 a       640     0    43     1    10
  5.0010069204313945E+00 a       641     0    43     1    11
  6.8709664274176712E+00 a       642     0    43     1    12
  1.3699565246825085E+01 a       643     0    43     1    13
  4.0506861584696789E+00 a       644     0    43     1    14
  1.7098569987886702E+01 a       645     0    43     1    15
 -6.4061895947068486E+00 a       646     0    44     1     1
  9.4566778440236980E+00 a       647     0    44     1     2
  4.4471513055516390E+00 a       648     0    44     1     3
 -2.2817112616334856E+00 a       649     0    44     1     4
 -4.3500772764250421E+01 a       650     0    44     1     5
 -7.8559438830801231E-01 a       651     0    44     1     6
 -3.6742077968462508E+00 a       652     0    44     1     7
  8.3347577119878586E+00 a       653     0    44     1     8
  2.3735321133727769E+01 a       654     0    44     1     9
 -3.9309915749690245E+00 a       655     0    44     1    10
  1.1121782296651801E+01 a       656     0    44     1    11
  2.8871747259614320E+01 a       657     0    44     1    12
  2.3478198936029731E+01 a       658     0    44     1    13
  8.3101591293829724E+00 a       659     0    44     1    14
  1.1024192045279428E+01 a       660     0    44     1    15
 -3.5386180597487127E+00 a       661     0    45     1     1
  4.3410307738588833E-01 a       662     0    45     1     2
  3.3864675754541853E+00 a       663     0    45     1     3
  8.0896648933491342E+00 a       664     0    45     1     4
 -3.6095255765114146E+01 a       665     0    45     1     5
 -3.8105369847060069E+00 a       666     0    45     1     6
 -2.4988331576923539E-01 a       667     0    45     1     7
 -8.0780431474329113E+00 a       668     0    45     1     8
  1.0839703210167693E+01 a       669     0    45     1     9
  4.5672457231531487E+00 a       670     0    45     1    10
 -1.0062955993921772E+01 a       671     0    45     1    11
  1.6415868676266250E+01 a       672     0    45     1    12
  3.1118188376806444E+01 a       673     0    45     1    13
  5.8174504589356140E+00 a       674     0    45     1    14
  8.5288160969053735E+00 a       675     0    45     1    15
  1.8662606531710026E+01 a       676     0    46     1     1
  1.0147884892793458E+01 a       677     0    46     1     2
  4.5673666468106422E+00 a       678     0    46     1     3
 -2.0323174031228067E+01 a       679     0    46     1     4
 -3.1578397816095080E+01 a       680     0    46     1     5
  4.2239660528655627E+01 a       681     0    46     1     6
  9.4491322030803815E+00 a       682     0    46     1     7
 -3.4575500812065265E+01 a       683     0    46     1     8
  2.3756074015881792E+00 a       684     0    46     1     9
 -5.7516303732003626E+00 a       685     0    46     1    10
  1.0962047320990118E+01 a       686     0    46     1    11
 -1.8135068751073102E+00 a       687     0    46     1    12
  9.4014935318374953E+00 a       688     0    46     1    13
 -3.9809715221430868E+00 a       689     0    46     1    14
  2.6433557670601200E+00 a       690     0    46     1    15
 -1.1458336121976304E+01 a       691     0    47     1     1
 -1.4534767803654228E+01 a       692     0    47     1     2
 -1.0892622420798030E+00 a       693     0    47     1     3
 -6.7598313889999719E+00 a       694     0    47     1     4
 -4.9643723789648027E+00 a       695     0    47     1     5
 -1.7422259920463283E+01 a       696     0    47     1     6
 -8.1999919156359926E+00 a       697     0    47     1     7
 -3.0918073895981141E+01 a       698     0    47     1     8
 -7.6996488798154124E+00 a       699     0    47     1     9
  3.8310921114382324E+00 a       700     0    47     1    10
 -2.2262806155588142E+00 a       701     0    47     1    11
 -2.0647710358139566E+01 a       702     0    47     1    12
  3.3383294393881670E+01 a       703     0    47     1    13
 -9.9107277858360057E+00 a       704     0    47     1    14
 -5.3564990975087499E+00 a       705     0    47     1    15
 -1.5641400464066816E+01 a       706     0    48     1     1
  8.3646520909352393E+00 a       707     0    48     1     2
  8.4491952147120948E+00 a       708     0    48     1     3
 -2.5796732648729208E+01 a       709     0    48     1     4
  4.2138953432174207E+00 a       710     0    48     1     5
 -5.9149155843876953E+00 a       711     0    48     1     6
 -5.4598757365918322E+00 a       712     0    48     1     7
 -2.2786117181052536E+01 a       713     0    48     1     8
 -2.2552502593107948E+00 a       714     0    48     1     9
  5.1518331159284401E+00 a       715     0    48     1    10
  5.5847994534456626E+00 a       716     0    48     1    11
 -1.5566827897661893E+01 a       717     0    48     1    12
  1.4536870073886389E+01 a       718     0    48     1    13
 -3.3298062834850288E+00 a       719     0    48     1    14
 -9.5703971582848393E+00 a       720     0    48     1    15
  1.7278764613619699E+00 a       721     0    49     1     1
  1.2630374300179524E+01 a       722     0    49     1     2
 -2.7578377104030399E-01 a       723     0    49     1     3
 -1.7852337261392631E+01 a       724     0    49     1     4
 -6.4926993396229609E+00 a       725     0    49     1     5
  3.9200856349226045E+00 a       726     0    49     1     6
 -2.5962631890434785E+01 a       727     0    49     1     7
 -1.7184760518570691E+01 a       728     0    49     1     8
  2.1967058255891942E+01 a       729     0    49     1     9
 -6.5734926828196256E+00 a       730     0    49     1    10
  8.3578763601182671E-01 a       731     0    49     1    11
 -2.5350831786984806E+01 a       732     0    49     1    12
 -6.3724447725407156E+00 a       733     0    49     1    13
 -2.0966314839973093E+00 a       734     0    49     1    14
  1.0661603809990529E+01 a       735     0    49     1    15
  1.0493378342912771E+00 a       736     0    50     1     1
 -6.3753350690147736E-01 a       737     0    50     1     2
 -6.5840421583077644E+00 a       738     0    50     1     3
 -1.3184937008947943E+01 a       739     0    50     1     4
 -8.0629470196842270E+00 a       740     0    50     1     5
  1.9228914465752815E+01 a       741     0    50     1     6
  7.9481442560277706E+00 a       742     0    50     1     7
 -3.3959404521391484E+01 a       743     0    50     1     8
 -6.8782067958589543E+00 a       744     0    50     1     9
 -4.6728106454004710E+00 a       745     0    50     1    10
  1.3512730940550014E+01 a       746     0    50     1    11
 -2.0226654629466985E+01 a       747     0    50     1    12
  1.7711617015374649E+01 a       748     0    50     1    13
  1.0768396302153236E+00 a       749     0    50     1    14
 -4.9484151895968935E+00 a       750     0    50     1    15
  8.0064664095269666E+00 a       751     0    51     1     1
  2.0854761775075666E+01 a       752     0    51     1     2
 -8.8295268570766332E+00 a       753     0    51     1     3
 -2.2169487893378772E+01 a       754     0    51     1     4
 -1.1193279839406642E+00 a       755     0    51     1     5
  5.8203221743230245E+00 a       756     0    51     1     6
 -1.3310751775712356E+01 a       757     0    51     1     7
 -4.6779362183716799E+01 a       758     0    51     1     8
 -4.1550654142468870E+00 a       759     0    51     1     9
  6.1854164709550634E+00 a       760     0    51     1    10
  7.3562870078480831E+00 a       761     0    51     1    11
 -1.3907596672248827E+01 a       762     0    51     1    12
  2.7103999274740623E+01 a       763     0    51     1    13
  7.4256830779045764E+00 a       764     0    51     1    14
 -1.2177045286940988E+01 a       765     0    51     1    15
 -1.2230762461916457E+01 a       766     0    52     1     1
 -3.4512516873859949E+00 a       767     0    52     1     2
 -1.1922484783816246E+01 a       768     0    52     1     3
  1.0945299492006880E+01 a       769     0    52     1     4
 -1.9507715905131150E+01 a       770     0    52     1     5
  8.1285693470765743E+00 a       771     0    52     1     6
 -4.2983441141377927E+00 a       772     0    52     1     7
  2.8978887490353804E+00 a       773     0    52     1     8
  1.0674246337138760E+01 a       774     0    52     1     9
 -5.4988382760869869E-01 a       775     0    52     1    10
  4.0159191329899613E+01 a       776     0    52     1    11
  2.0355148093573440E+01 a       777     0    52     1    12
  3.2528699018420205E+01 a       778     0    52     1    13
 -2.1007808401469941E+00 a       779     0    52     1    14
 -2.4403268283471524E+00 a       780     0    52     1    15
 -7.9629620167473636E+00 a       781     0    53     1     1
 -3.9263849568211198E+00 a       782     0    53     1     2
 -1.2669126048943822E+01 a       783     0    53     1     3
 -1.1804612592860880E-01 a       784     0    53     1     4
 -2.3633723520907377E+01 a       785     0    53     1     5
  9.1739578528545707E+00 a       786     0    53     1     6
  7.0082689666860720E-01 a       787     0    53     1     7
 -1.4233170267505661E+00 a       788     0    53     1     8
  2.0305249508582310E+01 a       789     0    53     1     9
 -2.2526638232637508E-01 a       790     0    53     1    10
  3.2025351876562667E+01 a       791     0    53     1    11
  3.4387114428494749E+00 a       792     0    53     1    12
  1.6860093627786402E+01 a       793     0    53     1    13
  4.3768718265624829E-01 a       794     0    53     1    14
 -2.3486815000095362E-01 a       795     0    53     1    15
 -9.2088510785400448E+00 a       796     0    54     1     1
  7.9485113190575483E+00 a       797     0    54     1     2
 -1.2904155728922209E+01 a       798     0    54     1     3
 -1.0561298838110176E+01 a       799     0    54     1     4
 -1.8226705520201243E+01 a       800     0    54     1     5
 -5.3943685578990888E+00 a       801     0    54     1     6
  3.1708253916264804E+00 a       802     0    54     1     7
 -6.8173207275797543E-01 a       803     0    54     1     8
  1.0324743626647573E+01 a       804     0    54     1     9
 -2.2269931360817612E+00 a       805     0    54     1    10
  2.5831734319741265E+01 a       806     0    54     1    11
  5.8304917355526431E+00 a       807     0    54     1    12
  1.8789687900091167E+01 a       808     0    54     1    13
  3.3180633668660127E+00 a       809     0    54     1    14
  1.2704367558614738E+01 a       810     0    54     1    15
 -1.1768652084426014E+01 a       811     0    55     1     1
 -2.2749435929817325E+00 a       812     0    55     1     2
 -1.5130187421359562E+01 a       813     0    55     1     3
  2.6824743096235637E+00 a       814     0    55     1     4
  3.3641015682810158E+00 a       815     0    55     1     5
  4.5581627648980874E+00 a       816     0    55     1     6
  6.8820566494647588E+00 a       817     0    55     1     7
  1.1469284110376190E+01 a       818     0    55     1     8
  3.8051705918453775E+00 a       819     0    55     1     9
  1.5678224124876867E+00 a       820     0    55     1    10
  1.6580449291963657E+01 a       821     0    55     1    11
  8.0196682062957230E+00 a       822     0    55     1    12
  4.5975614105096740E+00 a       823     0    55     1    13
 -4.3638285039307316E+00 a       824     0    55     1    14
 -5.9199474919985864E+00 a       825     0    55     1    15
  3.8289405190603039E+00 a       826     0    56     1     1
  7.7386058515830420E+00 a       827     0    56     1     2
 -8.1778281892585767E+00 a       828     0    56     1     3
  2.1482275931088597E+00 a       829     0    56     1     4
 -8.6874174941184474E+00 a       830     0    56     1     5
  3.5179208607485322E+00 a       831     0    56     1     6
 -1.0835567312085722E+01 a       832     0    56     1     7
 -2.1455407668284558E+01 a       833     0    56     1     8
  1.1150189848327082E+01 a       834     0    56     1     9
 -3.7332930636183712E+00 a       835     0    56     1    10
  1.4673140383915651E+01 a       836     0    56     1    11
  1.9062607075475341E+01 a       837     0    56     1    12
  7.1916038403979474E+00 a       838     0    56     1    13
  7.1089533773998301E+00 a       839     0    56     1    14
 -1.8852142804801694E+01 a       840     0    56     1    15
 -8.2139365951130439E-01 a       841     0    57     1     1
  3.7781377448128222E+00 a       842     0    57     1     2
 -1.9923530293743749E+01 a       843     0    57     1     3
  2.8985980143094885E+00 a       844     0    57     1     4
  1.3040883948529984E+01 a       845     0    57     1     5
  2.5107077265569697E+00 a       846     0    57     1     6
 -4.0387528650141133E+00 a       847     0    57     1     7
 -8.9820203413155220E+00 a       848     0    57     1     8
  6.4077770032243786E-01 a       849     0    57     1     9
 -4.5595436245448182E+00 a       850     0    57     1    10
 -5.0979591246954303E-01 a       851     0    57     1    11
  8.0061674118190371E+00 a       852     0    57     1    12
 -6.1874864252412323E+00 a       853     0    57     1    13
  7.6019273953186506E+00 a       854     0    57     1    14
 -1.4811104382107947E+01 a       855     0    57     1    15
 -1.6756427078733068E+01 a       856     0    58     1     1
  4.7783636890841441E+00 a       857     0    58     1     2
  2.4882065986035048E+01 a       858     0    58     1     3
  1.6548602339820860E+01 a       859     0    58     1     4
  1.2221139644879390E+01 a       860     0    58     1     5
  1.0706389871033695E+01 a       861     0    58     1     6
  1.1666971796487349E+01 a       862     0    58     1     7
  3.5476222905355761E+00 a       863     0    58     1     8
 -2.6175462096516842E+01 a       864     0    58     1     9
  8.6986867684075797E+00 a       865     0    58     1    10
 -4.4950182277243734E+01 a       866     0    58     1    11
 -1.6634646090334644E+00 a       867     0    58     1    12
  1.2373314939019009E+01 a       868     0    58     1    13
 -5.4951432581778512E+00 a       869     0    58     1    14
  2.0588787848306627E+01 a       870     0    58     1    15
  5.7500667357822239E+00 a       871     0    59     1     1
 -1.7136844260293751E+00 a       872     0    59     1     2
  1.7125145830496489E+01 a       873     0    59     1     3
 -5.5941936956791762E+00 a       874     0    59     1     4
  5.0510513678489346E+00 a       875     0    59     1     5
 -2.7082112321276872E+00 a       876     0    59     1     6
 -2.0333418173596405E+00 a       877     0    59     1     7
 -1.7373647812835629E+00 a       878     0    59     1     8
  5.3474726761930969E+00 a       879     0    59     1     9
  3.2748746819393850E+00 a       880     0    59     1    10
 -7.4135590736690462E+00 a       881     0    59     1    11
 -1.0890667773815592E+00 a       882     0    59     1    12
 -3.1802201307005080E+00 a       883     0    59     1    13
  3.8343452432782734E+00 a       884     0    59     1    14
  1.8155098597847740E+01 a       885     0    59     1    15
 -5.1715042472878778E+00 a       886     0    60     1     1
 -1.0324870069789764E+01 a       887     0    60     1     2
  8.0092949227382313E+00 a       888     0    60     1     3
 -1.1975462546611396E+01 a       889     0    60     1     4
 -7.6239699491085178E+00 a       890     0    60     1     5
 -5.8159516344818485E+00 a       891     0    60     1     6
  1.3286394305107745E+01 a       892     0    60     1     7
  1.9865812792775839E-01 a       893     0    60     1     8
  3.4344442388496044E-01 a       894     0    60     1     9
  6.7699391918166771E+00 a       895     0    60     1    10
  8.7887818644721563E+00 a       896     0    60     1    11
  7.9111802072197490E-01 a       897     0    60     1    12
 -1.6331473064599855E+01 a       898     0    60     1    13
 -4.2444781400851337E+00 a       899     0    60     1    14
  2.4759648879706020E+01 a       900     0    60     1    15
  2.1522410842979012E+00 a       901     0    61     1     1
 -9.6427832566883396E+00 a       902     0    61     1     2
  1.3703100196528476E+01 a       903     0    61     1     3
  2.3950821757789060E+00 a       904     0    61     1     4
 -2.4619990805926019E+01 a       905     0    61     1     5
 -2.6413211868245938E+01 a       906     0    61     1     6
 -1.0366148873558368E+01 a       907     0    61     1     7
  1.5996910176363372E+01 a       908     0    61     1     8
  8.6628492569466395E+00 a       909     0    61     1     9
  1.4317541685745105E+00 a       910     0    61     1    10
 -2.6825893874392976E+00 a       911     0    61     1    11
  2.2041155334319091E+00 a       912     0    61     1    12
  1.4876413426318065E+01 a       913     0    61     1    13
  1.4788565341286683E+01 a       914     0    61     1    14
  2.6389506535003861E+01 a       915     0    61     1    15
  2.3469985242602956E+01 a       916     0    62     1     1
 -2.8135614290158020E+00 a       917     0    62     1     2
  1.2121200400740220E+01 a       918     0    62     1     3
 -1.0510603693166685E+01 a       919     0    62     1     4
 -8.7682165106060932E+00 a       920     0    62     1     5
 -5.2608728565028011E+00 a       921     0    62     1     6
 -1.4376669528359658E+00 a       922     0    62     1     7
 -2.9636341733156604E+00 a       923     0    62     1     8
  1.1945806820024524E+01 a       924     0    62     1     9
  5.6891461185804619E+00 a       925     0    62     1    10
 -1.8676016098848674E+01 a       926     0    62     1    11
  9.4951308752479004E+00 a       927     0    62     1    12
  2.1218193951992044E+00 a       928     0    62     1    13
  1.6695530934641450E+01 a       929     0    62     1    14
 -2.4322037310568685E+01 a       930     0    62     1    15
 -5.9475750968630807E+00 a       931     0    63     1     1
 -1.0604927227244930E+01 a       932     0    63     1     2
 -7.1689813879869027E+00 a       933     0    63     1     3
  1.8443759256902530E+00 a       934     0    63     1     4
 -4.8734743517318690E-01 a       935     0    63     1     5
  9.6198736723910958E+00 a       936     0    63     1     6
  2.2641393309532125E+00 a       937     0    63     1     7
  2.1113911857087658E+01 a       938     0    63     1     8
  7.1858988298891262E+00 a       939     0    63     1     9
  2.2927628561853171E+00 a       940     0    63     1    10
 -5.7412020498488952E+00 a       941     0    63     1    11
  7.3506202112993231E+00 a       942     0    63     1    12
 -9.6517189295727448E+00 a       943     0    63     1    13
  8.2493589740775928E+00 a       944     0    63     1    14
  1.9564009543394707E+00 a       945     0    63     1    15
  1.9658598460870030E-01 a       946     0    64     1     1
 -3.2906911500462224E+00 a       947     0    64     1     2
 -2.3197335213712897E+01 a       948     0    64     1     3
 -7.4353058742050768E+00 a       949     0    64     1     4
  4.2473823696886512E+01 a       950     0    64     1     5
 -2.3409141698358704E+00 a       951     0    64     1     6
  3.2007070403711095E+00 a       952     0    64     1     7
 -1.9714747076449694E+01 a       953     0    64     1     8
 -8.2516722630514980E+00 a       954     0    64     1     9
  4.8070993350551863E+00 a       955     0    64     1    10
  1.5899730055957484E+01 a       956     0    64     1    11
 -2.5198629519049569E+00 a       957     0    64     1    12
 -2.4889312963711072E+00 a       958     0    64     1    13
  5.1997436742499670E-01 a       959     0    64     1    14
 -2.5231685964396964E+00 a       960     0    64     1    15
 -3.3352744072147003E+00 a       961     0    65     1     1
  1.5056786914681424E+00 a       962     0    65     1     2
 -2.9143107200395985E+01 a       963     0    65     1     3
 -1.9292961857992714E+00 a       964     0    65     1     4
  4.6972082690003177E+01 a       965     0    65     1     5
 -7.1385301805851764E-01 a       966     0    65     1     6
 -6.7490350177237945E-01 a       967     0    65     1     7
 -5.1446099695333389E+00 a       968     0    65     1     8
 -1.1752368055768921E+01 a       969     0    65     1     9
  3.1863334319234333E+00 a       970     0    65     1    10
  1.5515409955043664E+01 a       971     0    65     1    11
  1.3813207402781731E+00 a       972     0    65     1    12
  2.7152163696910172E+00 a       973     0    65     1    13
 -9.3583770771056063E-01 a       974     0    65     1    14
 -2.4742623608120664E+00 a       975     0    65     1    15
 -7.7034363697872763E+00 a       976     0    66     1     1
  4.0341588155895350E-02 a       977     0    66     1     2
 -2.8053874036357289E+01 a       978     0    66     1     3
 -1.5475762925519133E+01 a       979     0    66     1     4
  3.2832938616424073E+01 a       980     0    66     1     5
 -3.9948601281613905E-01 a       981     0    66     1     6
  1.2330394123811739E+00 a       982     0    66     1     7
 -3.4270726851717987E+00 a       983     0    66     1     8
  9.1391265244262989E+00 a       984     0    66     1     9
 -5.9433854777580306E+00 a       985     0    66     1    10
  2.2220781687904893E+01 a       986     0    66     1    11
  1.4063764211335011E+01 a       987     0    66     1    12
  9.6550404752087147E+00 a       988     0    66     1    13
  6.9656746093332877E+00 a       989     0    66     1    14
 -1.0359987125061319E-01 a       990     0    66     1    15
 -3.0135076120349180E+00 a       991     0    67     1     1
 -2.6000226242295907E+00 a       992     0    67     1     2
 -1.7150775809963026E+01 a       993     0    67     1     3
 -7.5063780350866445E+00 a       994     0    67     1     4
  2.2968917271449534E+01 a       995     0    67     1     5
 -3.1178127523085233E+00 a       996     0    67     1     6
  1.3550350528870720E+00 a       997     0    67     1     7
  9.9444234220072703E-01 a       998     0    67     1     8
 -1.7727709367657998E+00 a       999     0    67     1     9
  3.5285506300010292E+00 a      1000     0    67     1    10
  2.0900250189664337E+01 a      1001     0    67     1    11
  5.2696985918388837E+00 a      1002     0    67     1    12
  5.5552965492998050E+00 a      1003     0    67     1    13
  1.6991347912132202E+00 a      1004     0    67     1    14
 -3.1558961897455338E+00 a      1005     0    67     1    15
 -8.8155327747631418E+00 a      1006     0    68     1     1
  6.3206853891692791E+00 a      1007     0    68     1     2
 -2.4734599153001341E+01 a      1008     0    68     1     3
 -8.3909688122355561E+00 a      1009     0    68     1     4
  8.0369768343249710E+00 a      1010     0    68     1     5
 -9.7571376311887514E-01 a      1011     0    68     1     6
 -3.3688660906325456E+00 a      1012     0    68     1     7
  2.4803495881846058E+00 a      1013     0    68     1     8
  1.6996811452713786E+01 a      1014     0    68     1     9
 -3.7644452041211771E+00 a      1015     0    68     1    10
  3.1122060408025877E+01 a      1016     0    68     1    11
  2.0739588067819898E+01 a      1017     0    68     1    12
  1.5619100307142578E+01 a      1018     0    68     1    13
  5.2661476769842750E+00 a      1019     0    68     1    14
 -4.6127697343319802E+00 a      1020     0    68     1    15
 -5.5242472033564010E+00 a      1021     0    69     1     1
  1.4439358868246297E+00 a      1022     0    69     1     2
 -2.3062876405613295E+01 a      1023     0    69     1     3
 -2.4155319193285387E+00 a      1024     0    69     1     4
  7.1229316620430998E+00 a      1025     0    69     1     5
 -2.6564581567115684E+00 a      1026     0    69     1     6
 -7.1828279622831104E-01 a      1027     0    69     1     7
 -9.4961841000581728E+00 a      1028     0    69     1     8
  9.7206735360004561E+00 a      1029     0    69     1     9
  1.9095090022038674E+00 a      1030     0    69     1    10
  1.2136134358105084E+01 a      1031     0    69     1    11
  1.4251597675114429E+01 a      1032     0    69     1    12
  2.3682512386327108E+01 a      1033     0    69     1    13
  4.8989109863066886E+00 a      1034     0    69     1    14
 -3.8837778131948424E+00 a      1035     0    69     1    15
  1.7407841622126995E+01 a      1036     0    70     1     1
  5.0486661410217595E+00 a      1037     0    70     1     2
 -1.2436280385579440E+01 a      1038     0    70     1     3
 -1.2642910850248745E+01 a      1039     0    70     1     4
 -1.7796285797982292E+00 a      1040     0    70     1     5
  2.7254444453807590E+01 a      1041     0    70     1     6
  7.4038909816829594E+00 a      1042     0    70     1     7
  5.3886125555425348E+00 a      1043     0    70     1     8
  5.0980088877883718E+00 a      1044     0    70     1     9
 -6.5419001054577004E+00 a      1045     0    70     1    10
  7.1175243866007483E+00 a      1046     0    70     1    11
 -1.7663497314058152E+00 a      1047     0    70     1    12
  1.1012287003832958E+01 a      1048     0    70     1    13
  4.4257092623495273E+00 a      1049     0    70     1    14
 -5.9078449453062207E+00 a      1050     0    70     1    15
 -1.9898349232106762E+00 a      1051     0    71     1     1
 -1.0841759129666592E+01 a      1052     0    71     1     2
 -3.1756574857016786E+00 a      1053     0    71     1     3
 -1.3276140249870247E+01 a      1054     0    71     1     4
 -3.4618203925227881E+01 a      1055     0    71     1     5
 -1.1087235648184400E+01 a      1056     0    71     1     6
 -4.0572159941727728E+00 a      1057     0    71     1     7
 -1.6280900204059947E+01 a      1058     0    71     1     8
  1.9323694194093768E+01 a      1059     0    71     1     9
  6.6769966251200596E+00 a      1060     0    71     1    10
  2.0474811615598302E+01 a      1061     0    71     1    11
 -9.5536308583340670E+00 a      1062     0    71     1    12
  1.3644015617018351E+01 a      1063     0    71     1    13
 -2.4940538877535614E+00 a      1064     0    71     1    14
 -1.7432468569861150E+01 a      1065     0    71     1    15
 -1.2523369706524406E+01 a      1066     0    72     1     1
  6.5969369341391824E+00 a      1067     0    72     1     2
 -8.7435612755667176E+00 a      1068     0    72     1     3
 -1.3355675987867903E+01 a      1069     0    72     1     4
 -2.7731367184039772E+01 a      1070     0    72     1     5
  4.4058791908409640E+00 a      1071     0    72     1     6
 -1.0911506594932783E+01 a      1072     0    72     1     7
 -1.4295657251915744E+01 a      1073     0    72     1     8
  1.3404686898484632E+01 a      1074     0    72     1     9
  1.6311437910455100E+00 a      1075     0    72     1    10
  1.1961396148087529E+00 a      1076     0    72     1    11
 -1.1910839682788845E+01 a      1077     0    72     1    12
  1.9817023948669245E+01 a      1078     0    72     1    13
 -2.4184750017090786E+00 a      1079     0    72     1    14
 -3.1510760512230305E+00 a      1080     0    72     1    15
  2.3642379481622084E+00 a      1081     0    73     1     1
  7.0698453938942922E+00 a      1082     0    73     1     2
 -1.0071074043188897E+01 a      1083     0    73     1     3
 -1.8411360680244030E+01 a      1084     0    73     1     4
 -6.4383542243108849E+00 a      1085     0    73     1     5
 -4.8977395499133498E-02 a      1086     0    73     1     6
 -1.8801072482405356E+01 a      1087     0    73     1     7
 -1.7085057744971891E+01 a      1088     0    73     1     8
  2.5134406869739092E+01 a      1089     0    73     1     9
 -1.0589939726732658E+00 a      1090     0    73     1    10
  3.4347764263772942E+00 a      1091     0    73     1    11
 -6.8125171840001721E+00 a      1092     0    73     1    12
 -7.2648413487454855E-01 a      1093     0    73     1    13
  2.7064342879147723E+00 a      1094     0    73     1    14
 -7.0826675665448153E+00 a      1095     0    73     1    15
  5.8369387650628406E+00 a      1096     0    74     1     1
  1.5640940010358573E+00 a      1097     0    74     1     2
 -6.3829097193813817E+00 a      1098     0    74     1     3
 -1.4793024024488743E+01 a      1099     0    74     1     4
 -1.9311796235041182E+01 a      1100     0    74     1     5
  1.6081477865271382E-01 a      1101     0    74     1     6
  5.3954468634936568E+00 a      1102     0    74     1     7
 -1.7663792065082323E+01 a      1103     0    74     1     8
 -2.4287336134994288E+00 a      1104     0    74     1     9
 -8.2424921984009352E+00 a      1105     0    74     1    10
 -9.7242641039144340E-01 a      1106     0    74     1    11
 -1.2842289122822583E+01 a      1107     0    74     1    12
  1.4208805617271139E+01 a      1108     0    74     1    13
  6.7716175533338507E+00 a      1109     0    74     1    14
 -1.0454674137437426E+01 a      1110     0    74     1    15
  1.9564008978374039E+00 a      1111     0    75     1     1
  1.2534681861450590E+01 a      1112     0    75     1     2
  1.0185033648506501E+01 a      1113     0    75     1     3
 -7.3699406607384086E+00 a      1114     0    75     1     4
 -1.9371649609201427E+01 a      1115     0    75     1     5
  4.0785084735677950E+00 a      1116     0    75     1     6
 -9.1117401581997743E+00 a      1117     0    75     1     7
 -2.2729948287205055E+01 a      1118     0    75     1     8
 -2.0337463282889514E+00 a      1119     0    75     1     9
  1.5212650740168812E+00 a      1120     0    75     1    10
 -4.9751371305276448E+00 a      1121     0    75     1    11
 -1.4179643291621478E+01 a      1122     0    75     1    12
 -6.8819733660687312E+00 a      1123     0    75     1    13
  3.1216939490521129E+00 a      1124     0    75     1    14
 -1.0248999704482841E+01 a      1125     0    75     1    15
 -2.2162860903862578E+00 a      1126     0    76     1     1
  1.0312361596798372E+00 a      1127     0    76     1     2
  1.7747601139765742E+01 a      1128     0    76     1     3
  8.6021461836780393E+00 a      1129     0    76     1     4
 -2.0156213668150869E+01 a      1130     0    76     1     5
  1.0701072131503842E+00 a      1131     0    76     1     6
 -7.4139763729072539E-01 a      1132     0    76     1     7
  1.1811596542979939E+00 a      1133     0    76     1     8
 -4.8929503679120829E+00 a      1134     0    76     1     9
  4.2199222221845223E-01 a      1135     0    76     1    10
 -1.7676628078876508E+01 a      1136     0    76     1    11
 -1.5128122816785270E+00 a      1137     0    76     1    12
 -1.9824535126079268E+00 a      1138     0    76     1    13
 -2.0204331663161921E+00 a      1139     0    76     1    14
  2.9360271138261740E+00 a      1140     0    76     1    15
  6.4137866332143325E+00 a      1141     0    77     1     1
 -1.0833525899040577E+00 a      1142     0    77     1     2
 -1.5353454460349910E+01 a      1143     0    77     1     3
 -3.8618884472896697E+00 a      1144     0    77     1     4
  4.5461739347151493E+01 a      1145     0    77     1     5
 -2.3057766223631049E+00 a      1146     0    77     1     6
  1.2967627588696065E+00 a      1147     0    77     1     7
 -7.5829279589669714E+00 a      1148     0    77     1     8
 -1.0982553247965992E+01 a      1149     0    77     1     9
 -2.0309318760935602E+00 a      1150     0    77     1    10
  5.5094567636604221E+00 a      1151     0    77     1    11
 -3.1576349823376599E+00 a      1152     0    77     1    12
 -2.9787590026588777E+00 a      1153     0    77     1    13
  7.5767423779184695E-01 a      1154     0    77     1    14
 -1.0299818002725120E+01 a      1155     0    77     1    15
  1.1844677516145730E+00 a      1156     0    78     1     1
  3.8556859117644399E-01 a      1157     0    78     1     2
 -1.9742922594142268E+01 a      1158     0    78     1     3
 -4.6744059186695033E+00 a      1159     0    78     1     4
  3.7411709445499518E+01 a      1160     0    78     1     5
  1.7911873871546193E+00 a      1161     0    78     1     6
 -1.9344883413785960E-01 a      1162     0    78     1     7
 -7.9854027098791605E+00 a      1163     0    78     1     8
 -3.4602693238993676E+00 a      1164     0    78     1     9
 -2.6619689276906002E+00 a      1165     0    78     1    10
  8.3507673297570584E+00 a      1166     0    78     1    11
 -4.7260069852647674E-01 a      1167     0    78     1    12
  9.6084314689863293E-01 a      1168     0    78     1    13
  1.6366380544083901E+00 a      1169     0    78     1    14
 -4.9062658725476940E+00 a      1170     0    78     1    15
  3.1471876863229520E-01 a      1171     0    79     1     1
 -4.1785597752724563E-01 a      1172     0    79     1     2
 -1.8266695127276094E+01 a      1173     0    79     1     3
 -6.4523104341317437E+00 a      1174     0    79     1     4
  3.1250347098448486E+01 a      1175     0    79     1     5
 -2.6555944534456182E+00 a      1176     0    79     1     6
 -1.8912022564515607E-01 a      1177     0    79     1     7
 -3.3677380611899101E+00 a      1178     0    79     1     8
  4.2182075277765452E-01 a      1179     0    79     1     9
 -1.9688006626721704E+00 a      1180     0    79     1    10
  1.0600651582777697E+01 a      1181     0    79     1    11
  1.0608284314665108E+00 a      1182     0    79     1    12
  2.6833079278469372E+00 a      1183     0    79     1    13
  2.0147518052865543E+00 a      1184     0    79     1    14
 -3.4057762758798895E+00 a      1185     0    79     1    15
 -2.4398123670085927E+00 a      1186     0    80     1     1
  3.2905987873724346E-01 a      1187     0    80     1     2
 -1.8636188872027098E+01 a      1188     0    80     1     3
 -2.3954161217914791E+00 a      1189     0    80     1     4
  2.3086047667476830E+01 a      1190     0    80     1     5
  6.1188076475274178E-01 a      1191     0    80     1     6
 -8.6780772362913383E-01 a      1192     0    80     1     7
 -3.3514159070989907E-01 a      1193     0    80     1     8
  8.4628194726019821E+00 a      1194     0    80     1     9
 -3.0409795158715354E+00 a      1195     0    80     1    10
  1.0588009144928781E+01 a      1196     0    80     1    11
  5.7423723851885677E+00 a      1197     0    80     1    12
  4.2954875475338845E+00 a      1198     0    80     1    13
  8.3193124610443059E-01 a      1199     0    80     1    14
 -3.5602880377448658E+00 a      1200     0    80     1    15
 -5.9312388943335854E-02 a      1201     0    81     1     1
  1.4474665057507766E-01 a      1202     0    81     1     2
 -1.0319858970526626E+01 a      1203     0    81     1     3
 -3.2209430163131563E+00 a      1204     0    81     1     4
  1.2068832630343696E+01 a      1205     0    81     1     5
 -4.9270710326237593E-01 a      1206     0    81     1     6
  2.2737279131666205E-01 a      1207     0    81     1     7
 -2.6136965171650601E+00 a      1208     0    81     1     8
  3.2386949467867105E+00 a      1209     0    81     1     9
  2.0559213972620774E-01 a      1210     0    81     1    10
  5.7341896672073709E+00 a      1211     0    81     1    11
  1.9782296783838913E+00 a      1212     0    81     1    12
  5.8210768932884847E+00 a      1213     0    81     1    13
 -3.2794868100521396E-01 a      1214     0    81     1    14
  1.5439060151768773E+00 a      1215     0    81     1    15
 -1.8732051250955606E+00 a      1216     0    82     1     1
 -2.9487532144154271E-01 a      1217     0    82     1     2
 -8.0581035440851085E+00 a      1218     0    82     1     3
  1.2588315541385122E+00 a      1219     0    82     1     4
  3.9204209966362249E+01 a      1220     0    82     1     5
 -9.4671820231293757E-01 a      1221     0    82     1     6
  3.3902057180767393E+00 a      1222     0    82     1     7
  7.9025933593194833E-02 a      1223     0    82     1     8
 -1.6869594191448115E+01 a      1224     0    82     1     9
  2.5301688354916116E+00 a      1225     0    82     1    10
 -4.0590602247252692E+00 a      1226     0    82     1    11
  3.6890437745985922E+00 a      1227     0    82     1    12
 -5.1794121104824669E+00 a      1228     0    82     1    13
  5.8781321475381665E+00 a      1229     0    82     1    14
 -7.6494953350238077E+00 a      1230     0    82     1    15
  1.5506378106991455E+01 a      1231     0    83     1     1
 -2.1831240588502081E+00 a      1232     0    83     1     2
  3.7882372268883380E+00 a      1233     0    83     1     3
 -4.7573066927282239E+00 a      1234     0    83     1     4
  5.1663712757190218E+01 a      1235     0    83     1     5
 -7.7282729195950228E+00 a      1236     0    83     1     6
  2.8355140608016129E+00 a      1237     0    83     1     7
 -1.4813068909318510E+01 a      1238     0    83     1     8
 -2.6103860449811464E+01 a      1239     0    83     1     9
  3.3790318779510091E+00 a      1240     0    83     1    10
 -1.6114404010951947E+01 a      1241     0    83     1    11
 -6.7795888125763613E+00 a      1242     0    83     1    12
 -5.2511537428801613E+00 a      1243     0    83     1    13
  1.1737937427950527E+00 a      1244     0    83     1    14
  1.4581071660968965E+01 a      1245     0    83     1    15
 -6.1755557823679510E+00 a      1246     0    84     1     1
 -5.3799483488866384E-01 a      1247     0    84     1     2
 -2.4989543172934617E+01 a      1248     0    84     1     3
 -6.9435729833353506E+00 a      1249     0    84     1     4
  3.9841983949795008E+01 a      1250     0    84     1     5
  6.3366902091275081E+00 a      1251     0    84     1     6
 -1.5151813008752009E+00 a      1252     0    84     1     7
 -1.0840486981914813E+01 a      1253     0    84     1     8
  5.8542540353399342E-01 a      1254     0    84     1     9
 -4.2592716718821375E+00 a      1255     0    84     1    10
  7.9810360015921411E+00 a      1256     0    84     1    11
  2.6922380080125987E+00 a      1257     0    84     1    12
  1.1656160651765028E+01 a      1258     0    84     1    13
  2.2820726860093332E+00 a      1259     0    84     1    14
  1.2723917692976586E+01 a      1260     0    84     1    15
  2.2831196400014560E+00 a      1261     0    85     1     1
 -1.0791513982017879E-01 a      1262     0    85     1     2
 -2.1428392162558914E+01 a      1263     0    85     1     3
 -8.8992868755327521E+00 a      1264     0    85     1     4
  5.0714809471768469E+01 a      1265     0    85     1     5
 -4.3727209535993836E+00 a      1266     0    85     1     6
 -3.6732856631833481E+00 a      1267     0    85     1     7
 -7.6743494755288717E+00 a      1268     0    85     1     8
  8.4973139739323400E-01 a      1269     0    85     1     9
 -2.8639708930095764E-01 a      1270     0    85     1    10
  1.1799156392917665E+01 a      1271     0    85     1    11
  2.4404758617902280E-02 a      1272     0    85     1    12
  6.2458108341829108E+00 a      1273     0    85     1    13
  3.3179750415187148E+00 a      1274     0    85     1    14
  1.1541833409763955E+00 a      1275     0    85     1    15
 -1.3256937611000819E+01 a      1276     0    86     1     1
  8.1751177297388877E-01 a      1277     0    86     1     2
 -3.2000872956027514E+01 a      1278     0    86     1     3
 -3.1977791103104107E+00 a      1279     0    86     1     4
  4.6216837049366397E+01 a      1280     0    86     1     5
 -9.6780694423573635E-02 a      1281     0    86     1     6
  3.2273047857043363E-01 a      1282     0    86     1     7
  1.0190764394283038E+01 a      1283     0    86     1     8
  1.7692779177914467E+01 a      1284     0    86     1     9
 -6.2879588883973607E+00 a      1285     0    86     1    10
  2.5709854890061589E+01 a      1286     0    86     1    11
  9.3258016634182184E+00 a      1287     0    86     1    12
  8.1934666675244578E+00 a      1288     0    86     1    13
 -2.7225100209243807E+00 a      1289     0    86     1    14
 -3.5833285998276359E+00 a      1290     0    86     1    15
 -4.5279961551119996E+00 a      1291     0    87     1     1
 -1.5564225669161100E+00 a      1292     0    87     1     2
 -3.4290261637719077E+01 a      1293     0    87     1     3
 -1.1203775684234948E+01 a      1294     0    87     1     4
  3.7627599262924143E+01 a      1295     0    87     1     5
 -1.0319220532343203E+00 a      1296     0    87     1     6
  2.0429698130045613E+00 a      1297     0    87     1     7
 -2.5584468407751917E+00 a      1298     0    87     1     8
  1.4883015819761649E+01 a      1299     0    87     1     9
  1.0410009224926899E+00 a      1300     0    87     1    10
  2.5335404116635939E+01 a      1301     0    87     1    11
  9.3719290763866692E+00 a      1302     0    87     1    12
  1.7290557103715166E+01 a      1303     0    87     1    13
 -2.1518621989988636E+00 a      1304     0    87     1    14
 -4.9265761533038601E+00 a      1305     0    87     1    15
 -6.6596738768569669E-02 a      1306     0    88     1     1
 -7.3152269347714141E-02 a      1307     0    88     1     2
 -3.3375740422801886E-01 a      1308     0    88     1     3
  1.4256918281029429E-01 a      1309     0    88     1     4
  4.4913126299361805E-01 a      1310     0    88     1     5
  9.1984696769391010E-03 a      1311     0    88     1     6
 -4.5391633443619364E-02 a      1312     0    88     1     7
 -3.0456234938355337E-01 a      1313     0    88     1     8
  1.2467317360876901E-01 a      1314     0    88     1     9
 -1.1601132317738409E-01 a      1315     0    88     1    10
  1.7421726355929226E-01 a      1316     0    88     1    11
  7.7163078010199393E-02 a      1317     0    88     1    12
  2.9005064807905395E-01 a      1318     0    88     1    13
 -1.4072712319089201E-01 a      1319     0    88     1    14
  1.5889831797205806E-01 a      1320     0    88     1    15
 -1.1272634251897344E-01 a      1321     0    89     1     1
 -7.6745260367359902E-02 a      1322     0    89     1     2
 -6.0484728253215128E+00 a      1323     0    89     1     3
 -1.7009293894827211E+00 a      1324     0    89     1     4
  8.3924508134177707E+00 a      1325     0    89     1     5
  3.8631466606049769E-02 a      1326     0    89     1     6
  3.1400760746372644E-02 a      1327     0    89     1     7
 -9.7619012203851663E-01 a      1328     0    89     1     8
  3.9202358210874788E-01 a      1329     0    89     1     9
 -1.6724942456551026E-01 a      1330     0    89     1    10
  4.6612181601469578E+00 a      1331     0    89     1    11
  3.0510696648074731E-01 a      1332     0    89     1    12
 -5.3077978630986056E-01 a      1333     0    89     1    13
  1.3599353368557598E-01 a      1334     0    89     1    14
 -3.3948800878454337E+00 a      1335     0    89     1    15
 -4.0580383451217689E-01 a      1336     0    90     1     1
  1.1393390384765180E-01 a      1337     0    90     1     2
 -6.2127065936061294E+00 a      1338     0    90     1     3
 -1.8817887605968018E+00 a      1339     0    90     1     4
  8.5939350057824750E+00 a      1340     0    90     1     5
 -3.7402258401156428E-02 a      1341     0    90     1     6
  3.2155680839620011E-02 a      1342     0    90     1     7
 -9.3119930550735663E-01 a      1343     0    90     1     8
  5.6688088692142535E-01 a      1344     0    90     1     9
 -1.6032828912299826E-01 a      1345     0    90     1    10
  4.7878400855278560E+00 a      1346     0    90     1    11
  5.1239049439698936E-01 a      1347     0    90     1    12
  1.8908125318533975E-01 a      1348     0    90     1    13
  1.6483822377627849E-01 a      1349     0    90     1    14
 -2.5077984086087857E+00 a      1350     0    90     1    15
 -5.2676702731882308E-01 a      1351     0    91     1     1
  1.0326602872796034E-01 a      1352     0    91     1     2
 -4.0466847179921057E+00 a      1353     0    91     1     3
 -1.1995864107010268E+00 a      1354     0    91     1     4
  5.4246077545267264E+00 a      1355     0    91     1     5
  1.3767228020850164E-01 a      1356     0    91     1     6
 -7.8359116302769150E-02 a      1357     0    91     1     7
 -2.9811524402237521E-01 a      1358     0    91     1     8
  5.1594303874763281E-01 a      1359     0    91     1     9
 -8.4028985720832491E-02 a      1360     0    91     1    10
  3.2639900158651516E+00 a      1361     0    91     1    11
  3.5314489522230474E-01 a      1362     0    91     1    12
 -2.1925286552596301E-02 a      1363     0    91     1    13
 -5.8279669475995853E-02 a      1364     0    91     1    14
 -1.8795304579541687E+00 a      1365     0    91     1    15
 -4.8553222787231304E-01 a      1366     0    92     1     1
  1.6358452127260451E-01 a      1367     0    92     1     2
 -4.4425490606853568E+00 a      1368     0    92     1     3
 -1.3015670433289184E+00 a      1369     0    92     1     4
  5.3333551936939552E+00 a      1370     0    92     1     5
 -1.6002878747751004E-01 a      1371     0    92     1     6
 -1.7476644906347646E-01 a      1372     0    92     1     7
 -5.5118625955763878E-01 a      1373     0    92     1     8
  5.5388687510273404E-01 a      1374     0    92     1     9
 -2.5047055664164319E-01 a      1375     0    92     1    10
  3.6368181366657750E+00 a      1376     0    92     1    11
  6.5758252487359359E-01 a      1377     0    92     1    12
  3.1305509148081079E-01 a      1378     0    92     1    13
  9.7808627993106190E-02 a      1379     0    92     1    14
 -1.9636949066794707E+00 a      1380     0    92     1    15
 -1.6945552024180269E-01 a      1381     0    93     1     1
  1.2331105693553567E-01 a      1382     0    93     1     2
 -1.2459160849665378E+00 a      1383     0    93     1     3
 -3.7487232616266475E-01 a      1384     0    93     1     4
  1.0153546718544741E+00 a      1385     0    93     1     5
 -9.3535084578450535E-03 a      1386     0    93     1     6
 -2.0011390730123837E-02 a      1387     0    93     1     7
 -3.8558570427577654E-01 a      1388     0    93     1     8
  3.1055243098504254E-01 a      1389     0    93     1     9
 -6.1403593122365735E-02 a      1390     0    93     1    10
  7.7075378666333449E-01 a      1391     0    93     1    11
  4.3730091875826799E-01 a      1392     0    93     1    12
  5.3795713445299997E-01 a      1393     0    93     1    13
  1.8059242658931982E-01 a      1394     0    93     1    14
 -7.1466021874373079E-02 a      1395     0    93     1    15
 -1.6353317036633901E+00 a      1396     0    94     1     1
 -1.4938892626104991E-01 a      1397     0    94     1     2
  7.6103189121667247E-01 a      1398     0    94     1     3
 -1.2342229650768517E+00 a      1399     0    94     1     4
  1.1783448969669774E+00 a      1400     0    94     1     5
  1.7879980273058302E+00 a      1401     0    94     1     6
  1.2500669324660267E+00 a      1402     0    94     1     7
  5.7661897210162119E+00 a      1403     0    94     1     8
 -1.1975115169490524E+00 a      1404     0    94     1     9
  1.6604285441828412E+00 a      1405     0    94     1    10
  3.8217195947647640E+00 a      1406     0    94     1    11
  6.6131361234585251E+00 a      1407     0    94     1    12
  6.8749852475891018E+00 a      1408     0    94     1    13
  4.5694620703360407E+00 a      1409     0    94     1    14
  2.3215104389813619E+00 a      1410     0    94     1    15
  1.9279415176478927E+00 a      1411     0    95     1     1
 -2.7283475712424504E-01 a      1412     0    95     1     2
  1.5128443187419734E+01 a      1413     0    95     1     3
  9.2831217512539832E-01 a      1414     0    95     1     4
 -1.9738029643624195E+01 a      1415     0    95     1     5
 -6.7560934812419904E-01 a      1416     0    95     1     6
 -1.0676841758109042E-01 a      1417     0    95     1     7
  1.9828791726928990E-01 a      1418     0    95     1     8
  2.6687112687297976E+00 a      1419     0    95     1     9
  2.6351277608791004E+00 a      1420     0    95     1    10
 -7.3196295449513338E+00 a      1421     0    95     1    11
  2.7552521745907335E+00 a      1422     0    95     1    12
  7.2362265616578492E-01 a      1423     0    95     1    13
  8.7751997116517710E-01 a      1424     0    95     1    14
  9.7136950748862869E+00 a      1425     0    95     1    15
 -4.6351538835539570E+00 a      1426     0    96     1     1
  4.1141400971561704E-01 a      1427     0    96     1     2
  1.5018771159411255E+01 a      1428     0    96     1     3
  6.1054849330819820E+00 a      1429     0    96     1     4
 -3.6706904670877464E+01 a      1430     0    96     1     5
  1.6591875461599059E+00 a      1431     0    96     1     6
 -1.2669072682045686E+00 a      1432     0    96     1     7
  2.2848667309151245E+00 a      1433     0    96     1     8
  3.8494978204004768E+00 a      1434     0    96     1     9
 -2.5443709040917123E-01 a      1435     0    96     1    10
 -1.5797356682693437E+01 a      1436     0    96     1    11
  1.7398289296450038E+00 a      1437     0    96     1    12
  1.0058228296379500E+01 a      1438     0    96     1    13
  2.2170608502952902E-01 a      1439     0    96     1    14
  1.8832428104086649E+01 a      1440     0    96     1    15
  2.6474336304264257E+00 a      1441     0    97     1     1
  3.0298615934806800E-01 a      1442     0    97     1     2
  1.8186021020010806E+01 a      1443     0    97     1     3
  3.2234519579259007E+00 a      1444     0    97     1     4
 -1.9747989803516916E+01 a      1445     0    97     1     5
 -6.6963324540076832E-03 a      1446     0    97     1     6
 -1.3157362903425371E+00 a      1447     0    97     1     7
 -7.9923809119709111E-01 a      1448     0    97     1     8
 -3.2648029541026796E-01 a      1449     0    97     1     9
  1.5783242890990539E+00 a      1450     0    97     1    10
 -1.4120987449825675E+01 a      1451     0    97     1    11
 -4.7892787359337402E-01 a      1452     0    97     1    12
  3.7205306576632263E-01 a      1453     0    97     1    13
 -8.9958939285347109E-02 a      1454     0    97     1    14
  9.2783248963123199E+00 a      1455     0    97     1    15
 -4.6029260906284825E-01 a      1456     0    98     1     1
 -8.4688613378813260E-01 a      1457     0    98     1     2
  2.4537044412467885E+01 a      1458     0    98     1     3
  4.7990422025626120E+00 a      1459     0    98     1     4
 -3.3253821992423482E+01 a      1460     0    98     1     5
 -2.5264024655886259E+00 a      1461     0    98     1     6
  1.5644193131823347E+00 a      1462     0    98     1     7
  5.8527171253574330E+00 a      1463     0    98     1     8
 -1.0526702202690312E+00 a      1464     0    98     1     9
  1.6511695591435848E-02 a      1465     0    98     1    10
 -1.8260289289530363E+01 a      1466     0    98     1    11
 -2.8019374847524743E+00 a      1467     0    98     1    12
 -1.3928819052634660E+00 a      1468     0    98     1    13
 -1.2020874043372372E+00 a      1469     0    98     1    14
  1.1857615366704824E+01 a      1470     0    98     1    15
  1.0155198939722283E+00 a      1471     0    99     1     1
 -2.5607288634349212E-01 a      1472     0    99     1     2
  1.1626258223021315E+01 a      1473     0    99     1     3
  2.1088228791203862E+00 a      1474     0    99     1     4
 -1.5086975906773890E+01 a      1475     0    99     1     5
 -3.5771983759142517E-01 a      1476     0    99     1     6
  7.1345934408767364E-01 a      1477     0    99     1     7
  1.8826859728330445E+00 a      1478     0    99     1     8
  1.8203577175403867E+00 a      1479     0    99     1     9
  2.1981943345635413E-01 a      1480     0    99     1    10
 -8.7492630034977985E+00 a      1481     0    99     1    11
 -9.6369067133081054E-01 a      1482     0    99     1    12
 -3.3830907537289101E+00 a      1483     0    99     1    13
 -1.6717087915746081E+00 a      1484     0    99     1    14
  2.5826864792005511E+00 a      1485     0    99     1    15
  3.9503408844543397E+00 a      1486     0   100     1     1
 -3.5016500611284314E+00 a      1487     0   100     1     2
  1.4201833069896708E+00 a      1488     0   100     1     3
  2.2123928189966771E+00 a      1489     0   100     1     4
 -1.0353476791749829E+00 a      1490     0   100     1     5
  7.0442163921377432E+00 a      1491     0   100     1     6
  1.1533991188050816E+01 a      1492     0   100     1     7
  2.7938087581695732E+00 a      1493     0   100     1     8
 -7.0360666603071431E+00 a      1494     0   100     1     9
 -9.6354051715861679E+00 a      1495     0   100     1    10
  9.0077897809553651E+00 a      1496     0   100     1    11
 -6.1017162239266709E-01 a      1497     0   100     1    12
 -4.5404508898059381E+00 a      1498     0   100     1    13
 -4.0812347266071924E+00 a      1499     0   100     1    14
 -6.2715950868565917E+00 a      1500     0   100     1    15
 -8.3159253992990748E-02 a      1501     0   101     1     1
  1.9239698025974494E+00 a      1502     0   101     1     2
  4.6201401800888346E+00 a      1503     0   101     1     3
  3.0405183804545661E+00 a      1504     0   101     1     4
  4.0209570346330041E+00 a      1505     0   101     1     5
  7.2889114019367183E+00 a      1506     0   101     1     6
  4.8739973110739605E+00 a      1507     0   101     1     7
 -1.1745273786648085E+00 a      1508     0   101     1     8
 -4.0253721036721268E+00 a      1509     0   101     1     9
 -9.5902546745520763E+00 a      1510     0   101     1    10
  1.2654903741330858E+00 a      1511     0   101     1    11
 -1.2821922196100742E+01 a      1512     0   101     1    12
 -3.0437403804955510E-01 a      1513     0   101     1    13
 -4.8521923142225709E-01 a      1514     0   101     1    14
 -9.7152889672009231E+00 a      1515     0   101     1    15
  3.0667729232886609E+00 a      1516     0   102     1     1
  2.7368807366081951E+00 a      1517     0   102     1     2
  2.3227905332856840E+00 a      1518     0   102     1     3
  2.7494768217695316E+00 a      1519     0   102     1     4
 -1.2486900923107960E+00 a      1520     0   102     1     5
  1.0347229680819428E+00 a      1521     0   102     1     6
  2.9221418357121259E-01 a      1522     0   102     1     7
 -4.9543192352822256E+00 a      1523     0   102     1     8
 -3.6034201484625981E+00 a      1524     0   102     1     9
  8.4598040110767891E-01 a      1525     0   102     1    10
  8.7517480754403838E+00 a      1526     0   102     1    11
 -8.4594156554099875E+00 a      1527     0   102     1    12
  1.1576257520898112E+00 a      1528     0   102     1    13
  5.7248446786746214E+00 a      1529     0   102     1    14
 -6.7928905656968483E+00 a      1530     0   102     1    15
 -9.2775263009747388E-01 a      1531     0   103     1     1
  6.5136914052155714E-03 a      1532     0   103     1     2
  1.7780755863005293E+00 a      1533     0   103     1     3
  2.5334711238190217E+00 a      1534     0   103     1     4
  2.8979567989505326E+00 a      1535     0   103     1     5
 -1.1802311337287763E+01 a      1536     0   103     1     6
 -1.0391224108616203E+01 a      1537     0   103     1     7
 -2.4105339152214511E+00 a      1538     0   103     1     8
 -2.7640289324523226E+00 a      1539     0   103     1     9
  6.0017179117120474E+00 a      1540     0   103     1    10
 -9.7687740173119719E-01 a      1541     0   103     1    11
 -4.4613125286126349E+00 a      1542     0   103     1    12
  1.3215013516837937E-01 a      1543     0   103     1    13
  4.8876992235736738E+00 a      1544     0   103     1    14
 -7.6490810998399681E+00 a      1545     0   103     1    15
 -1.2979793600721603E+00 a      1546     0   104     1     1
  3.9726554709125561E+00 a      1547     0   104     1     2
  1.5491841682678351E+00 a      1548     0   104     1     3
  4.5671544637552053E-01 a      1549     0   104     1     4
 -1.7451064561311329E+00 a      1550     0   104     1     5
  2.2980844184046481E+00 a      1551     0   104     1     6
 -4.9704094186588117E+00 a      1552     0   104     1     7
 -6.0718324417146601E+00 a      1553     0   104     1     8
 -4.3808868263379059E+00 a      1554     0   104     1     9
  3.8422797220889096E+00 a      1555     0   104     1    10
  5.1421876037280017E+00 a      1556     0   104     1    11
 -5.2235492828398282E+00 a      1557     0   104     1    12
  9.7201225944818759E-01 a      1558     0   104     1    13
  3.3941849307621039E+00 a      1559     0   104     1    14
 -8.1334022164372293E+00 a      1560     0   104     1    15
  2.0665865155029421E+00 a      1561     0   105     1     1
  4.7233999354611198E+00 a      1562     0   105     1     2
  2.4532869636965629E+00 a      1563     0   105     1     3
  1.0378361002479335E+00 a      1564     0   105     1     4
 -2.2412516507139477E+00 a      1565     0   105     1     5
 -5.1080004226669402E+00 a      1566     0   105     1     6
 -1.2149860944595385E+01 a      1567     0   105     1     7
 -9.4596333015070240E+00 a      1568     0   105     1     8
 -9.5693358410160254E+00 a      1569     0   105     1     9
  3.7944699708936609E+00 a      1570     0   105     1    10
  8.6615240083913676E+00 a      1571     0   105     1    11
 -6.7166714577094151E+00 a      1572     0   105     1    12
  1.7682826042938220E+00 a      1573     0   105     1    13
  1.0081008147909104E+01 a      1574     0   105     1    14
 -5.2747682014746893E+00 a      1575     0   105     1    15
 -2.0409523525957063E+01 a      1576     0   106     1     1
 -2.6059653897316276E-01 a      1577     0   106     1     2
  8.4922968340809106E+00 a      1578     0   106     1     3
 -1.9374163472109693E+00 a      1579     0   106     1     4
  8.0250882911800048E+00 a      1580     0   106     1     5
 -9.8157317733437868E+00 a      1581     0   106     1     6
 -7.6261670633148260E+00 a      1582     0   106     1     7
  2.2265626851911575E+00 a      1583     0   106     1     8
  5.1021804577425751E+00 a      1584     0   106     1     9
  5.8883583758086564E+00 a      1585     0   106     1    10
 -1.2081334581821926E+01 a      1586     0   106     1    11
  4.5487799996219795E+00 a      1587     0   106     1    12
  4.0013291974386052E+00 a      1588     0   106     1    13
  1.0585575432600510E+01 a      1589     0   106     1    14
 -1.5017474566089795E+00 a      1590     0   106     1    15
 -2.3646473090405067E+00 a      1591     0   107     1     1
 -1.2923202452849541E+01 a      1592     0   107     1     2
  6.3080207102898820E+00 a      1593     0   107     1     3
 -3.6215949457172676E+00 a      1594     0   107     1     4
  2.2071598173081814E+00 a      1595     0   107     1     5
 -3.2193875986924141E+00 a      1596     0   107     1     6
 -5.7180987301242130E+00 a      1597     0   107     1     7
  5.8318205628904840E+00 a      1598     0   107     1     8
  8.7224819129848061E+00 a      1599     0   107     1     9
  7.2298346842799894E+00 a      1600     0   107     1    10
  2.2112093187802264E+00 a      1601     0   107     1    11
  7.0923257488302642E+00 a      1602     0   107     1    12
  4.7457081380224828E+00 a      1603     0   107     1    13
  1.1486111758363059E+01 a      1604     0   107     1    14
  6.6472852395085011E+00 a      1605     0   107     1    15
 -4.6895512244715372E+00 a      1606     0   108     1     1
 -7.3474903016204451E-01 a      1607     0   108     1     2
  1.5231345967971774E+00 a      1608     0   108     1     3
 -3.5373332369936077E+00 a      1609     0   108     1     4
  4.8550719775807227E+00 a      1610     0   108     1     5
 -5.4959654542148835E+00 a      1611     0   108     1     6
  1.2347666577557843E+00 a      1612     0   108     1     7
  6.1941219776245013E+00 a      1613     0   108     1     8
  4.0505233762574955E+00 a      1614     0   108     1     9
  5.0824535786550884E+00 a      1615     0   108     1    10
 -7.0753754315303663E+00 a      1616     0   108     1    11
  4.0810458208509557E+00 a      1617     0   108     1    12
 -2.8235511555392225E+00 a      1618     0   108     1    13
  1.7236618057856721E+00 a      1619     0   108     1    14
  7.0487592168864373E+00 a      1620     0   108     1    15
  2.8649769267726164E+00 a      1621     0   109     1     1
 -1.1713571273369436E+00 a      1622     0   109     1     2
  7.0657708139441748E+00 a      1623     0   109     1     3
