################################################################################
# Neural network connection values (weights and biases).
################################################################################
# Col  Name       Description
################################################################################
# 1    connection Neural network connection value.
# 2    t          Connection type (a = weight, b = bias).
# 3    index      Index enumerating weights.
# 4    l_s        Starting point layer (end point layer for biases).
# 5    n_s        Starting point neuron in starting layer (end point neuron for biases).
# 6    l_e        End point layer.
# 7    n_e        End point neuron in end layer.
################################################################################
#                      1 2         3     4     5     6     7
#             connection t     index   l_s   n_s   l_e   n_e
############################################################
  6.9041163337058107E+00 a         1     0     1     1     1
 -4.7849590441006473E+00 a         2     0     1     1     2
  9.3731727494136319E+00 a         3     0     1     1     3
 -1.3582021561448801E+01 a         4     0     1     1     4
  1.3615590619527390E+01 a         5     0     1     1     5
  5.2689923172616897E+00 a         6     0     1     1     6
 -8.0255427957951380E+00 a         7     0     1     1     7
  1.0270610033719608E+01 a         8     0     1     1     8
 -1.6184529927134562E+01 a         9     0     1     1     9
  4.9205949596834149E+00 a        10     0     1     1    10
 -6.8053720678170482E+00 a        11     0     1     1    11
 -5.9385592134717169E-01 a        12     0     1     1    12
  6.5833985705369589E+00 a        13     0     1     1    13
 -1.2099220139261055E+01 a        14     0     1     1    14
 -9.6038401250706134E+00 a        15     0     1     1    15
 -1.7878468730784545E+00 a        16     0     2     1     1
 -1.1241519227209215E+01 a        17     0     2     1     2
  2.6744135107508217E+01 a        18     0     2     1     3
 -2.4924421695763375E+00 a        19     0     2     1     4
  1.3753532279148738E+01 a        20     0     2     1     5
  5.2798132996679721E+00 a        21     0     2     1     6
  9.2282597990626414E+00 a        22     0     2     1     7
  8.7715209598262103E+00 a        23     0     2     1     8
 -7.8497881969819820E+00 a        24     0     2     1     9
  8.8892874983738679E+00 a        25     0     2     1    10
  8.7810367924438726E+00 a        26     0     2     1    11
 -1.5141732772166547E+00 a        27     0     2     1    12
 -7.5475716282188667E+00 a        28     0     2     1    13
 -9.0814644179565072E+00 a        29     0     2     1    14
  1.8532381297799471E+01 a        30     0     2     1    15
  6.8071363825223585E-01 a        31     0     3     1     1
 -6.8703210727226187E+00 a        32     0     3     1     2
  2.1577468714085168E+01 a        33     0     3     1     3
 -8.1405657566929150E+00 a        34     0     3     1     4
  2.1114121532663418E+01 a        35     0     3     1     5
  4.2883586688200257E+00 a        36     0     3     1     6
  1.0384263520370343E+01 a        37     0     3     1     7
 -2.7447164854690440E+00 a        38     0     3     1     8
 -8.6161103113219220E+00 a        39     0     3     1     9
  1.4707083379958720E+01 a        40     0     3     1    10
  9.8948977038424868E+00 a        41     0     3     1    11
 -6.4465433894727315E+00 a        42     0     3     1    12
 -7.5129381141677340E+00 a        43     0     3     1    13
  1.8997036473673696E+00 a        44     0     3     1    14
  4.7686871204060077E+00 a        45     0     3     1    15
 -4.0631822854653310E-01 a        46     0     4     1     1
  3.4218846163736725E+00 a        47     0     4     1     2
  1.7560737330891911E+00 a        48     0     4     1     3
 -3.3341566636531730E+00 a        49     0     4     1     4
  4.5688034238483093E+00 a        50     0     4     1     5
  1.4618177593901216E+00 a        51     0     4     1     6
  4.8027766102593128E-01 a        52     0     4     1     7
  3.4534823674952739E+00 a        53     0     4     1     8
 -4.1792299669581405E+00 a        54     0     4     1     9
  1.4147979802964394E+00 a        55     0     4     1    10
 -2.2503918318753033E+00 a        56     0     4     1    11
 -4.0213567882921675E+00 a        57     0     4     1    12
 -1.1010326820134266E+00 a        58     0     4     1    13
 -2.8549667213942020E-01 a        59     0     4     1    14
 -2.3905706129828516E-01 a        60     0     4     1    15
  1.7527573394744811E+00 a        61     0     5     1     1
  7.2755730351517629E+00 a        62     0     5     1     2
  2.9332213581244591E+00 a        63     0     5     1     3
  2.0222545532782612E+00 a        64     0     5     1     4
  2.1761981352939901E+00 a        65     0     5     1     5
  4.7322419727002352E+00 a        66     0     5     1     6
 -3.9414800570866043E-01 a        67     0     5     1     7
  3.2222978094101711E+00 a        68     0     5     1     8
 -4.9437736164362994E-01 a        69     0     5     1     9
  6.8874679633572651E+00 a        70     0     5     1    10
 -3.4482499932494317E+00 a        71     0     5     1    11
 -1.3048274217128715E+00 a        72     0     5     1    12
  2.7504672431622548E+00 a        73     0     5     1    13
 -9.0492686775251130E-02 a        74     0     5     1    14
  3.3494428224607682E+00 a        75     0     5     1    15
 -4.6991061396741966E-02 a        76     0     6     1     1
  6.2126513628735296E+00 a        77     0     6     1     2
  3.6176084904596615E+00 a        78     0     6     1     3
 -2.2399628158853413E+00 a        79     0     6     1     4
  8.6225591373944777E-01 a        80     0     6     1     5
  3.7558339199209358E+00 a        81     0     6     1     6
  1.4991704357245357E+00 a        82     0     6     1     7
 -1.8335599559688698E+00 a        83     0     6     1     8
 -4.2042347136129848E-01 a        84     0     6     1     9
  2.0345070678847708E+00 a        85     0     6     1    10
 -7.5122036563423056E-01 a        86     0     6     1    11
 -3.1295102296987118E+00 a        87     0     6     1    12
  1.6584386667651734E+00 a        88     0     6     1    13
 -1.0708994000576795E+00 a        89     0     6     1    14
  7.6242922936203683E-01 a        90     0     6     1    15
 -6.5737187343004484E+00 a        91     0     7     1     1
  8.1853773836238606E+00 a        92     0     7     1     2
 -4.5789567830874631E+00 a        93     0     7     1     3
  6.3545509276291483E+00 a        94     0     7     1     4
 -4.8813942682897595E+00 a        95     0     7     1     5
 -2.8562029541156866E+00 a        96     0     7     1     6
  7.0823668785887950E+00 a        97     0     7     1     7
 -3.4167872453949597E+00 a        98     0     7     1     8
  6.7685940907189135E+00 a        99     0     7     1     9
 -3.7190880998737237E+00 a       100     0     7     1    10
  3.2462636670570770E+00 a       101     0     7     1    11
 -5.7258083715855115E+00 a       102     0     7     1    12
 -7.3889504884017096E+00 a       103     0     7     1    13
  9.6315340925509432E+00 a       104     0     7     1    14
  7.0993718487869106E+00 a       105     0     7     1    15
  4.3490311658570446E+00 a       106     0     8     1     1
  1.4416813639193292E+01 a       107     0     8     1     2
 -1.4809160100123298E+01 a       108     0     8     1     3
  6.3974181076366747E+00 a       109     0     8     1     4
 -8.4859472705372063E+00 a       110     0     8     1     5
  1.8007345528061773E+00 a       111     0     8     1     6
 -7.8276540733569879E+00 a       112     0     8     1     7
 -3.2114888010132043E+00 a       113     0     8     1     8
  4.3030466311475752E+00 a       114     0     8     1     9
 -2.3907034276017467E+00 a       115     0     8     1    10
 -9.1089881767034822E+00 a       116     0     8     1    11
 -5.3913792803629657E-01 a       117     0     8     1    12
  7.9974557147619239E+00 a       118     0     8     1    13
  8.4585259329053777E+00 a       119     0     8     1    14
 -1.1217103865499222E+01 a       120     0     8     1    15
 -1.3209237745244901E-01 a       121     0     9     1     1
  1.0833899446909328E+01 a       122     0     9     1     2
 -1.1063045980837570E+01 a       123     0     9     1     3
  3.8119580661945438E+00 a       124     0     9     1     4
 -1.5771162368962347E+01 a       125     0     9     1     5
  1.6396567631043681E+00 a       126     0     9     1     6
 -6.8319446186027681E+00 a       127     0     9     1     7
 -8.2033343582143836E-01 a       128     0     9     1     8
  5.5812351431774303E+00 a       129     0     9     1     9
 -1.1474325707908642E+01 a       130     0     9     1    10
 -6.9663971543808003E+00 a       131     0     9     1    11
  6.2291095876337954E-01 a       132     0     9     1    12
  7.2462990101746962E+00 a       133     0     9     1    13
 -1.6628392001427663E+00 a       134     0     9     1    14
 -3.0128191970079157E+00 a       135     0     9     1    15
 -8.3996982716807356E+00 a       136     0    10     1     1
  4.3634377142885743E+00 a       137     0    10     1     2
 -7.0721705046501144E+00 a       138     0    10     1     3
  1.1939500725167205E+01 a       139     0    10     1     4
 -1.2070495266161917E+01 a       140     0    10     1     5
 -6.7270967577661658E+00 a       141     0    10     1     6
  7.9408971985246843E+00 a       142     0    10     1     7
 -8.9187274046146978E+00 a       143     0    10     1     8
  1.3279817151319874E+01 a       144     0    10     1     9
 -9.2177771553208458E+00 a       145     0    10     1    10
  8.6316347175597912E+00 a       146     0    10     1    11
 -3.5999436228476940E+00 a       147     0    10     1    12
 -8.3743057413983948E+00 a       148     0    10     1    13
  1.3285261560155735E+01 a       149     0    10     1    14
  8.4842696402746878E+00 a       150     0    10     1    15
  3.6730793791192422E+00 a       151     0    11     1     1
  3.9724121381147826E+00 a       152     0    11     1     2
 -1.9179314605856717E+01 a       153     0    11     1     3
  8.0740259639112626E+00 a       154     0    11     1     4
 -1.4301418551547552E+01 a       155     0    11     1     5
 -3.8584090888922646E+00 a       156     0    11     1     6
 -8.5322696465927574E+00 a       157     0    11     1     7
 -8.9438459647864814E+00 a       158     0    11     1     8
  5.0424927247652898E+00 a       159     0    11     1     9
 -1.6867201413642285E+01 a       160     0    11     1    10
 -4.6308103991533507E+00 a       161     0    11     1    11
  1.4605753714010510E+00 a       162     0    11     1    12
  4.4887001870173373E+00 a       163     0    11     1    13
  1.1913163320959935E+01 a       164     0    11     1    14
 -1.9008845138233067E+01 a       165     0    11     1    15
 -1.6743495683575416E-01 a       166     0    12     1     1
  1.4252481235747767E+00 a       167     0    12     1     2
 -1.7034958593638191E+01 a       168     0    12     1     3
  7.9947556843822341E+00 a       169     0    12     1     4
 -2.0915398609434437E+01 a       170     0    12     1     5
 -3.0173701664686576E+00 a       171     0    12     1     6
 -1.1078039950596022E+01 a       172     0    12     1     7
  6.5254766749715609E-01 a       173     0    12     1     8
  6.8804110170650929E+00 a       174     0    12     1     9
 -2.0197258787087105E+01 a       175     0    12     1    10
 -5.3219498365811466E+00 a       176     0    12     1    11
  4.2468904075624447E+00 a       177     0    12     1    12
  5.7773984898329758E+00 a       178     0    12     1    13
  3.4581484501082538E-01 a       179     0    12     1    14
 -4.9816171281410080E+00 a       180     0    12     1    15
 -1.2291325529201709E+00 a       181     0    13     1     1
 -1.0107135154292928E+01 a       182     0    13     1     2
 -3.1237849219402425E+00 a       183     0    13     1     3
  6.4232748048442865E+00 a       184     0    13     1     4
 -9.8256602733474327E+00 a       185     0    13     1     5
 -6.9779208100693388E+00 a       186     0    13     1     6
 -1.8368704317136089E+00 a       187     0    13     1     7
 -8.3543604114509140E+00 a       188     0    13     1     8
  1.0837330727607950E+01 a       189     0    13     1     9
 -7.6618482427162986E+00 a       190     0    13     1    10
  8.9805276327762620E+00 a       191     0    13     1    11
  5.3102302862112074E+00 a       192     0    13     1    12
  2.1701990403180798E+00 a       193     0    13     1    13
  1.9488094722952491E+00 a       194     0    13     1    14
 -5.9153348603848666E-01 a       195     0    13     1    15
 -5.9084375002594944E+00 a       196     0    14     1     1
 -1.6618351964291460E+01 a       197     0    14     1     2
 -6.1773017049333223E+00 a       198     0    14     1     3
 -3.9650740808968898E-01 a       199     0    14     1     4
 -7.6129337416268337E+00 a       200     0    14     1     5
 -9.6768110882717995E+00 a       201     0    14     1     6
  3.2190954393698625E+00 a       202     0    14     1     7
 -8.5142243663501969E+00 a       203     0    14     1     8
  3.3258470068498069E+00 a       204     0    14     1     9
 -1.8409078336637062E+01 a       205     0    14     1    10
  7.4196579163794905E+00 a       206     0    14     1    11
  5.1131199590234928E+00 a       207     0    14     1    12
 -5.9999456720911910E+00 a       208     0    14     1    13
 -8.8514118895654603E-01 a       209     0    14     1    14
 -7.4700633988174836E+00 a       210     0    14     1    15
 -1.5092549849519312E+00 a       211     0    15     1     1
 -1.6847043350487816E+01 a       212     0    15     1     2
 -8.9206787951050988E+00 a       213     0    15     1     3
  6.3981904460662644E+00 a       214     0    15     1     4
 -3.7549536657866844E+00 a       215     0    15     1     5
 -8.8146214295955101E+00 a       216     0    15     1     6
 -2.9872387310415633E+00 a       217     0    15     1     7
  2.1736346758758476E+00 a       218     0    15     1     8
  1.7743617666968690E+00 a       219     0    15     1     9
 -6.7153332378698902E+00 a       220     0    15     1    10
  2.4124841555465584E+00 a       221     0    15     1    11
  6.6154706351480685E+00 a       222     0    15     1    12
 -4.3783291232777248E+00 a       223     0    15     1    13
  1.7611583870001246E+00 a       224     0    15     1    14
 -1.2287269581459674E+00 a       225     0    15     1    15
  1.2682189270954444E+01 a       226     0    16     1     1
 -1.0689368326080892E+01 a       227     0    16     1     2
 -1.8155372639544176E+00 a       228     0    16     1     3
 -1.2928581890376826E+01 a       229     0    16     1     4
  6.3405785499066907E+00 a       230     0    16     1     5
  3.4257067505115679E+00 a       231     0    16     1     6
 -1.3637754219866116E+01 a       232     0    16     1     7
  3.0561479660469626E+00 a       233     0    16     1     8
  2.3028067329080253E+00 a       234     0    16     1     9
  2.2769743319178282E+01 a       235     0    16     1    10
 -1.1682075760622322E+01 a       236     0    16     1    11
  1.7241113656000575E+01 a       237     0    16     1    12
  2.4951314345729244E+01 a       238     0    16     1    13
 -2.6398534120024472E+01 a       239     0    16     1    14
 -1.3897359472715365E+01 a       240     0    16     1    15
 -1.9012721797011825E+01 a       241     0    17     1     1
 -9.1293892812814761E+00 a       242     0    17     1     2
  9.7883594627471737E+00 a       243     0    17     1     3
 -2.5502486620798265E+01 a       244     0    17     1     4
  2.0032359393194817E+01 a       245     0    17     1     5
 -1.1795396253704036E+00 a       246     0    17     1     6
  1.7203977020556685E+01 a       247     0    17     1     7
  7.7341510239111653E+00 a       248     0    17     1     8
  4.4673690653929778E+00 a       249     0    17     1     9
  2.8097074765764688E+01 a       250     0    17     1    10
  1.0645920222991508E+01 a       251     0    17     1    11
  7.6607808286760930E+00 a       252     0    17     1    12
 -2.8414858157804215E+00 a       253     0    17     1    13
 -2.7900349505958498E+01 a       254     0    17     1    14
  2.9286386331482447E+01 a       255     0    17     1    15
 -5.8915260238540146E+00 a       256     0    18     1     1
 -5.5794599193534227E+00 a       257     0    18     1     2
  6.5854827785745522E+00 a       258     0    18     1     3
 -5.2822231005311879E+00 a       259     0    18     1     4
  2.9843186097666386E+01 a       260     0    18     1     5
 -7.1766860415275238E+00 a       261     0    18     1     6
  1.9356076495846210E+01 a       262     0    18     1     7
  3.1463838448679273E+00 a       263     0    18     1     8
 -2.8049155823805578E+00 a       264     0    18     1     9
  4.2475782782487890E+01 a       265     0    18     1    10
  3.4208506289369339E-01 a       266     0    18     1    11
  5.0377203949526859E+00 a       267     0    18     1    12
 -9.3359661405090719E+00 a       268     0    18     1    13
 -7.0178844472100135E+00 a       269     0    18     1    14
  1.0206643724417086E+01 a       270     0    18     1    15
 -6.2248379286381388E+00 a       271     0    19     1     1
  7.8379850570895906E+00 a       272     0    19     1     2
  6.6730172520241959E+00 a       273     0    19     1     3
  4.1460168246699558E+00 a       274     0    19     1     4
  1.7459400568083989E+00 a       275     0    19     1     5
  1.6080180351593683E+01 a       276     0    19     1     6
  1.9795435394773921E+01 a       277     0    19     1     7
  5.6033819046775930E+00 a       278     0    19     1     8
 -1.5556537009595186E+01 a       279     0    19     1     9
 -7.0908861888588417E+00 a       280     0    19     1    10
 -3.7492395352549757E+00 a       281     0    19     1    11
 -1.0667296470908415E+01 a       282     0    19     1    12
 -2.3669543046060856E+01 a       283     0    19     1    13
  2.4098715908860413E+01 a       284     0    19     1    14
  1.0421921392150320E+01 a       285     0    19     1    15
  2.1055463483121510E+01 a       286     0    20     1     1
  1.6648936685309948E+01 a       287     0    20     1     2
 -6.7903834829788279E-01 a       288     0    20     1     3
  1.1803559594067867E+01 a       289     0    20     1     4
 -5.9728616685528930E+00 a       290     0    20     1     5
  7.7617101589974853E+00 a       291     0    20     1     6
 -9.9271564139565349E+00 a       292     0    20     1     7
  2.0148432951992498E-01 a       293     0    20     1     8
 -1.0294900253385556E+01 a       294     0    20     1     9
 -2.0841119287833720E+00 a       295     0    20     1    10
 -9.8150929426644833E+00 a       296     0    20     1    11
 -1.5804667273541634E+01 a       297     0    20     1    12
 -5.8230860117528233E-02 a       298     0    20     1    13
  3.1947480629318434E+01 a       299     0    20     1    14
 -2.0955768009829008E+01 a       300     0    20     1    15
  7.7202843861647086E+00 a       301     0    21     1     1
  1.7504082665767505E+01 a       302     0    21     1     2
  8.1355017934943881E+00 a       303     0    21     1     3
 -7.6800817028768638E+00 a       304     0    21     1     4
 -1.5546537571349251E+01 a       305     0    21     1     5
  1.3965069238331296E+01 a       306     0    21     1     6
 -8.4529122369786869E+00 a       307     0    21     1     7
 -2.8634191802009368E+00 a       308     0    21     1     8
  2.5054653492591989E+00 a       309     0    21     1     9
 -2.4920194053753697E+01 a       310     0    21     1    10
  9.1735439086809478E+00 a       311     0    21     1    11
 -5.8410420086743207E+00 a       312     0    21     1    12
  1.4364905218672032E+01 a       313     0    21     1    13
  1.4327375429436708E+01 a       314     0    21     1    14
 -1.1601904731307290E+01 a       315     0    21     1    15
  1.3701710893961454E+01 a       316     0    22     1     1
 -1.0934770654801433E+00 a       317     0    22     1     2
 -3.0118937314852521E+00 a       318     0    22     1     3
 -8.1928171515702246E+00 a       319     0    22     1     4
  8.8103784356827770E+00 a       320     0    22     1     5
 -7.3999035564973434E+00 a       321     0    22     1     6
 -1.6818821875656013E+01 a       322     0    22     1     7
  1.1994398949763752E-01 a       323     0    22     1     8
  6.1727640076281602E+00 a       324     0    22     1     9
 -4.7827365219721774E+00 a       325     0    22     1    10
  4.9700642172128706E+00 a       326     0    22     1    11
 -1.2574080794588338E+00 a       327     0    22     1    12
  7.3788815807807282E+00 a       328     0    22     1    13
 -3.0818460425459268E+01 a       329     0    22     1    14
 -1.4330355147827902E+01 a       330     0    22     1    15
  4.8453136892162787E+00 a       331     0    23     1     1
 -8.0604861435597996E+00 a       332     0    23     1     2
  1.1121215952301393E+01 a       333     0    23     1     3
 -3.0631418178286953E+00 a       334     0    23     1     4
  8.9075788230689792E+00 a       335     0    23     1     5
 -5.1959202340724788E+00 a       336     0    23     1     6
 -8.9650227766925212E+00 a       337     0    23     1     7
  1.6300498166373865E+00 a       338     0    23     1     8
  5.3276191608306043E+00 a       339     0    23     1     9
 -1.0199968543596869E+01 a       340     0    23     1    10
 -2.2749211411041350E+00 a       341     0    23     1    11
  1.1991196684288470E+01 a       342     0    23     1    12
  8.6832451602891929E+00 a       343     0    23     1    13
 -3.1047669530344212E+01 a       344     0    23     1    14
  2.4701382441532665E+01 a       345     0    23     1    15
  5.0097478849343648E+00 a       346     0    24     1     1
 -9.7597971164415238E+00 a       347     0    24     1     2
  4.9087724662503329E-01 a       348     0    24     1     3
  6.5358132489153462E+00 a       349     0    24     1     4
  1.3386791358725452E+01 a       350     0    24     1     5
 -5.8947847007827630E+00 a       351     0    24     1     6
 -3.7595499914193402E+00 a       352     0    24     1     7
  4.9216989324203055E+00 a       353     0    24     1     8
 -4.7577633537248403E+00 a       354     0    24     1     9
  3.7983566089703045E+00 a       355     0    24     1    10
 -1.3562007555244021E+01 a       356     0    24     1    11
 -1.5261111699828007E+00 a       357     0    24     1    12
 -1.1351725228781513E+01 a       358     0    24     1    13
 -1.9350936958780377E+01 a       359     0    24     1    14
  1.4143795106286600E+01 a       360     0    24     1    15
  1.0526842371996898E+01 a       361     0    25     1     1
  1.3627910719328675E+01 a       362     0    25     1     2
  4.7708046641520623E+00 a       363     0    25     1     3
 -1.2884022048166869E+01 a       364     0    25     1     4
  1.1522419903125103E+01 a       365     0    25     1     5
 -2.1287360593345963E+00 a       366     0    25     1     6
  4.3837124673653760E-01 a       367     0    25     1     7
  2.8914745276153578E+01 a       368     0    25     1     8
 -1.6132657884313286E+01 a       369     0    25     1     9
 -2.6911657811310786E+01 a       370     0    25     1    10
  2.4215551934795293E+01 a       371     0    25     1    11
 -9.6225339576031192E+00 a       372     0    25     1    12
 -7.5317114832248464E+00 a       373     0    25     1    13
 -5.5918070658888567E+01 a       374     0    25     1    14
  2.5224681126389012E+00 a       375     0    25     1    15
  2.3640477718281289E+01 a       376     0    26     1     1
  1.1575296532295843E+01 a       377     0    26     1     2
  1.7278223960602808E+00 a       378     0    26     1     3
  3.7571213812024653E+00 a       379     0    26     1     4
  6.6493892199127824E+00 a       380     0    26     1     5
  1.2414958018933081E+01 a       381     0    26     1     6
 -5.8658014657596818E+00 a       382     0    26     1     7
 -7.3760118898955964E+00 a       383     0    26     1     8
  1.3588562735849893E+01 a       384     0    26     1     9
 -3.5491665223208116E+01 a       385     0    26     1    10
  2.4411467189422151E+01 a       386     0    26     1    11
 -5.4368778472393409E+00 a       387     0    26     1    12
  1.4058451893439695E+01 a       388     0    26     1    13
 -9.7612737127925300E+00 a       389     0    26     1    14
 -9.8713934385068178E+00 a       390     0    26     1    15
  8.5004753283564192E+00 a       391     0    27     1     1
  7.0304533287564857E+00 a       392     0    27     1     2
  2.0617729589639544E+00 a       393     0    27     1     3
  4.3551473759824395E+00 a       394     0    27     1     4
 -1.3198523089129901E+01 a       395     0    27     1     5
 -2.4651454613299890E+00 a       396     0    27     1     6
 -5.6438394546393267E-01 a       397     0    27     1     7
 -3.3695497206695681E+00 a       398     0    27     1     8
 -4.3159525300179959E+00 a       399     0    27     1     9
 -3.1001417183089192E+01 a       400     0    27     1    10
  3.2153158451810460E+00 a       401     0    27     1    11
  4.4399869503206446E-01 a       402     0    27     1    12
 -2.4672020227415667E+00 a       403     0    27     1    13
  6.2066494838249824E+00 a       404     0    27     1    14
 -7.2811368125116989E+00 a       405     0    27     1    15
  6.8311335064767604E+00 a       406     0    28     1     1
 -4.1339398752375864E+01 a       407     0    28     1     2
 -3.8134070401950897E+00 a       408     0    28     1     3
  1.5207404642831639E+01 a       409     0    28     1     4
  4.4956911205046090E+01 a       410     0    28     1     5
  1.3087335042369395E+01 a       411     0    28     1     6
 -2.0915035895834858E+01 a       412     0    28     1     7
  7.1047437256552781E-01 a       413     0    28     1     8
  2.0388643675091625E+01 a       414     0    28     1     9
  2.0213337879767742E+01 a       415     0    28     1    10
  2.7944349565695575E+01 a       416     0    28     1    11
  1.1367885236665261E+00 a       417     0    28     1    12
 -4.4182639380663709E+00 a       418     0    28     1    13
 -2.6556732679874752E+01 a       419     0    28     1    14
  4.9956279893331565E+00 a       420     0    28     1    15
 -5.9553646856847999E+00 a       421     0    29     1     1
 -3.2932563778483555E+01 a       422     0    29     1     2
 -9.3319593752235015E+00 a       423     0    29     1     3
  7.0296084530375325E-01 a       424     0    29     1     4
  4.4119286731723186E+01 a       425     0    29     1     5
  2.0541184823670026E+01 a       426     0    29     1     6
  1.0983815057902520E+01 a       427     0    29     1     7
  2.5664495283228144E+00 a       428     0    29     1     8
  3.0833298370402895E+00 a       429     0    29     1     9
  3.1281620422409013E+01 a       430     0    29     1    10
 -1.4056543648725857E+00 a       431     0    29     1    11
  2.2863457854758014E+01 a       432     0    29     1    12
  2.3231169496240284E+01 a       433     0    29     1    13
  8.4131695829947244E+00 a       434     0    29     1    14
  3.7131432907930446E+01 a       435     0    29     1    15
  2.5261729323060678E+00 a       436     0    30     1     1
 -1.6911576069533796E+00 a       437     0    30     1     2
 -6.6645884052382431E+00 a       438     0    30     1     3
  1.9917138206070630E+00 a       439     0    30     1     4
  1.5939151502418891E+01 a       440     0    30     1     5
  1.0725492158100277E+01 a       441     0    30     1     6
 -1.3861686723696222E+01 a       442     0    30     1     7
 -1.6257697627007361E+00 a       443     0    30     1     8
  3.5682523388295846E+00 a       444     0    30     1     9
 -4.1505150370826263E+00 a       445     0    30     1    10
  2.1642241717296169E+01 a       446     0    30     1    11
 -1.8531698833212984E+00 a       447     0    30     1    12
  2.5472745786489831E+01 a       448     0    30     1    13
  9.6996215669815076E+00 a       449     0    30     1    14
  3.0432117021674646E+01 a       450     0    30     1    15
 -4.1160015212283776E+00 a       451     0    31     1     1
 -1.3227467697611848E+01 a       452     0    31     1     2
  7.2387287171095824E+00 a       453     0    31     1     3
 -1.0003227635800274E+01 a       454     0    31     1     4
  1.4121966921508914E+01 a       455     0    31     1     5
  1.6774850069829228E+01 a       456     0    31     1     6
 -9.3051896283358690E+00 a       457     0    31     1     7
  9.5573040032562560E+00 a       458     0    31     1     8
 -1.0700971540966547E+01 a       459     0    31     1     9
  2.8020487440315460E+01 a       460     0    31     1    10
  1.5834339708269502E+01 a       461     0    31     1    11
  1.1251608512607246E+01 a       462     0    31     1    12
  8.4520166144697662E+00 a       463     0    31     1    13
  3.1846942384816408E+01 a       464     0    31     1    14
  2.6106748697582759E+01 a       465     0    31     1    15
 -2.5963602922559737E+01 a       466     0    32     1     1
 -1.8048685202202599E+01 a       467     0    32     1     2
  9.1462563117675089E+00 a       468     0    32     1     3
  3.6705549975536766E+00 a       469     0    32     1     4
  3.7170259613061623E+00 a       470     0    32     1     5
  1.6105718181810149E+00 a       471     0    32     1     6
 -1.6067971437889653E+01 a       472     0    32     1     7
 -3.4583556014368524E+00 a       473     0    32     1     8
  1.0142863579269763E+01 a       474     0    32     1     9
 -2.2131888197102141E+00 a       475     0    32     1    10
 -5.5710228600726506E+00 a       476     0    32     1    11
 -1.0950546055777664E+01 a       477     0    32     1    12
  2.1666719517735906E+00 a       478     0    32     1    13
  1.1017394464201882E+01 a       479     0    32     1    14
  2.2681351182455309E+01 a       480     0    32     1    15
 -1.5903150175860757E+01 a       481     0    33     1     1
 -1.6573018571355483E+01 a       482     0    33     1     2
  4.0832506845759236E+00 a       483     0    33     1     3
  4.5541484137478792E+00 a       484     0    33     1     4
  4.1925133314058325E+00 a       485     0    33     1     5
  1.0892480383934917E+00 a       486     0    33     1     6
 -4.4046917712830309E+00 a       487     0    33     1     7
 -1.3098277877008488E+01 a       488     0    33     1     8
  7.1076741402282657E+00 a       489     0    33     1     9
  1.6938758644074305E+01 a       490     0    33     1    10
 -6.0375688146965061E+00 a       491     0    33     1    11
 -1.5962805339034236E-01 a       492     0    33     1    12
 -4.0302516331120577E+00 a       493     0    33     1    13
  6.0508884901193243E+00 a       494     0    33     1    14
 -3.3762066016646837E+00 a       495     0    33     1    15
 -9.4974042153637832E+00 a       496     0    34     1     1
  2.5435635517995614E+01 a       497     0    34     1     2
 -1.6595892684695077E+00 a       498     0    34     1     3
  2.5289942237956510E+01 a       499     0    34     1     4
 -1.6243208932653019E+01 a       500     0    34     1     5
 -5.9032867134002549E+00 a       501     0    34     1     6
  1.6318532943981978E+01 a       502     0    34     1     7
 -1.9468452000620694E+01 a       503     0    34     1     8
 -3.0534709791479617E+00 a       504     0    34     1     9
 -1.4184317092551519E+01 a       505     0    34     1    10
  2.1638687228815336E+00 a       506     0    34     1    11
  9.7437954406265046E+00 a       507     0    34     1    12
  1.3869532159652618E+01 a       508     0    34     1    13
 -2.0066369121448818E-01 a       509     0    34     1    14
  2.3449492546708669E+01 a       510     0    34     1    15
 -1.6695145349577793E+01 a       511     0    35     1     1
  1.7365722458050723E+01 a       512     0    35     1     2
  1.4391424654407974E-02 a       513     0    35     1     3
 -8.2122113901293314E+00 a       514     0    35     1     4
 -5.1961598852869564E+00 a       515     0    35     1     5
  3.6548320620631873E+00 a       516     0    35     1     6
  1.2316759805601700E+01 a       517     0    35     1     7
 -1.4865165071711184E+01 a       518     0    35     1     8
  1.6743206911839135E+01 a       519     0    35     1     9
 -2.4102626961745358E+01 a       520     0    35     1    10
  3.1980460737253997E+00 a       521     0    35     1    11
 -2.0846494340220556E+01 a       522     0    35     1    12
 -1.3882808133333807E+01 a       523     0    35     1    13
  3.2867080860588560E+00 a       524     0    35     1    14
 -6.1504438879959560E+00 a       525     0    35     1    15
 -1.6854949129309670E+01 a       526     0    36     1     1
  1.6223687851724929E+01 a       527     0    36     1     2
 -1.2919717551059955E+01 a       528     0    36     1     3
 -1.1716027273264919E+01 a       529     0    36     1     4
 -8.7686713517373249E+00 a       530     0    36     1     5
 -3.8610814621071889E+00 a       531     0    36     1     6
 -8.7488531048171883E+00 a       532     0    36     1     7
 -1.9922579563606771E+01 a       533     0    36     1     8
  8.8874435710646900E+00 a       534     0    36     1     9
 -3.0639067234476148E+01 a       535     0    36     1    10
 -1.0917694412494794E+00 a       536     0    36     1    11
 -2.5688308035596055E+01 a       537     0    36     1    12
 -1.1504326764427859E+00 a       538     0    36     1    13
 -5.7489561150069637E+00 a       539     0    36     1    14
  6.3580278439856288E+00 a       540     0    36     1    15
  2.0407466419895393E+00 a       541     0    37     1     1
  2.5152366426272319E+01 a       542     0    37     1     2
 -3.2080406385369034E+00 a       543     0    37     1     3
 -4.6792673263472278E+00 a       544     0    37     1     4
  2.5773981147282452E+01 a       545     0    37     1     5
 -8.6522340665191209E+00 a       546     0    37     1     6
 -1.3543488034536205E+01 a       547     0    37     1     7
  6.0222383278095859E-01 a       548     0    37     1     8
  2.5290406476462440E+01 a       549     0    37     1     9
 -1.6305352411227830E+01 a       550     0    37     1    10
 -1.4110243254441381E+00 a       551     0    37     1    11
 -2.9310237321904008E+01 a       552     0    37     1    12
  1.6708659101638755E+01 a       553     0    37     1    13
 -1.1180621157794375E+00 a       554     0    37     1    14
 -1.6687667526450419E+01 a       555     0    37     1    15
  7.0111001772235761E+00 a       556     0    38     1     1
  7.0636339934652046E+00 a       557     0    38     1     2
 -8.2976487779574217E+00 a       558     0    38     1     3
 -3.9155002366956517E+00 a       559     0    38     1     4
  1.6105166594556053E+01 a       560     0    38     1     5
 -9.2580355451008653E+00 a       561     0    38     1     6
  3.1799094015975466E+00 a       562     0    38     1     7
  3.1250192621101882E+00 a       563     0    38     1     8
  1.1778506420283705E+01 a       564     0    38     1     9
 -2.0892637960516243E+01 a       565     0    38     1    10
 -1.0681108363085709E+01 a       566     0    38     1    11
 -5.1199817714787361E+00 a       567     0    38     1    12
  2.3530357396985099E+01 a       568     0    38     1    13
 -4.2322046778297162E+00 a       569     0    38     1    14
 -8.2506855281712674E+00 a       570     0    38     1    15
  8.6095075284947598E+00 a       571     0    39     1     1
  6.3914034867152960E+00 a       572     0    39     1     2
 -7.6038763726413556E+00 a       573     0    39     1     3
  1.0396160833102057E+01 a       574     0    39     1     4
 -5.7722454823437264E-01 a       575     0    39     1     5
  6.5928282077807134E+00 a       576     0    39     1     6
 -4.8705191356600713E-01 a       577     0    39     1     7
  4.3915025298951740E+00 a       578     0    39     1     8
  2.1730474055144495E+00 a       579     0    39     1     9
 -1.4897430489835394E+01 a       580     0    39     1    10
  2.5488777132987259E+00 a       581     0    39     1    11
  8.5968760280170287E+00 a       582     0    39     1    12
  6.7890299203328475E+00 a       583     0    39     1    13
  8.8098082216039275E-01 a       584     0    39     1    14
 -2.1443427327162912E+01 a       585     0    39     1    15
  3.0223503898439352E-01 a       586     0    40     1     1
 -1.0811229007442252E+01 a       587     0    40     1     2
 -7.1811862675944322E+00 a       588     0    40     1     3
  5.4469084793109470E+00 a       589     0    40     1     4
 -1.7126606417766300E+01 a       590     0    40     1     5
  1.5633123506589066E+00 a       591     0    40     1     6
 -1.0406443870466557E+00 a       592     0    40     1     7
 -5.6089515221692130E+00 a       593     0    40     1     8
  1.9248095437061956E+01 a       594     0    40     1     9
 -1.9755557588053822E+01 a       595     0    40     1    10
  6.6642658570878828E+00 a       596     0    40     1    11
 -8.0571407283768099E+00 a       597     0    40     1    12
 -3.4492375322971047E+00 a       598     0    40     1    13
  1.7936597805611740E+00 a       599     0    40     1    14
  1.5809950526907808E+00 a       600     0    40     1    15
 -1.2691380768963207E+01 a       601     0    41     1     1
 -3.0358133580127053E+01 a       602     0    41     1     2
  2.3949080679944612E+00 a       603     0    41     1     3
  1.2340658121804150E+01 a       604     0    41     1     4
 -1.7135779917148827E+01 a       605     0    41     1     5
 -2.6157505276318860E-01 a       606     0    41     1     6
 -8.5535154011792454E+00 a       607     0    41     1     7
 -3.0309250833336119E+00 a       608     0    41     1     8
  1.9131566181003731E+01 a       609     0    41     1     9
 -1.5615276061648387E+01 a       610     0    41     1    10
  1.7114119507195344E+01 a       611     0    41     1    11
  6.0278624661713538E+00 a       612     0    41     1    12
 -1.3636611687271829E+01 a       613     0    41     1    13
 -2.8244486172947347E+01 a       614     0    41     1    14
 -2.3391799113251203E+01 a       615     0    41     1    15
  1.9580057815564146E+01 a       616     0    42     1     1
 -7.3156971113710041E+00 a       617     0    42     1     2
 -1.2173828170195902E+01 a       618     0    42     1     3
  1.9790244010371134E+00 a       619     0    42     1     4
  1.7011208473313648E+01 a       620     0    42     1     5
  3.2158502960752373E+00 a       621     0    42     1     6
  3.7248051901137140E+00 a       622     0    42     1     7
 -9.7997925018549897E-02 a       623     0    42     1     8
  9.0871709105632501E+00 a       624     0    42     1     9
 -2.2016788264592265E+01 a       625     0    42     1    10
  9.1039553829286426E+00 a       626     0    42     1    11
  1.1143712543941398E+01 a       627     0    42     1    12
 -2.2254549397272502E+01 a       628     0    42     1    13
  3.0594115274669327E+00 a       629     0    42     1    14
  8.9446514168584590E-01 a       630     0    42     1    15
  1.1336533715527324E+01 a       631     0    43     1     1
  1.3739658499098519E+01 a       632     0    43     1     2
 -1.0545985201800923E+01 a       633     0    43     1     3
 -5.3552367970905399E+00 a       634     0    43     1     4
  3.2953293895112052E+00 a       635     0    43     1     5
  1.9114474858651288E+01 a       636     0    43     1     6
 -8.1688652931938588E+00 a       637     0    43     1     7
  1.4800336412578224E-01 a       638     0    43     1     8
  6.3966066883939963E+00 a       639     0    43     1     9
 -1.7945073708514819E+01 a       640     0    43     1    10
  8.7350919334273069E-01 a       641     0    43     1    11
 -1.8473348051963914E+01 a       642     0    43     1    12
  2.0337595250467601E+01 a       643     0    43     1    13
  1.7818971443454494E+01 a       644     0    43     1    14
 -2.3358486472534423E+00 a       645     0    43     1    15
  6.1471120330912479E+00 a       646     0    44     1     1
 -8.2490114992349035E+00 a       647     0    44     1     2
  3.3246563178682380E+00 a       648     0    44     1     3
 -4.2088408079392092E+00 a       649     0    44     1     4
  2.6353999299947347E+01 a       650     0    44     1     5
  1.1017453808805421E+01 a       651     0    44     1     6
 -1.9030654128701649E+01 a       652     0    44     1     7
  1.5934815103499302E+00 a       653     0    44     1     8
  1.9038368825159944E+00 a       654     0    44     1     9
 -7.2149600906085665E+00 a       655     0    44     1    10
  1.5434022382330609E+01 a       656     0    44     1    11
  9.7366573693217280E+00 a       657     0    44     1    12
  1.2641680927412462E+01 a       658     0    44     1    13
 -3.9946097409121077E+00 a       659     0    44     1    14
  4.1663934894942256E-01 a       660     0    44     1    15
  3.2581807155126365E+00 a       661     0    45     1     1
 -2.6771478363624254E+01 a       662     0    45     1     2
  5.1894615485042275E+00 a       663     0    45     1     3
  1.7124483123231276E+00 a       664     0    45     1     4
  1.2495617520070962E+01 a       665     0    45     1     5
  4.1336221669908761E+00 a       666     0    45     1     6
 -7.6912648923635833E+00 a       667     0    45     1     7
 -9.4787704515374138E-01 a       668     0    45     1     8
  7.2436022262182886E+00 a       669     0    45     1     9
  6.1147692305531076E-01 a       670     0    45     1    10
  1.4745234045466617E+01 a       671     0    45     1    11
 -6.6818589715517778E+00 a       672     0    45     1    12
 -2.9285440739885868E+00 a       673     0    45     1    13
  4.6156064321992236E+00 a       674     0    45     1    14
  1.3195944548145297E+01 a       675     0    45     1    15
 -2.5895151408223267E+01 a       676     0    46     1     1
 -4.2077108826235815E+01 a       677     0    46     1     2
  5.1800388288943493E+00 a       678     0    46     1     3
 -3.1926205516485919E+00 a       679     0    46     1     4
 -1.6365814683656314E+01 a       680     0    46     1     5
 -2.0354881617309850E+01 a       681     0    46     1     6
 -2.9050529698669727E+01 a       682     0    46     1     7
  4.5351945154436786E+00 a       683     0    46     1     8
  1.9991674417162815E+00 a       684     0    46     1     9
 -2.1158001448209955E+01 a       685     0    46     1    10
  1.9727270867115239E+00 a       686     0    46     1    11
  4.1939911092190144E+01 a       687     0    46     1    12
 -1.5201234298544570E+00 a       688     0    46     1    13
 -1.9414864873394500E+01 a       689     0    46     1    14
 -2.5190709402672191E+01 a       690     0    46     1    15
 -2.0032782914162475E+01 a       691     0    47     1     1
 -6.0551270856373596E-01 a       692     0    47     1     2
  6.6994155754059594E+00 a       693     0    47     1     3
 -7.0475486577206876E+00 a       694     0    47     1     4
 -1.5817390551438523E+01 a       695     0    47     1     5
  4.9162008516774662E+00 a       696     0    47     1     6
  3.1964588134074645E-01 a       697     0    47     1     7
  2.8786475920535970E-01 a       698     0    47     1     8
  7.1397584589551522E-01 a       699     0    47     1     9
 -9.6474697194747847E+00 a       700     0    47     1    10
  3.2580824684425835E+01 a       701     0    47     1    11
 -1.7499163287591035E+01 a       702     0    47     1    12
 -7.1153720125776374E+00 a       703     0    47     1    13
 -2.8355213301397157E+01 a       704     0    47     1    14
 -2.6170854996290490E+01 a       705     0    47     1    15
  1.2282592929837528E+00 a       706     0    48     1     1
 -1.1011982726048533E+01 a       707     0    48     1     2
 -1.2665101419453254E+01 a       708     0    48     1     3
 -1.7896845717033347E+01 a       709     0    48     1     4
 -8.0664432093091509E+00 a       710     0    48     1     5
  1.2974303037788280E+01 a       711     0    48     1     6
 -2.1706777711558130E+00 a       712     0    48     1     7
 -1.4923967073267907E+01 a       713     0    48     1     8
  1.9201778277910149E+00 a       714     0    48     1     9
 -1.8431836558499509E+01 a       715     0    48     1    10
  6.3311376283502510E+00 a       716     0    48     1    11
 -1.0229786853288712E+01 a       717     0    48     1    12
 -1.3347352147976109E+01 a       718     0    48     1    13
 -2.8424274647048633E+00 a       719     0    48     1    14
 -3.2252698775569918E+01 a       720     0    48     1    15
  8.6392881778944517E+00 a       721     0    49     1     1
 -2.9767663356478224E+01 a       722     0    49     1     2
 -9.7183777752343339E+00 a       723     0    49     1     3
  3.1844532454914003E+01 a       724     0    49     1     4
  5.9112471140966667E+00 a       725     0    49     1     5
  1.0753036654494810E+01 a       726     0    49     1     6
 -2.7631098118292762E+01 a       727     0    49     1     7
 -2.0027566146588871E+01 a       728     0    49     1     8
 -1.5137144920892155E+01 a       729     0    49     1     9
  1.2824102875171159E+01 a       730     0    49     1    10
 -1.8791896674927855E+01 a       731     0    49     1    11
 -8.0256709588173685E+00 a       732     0    49     1    12
 -2.5924479777665731E+01 a       733     0    49     1    13
 -9.9636346938728568E+00 a       734     0    49     1    14
  9.8255124109261978E+00 a       735     0    49     1    15
  8.0954699634994114E+00 a       736     0    50     1     1
  2.1792320640161247E+00 a       737     0    50     1     2
 -6.2831033867834174E+00 a       738     0    50     1     3
  1.6631052229533513E+01 a       739     0    50     1     4
 -8.4661430393570392E+00 a       740     0    50     1     5
 -9.1068547774566664E+00 a       741     0    50     1     6
 -3.5895503337555603E+01 a       742     0    50     1     7
  8.8102484728141253E+00 a       743     0    50     1     8
  6.6778624740539474E+00 a       744     0    50     1     9
 -9.9566624735012308E+00 a       745     0    50     1    10
  2.2023203589401600E+01 a       746     0    50     1    11
 -1.3631054579803852E+01 a       747     0    50     1    12
  6.7918684295776000E-01 a       748     0    50     1    13
 -1.7556607988723950E+01 a       749     0    50     1    14
 -6.8498203956941932E+00 a       750     0    50     1    15
 -9.9911446503936752E+00 a       751     0    51     1     1
 -9.0285179520135515E+00 a       752     0    51     1     2
 -1.5027777162891148E+01 a       753     0    51     1     3
  7.1094323442533573E+00 a       754     0    51     1     4
 -6.6939362322061848E+00 a       755     0    51     1     5
 -5.1260612969878872E-01 a       756     0    51     1     6
 -1.1223740406900838E+01 a       757     0    51     1     7
 -2.2337826959928160E+00 a       758     0    51     1     8
 -3.8473805376662691E+00 a       759     0    51     1     9
  5.9867878798401213E+00 a       760     0    51     1    10
  4.2510731792253935E+00 a       761     0    51     1    11
 -1.9115398619268575E+01 a       762     0    51     1    12
  5.2595175720925380E-01 a       763     0    51     1    13
 -1.4884271619614855E+01 a       764     0    51     1    14
 -1.6904646634217858E+01 a       765     0    51     1    15
 -2.0751641786181544E+01 a       766     0    52     1     1
 -2.9285139763720078E+01 a       767     0    52     1     2
  5.3325243561521116E+00 a       768     0    52     1     3
 -1.7745439634301965E+00 a       769     0    52     1     4
  7.6527542102066910E+00 a       770     0    52     1     5
  9.9434656829162318E+00 a       771     0    52     1     6
 -7.8613322189714117E+00 a       772     0    52     1     7
  4.7340786052601418E+00 a       773     0    52     1     8
  5.8948373012854791E+00 a       774     0    52     1     9
  3.7740262504421565E+01 a       775     0    52     1    10
  1.8855815556177998E+01 a       776     0    52     1    11
 -2.3801740689966904E+00 a       777     0    52     1    12
  6.9699916804209590E+00 a       778     0    52     1    13
  7.5005982330047178E+00 a       779     0    52     1    14
 -3.7310793542027461E+00 a       780     0    52     1    15
 -4.3435060138205888E+00 a       781     0    53     1     1
 -2.8223108606458460E+01 a       782     0    53     1     2
  4.1441221600950211E+00 a       783     0    53     1     3
 -1.1390355019311627E+00 a       784     0    53     1     4
  2.2793324500580106E+01 a       785     0    53     1     5
  2.9581838063479382E+00 a       786     0    53     1     6
 -7.1840517728557947E+00 a       787     0    53     1     7
 -1.5855680292305904E-01 a       788     0    53     1     8
 -6.7194875826590801E+00 a       789     0    53     1     9
  9.2850761861738800E+00 a       790     0    53     1    10
  8.7168931464039581E+00 a       791     0    53     1    11
  1.1990306882417006E+01 a       792     0    53     1    12
  2.1586727501603317E+01 a       793     0    53     1    13
 -1.5253842608157420E+00 a       794     0    53     1    14
  2.1311398904495999E+01 a       795     0    53     1    15
 -1.1312763890770803E+01 a       796     0    54     1     1
 -1.9523384746862689E+01 a       797     0    54     1     2
  8.5652038337651319E+00 a       798     0    54     1     3
 -7.8612851624027762E+00 a       799     0    54     1     4
  4.2144957689663194E+01 a       800     0    54     1     5
  3.3666864522472379E+00 a       801     0    54     1     6
 -2.9630692250696429E+00 a       802     0    54     1     7
  3.0880575379371198E+00 a       803     0    54     1     8
  7.8130752190880370E+00 a       804     0    54     1     9
  3.0107394070159380E+01 a       805     0    54     1    10
  1.5279082812818016E+01 a       806     0    54     1    11
  1.4746472179160550E+00 a       807     0    54     1    12
  9.9486370015880610E+00 a       808     0    54     1    13
  1.0428906905217797E+01 a       809     0    54     1    14
  2.8336707233242930E+01 a       810     0    54     1    15
  9.1686765888088555E+00 a       811     0    55     1     1
 -3.6332149665370217E+00 a       812     0    55     1     2
  3.0565466789705105E+00 a       813     0    55     1     3
  9.3054214953073711E+00 a       814     0    55     1     4
 -5.9780294876773041E+00 a       815     0    55     1     5
  1.0541545413674799E+01 a       816     0    55     1     6
  1.5116851411639839E+01 a       817     0    55     1     7
  5.0862285479679041E+00 a       818     0    55     1     8
 -4.8629821991286768E+00 a       819     0    55     1     9
  5.7627683029493815E+00 a       820     0    55     1    10
 -3.4068823929018188E-01 a       821     0    55     1    11
  8.4414031095691600E-01 a       822     0    55     1    12
 -4.1497460209550576E+00 a       823     0    55     1    13
  1.2007462191325478E+01 a       824     0    55     1    14
  1.0702283360422863E+01 a       825     0    55     1    15
 -1.4839682289020066E+01 a       826     0    56     1     1
 -9.9363115510592621E+00 a       827     0    56     1     2
 -4.7164672749294763E+00 a       828     0    56     1     3
 -3.4021905187964405E+00 a       829     0    56     1     4
  2.6619826379526440E+01 a       830     0    56     1     5
 -6.9693613254742848E-01 a       831     0    56     1     6
 -1.1069657039003234E+01 a       832     0    56     1     7
 -3.2195834377411958E-01 a       833     0    56     1     8
  6.4220398123425584E+00 a       834     0    56     1     9
 -1.6323757894282034E+00 a       835     0    56     1    10
  1.6656898207356010E+00 a       836     0    56     1    11
  2.4553039560547996E+00 a       837     0    56     1    12
  3.3698724558718240E-01 a       838     0    56     1    13
 -2.1930904432045111E+00 a       839     0    56     1    14
  2.4147016915485906E+01 a       840     0    56     1    15
 -1.2238858776429044E+01 a       841     0    57     1     1
 -2.3420357783099778E+01 a       842     0    57     1     2
  5.7628328914664193E+00 a       843     0    57     1     3
  2.9815140423691351E+00 a       844     0    57     1     4
  4.5048145293097717E+00 a       845     0    57     1     5
  7.2569253826049929E+00 a       846     0    57     1     6
 -1.0385408116904934E+01 a       847     0    57     1     7
 -7.1378106027295107E+00 a       848     0    57     1     8
  8.3841970494820615E+00 a       849     0    57     1     9
  8.6430413951418998E+00 a       850     0    57     1    10
  1.0363030616204727E+00 a       851     0    57     1    11
 -9.3680320805269301E-01 a       852     0    57     1    12
  6.4723442184432642E-02 a       853     0    57     1    13
  9.4778376676061136E+00 a       854     0    57     1    14
  8.0141446928924225E+00 a       855     0    57     1    15
  5.5393080029939455E+01 a       856     0    58     1     1
 -1.3275597072593033E+01 a       857     0    58     1     2
 -8.6385668788612886E+00 a       858     0    58     1     3
  2.7920681606846505E+00 a       859     0    58     1     4
  5.3535270487921816E+00 a       860     0    58     1     5
  1.8787515081680393E+01 a       861     0    58     1     6
 -1.0537107455435407E+01 a       862     0    58     1     7
 -1.5060799413438227E+01 a       863     0    58     1     8
  1.6193804971283942E+01 a       864     0    58     1     9
 -1.0254532747122484E+01 a       865     0    58     1    10
  1.7260889123320574E+01 a       866     0    58     1    11
 -1.6468468272978182E+01 a       867     0    58     1    12
 -1.5212898743572939E+01 a       868     0    58     1    13
  6.9167586656570901E+00 a       869     0    58     1    14
  1.0253885683564254E+01 a       870     0    58     1    15
  2.0393289379568415E+01 a       871     0    59     1     1
  1.4692237657944521E+01 a       872     0    59     1     2
 -2.1427206380019901E+00 a       873     0    59     1     3
 -1.6430822503190267E+01 a       874     0    59     1     4
  3.1117707318203422E+01 a       875     0    59     1     5
 -2.0374301436819779E+00 a       876     0    59     1     6
 -1.8348640340193749E+00 a       877     0    59     1     7
 -7.1014530563158154E+00 a       878     0    59     1     8
 -1.8920510223900358E+01 a       879     0    59     1     9
 -1.5252120075030149E+01 a       880     0    59     1    10
  2.0491828335926755E+01 a       881     0    59     1    11
  4.6442319694776284E+00 a       882     0    59     1    12
  3.2100020026024310E+01 a       883     0    59     1    13
 -2.1635863214138138E+00 a       884     0    59     1    14
  1.8879115167515323E+01 a       885     0    59     1    15
  8.5294823957684596E+00 a       886     0    60     1     1
 -2.7043945909860057E+00 a       887     0    60     1     2
  7.0030777756244422E+00 a       888     0    60     1     3
 -1.5975006164047770E+01 a       889     0    60     1     4
  3.5994033576081662E+01 a       890     0    60     1     5
 -4.7742500034715194E+00 a       891     0    60     1     6
  5.1882239809906290E+00 a       892     0    60     1     7
 -8.2847870711323477E+00 a       893     0    60     1     8
 -1.6725859342035125E+01 a       894     0    60     1     9
 -1.5801928325344761E+01 a       895     0    60     1    10
  7.5894799221280813E+00 a       896     0    60     1    11
  1.0146822893403762E+01 a       897     0    60     1    12
  8.5494340590544571E+00 a       898     0    60     1    13
 -2.9813767518529741E+00 a       899     0    60     1    14
  1.0862619807162096E+01 a       900     0    60     1    15
 -6.5807207855327539E+00 a       901     0    61     1     1
 -1.1622612474556048E+01 a       902     0    61     1     2
  1.2184240738073989E+01 a       903     0    61     1     3
 -5.7741228465434993E+01 a       904     0    61     1     4
  1.4377155396593539E+01 a       905     0    61     1     5
 -4.3086124679551745E+01 a       906     0    61     1     6
  8.3118943572346780E+00 a       907     0    61     1     7
  1.8390799731274736E+01 a       908     0    61     1     8
  1.1303411428756544E+01 a       909     0    61     1     9
 -2.8795594111391104E+01 a       910     0    61     1    10
 -6.8462632917505517E-01 a       911     0    61     1    11
  1.4389936591700600E+01 a       912     0    61     1    12
  4.9414974056263024E+00 a       913     0    61     1    13
  1.7148545823671885E+01 a       914     0    61     1    14
 -1.3387066774882449E+01 a       915     0    61     1    15
 -7.8958013170662715E+00 a       916     0    62     1     1
 -9.5175266535796847E+00 a       917     0    62     1     2
  1.4162241373828769E+01 a       918     0    62     1     3
 -1.1016236787527138E+01 a       919     0    62     1     4
  1.8693755655364569E+01 a       920     0    62     1     5
  9.4304189681091999E-01 a       921     0    62     1     6
  1.0893028339032554E+01 a       922     0    62     1     7
  7.9904515891898633E+00 a       923     0    62     1     8
 -7.0143447595319790E+00 a       924     0    62     1     9
 -1.2303229771545501E+01 a       925     0    62     1    10
 -1.4217627950149803E+00 a       926     0    62     1    11
 -1.5453385079422235E+00 a       927     0    62     1    12
 -8.1895098208874320E+00 a       928     0    62     1    13
  8.9980076909050695E+00 a       929     0    62     1    14
 -2.8480751911871010E+01 a       930     0    62     1    15
  2.0022421868636066E+01 a       931     0    63     1     1
 -4.3434429183072458E+00 a       932     0    63     1     2
 -7.6274009107984160E+00 a       933     0    63     1     3
 -6.4216598285087541E+00 a       934     0    63     1     4
  1.3944824252791744E+01 a       935     0    63     1     5
  7.5971233190566112E+00 a       936     0    63     1     6
  2.6042255951223243E+00 a       937     0    63     1     7
  6.4186254257701920E+00 a       938     0    63     1     8
 -5.3287883317025742E+00 a       939     0    63     1     9
 -2.1991857244804129E+00 a       940     0    63     1    10
  6.7424200545198794E+00 a       941     0    63     1    11
  5.7383438494793841E+00 a       942     0    63     1    12
  1.7812150591612557E+00 a       943     0    63     1    13
  8.0443015891210390E+00 a       944     0    63     1    14
  2.7576730551781239E+00 a       945     0    63     1    15
 -9.8560379128607991E+00 a       946     0    64     1     1
  4.0729796864071709E+01 a       947     0    64     1     2
 -2.3922625223637102E+01 a       948     0    64     1     3
  3.9924742728518621E+00 a       949     0    64     1     4
 -2.4898704718527114E+01 a       950     0    64     1     5
  6.9743563218324856E-01 a       951     0    64     1     6
  8.9003816580713746E+00 a       952     0    64     1     7
 -3.7356454468049161E+00 a       953     0    64     1     8
  2.8397868450048325E+01 a       954     0    64     1     9
  1.5270106874996410E+01 a       955     0    64     1    10
 -2.6366563174010729E+01 a       956     0    64     1    11
 -3.1010726283119818E+00 a       957     0    64     1    12
  9.4388290520260423E+00 a       958     0    64     1    13
 -1.9388228155361297E+01 a       959     0    64     1    14
  2.5985943300621370E+00 a       960     0    64     1    15
 -2.0143416825387227E+01 a       961     0    65     1     1
  2.5520181149066659E+01 a       962     0    65     1     2
 -1.9789468656086996E+01 a       963     0    65     1     3
  6.0729130221454826E+00 a       964     0    65     1     4
 -1.9010786815496985E+01 a       965     0    65     1     5
  9.9157764043343266E-01 a       966     0    65     1     6
  8.5171567892597793E+00 a       967     0    65     1     7
 -1.6929508193860869E+00 a       968     0    65     1     8
  2.6227024579551586E+01 a       969     0    65     1     9
  2.5605139133767260E+01 a       970     0    65     1    10
 -2.2999938737605067E+01 a       971     0    65     1    11
  4.7381273458835604E+00 a       972     0    65     1    12
  7.9388051238804582E+00 a       973     0    65     1    13
 -2.5629402113183357E+01 a       974     0    65     1    14
 -6.4386065395492817E+00 a       975     0    65     1    15
 -1.7909700130620132E+00 a       976     0    66     1     1
  3.9132095345885908E+01 a       977     0    66     1     2
 -2.7678911271685070E+01 a       978     0    66     1     3
 -6.6016816829922338E-03 a       979     0    66     1     4
 -7.3447297283978692E+00 a       980     0    66     1     5
 -9.5807118677785152E-01 a       981     0    66     1     6
  1.6279359637164017E+01 a       982     0    66     1     7
  1.1500090395814817E-01 a       983     0    66     1     8
  2.1081655264032609E+01 a       984     0    66     1     9
  2.1323393539935886E+01 a       985     0    66     1    10
 -2.5014087587618285E+01 a       986     0    66     1    11
  7.2536654618345988E+00 a       987     0    66     1    12
 -2.8274980167006452E+00 a       988     0    66     1    13
 -8.1194417361534317E+00 a       989     0    66     1    14
  3.3927200784480349E-01 a       990     0    66     1    15
  1.1520182958088245E+01 a       991     0    67     1     1
  1.5796065567179635E+01 a       992     0    67     1     2
 -9.5796358984337608E+00 a       993     0    67     1     3
  8.8140033209915067E+00 a       994     0    67     1     4
 -7.8940084206561876E+00 a       995     0    67     1     5
  1.2283224827271395E+01 a       996     0    67     1     6
  6.3958523352368486E+00 a       997     0    67     1     7
 -7.0580116388639400E+00 a       998     0    67     1     8
  8.7953592467169823E+00 a       999     0    67     1     9
 -1.7783158608608652E+01 a      1000     0    67     1    10
 -4.8493271617726919E+00 a      1001     0    67     1    11
 -1.8138029116452962E+01 a      1002     0    67     1    12
  1.1148587987244495E+01 a      1003     0    67     1    13
  1.8187387154600860E+00 a      1004     0    67     1    14
 -3.0390753829916388E+00 a      1005     0    67     1    15
 -3.6029576920058068E+00 a      1006     0    68     1     1
  3.5303503772401541E+01 a      1007     0    68     1     2
 -1.6054055285528708E+01 a      1008     0    68     1     3
 -6.3924282514211439E-01 a      1009     0    68     1     4
  2.8579368237234766E+00 a      1010     0    68     1     5
  2.1350566049188733E+00 a      1011     0    68     1     6
 -1.6812840106763636E+00 a      1012     0    68     1     7
  4.2230110436395923E-01 a      1013     0    68     1     8
  1.2875681308219235E+01 a      1014     0    68     1     9
  7.4793674652237039E+00 a      1015     0    68     1    10
 -1.4383454496411700E+01 a      1016     0    68     1    11
  8.3226547483793336E+00 a      1017     0    68     1    12
  1.5170993066514141E+01 a      1018     0    68     1    13
 -1.5379702096003843E+01 a      1019     0    68     1    14
  4.2558878603696682E-01 a      1020     0    68     1    15
 -9.4009596206269350E+00 a      1021     0    69     1     1
  1.8433574793560865E+01 a      1022     0    69     1     2
 -1.0729556260838093E+01 a      1023     0    69     1     3
 -3.1434786183168228E-01 a      1024     0    69     1     4
 -3.4633505471354984E+00 a      1025     0    69     1     5
  1.9147146270199003E+00 a      1026     0    69     1     6
  4.9327451335289929E+00 a      1027     0    69     1     7
 -3.9183320018014101E-01 a      1028     0    69     1     8
  1.4242385758316601E+01 a      1029     0    69     1     9
  2.3268821921917699E+01 a      1030     0    69     1    10
 -1.6489853719254143E+01 a      1031     0    69     1    11
 -3.0774602854160684E+00 a      1032     0    69     1    12
  6.7575719386630917E+00 a      1033     0    69     1    13
 -6.3541347959153480E+00 a      1034     0    69     1    14
  8.5233847519670185E+00 a      1035     0    69     1    15
  1.8634722261712202E+01 a      1036     0    70     1     1
 -7.0674649588670251E+00 a      1037     0    70     1     2
 -2.3438584806067173E+01 a      1038     0    70     1     3
 -1.0534464837834822E+01 a      1039     0    70     1     4
  1.8391909607681601E+01 a      1040     0    70     1     5
  8.1336341157414580E+00 a      1041     0    70     1     6
 -2.3613134168498092E+01 a      1042     0    70     1     7
  4.6895987003634625E+00 a      1043     0    70     1     8
  3.9050638360585701E+01 a      1044     0    70     1     9
  3.6271228974460413E+01 a      1045     0    70     1    10
 -1.8312288725293453E+01 a      1046     0    70     1    11
  1.0905389349867123E+01 a      1047     0    70     1    12
  2.1042723561548820E+00 a      1048     0    70     1    13
 -3.1541815304001318E+01 a      1049     0    70     1    14
 -5.0942007748143059E+00 a      1050     0    70     1    15
 -1.5609815507742406E+01 a      1051     0    71     1     1
 -4.1178639957925025E+00 a      1052     0    71     1     2
 -2.6029635227632193E+00 a      1053     0    71     1     3
 -1.2016644040463305E+01 a      1054     0    71     1     4
  2.2249171680168669E+01 a      1055     0    71     1     5
  2.4446193184002361E+01 a      1056     0    71     1     6
  5.2153972702211755E+00 a      1057     0    71     1     7
  2.8108092403198879E+00 a      1058     0    71     1     8
 -3.3357008915732784E+00 a      1059     0    71     1     9
  2.4362009878300832E+01 a      1060     0    71     1    10
  4.5492936763902732E+00 a      1061     0    71     1    11
 -1.9564303076935701E+00 a      1062     0    71     1    12
  2.2586365331013972E+01 a      1063     0    71     1    13
 -1.3493230547737833E+00 a      1064     0    71     1    14
  7.9509810656556539E+00 a      1065     0    71     1    15
 -1.3779332046309198E+01 a      1066     0    72     1     1
  4.2779867186997150E-01 a      1067     0    72     1     2
 -8.8388063229472262E+00 a      1068     0    72     1     3
 -1.7526639635233796E+01 a      1069     0    72     1     4
  1.4402889832539602E+01 a      1070     0    72     1     5
  1.2981213807659641E+01 a      1071     0    72     1     6
 -4.4730608194833161E+00 a      1072     0    72     1     7
 -4.3512864241913665E+00 a      1073     0    72     1     8
  4.1208980325576885E+00 a      1074     0    72     1     9
  3.4859649809503516E+01 a      1075     0    72     1    10
 -5.9106315005716759E-01 a      1076     0    72     1    11
  8.9380815561831728E+00 a      1077     0    72     1    12
  8.9952217043805636E+00 a      1078     0    72     1    13
 -2.0967705272324739E+01 a      1079     0    72     1    14
 -3.1555342901574415E+00 a      1080     0    72     1    15
 -1.1254441980539001E+01 a      1081     0    73     1     1
 -3.1798969132240678E+00 a      1082     0    73     1     2
 -5.1028947227656269E+00 a      1083     0    73     1     3
 -2.3704544805250261E+01 a      1084     0    73     1     4
 -8.4231005490393862E+00 a      1085     0    73     1     5
 -7.4523596434388635E+00 a      1086     0    73     1     6
 -9.7733620177889922E+00 a      1087     0    73     1     7
  4.1563434565935884E+00 a      1088     0    73     1     8
  9.8672356487870561E-01 a      1089     0    73     1     9
  3.7720151120167642E+01 a      1090     0    73     1    10
 -2.9041913515406126E+01 a      1091     0    73     1    11
  2.1000693607488600E+01 a      1092     0    73     1    12
 -2.0593850976390854E+01 a      1093     0    73     1    13
 -1.0376640887619525E+01 a      1094     0    73     1    14
  2.2475483376681236E+01 a      1095     0    73     1    15
 -2.5053480145676524E+01 a      1096     0    74     1     1
 -3.9365557681351895E+00 a      1097     0    74     1     2
  3.0647991192941610E+00 a      1098     0    74     1     3
  5.9219641879250515E+00 a      1099     0    74     1     4
 -4.6595133251990832E+00 a      1100     0    74     1     5
 -4.1725983459014362E+00 a      1101     0    74     1     6
 -2.3226347183928615E+00 a      1102     0    74     1     7
  9.3554920864935855E+00 a      1103     0    74     1     8
  1.3037754379756903E+01 a      1104     0    74     1     9
  4.1408212959535277E+01 a      1105     0    74     1    10
 -9.8747452460729050E+00 a      1106     0    74     1    11
 -1.6987682797224522E+01 a      1107     0    74     1    12
 -9.7168227947803221E+00 a      1108     0    74     1    13
  2.0911717163976813E+00 a      1109     0    74     1    14
 -2.0601226026891548E+00 a      1110     0    74     1    15
 -8.9003151177962376E+00 a      1111     0    75     1     1
 -1.2821345930154266E+01 a      1112     0    75     1     2
 -7.7546594445185502E+00 a      1113     0    75     1     3
 -5.7227126769677295E-01 a      1114     0    75     1     4
 -4.2809175415636869E+00 a      1115     0    75     1     5
  4.0195088472176171E-01 a      1116     0    75     1     6
  1.2813881125651894E+00 a      1117     0    75     1     7
 -4.0073580706632193E+00 a      1118     0    75     1     8
 -1.6595671689432756E+00 a      1119     0    75     1     9
  1.5913703550592404E+01 a      1120     0    75     1    10
 -6.4775240154563942E+00 a      1121     0    75     1    11
 -1.3390393778897710E+01 a      1122     0    75     1    12
 -6.0831197661378962E+00 a      1123     0    75     1    13
  1.0611497171227138E+00 a      1124     0    75     1    14
 -8.2345869044615956E+00 a      1125     0    75     1    15
  1.7323582007057421E+00 a      1126     0    76     1     1
 -3.9194276672966780E+01 a      1127     0    76     1     2
  2.1936046207520214E+01 a      1128     0    76     1     3
 -9.1634051590042798E-01 a      1129     0    76     1     4
  1.6950226851806904E+00 a      1130     0    76     1     5
  5.8496875383242275E-01 a      1131     0    76     1     6
 -1.1246878449050614E+01 a      1132     0    76     1     7
  7.0934149952164827E-01 a      1133     0    76     1     8
 -1.4450276404508477E+01 a      1134     0    76     1     9
 -2.4080157589274833E+01 a      1135     0    76     1    10
  2.7296727455340605E+01 a      1136     0    76     1    11
 -5.0319188265123460E-01 a      1137     0    76     1    12
 -7.7953477972898577E+00 a      1138     0    76     1    13
  2.3184222834322796E+01 a      1139     0    76     1    14
  1.8550570866678637E-01 a      1140     0    76     1    15
 -1.1001303210729916E+00 a      1141     0    77     1     1
  2.0418490247740298E+01 a      1142     0    77     1     2
 -4.0587926256006828E+00 a      1143     0    77     1     3
  2.4694305045797274E-01 a      1144     0    77     1     4
 -1.3278649514556371E+01 a      1145     0    77     1     5
 -3.2227929416931098E+00 a      1146     0    77     1     6
  5.8251267273355456E+00 a      1147     0    77     1     7
 -4.0261626123375921E-01 a      1148     0    77     1     8
  1.9611365667242415E+00 a      1149     0    77     1     9
 -5.6270909880137943E+00 a      1150     0    77     1    10
 -9.5792295113262256E+00 a      1151     0    77     1    11
  2.2321108679192854E+00 a      1152     0    77     1    12
 -4.6894691762321283E+00 a      1153     0    77     1    13
 -8.0366089645050049E+00 a      1154     0    77     1    14
 -4.8554805962357293E+00 a      1155     0    77     1    15
 -1.2087835768338108E+01 a      1156     0    78     1     1
  2.3387344248294944E+01 a      1157     0    78     1     2
 -4.3303611168145855E+00 a      1158     0    78     1     3
 -7.5605347685105240E-01 a      1159     0    78     1     4
 -1.3565184586492293E+01 a      1160     0    78     1     5
 -6.5732252647762026E+00 a      1161     0    78     1     6
  5.8797580682882558E+00 a      1162     0    78     1     7
  1.1980340095513708E+00 a      1163     0    78     1     8
  1.6218066283892372E+00 a      1164     0    78     1     9
  5.9504239182706229E+00 a      1165     0    78     1    10
 -1.2384140792562169E+01 a      1166     0    78     1    11
  3.7504063634811153E+00 a      1167     0    78     1    12
 -2.0927457121836834E+00 a      1168     0    78     1    13
 -7.6178335792584999E+00 a      1169     0    78     1    14
 -6.1353816455721875E+00 a      1170     0    78     1    15
  6.2321029180975414E+00 a      1171     0    79     1     1
  8.9309574417924722E+00 a      1172     0    79     1     2
 -9.1924211294647549E+00 a      1173     0    79     1     3
  2.6121181868014354E+00 a      1174     0    79     1     4
 -1.0674197958621816E+01 a      1175     0    79     1     5
 -1.8874071517239848E+00 a      1176     0    79     1     6
  1.2065676635483380E+00 a      1177     0    79     1     7
  3.9932714356413442E-02 a      1178     0    79     1     8
  4.1229408056474002E+00 a      1179     0    79     1     9
 -7.7185711218481829E+00 a      1180     0    79     1    10
 -7.4729091436638517E-01 a      1181     0    79     1    11
 -4.9596892070418193E+00 a      1182     0    79     1    12
 -1.7559637408392617E+00 a      1183     0    79     1    13
 -2.6354863021390726E+00 a      1184     0    79     1    14
 -6.4862587572842783E+00 a      1185     0    79     1    15
  1.2456494294110254E+01 a      1186     0    80     1     1
  5.1790987047431463E+00 a      1187     0    80     1     2
 -3.1220688833151851E+00 a      1188     0    80     1     3
 -8.5327506669476516E-01 a      1189     0    80     1     4
  1.7585510905264976E+00 a      1190     0    80     1     5
 -2.5109600427528195E-01 a      1191     0    80     1     6
  9.4099192057029490E-02 a      1192     0    80     1     7
 -3.1458708869235746E-01 a      1193     0    80     1     8
 -2.8917704911570095E+00 a      1194     0    80     1     9
 -7.0163284108553432E+00 a      1195     0    80     1    10
  3.8141698326116384E+00 a      1196     0    80     1    11
  1.9864722873453116E+00 a      1197     0    80     1    12
 -3.7297494953441968E+00 a      1198     0    80     1    13
 -6.5837923480301921E+00 a      1199     0    80     1    14
 -6.6334832994795221E+00 a      1200     0    80     1    15
  1.9968792191607572E+00 a      1201     0    81     1     1
 -3.6719353429737644E+00 a      1202     0    81     1     2
  1.1986949773897264E+00 a      1203     0    81     1     3
 -1.4279613234326831E+00 a      1204     0    81     1     4
  2.5957140260835456E+00 a      1205     0    81     1     5
  1.2917684132193814E+00 a      1206     0    81     1     6
 -5.2367916491573996E-01 a      1207     0    81     1     7
  1.3940532259431879E+00 a      1208     0    81     1     8
  8.4712896232804802E-01 a      1209     0    81     1     9
 -5.2530176661638818E-02 a      1210     0    81     1    10
  3.8418592288981279E+00 a      1211     0    81     1    11
 -5.6909881110847871E-01 a      1212     0    81     1    12
  2.1961426718897392E-01 a      1213     0    81     1    13
 -2.6318461740813912E-02 a      1214     0    81     1    14
  6.9077876266884697E-01 a      1215     0    81     1    15
  1.2081873145173825E+00 a      1216     0    82     1     1
  3.9487477503486126E+00 a      1217     0    82     1     2
 -4.7934108327106477E+00 a      1218     0    82     1     3
  2.2356180147217644E+00 a      1219     0    82     1     4
 -7.8159571314254004E+00 a      1220     0    82     1     5
  7.8452282498038652E+00 a      1221     0    82     1     6
 -6.8361820254819969E+00 a      1222     0    82     1     7
  9.3058014428781843E-01 a      1223     0    82     1     8
  2.4417305819618267E+01 a      1224     0    82     1     9
  1.5425395109698389E+01 a      1225     0    82     1    10
  2.0513190866611226E+00 a      1226     0    82     1    11
 -7.1989132953895707E+00 a      1227     0    82     1    12
 -6.6714695180102810E+00 a      1228     0    82     1    13
  9.1334960605142168E+00 a      1229     0    82     1    14
  1.3423599754868535E+01 a      1230     0    82     1    15
  4.4689522888265856E+00 a      1231     0    83     1     1
  3.2413552352220826E+01 a      1232     0    83     1     2
 -8.7315505325903029E+00 a      1233     0    83     1     3
 -2.2057845339466664E+00 a      1234     0    83     1     4
 -6.6376247576542307E+00 a      1235     0    83     1     5
 -1.6381389568484159E+00 a      1236     0    83     1     6
  1.4332822750301762E+01 a      1237     0    83     1     7
  2.7800826212641696E+00 a      1238     0    83     1     8
  8.4349246365219592E+00 a      1239     0    83     1     9
 -1.0783321834750589E+01 a      1240     0    83     1    10
 -9.0509620513376952E+00 a      1241     0    83     1    11
  1.0984529033158070E+01 a      1242     0    83     1    12
 -7.2929146556486213E+00 a      1243     0    83     1    13
 -2.1836760920959300E+01 a      1244     0    83     1    14
 -1.1945790281125822E+01 a      1245     0    83     1    15
 -7.0470392414547991E+00 a      1246     0    84     1     1
  1.6792939043219288E+01 a      1247     0    84     1     2
 -5.4352075398576352E+00 a      1248     0    84     1     3
 -3.9403758474033423E-01 a      1249     0    84     1     4
 -1.4949171138828889E+01 a      1250     0    84     1     5
 -8.1565432638106774E+00 a      1251     0    84     1     6
  3.0514412139348295E+00 a      1252     0    84     1     7
  6.9189312632313782E-01 a      1253     0    84     1     8
 -4.9499437277185452E+00 a      1254     0    84     1     9
 -2.0446134113187167E-01 a      1255     0    84     1    10
 -2.9210411749184062E+00 a      1256     0    84     1    11
  6.2861463802539470E+00 a      1257     0    84     1    12
  8.1673065156723484E-02 a      1258     0    84     1    13
 -9.4441589127491206E+00 a      1259     0    84     1    14
 -1.2020247391448573E+01 a      1260     0    84     1    15
  3.8174127002924343E+00 a      1261     0    85     1     1
  4.2265235023965708E+01 a      1262     0    85     1     2
 -2.6327320867397688E+01 a      1263     0    85     1     3
  4.5550581784908530E+00 a      1264     0    85     1     4
 -4.2294895890053610E+01 a      1265     0    85     1     5
 -1.0601987474659518E+01 a      1266     0    85     1     6
  1.2553535089304011E+01 a      1267     0    85     1     7
 -8.2302786858747528E+00 a      1268     0    85     1     8
  1.7036574119144600E+01 a      1269     0    85     1     9
 -1.8814230563363395E+01 a      1270     0    85     1    10
 -1.7110546231834721E+01 a      1271     0    85     1    11
 -1.6053688681094528E+01 a      1272     0    85     1    12
  6.1937124981762537E+00 a      1273     0    85     1    13
 -4.1789307515605447E+00 a      1274     0    85     1    14
 -2.0052996285847904E+01 a      1275     0    85     1    15
  2.2208299150717906E+01 a      1276     0    86     1     1
  4.0656617995652894E+01 a      1277     0    86     1     2
 -1.8645786407419497E+01 a      1278     0    86     1     3
  2.6536020983342703E+00 a      1279     0    86     1     4
 -1.6641205045544918E+01 a      1280     0    86     1     5
  3.9882015614277699E-01 a      1281     0    86     1     6
  1.1965176625163624E+01 a      1282     0    86     1     7
 -2.1103352843636074E+00 a      1283     0    86     1     8
  9.3488985530175892E+00 a      1284     0    86     1     9
  2.6194545034011250E+00 a      1285     0    86     1    10
 -1.3797513207849089E+01 a      1286     0    86     1    11
 -3.7384909529233412E+00 a      1287     0    86     1    12
 -3.4237359458277203E+00 a      1288     0    86     1    13
 -1.8077234036098176E+01 a      1289     0    86     1    14
 -2.5628796953282460E+01 a      1290     0    86     1    15
  2.0260210995799803E+00 a      1291     0    87     1     1
  1.2932907389081196E+01 a      1292     0    87     1     2
 -5.6004912674369827E+00 a      1293     0    87     1     3
 -8.9845480656299124E+00 a      1294     0    87     1     4
  3.7884060234165831E+00 a      1295     0    87     1     5
  1.3086041018091474E+00 a      1296     0    87     1     6
  7.1854765969396279E+00 a      1297     0    87     1     7
  5.2010278006286628E+00 a      1298     0    87     1     8
  1.7346902089918441E+00 a      1299     0    87     1     9
  2.3014201641349246E+01 a      1300     0    87     1    10
 -9.1448877886024817E+00 a      1301     0    87     1    11
  7.1245527756660565E-01 a      1302     0    87     1    12
  6.4242287803811804E+00 a      1303     0    87     1    13
  2.0483890808269618E+00 a      1304     0    87     1    14
  1.4212486240962349E-02 a      1305     0    87     1    15
 -9.3002174415777272E-01 a      1306     0    88     1     1
  3.1840349639941752E+00 a      1307     0    88     1     2
 -1.2975607247682024E+00 a      1308     0    88     1     3
  1.5452206230603649E-01 a      1309     0    88     1     4
 -1.4420719498415133E+00 a      1310     0    88     1     5
  2.7222987577528161E-02 a      1311     0    88     1     6
  3.7306805426296347E-01 a      1312     0    88     1     7
 -1.1519422002570502E-02 a      1313     0    88     1     8
  1.2801402680808123E+00 a      1314     0    88     1     9
  1.5723177183525310E+00 a      1315     0    88     1    10
 -2.1142494893316583E+00 a      1316     0    88     1    11
  1.1074390699314729E-01 a      1317     0    88     1    12
  6.6274144774487742E-01 a      1318     0    88     1    13
 -1.0243387010136682E+00 a      1319     0    88     1    14
  2.8193737337298304E-02 a      1320     0    88     1    15
 -3.2195126131702629E+00 a      1321     0    89     1     1
  1.1695323149799840E+01 a      1322     0    89     1     2
 -4.8635756607080340E+00 a      1323     0    89     1     3
 -1.3704403993420791E-01 a      1324     0    89     1     4
 -3.5148201871967935E+00 a      1325     0    89     1     5
  1.4651370950254475E-01 a      1326     0    89     1     6
  2.9705672876089770E+00 a      1327     0    89     1     7
  5.7862748057183382E-02 a      1328     0    89     1     8
  3.7540265503444368E+00 a      1329     0    89     1     9
  7.5662290957044442E+00 a      1330     0    89     1    10
 -8.2314614675680318E+00 a      1331     0    89     1    11
  2.3893639693899080E-01 a      1332     0    89     1    12
  3.0484230287594420E+00 a      1333     0    89     1    13
 -3.2149176704452627E+00 a      1334     0    89     1    14
  7.3784084215017487E-01 a      1335     0    89     1    15
 -5.1434831037388351E+00 a      1336     0    90     1     1
  1.9211300626324956E+01 a      1337     0    90     1     2
 -8.2290226247589757E+00 a      1338     0    90     1     3
 -3.3282027230676869E-01 a      1339     0    90     1     4
 -5.9078170222979569E+00 a      1340     0    90     1     5
 -3.8819671154965057E-01 a      1341     0    90     1     6
  5.0473998851218225E+00 a      1342     0    90     1     7
  2.4938878529907171E-01 a      1343     0    90     1     8
  6.4119985620898952E+00 a      1344     0    90     1     9
  1.2894822213314026E+01 a      1345     0    90     1    10
 -1.3174554279926125E+01 a      1346     0    90     1    11
  5.7247412660307806E-01 a      1347     0    90     1    12
  4.4101224742220397E+00 a      1348     0    90     1    13
 -5.8407065647365313E+00 a      1349     0    90     1    14
  6.4000773903590658E-01 a      1350     0    90     1    15
  1.6590060924592223E+00 a      1351     0    91     1     1
 -9.8639436029075855E-01 a      1352     0    91     1     2
  7.6070923974953797E-02 a      1353     0    91     1     3
  4.1059605761775125E-01 a      1354     0    91     1     4
  5.2205542851078490E-01 a      1355     0    91     1     5
  7.5187690414303254E-01 a      1356     0    91     1     6
 -2.2712277103891104E-01 a      1357     0    91     1     7
 -1.0357295430508474E-01 a      1358     0    91     1     8
  7.1528113902373971E-02 a      1359     0    91     1     9
 -1.0858273993205287E+00 a      1360     0    91     1    10
  1.2796109837623162E+00 a      1361     0    91     1    11
 -1.0154267217784085E+00 a      1362     0    91     1    12
 -4.1925679922487791E-01 a      1363     0    91     1    13
 -7.3488297285106710E-02 a      1364     0    91     1    14
  5.9726135296158112E-02 a      1365     0    91     1    15
 -8.2421129927447834E-01 a      1366     0    92     1     1
  5.1444357131064793E+00 a      1367     0    92     1     2
 -2.2971885372216314E+00 a      1368     0    92     1     3
  1.8751691808647369E-01 a      1369     0    92     1     4
 -1.2790662826208359E+00 a      1370     0    92     1     5
 -2.8251164873737533E-01 a      1371     0    92     1     6
  1.2632317470775098E+00 a      1372     0    92     1     7
 -4.3929630765015715E-02 a      1373     0    92     1     8
  1.5331756257001479E+00 a      1374     0    92     1     9
  2.1290859319798123E+00 a      1375     0    92     1    10
 -3.1037784684121874E+00 a      1376     0    92     1    11
  2.5717823173556575E-01 a      1377     0    92     1    12
  1.2559017314019951E+00 a      1378     0    92     1    13
 -1.5349858375471295E+00 a      1379     0    92     1    14
  1.7783335156610747E-01 a      1380     0    92     1    15
 -1.2367179477799066E+00 a      1381     0    93     1     1
  4.3794949936552072E+00 a      1382     0    93     1     2
 -1.8953684571363023E+00 a      1383     0    93     1     3
 -1.6832979346007085E-01 a      1384     0    93     1     4
 -1.2923286250465080E+00 a      1385     0    93     1     5
 -7.4270111325645649E-02 a      1386     0    93     1     6
  1.1629751493952758E+00 a      1387     0    93     1     7
 -2.2729945451788879E-02 a      1388     0    93     1     8
  1.4937364269013349E+00 a      1389     0    93     1     9
  2.9263459541477834E+00 a      1390     0    93     1    10
 -3.1604870769795266E+00 a      1391     0    93     1    11
  1.3180943822770513E-01 a      1392     0    93     1    12
  1.2065653748117997E+00 a      1393     0    93     1    13
 -1.3029250903038230E+00 a      1394     0    93     1    14
  2.9788786887798996E-01 a      1395     0    93     1    15
 -1.1864065701855468E+00 a      1396     0    94     1     1
  1.6346028199736612E+01 a      1397     0    94     1     2
 -1.5954860938365234E+01 a      1398     0    94     1     3
 -1.7073727028211516E+00 a      1399     0    94     1     4
  6.6112600062891662E+00 a      1400     0    94     1     5
  8.5161356015577088E+00 a      1401     0    94     1     6
 -4.4872185387877034E-01 a      1402     0    94     1     7
  2.8188556913076130E+00 a      1403     0    94     1     8
  2.5915409358918097E+01 a      1404     0    94     1     9
  4.2922373186008201E+01 a      1405     0    94     1    10
 -1.1892794250602210E+01 a      1406     0    94     1    11
 -6.6377573093188227E+00 a      1407     0    94     1    12
  6.3089662662225861E+00 a      1408     0    94     1    13
 -8.7284346276514881E+00 a      1409     0    94     1    14
  9.7684307665507983E+00 a      1410     0    94     1    15
  4.0021014986610899E+00 a      1411     0    95     1     1
 -3.2647532684370390E+01 a      1412     0    95     1     2
  1.1545130154927270E+01 a      1413     0    95     1     3
 -2.8347299185176977E+00 a      1414     0    95     1     4
  2.1670365570726982E+01 a      1415     0    95     1     5
  7.4719940230578352E+00 a      1416     0    95     1     6
 -6.6952651409421389E+00 a      1417     0    95     1     7
  3.2833878442682765E+00 a      1418     0    95     1     8
 -4.9678549818538364E+00 a      1419     0    95     1     9
 -8.7795133809974519E+00 a      1420     0    95     1    10
  2.1437809088422807E+01 a      1421     0    95     1    11
  1.4769499657755916E+00 a      1422     0    95     1    12
 -1.4063823928749111E+00 a      1423     0    95     1    13
  8.5205928922457801E+00 a      1424     0    95     1    14
  1.7502072710893783E+00 a      1425     0    95     1    15
  7.8543750405717132E+00 a      1426     0    96     1     1
 -5.9650286672180201E+01 a      1427     0    96     1     2
  2.3824469538832485E+01 a      1428     0    96     1     3
 -3.4350220254285362E+00 a      1429     0    96     1     4
  2.5803099664387268E+01 a      1430     0    96     1     5
  4.3717246510031718E+00 a      1431     0    96     1     6
 -1.8131803743091499E+01 a      1432     0    96     1     7
  1.2430532711697140E+00 a      1433     0    96     1     8
 -1.7067113594544203E+01 a      1434     0    96     1     9
 -1.5242404342836576E+01 a      1435     0    96     1    10
  3.9661133514415525E+01 a      1436     0    96     1    11
  4.3894384157120558E-01 a      1437     0    96     1    12
 -6.6761138717692674E+00 a      1438     0    96     1    13
  1.5814796373271793E+01 a      1439     0    96     1    14
  2.6373873475242231E+00 a      1440     0    96     1    15
  8.1879412910005698E+00 a      1441     0    97     1     1
 -3.4302452522872926E+01 a      1442     0    97     1     2
  1.2992724369236173E+01 a      1443     0    97     1     3
 -8.5376693404425712E+00 a      1444     0    97     1     4
  8.5093690184141195E+00 a      1445     0    97     1     5
  3.2485763063040589E+00 a      1446     0    97     1     6
 -1.2342057092727382E+01 a      1447     0    97     1     7
  1.9326080879991323E+00 a      1448     0    97     1     8
 -8.1929704164805752E+00 a      1449     0    97     1     9
 -1.7405227067355739E+01 a      1450     0    97     1    10
  2.6690961992381911E+01 a      1451     0    97     1    11
 -3.2936322754789105E+00 a      1452     0    97     1    12
 -7.1778150683493216E+00 a      1453     0    97     1    13
  1.4834191867272672E+01 a      1454     0    97     1    14
  1.0378856704669432E+00 a      1455     0    97     1    15
  1.0531581919438112E+01 a      1456     0    98     1     1
 -4.4630862558430387E+01 a      1457     0    98     1     2
  1.9637894513421390E+01 a      1458     0    98     1     3
  1.5572922977679176E+00 a      1459     0    98     1     4
  7.8634866483286912E+00 a      1460     0    98     1     5
  1.0828695233723868E+00 a      1461     0    98     1     6
 -8.0081474817649312E+00 a      1462     0    98     1     7
 -2.9865534998155935E-01 a      1463     0    98     1     8
 -1.1284665475471169E+01 a      1464     0    98     1     9
 -2.2323388802693316E+01 a      1465     0    98     1    10
  2.7490738131186159E+01 a      1466     0    98     1    11
 -6.3526689801106988E+00 a      1467     0    98     1    12
 -1.3995391099897383E+01 a      1468     0    98     1    13
  1.5981157388843688E+01 a      1469     0    98     1    14
 -7.1620837868597196E+00 a      1470     0    98     1    15
  5.3150234111244581E+00 a      1471     0    99     1     1
 -2.0861225775779143E+01 a      1472     0    99     1     2
  8.9955571489410264E+00 a      1473     0    99     1     3
 -2.1729255359224471E+00 a      1474     0    99     1     4
  4.5332136676598145E+00 a      1475     0    99     1     5
  1.7034382588782149E-01 a      1476     0    99     1     6
 -3.0889333084442732E+00 a      1477     0    99     1     7
  3.2318094993389618E-01 a      1478     0    99     1     8
 -8.1769012180414311E+00 a      1479     0    99     1     9
 -8.3536184418803856E+00 a      1480     0    99     1    10
  1.0208420282877574E+01 a      1481     0    99     1    11
 -1.1874602783827719E+00 a      1482     0    99     1    12
 -4.9798394200853622E+00 a      1483     0    99     1    13
  1.2174926512193764E+01 a      1484     0    99     1    14
 -2.4413422550184203E+00 a      1485     0    99     1    15
 -7.3114300250335820E+00 a      1486     0   100     1     1
 -2.7200485829422765E+00 a      1487     0   100     1     2
  8.3372069834306428E-01 a      1488     0   100     1     3
 -1.6840274648041611E+01 a      1489     0   100     1     4
 -8.4125400990713803E+00 a      1490     0   100     1     5
  7.3281524961364202E+00 a      1491     0   100     1     6
  4.9171267498282498E+00 a      1492     0   100     1     7
 -1.5958024314429693E+01 a      1493     0   100     1     8
  1.1768352718687785E+00 a      1494     0   100     1     9
 -5.3477872253109213E+00 a      1495     0   100     1    10
 -4.8969425268287923E+00 a      1496     0   100     1    11
  1.7240410011972997E+01 a      1497     0   100     1    12
  4.5789747446444879E+00 a      1498     0   100     1    13
 -2.4503750091047007E+00 a      1499     0   100     1    14
  2.7071894336134892E+00 a      1500     0   100     1    15
 -2.4428026569602665E+00 a      1501     0   101     1     1
  2.7231703577969570E+00 a      1502     0   101     1     2
 -4.1727847703273788E+00 a      1503     0   101     1     3
  8.8946216448166400E+00 a      1504     0   101     1     4
 -3.8815950529168455E+00 a      1505     0   101     1     5
 -7.2089755080188400E+00 a      1506     0   101     1     6
 -6.3259103933127543E+00 a      1507     0   101     1     7
 -4.1758371606427414E+00 a      1508     0   101     1     8
  2.5793088883850888E+00 a      1509     0   101     1     9
 -2.1595184813124040E+00 a      1510     0   101     1    10
 -4.9231988066830406E+00 a      1511     0   101     1    11
  4.3510416781331038E+00 a      1512     0   101     1    12
 -7.6458584906862708E+00 a      1513     0   101     1    13
  1.8844213243809602E+00 a      1514     0   101     1    14
 -5.1739567150360868E+00 a      1515     0   101     1    15
 -9.1781279845795236E+00 a      1516     0   102     1     1
  3.7023518051656712E+00 a      1517     0   102     1     2
 -2.7465912750731611E+00 a      1518     0   102     1     3
 -1.2303637405942640E+00 a      1519     0   102     1     4
 -1.7712037252202484E+00 a      1520     0   102     1     5
 -2.3362726273529923E+00 a      1521     0   102     1     6
  2.1637190394158345E+00 a      1522     0   102     1     7
 -7.2154390097320631E+00 a      1523     0   102     1     8
  3.8230997083004787E+00 a      1524     0   102     1     9
 -6.8244215683140066E+00 a      1525     0   102     1    10
 -2.2501244056913583E+00 a      1526     0   102     1    11
  7.4864957703665080E+00 a      1527     0   102     1    12
 -5.4400508820938880E+00 a      1528     0   102     1    13
  3.4409858797628456E+00 a      1529     0   102     1    14
  5.8655396160468232E-01 a      1530     0   102     1    15
  1.7084947602793507E-01 a      1531     0   103     1     1
  9.0820853737962111E+00 a      1532     0   103     1     2
 -5.5685341549450618E+00 a      1533     0   103     1     3
  8.0162871520589665E+00 a      1534     0   103     1     4
 -3.9848703799855465E+00 a      1535     0   103     1     5
  2.7951948418803014E+00 a      1536     0   103     1     6
 -1.7628508759582322E+00 a      1537     0   103     1     7
 -1.2566316254439085E+01 a      1538     0   103     1     8
 -7.7429974071350554E+00 a      1539     0   103     1     9
 -2.9216781988315415E+00 a      1540     0   103     1    10
  1.1099853373206985E+00 a      1541     0   103     1    11
  2.2992529518453342E+00 a      1542     0   103     1    12
 -7.8187483990525850E+00 a      1543     0   103     1    13
  2.8610077583215032E+00 a      1544     0   103     1    14
 -2.7858945562633242E+00 a      1545     0   103     1    15
 -3.1305265669714508E+00 a      1546     0   104     1     1
  5.8319781988341006E+00 a      1547     0   104     1     2
 -1.0540074449467124E+01 a      1548     0   104     1     3
  4.0873947448541479E+00 a      1549     0   104     1     4
 -6.1623285213648415E+00 a      1550     0   104     1     5
  5.1018515625092880E+00 a      1551     0   104     1     6
 -5.8693778217479604E+00 a      1552     0   104     1     7
 -5.4877515978802247E+00 a      1553     0   104     1     8
  4.7299156426730971E+00 a      1554     0   104     1     9
 -5.2234313434127833E+00 a      1555     0   104     1    10
  4.2272904001459617E+00 a      1556     0   104     1    11
  5.1410961718680381E+00 a      1557     0   104     1    12
 -5.5346949911275294E+00 a      1558     0   104     1    13
  4.5318603463309506E+00 a      1559     0   104     1    14
  1.3715569276130595E+00 a      1560     0   104     1    15
 -5.5733979953690760E+00 a      1561     0   105     1     1
  3.6389379804288819E+00 a      1562     0   105     1     2
 -7.0998063227462804E+00 a      1563     0   105     1     3
 -3.6191995796490444E+00 a      1564     0   105     1     4
  6.9794009156605774E-01 a      1565     0   105     1     5
 -3.7978193183958925E-01 a      1566     0   105     1     6
 -1.0342770523353049E+00 a      1567     0   105     1     7
 -7.6188831694642900E+00 a      1568     0   105     1     8
  9.5401409163565738E+00 a      1569     0   105     1     9
 -1.0467188884906960E+01 a      1570     0   105     1    10
 -2.5848432478639021E+00 a      1571     0   105     1    11
  8.9064066946361944E+00 a      1572     0   105     1    12
 -5.1918651512607710E+00 a      1573     0   105     1    13
  5.4947593177902103E+00 a      1574     0   105     1    14
  3.0747438277775245E+00 a      1575     0   105     1    15
  1.4383176872291539E+01 a      1576     0   106     1     1
 -5.7104256630103309E+00 a      1577     0   106     1     2
 -9.0482472787951684E-01 a      1578     0   106     1     3
  4.8131733115651176E+00 a      1579     0   106     1     4
 -1.0133185052223648E-01 a      1580     0   106     1     5
  5.1270630932554866E+00 a      1581     0   106     1     6
 -3.6480318500974800E+00 a      1582     0   106     1     7
  1.1600273142706317E+00 a      1583     0   106     1     8
  8.9352220083558791E+00 a      1584     0   106     1     9
  7.3899660555199000E+00 a      1585     0   106     1    10
 -5.2078840474121550E+00 a      1586     0   106     1    11
  4.1022404658593734E+00 a      1587     0   106     1    12
 -4.5202209749482307E+00 a      1588     0   106     1    13
  8.1698161535308405E+00 a      1589     0   106     1    14
 -4.2451574518697441E+00 a      1590     0   106     1    15
  4.5401751821788929E+00 a      1591     0   107     1     1
 -5.7987029520952555E+00 a      1592     0   107     1     2
 -5.6869706807186633E+00 a      1593     0   107     1     3
 -1.1185504689518270E+01 a      1594     0   107     1     4
  4.2742426211132161E+00 a      1595     0   107     1     5
  7.7574463768994413E+00 a      1596     0   107     1     6
  5.4761780379624234E+00 a      1597     0   107     1     7
  1.1030091055217432E+00 a      1598     0   107     1     8
  2.1306244232333080E+00 a      1599     0   107     1     9
 -9.8925820123434510E-02 a      1600     0   107     1    10
 -2.1309124120753791E+00 a      1601     0   107     1    11
 -7.7614452683041222E+00 a      1602     0   107     1    12
  5.0624940667706912E+00 a      1603     0   107     1    13
  5.5560347459047437E+00 a      1604     0   107     1    14
  2.6382026664356220E+00 a      1605     0   107     1    15
  1.1005469842612822E+01 a      1606     0   108     1     1
 -3.6548489889170588E+00 a      1607     0   108     1     2
 -1.6655915665147802E+00 a      1608     0   108     1     3
  2.6605658026326084E+00 a      1609     0   108     1     4
 -1.6100426738656906E+00 a      1610     0   108     1     5
  3.4384387233071627E+00 a      1611     0   108     1     6
 -1.8479559913440049E-02 a      1612     0   108     1     7
 -1.7103049014719027E+00 a      1613     0   108     1     8
  1.8605900016756873E+00 a      1614     0   108     1     9
  2.7065547711241322E+00 a      1615     0   108     1    10
  2.8385015631926684E+00 a      1616     0   108     1    11
 -8.6849627482758995E-01 a      1617     0   108     1    12
  1.1963487892616735E+01 a      1618     0   108     1    13
  1.1096133542917173E+00 a      1619     0   108     1    14
 -1.2411882630126820E+00 a      1620     0   108     1    15
 -4.0803266798503018E-02 a      1621     0   109     1     1
 -4.4255447704842013E+00 a      1622     0   109     1     2
  4.3349669401510464E+00 a      1623     0   109     1     3
